{"learner":{"attributes":{"best_iteration":"60","best_score":"15.756430422205524"},"feature_names":[],"feature_types":[],"gradient_booster":{"model":{"cats":{"enc":[],"feature_segments":[],"sorted_idx":[]},"gbtree_model_param":{"num_parallel_tree":"1","num_trees":"81"},"iteration_indptr":[0,1,2,3,4,5,6,7,8,9,10,11,12,13,14,15,16,17,18,19,20,21,22,23,24,25,26,27,28,29,30,31,32,33,34,35,36,37,38,39,40,41,42,43,44,45,46,47,48,49,50,51,52,53,54,55,56,57,58,59,60,61,62,63,64,65,66,67,68,69,70,71,72,73,74,75,76,77,78,79,80,81],"tree_info":[0,0,0,0,0,0,0,0,0,0,0,0,0,0,0,0,0,0,0,0,0,0,0,0,0,0,0,0,0,0,0,0,0,0,0,0,0,0,0,0,0,0,0,0,0,0,0,0,0,0,0,0,0,0,0,0,0,0,0,0,0,0,0,0,0,0,0,0,0,0,0,0,0,0,0,0,0,0,0,0,0],"trees":[{"base_weights":[3.656714E-1,-5.1704033E1,4.3847023E1,-9.788403E1,-3.4106293E1,2.6693737E1,9.3473526E1,-1.2728836E2,-8.462752E1,-4.9325703E1,-1.8320278E1,6.4454064E0,4.7634365E1,6.420388E1,1.1776044E2,-1.5036216E1,-1.1588E1,-9.8143776E1,-7.060261E1,-6.352668E1,-3.467027E1,-3.7446175E1,-4.4706464E0,-1.32493515E1,1.6873451E1,3.1167406E1,6.860908E1,5.061946E1,9.380204E1,1.05294495E2,1.5728312E1,-1.069401E1,-8.794397E0,-7.658123E1,-5.3739002E1,-5.411109E1,-7.092188E1,-5.1030945E1,-2.705985E1,-2.3996159E1,-4.316541E1,7.390796E0,-1.2596829E1,-2.7750519E1,-2.8690515E0,3.1463194E1,6.8336926E0,2.2075726E1,4.1150013E1,5.9998928E1,8.5363304E1,7.1586037E0,3.6939E1,7.835167E1,1.1277172E1,1.10654526E2,7.692483E0,-8.659352E0,-6.8884897E0,-2.288596E0,-5.561936E0,-5.8643293E0,-4.4312973E0,-8.118903E0,-6.451375E0,-5.240115E0,-1.0844077E0,-3.190367E0,-1.6847562E0,-3.706129E0,-1.722379E0,-4.8973923E0,-3.4035866E0,1.4144625E-2,1.8712876E0,-2.2489612E0,-3.8083854E-1,-3.7049367E0,-2.266593E0,-1.1988997E0,6.1574996E-1,1.9267886E0,3.9218934E0,1.9050969E-2,1.9734926E0,2.5739E0,8.6390495E-1,2.8302884E0,5.1098228E0,6.5185738E0,4.165805E0,6.184736E0,9.368857E0,2.7076416E0,4.496431E0,4.672934E0,8.172386E0,9.551246E0,1.1848601E1],"categories":[],"categories_nodes":[],"categories_segments":[],"categories_sizes":[],"default_left":[0,0,0,0,0,0,0,0,0,0,0,0,0,0,0,0,0,0,0,0,0,0,0,0,0,0,0,0,0,0,0,0,0,0,0,0,0,0,0,0,0,0,0,0,0,0,0,0,0,0,0,0,0,0,0,0,0,0,0,0,0,0,0,0,0,0,0,0,0,0,0,0,0,0,0,0,0,0,0,0,0,0,0,0,0,0,0,0,0,0,0,0,0,0,0,0,0,0,0],"id":0,"left_children":[1,3,5,7,9,11,13,15,17,19,21,23,25,27,29,-1,-1,31,33,35,37,39,41,43,45,47,49,51,53,55,-1,-1,-1,57,59,61,63,65,67,69,71,73,75,77,79,81,83,85,87,89,91,-1,93,95,-1,97,-1,-1,-1,-1,-1,-1,-1,-1,-1,-1,-1,-1,-1,-1,-1,-1,-1,-1,-1,-1,-1,-1,-1,-1,-1,-1,-1,-1,-1,-1,-1,-1,-1,-1,-1,-1,-1,-1,-1,-1,-1,-1,-1],"loss_changes":[7.2042445E6,1.1733845E6,1.4735735E6,1.4473675E5,2.51356E5,5.4666406E5,3.0875775E5,1.4664E4,4.575275E4,1.089245E5,1.3677478E5,1.3515716E5,2.1682862E5,7.7260375E4,1.02643E5,0E0,0E0,3.046875E3,9.9865625E3,1.495E4,3.1606875E4,1.56499375E4,2.9106486E4,3.4237355E4,6.2766477E4,3.1486094E4,3.4967125E4,3.807503E4,9.6096875E3,1.9904875E4,0E0,0E0,0E0,1.8023125E3,1.0398281E3,2.8530938E3,4.485E3,3.9957656E3,8.51E3,5.2845234E3,6.33225E3,1.0091026E4,1.5474365E4,3.6459453E3,1.1105508E4,1.5790625E4,2.1934793E4,9.077203E3,2.0145062E4,1.506325E4,1.22015E4,0E0,5.7405547E3,2.204375E2,0E0,7.04225E3,0E0,0E0,0E0,0E0,0E0,0E0,0E0,0E0,0E0,0E0,0E0,0E0,0E0,0E0,0E0,0E0,0E0,0E0,0E0,0E0,0E0,0E0,0E0,0E0,0E0,0E0,0E0,0E0,0E0,0E0,0E0,0E0,0E0,0E0,0E0,0E0,0E0,0E0,0E0,0E0,0E0,0E0,0E0],"parents":[2147483647,0,0,1,1,2,2,3,3,4,4,5,5,6,6,7,7,8,8,9,9,10,10,11,11,12,12,13,13,14,14,17,17,18,18,19,19,20,20,21,21,22,22,23,23,24,24,25,25,26,26,27,27,28,28,29,29,33,33,34,34,35,35,36,36,37,37,38,38,39,39,40,40,41,41,42,42,43,43,44,44,45,45,46,46,47,47,48,48,49,49,50,50,52,52,53,53,55,55],"right_children":[2,4,6,8,10,12,14,16,18,20,22,24,26,28,30,-1,-1,32,34,36,38,40,42,44,46,48,50,52,54,56,-1,-1,-1,58,60,62,64,66,68,70,72,74,76,78,80,82,84,86,88,90,92,-1,94,96,-1,98,-1,-1,-1,-1,-1,-1,-1,-1,-1,-1,-1,-1,-1,-1,-1,-1,-1,-1,-1,-1,-1,-1,-1,-1,-1,-1,-1,-1,-1,-1,-1,-1,-1,-1,-1,-1,-1,-1,-1,-1,-1,-1,-1],"split_conditions":[2.456782E2,1.9225122E2,3.029911E2,1.5870967E2,8.2E1,8.2E1,8E1,1.3614908E2,8.2E1,2.2358803E2,2.162197E2,2.645105E2,2.7370944E2,3.327292E2,3.4389447E2,-1.5036216E1,-1.1588E1,1.7747633E2,1.9301555E2,5.2E1,7.2E1,3.7E1,4E1,7.5E1,5.2E1,8.8E1,9E1,5.2E1,3.584986E2,4.7E1,1.5728312E1,-1.069401E1,-8.794397E0,1.7475493E2,3.4E1,2.2251804E2,2.0609285E2,3.1459955E2,2.3892876E2,2.0022806E2,2.0680038E2,2.3657549E2,2.3157227E2,2.3873607E2,2.5638885E2,2.7682953E2,2.8829114E2,4.8E1,2.5773984E2,4.6E1,2.631253E2,7.1586037E0,7.2E1,7E1,1.1277172E1,3.1440823E2,7.692483E0,-8.659352E0,-6.8884897E0,-2.288596E0,-5.561936E0,-5.8643293E0,-4.4312973E0,-8.118903E0,-6.451375E0,-5.240115E0,-1.0844077E0,-3.190367E0,-1.6847562E0,-3.706129E0,-1.722379E0,-4.8973923E0,-3.4035866E0,1.4144625E-2,1.8712876E0,-2.2489612E0,-3.8083854E-1,-3.7049367E0,-2.266593E0,-1.1988997E0,6.1574996E-1,1.9267886E0,3.9218934E0,1.9050969E-2,1.9734926E0,2.5739E0,8.6390495E-1,2.8302884E0,5.1098228E0,6.5185738E0,4.165805E0,6.184736E0,9.368857E0,2.7076416E0,4.496431E0,4.672934E0,8.172386E0,9.551246E0,1.1848601E1],"split_indices":[4,4,4,4,0,0,0,4,0,4,4,4,4,4,4,0,0,4,6,8,0,8,8,0,8,0,0,8,4,8,0,0,0,4,8,6,4,6,4,4,4,4,4,6,6,4,4,8,4,8,6,0,0,0,0,4,0,0,0,0,0,0,0,0,0,0,0,0,0,0,0,0,0,0,0,0,0,0,0,0,0,0,0,0,0,0,0,0,0,0,0,0,0,0,0,0,0,0,0],"split_type":[0,0,0,0,0,0,0,0,0,0,0,0,0,0,0,0,0,0,0,0,0,0,0,0,0,0,0,0,0,0,0,0,0,0,0,0,0,0,0,0,0,0,0,0,0,0,0,0,0,0,0,0,0,0,0,0,0,0,0,0,0,0,0,0,0,0,0,0,0,0,0,0,0,0,0,0,0,0,0,0,0,0,0,0,0,0,0,0,0,0,0,0,0,0,0,0,0,0,0],"sum_hessian":[3.18E3,1.447E3,1.733E3,3.98E2,1.049E3,1.289E3,4.44E2,1.21E2,2.77E2,5.33E2,5.16E2,6.56E2,6.33E2,2.03E2,2.41E2,3.6E1,8.5E1,1.38E2,1.39E2,2.69E2,2.64E2,2.16E2,3E2,2.27E2,4.29E2,3.56E2,2.77E2,1.41E2,6.2E1,1.86E2,5.5E1,6.9E1,6.9E1,1E2,3.9E1,1.22E2,1.47E2,8.2E1,1.82E2,6.6E1,1.5E2,1.22E2,1.78E2,9.4E1,1.33E2,1.74E2,2.55E2,1.88E2,1.68E2,1.86E2,9.1E1,5.4E1,8.7E1,3.7E1,2.5E1,1.54E2,3.2E1,3.9E1,6.1E1,3E0,3.6E1,8E1,4.2E1,5.2E1,9.5E1,7.9E1,3E0,1.22E2,6E1,2.1E1,4.5E1,8.9E1,6.1E1,7.5E1,4.7E1,8.3E1,9.5E1,3.1E1,6.3E1,6.6E1,6.7E1,6.9E1,1.05E2,1.69E2,8.6E1,1.47E2,4.1E1,7.5E1,9.3E1,1.43E2,4.3E1,2.6E1,6.5E1,4.1E1,4.6E1,5E0,3.2E1,5.7E1,9.7E1],"tree_param":{"num_deleted":"0","num_feature":"10","num_nodes":"99","size_leaf_vector":"1"}},{"base_weights":[-2.7393124E-1,-4.8373463E1,3.7760876E1,-8.748058E1,-3.1615105E1,1.8001057E1,7.178917E1,-1.1630691E2,-7.6491066E1,-4.6178432E1,-1.8127592E1,3.3893806E1,-2.5987482E0,9.408612E1,4.571029E1,-1.3531102E1,-1.0617331E2,-8.90039E1,-6.518242E1,-5.706642E1,-3.514112E1,-3.4391586E1,-8.179497E0,2.0651234E1,5.0455643E1,-1.4154075E1,9.999815E0,8.269397E1,1.3030931E2,3.0153885E1,7.2205956E1,-8.056482E0,-1.1139666E1,-9.7310074E1,-7.8950167E0,-7.654853E1,-5.485901E1,-4.9783234E1,-6.5830817E0,-4.744101E1,-2.7821045E1,-2.0534672E1,-3.905972E1,-2.6181015E-1,-1.8561666E1,7.617867E0,2.845992E1,3.4119675E1,5.9573235E1,-3.2338357E0,-2.1248335E1,2.0494457E1,1.2166619E0,1.0262992E2,7.474471E1,9.044591E0,1.3788253E1,1.5133442E1,4.2454315E1,6.0540844E1,9.064296E1,-8.142549E0,-1.0470068E1,-8.277106E0,-6.4842567E0,-2.9931488E0,-5.628203E0,-5.1676846E0,-3.1435044E0,-2.2997377E0,-4.9965305E0,-4.1240916E0,-2.4152143E0,-3.6917927E0,-1.3335117E0,-4.854829E0,-3.410949E0,-7.180267E-1,8.261677E-1,-2.4206789E0,-9.861544E-1,-3.1786495E-1,1.7535807E0,1.5848751E0,3.2745824E0,2.8361034E0,4.718366E0,4.607357E0,7.0015655E0,-2.1741502E0,-2.8505841E-2,-2.7005978E0,-1.3073543E0,1.0709609E0,2.5947392E0,4.9792895E-1,-1.4631041E0,6.8158145E0,1.0885737E1,6.028415E0,8.247524E0,2.5652215E-1,2.0954192E0,3.3960106E0,4.984588E0,3.6754272E0,6.6254134E0,4.9143233E0,9.379852E0],"categories":[],"categories_nodes":[],"categories_segments":[],"categories_sizes":[],"default_left":[0,0,0,0,0,0,0,0,0,0,0,0,0,0,0,0,0,0,0,0,0,0,0,0,0,0,0,0,0,0,0,0,0,0,0,0,0,0,0,0,0,0,0,0,0,0,0,0,0,0,0,0,0,0,0,0,0,0,0,0,0,0,0,0,0,0,0,0,0,0,0,0,0,0,0,0,0,0,0,0,0,0,0,0,0,0,0,0,0,0,0,0,0,0,0,0,0,0,0,0,0,0,0,0,0,0,0,0,0],"id":1,"left_children":[1,3,5,7,9,11,13,15,17,19,21,23,25,27,29,-1,31,33,35,37,39,41,43,45,47,49,51,53,55,57,59,-1,-1,61,-1,63,65,67,-1,69,71,73,75,77,79,81,83,85,87,89,91,93,95,97,99,-1,-1,101,103,105,107,-1,-1,-1,-1,-1,-1,-1,-1,-1,-1,-1,-1,-1,-1,-1,-1,-1,-1,-1,-1,-1,-1,-1,-1,-1,-1,-1,-1,-1,-1,-1,-1,-1,-1,-1,-1,-1,-1,-1,-1,-1,-1,-1,-1,-1,-1,-1,-1],"loss_changes":[5.8085225E6,9.160525E5,1.1908515E6,1.24135E5,1.9224038E5,3.6774738E5,3.742285E5,7.563625E3,3.76245E4,5.4707562E4,8.255386E4,1.3800062E5,7.14764E4,1.3363375E5,1.2229006E5,0E0,1.573375E3,4.241375E3,1.5148125E4,1.17756875E4,2.0011188E4,1.1741047E4,2.621594E4,3.5807406E4,3.98115E4,1.9761418E4,2.1634264E4,3.494125E4,1.22615E4,3.482528E4,1.837E4,0E0,0E0,1.434375E2,0E0,1.5403125E2,1.4992812E3,2.9882188E3,0E0,4.211797E3,6.4320703E3,5.5182305E3,5.0995312E3,1.079164E4,6.535508E3,1.4405787E4,1.1421266E4,6.4030312E3,2.1996062E4,5.558248E3,6.9383984E3,5.4275547E3,7.7640283E3,8.4484375E3,1.6924125E4,0E0,0E0,6.381664E3,4.8913125E3,7.203453E3,7.453125E2,0E0,0E0,0E0,0E0,0E0,0E0,0E0,0E0,0E0,0E0,0E0,0E0,0E0,0E0,0E0,0E0,0E0,0E0,0E0,0E0,0E0,0E0,0E0,0E0,0E0,0E0,0E0,0E0,0E0,0E0,0E0,0E0,0E0,0E0,0E0,0E0,0E0,0E0,0E0,0E0,0E0,0E0,0E0,0E0,0E0,0E0,0E0,0E0],"parents":[2147483647,0,0,1,1,2,2,3,3,4,4,5,5,6,6,7,7,8,8,9,9,10,10,11,11,12,12,13,13,14,14,16,16,17,17,18,18,19,19,20,20,21,21,22,22,23,23,24,24,25,25,26,26,27,27,28,28,29,29,30,30,33,33,35,35,36,36,37,37,39,39,40,40,41,41,42,42,43,43,44,44,45,45,46,46,47,47,48,48,49,49,50,50,51,51,52,52,53,53,54,54,57,57,58,58,59,59,60,60],"right_children":[2,4,6,8,10,12,14,16,18,20,22,24,26,28,30,-1,32,34,36,38,40,42,44,46,48,50,52,54,56,58,60,-1,-1,62,-1,64,66,68,-1,70,72,74,76,78,80,82,84,86,88,90,92,94,96,98,100,-1,-1,102,104,106,108,-1,-1,-1,-1,-1,-1,-1,-1,-1,-1,-1,-1,-1,-1,-1,-1,-1,-1,-1,-1,-1,-1,-1,-1,-1,-1,-1,-1,-1,-1,-1,-1,-1,-1,-1,-1,-1,-1,-1,-1,-1,-1,-1,-1,-1,-1,-1,-1],"split_conditions":[1.9404823E0,1.5380098E0,2.3240318E0,1.2605739E0,8E1,5E1,5E1,1.0891926E0,8E1,1.7583308E0,1.7092649E0,2.1378767E0,2.1340127E0,2.64738E0,2.5559685E0,-1.3531102E1,3.8E1,1.4198108E0,1.4198108E0,5.4E1,7.2E1,3.7E1,4.2E1,8.5E1,8.5E1,5.4E1,5.4E1,3.7E1,8E1,7.5E1,2.7511559E0,-8.056482E0,-1.1139666E1,7.5E1,-7.8950167E0,9E1,3.3E1,2.4279793E2,-6.5830817E0,5.3E1,2.0551836E2,1.8700998E2,1.5954783E0,1.8390666E0,1.852578E0,1E0,2.2031505E2,3.127253E2,1E0,2.1388593E2,7.5E1,1E0,6.4E1,2.6431683E2,2.9617493E2,9.044591E0,1.3788253E1,2.7674164E2,1E0,7E1,6.839924E1,-8.142549E0,-1.0470068E1,-8.277106E0,-6.4842567E0,-2.9931488E0,-5.628203E0,-5.1676846E0,-3.1435044E0,-2.2997377E0,-4.9965305E0,-4.1240916E0,-2.4152143E0,-3.6917927E0,-1.3335117E0,-4.854829E0,-3.410949E0,-7.180267E-1,8.261677E-1,-2.4206789E0,-9.861544E-1,-3.1786495E-1,1.7535807E0,1.5848751E0,3.2745824E0,2.8361034E0,4.718366E0,4.607357E0,7.0015655E0,-2.1741502E0,-2.8505841E-2,-2.7005978E0,-1.3073543E0,1.0709609E0,2.5947392E0,4.9792895E-1,-1.4631041E0,6.8158145E0,1.0885737E1,6.028415E0,8.247524E0,2.5652215E-1,2.0954192E0,3.3960106E0,4.984588E0,3.6754272E0,6.6254134E0,4.9143233E0,9.379852E0],"split_indices":[5,5,5,5,0,8,8,5,0,5,5,5,5,5,5,0,8,5,5,8,0,8,8,0,0,8,8,8,0,0,5,0,0,2,0,0,8,6,0,8,6,6,5,5,5,3,6,6,3,6,0,3,8,6,6,0,0,6,3,0,9,0,0,0,0,0,0,0,0,0,0,0,0,0,0,0,0,0,0,0,0,0,0,0,0,0,0,0,0,0,0,0,0,0,0,0,0,0,0,0,0,0,0,0,0,0,0,0,0],"split_type":[0,0,0,0,0,0,0,0,0,0,0,0,0,0,0,0,0,0,0,0,0,0,0,0,0,0,0,0,0,0,0,0,0,0,0,0,0,0,0,0,0,0,0,0,0,0,0,0,0,0,0,0,0,0,0,0,0,0,0,0,0,0,0,0,0,0,0,0,0,0,0,0,0,0,0,0,0,0,0,0,0,0,0,0,0,0,0,0,0,0,0,0,0,0,0,0,0,0,0,0,0,0,0,0,0,0,0,0,0],"sum_hessian":[3.173E3,1.401E3,1.772E3,4.19E2,9.82E2,1.122E3,6.5E2,1.13E2,3.06E2,4.71E2,5.11E2,6.33E2,4.89E2,3.49E2,3.01E2,3.5E1,7.8E1,1.42E2,1.64E2,2.35E2,2.36E2,1.93E2,3.18E2,3.53E2,2.8E2,2.55E2,2.34E2,2.68E2,8.1E1,1.91E2,1.1E2,1.6E1,6.2E1,7.3E1,6.9E1,7.5E1,8.9E1,1.32E2,1.03E2,8.6E1,1.5E2,5E1,1.43E2,1.81E2,1.37E2,1.33E2,2.2E2,1.02E2,1.78E2,1.01E2,1.54E2,1.06E2,1.28E2,7.3E1,1.95E2,1.5E1,6.6E1,8.7E1,1.04E2,7E1,4E1,2.7E1,4.6E1,4.5E1,3E1,6E0,8.3E1,1.18E2,1.4E1,9E0,7.7E1,3E1,1.2E2,1.4E1,3.6E1,4.6E1,9.7E1,1E2,8.1E1,8.2E1,5.5E1,6.4E1,6.9E1,5.7E1,1.63E2,7.3E1,2.9E1,8E1,9.8E1,1.3E1,8.8E1,8.9E1,6.5E1,3.9E1,6.7E1,1.04E2,2.4E1,1.3E1,6E1,7.1E1,1.24E2,2.8E1,5.9E1,5.1E1,5.3E1,1.5E1,5.5E1,4E0,3.6E1],"tree_param":{"num_deleted":"0","num_feature":"10","num_nodes":"109","size_leaf_vector":"1"}},{"base_weights":[1.2229315E-1,-4.3610413E1,3.381678E1,-7.959982E1,-2.8152128E1,2.0234575E1,7.587243E1,-1.0068983E2,-6.716949E1,-4.0928993E1,-1.518568E1,3.9673576E1,5.7902083E0,5.4904373E1,9.630937E1,-1.239948E1,-9.2725685E1,-5.4622326E1,-7.6954445E1,-5.1552956E1,-2.9962719E1,-3.099323E1,-5.8676186E0,2.6304178E1,5.8403168E1,-6.539734E0,1.9321531E1,3.868279E1,6.626064E1,8.51579E1,1.2567263E2,-1.0252868E1,-8.003973E0,-5.9425025E0,-4.391652E1,-8.289458E1,-6.721928E1,-6.3199005E0,-4.689227E1,-4.3218365E1,-2.3708271E1,-2.0571007E1,-3.5778625E1,3.968383E0,-1.3310022E1,1.7159962E1,3.463222E1,4.7437286E1,6.915567E1,4.1378417E0,-1.4600026E1,1.1013479E1,3.2571854E1,5.25369E0,2.9009373E1,4.977237E1,7.619067E1,5.612008E0,8.749329E1,1.3502803E1,9.685602E0,-1.365919E0,-4.5943174E0,-8.428794E0,-4.316579E0,-7.9274187E0,-5.9876E0,-5.7116904E0,-4.3867764E0,-1.9934677E0,-4.5260525E0,-4.0105925E0,-2.096201E0,-2.8790321E0,-1.2733138E0,-4.7665496E0,-3.2979577E0,-3.667377E-1,1.1546406E0,-2.1464155E0,-5.5461633E-1,8.470754E-1,2.4851775E0,2.3370523E0,4.4224334E0,6.477536E0,4.212115E0,8.095321E0,6.0449677E0,-3.209863E-1,1.1690152E0,-1.8744506E0,-3.7021258E-1,1.4214294E-1,1.9800224E0,2.4722142E0,3.9268672E0,6.381148E-1,3.1544435E0,3.452257E0,5.7744985E0,6.907146E0,9.945438E0,7.565755E0,9.497123E0],"categories":[],"categories_nodes":[],"categories_segments":[],"categories_sizes":[],"default_left":[0,0,0,0,0,0,0,0,0,0,0,0,0,0,0,0,0,0,0,0,0,0,0,0,0,0,0,0,0,0,0,0,0,0,0,0,0,0,0,0,0,0,0,0,0,0,0,0,0,0,0,0,0,0,0,0,0,0,0,0,0,0,0,0,0,0,0,0,0,0,0,0,0,0,0,0,0,0,0,0,0,0,0,0,0,0,0,0,0,0,0,0,0,0,0,0,0,0,0,0,0,0,0,0,0],"id":2,"left_children":[1,3,5,7,9,11,13,15,17,19,21,23,25,27,29,-1,31,33,35,37,39,41,43,45,47,49,51,53,55,57,59,-1,-1,-1,61,63,65,-1,67,69,71,73,75,77,79,81,83,85,87,89,91,93,95,-1,97,99,101,-1,103,-1,-1,-1,-1,-1,-1,-1,-1,-1,-1,-1,-1,-1,-1,-1,-1,-1,-1,-1,-1,-1,-1,-1,-1,-1,-1,-1,-1,-1,-1,-1,-1,-1,-1,-1,-1,-1,-1,-1,-1,-1,-1,-1,-1,-1,-1],"loss_changes":[4.716837E6,7.7272225E5,1.0312001E6,1.0280125E5,1.6106738E5,3.838783E5,1.8367575E5,1.687825E4,2.8441125E4,5.5651312E4,7.140018E4,1.444405E5,1.3126422E5,3.7954E4,6.1969375E4,0E0,6.449875E3,3.5499375E3,2.913625E3,1.04864375E4,1.9197922E4,8.23575E3,2.2527227E4,2.5445016E4,2.5242188E4,3.551998E4,4.0918562E4,1.0931328E4,1.71525E4,6.19725E3,2.8043125E3,0E0,0E0,0E0,1.8806641E3,1.1649375E3,6.3934375E2,0E0,3.081625E3,2.7525E3,6.7186094E3,3.4301504E3,2.479125E3,7.7390405E3,1.0957072E4,1.0814051E4,1.818786E4,8.598031E3,7.417375E3,9.915973E3,1.0542402E4,1.9523371E4,6.5925938E3,0E0,3.064664E3,4.1978906E3,6.0319688E3,0E0,6.073625E3,0E0,0E0,0E0,0E0,0E0,0E0,0E0,0E0,0E0,0E0,0E0,0E0,0E0,0E0,0E0,0E0,0E0,0E0,0E0,0E0,0E0,0E0,0E0,0E0,0E0,0E0,0E0,0E0,0E0,0E0,0E0,0E0,0E0,0E0,0E0,0E0,0E0,0E0,0E0,0E0,0E0,0E0,0E0,0E0,0E0,0E0],"parents":[2147483647,0,0,1,1,2,2,3,3,4,4,5,5,6,6,7,7,8,8,9,9,10,10,11,11,12,12,13,13,14,14,16,16,17,17,18,18,19,19,20,20,21,21,22,22,23,23,24,24,25,25,26,26,27,27,28,28,29,29,30,30,34,34,35,35,36,36,38,38,39,39,40,40,41,41,42,42,43,43,44,44,45,45,46,46,47,47,48,48,49,49,50,50,51,51,52,52,54,54,55,55,56,56,58,58],"right_children":[2,4,6,8,10,12,14,16,18,20,22,24,26,28,30,-1,32,34,36,38,40,42,44,46,48,50,52,54,56,58,60,-1,-1,-1,62,64,66,-1,68,70,72,74,76,78,80,82,84,86,88,90,92,94,96,-1,98,100,102,-1,104,-1,-1,-1,-1,-1,-1,-1,-1,-1,-1,-1,-1,-1,-1,-1,-1,-1,-1,-1,-1,-1,-1,-1,-1,-1,-1,-1,-1,-1,-1,-1,-1,-1,-1,-1,-1,-1,-1,-1,-1,-1,-1,-1,-1,-1,-1],"split_conditions":[1.9404823E0,1.5380098E0,2.4239287E0,1.3070691E0,8.2E1,4.5E1,8.2E1,1.0891926E0,4.6E1,1.7583308E0,1.7159866E0,2.1858718E0,2.1759918E0,2.5559685E0,2.7332883E0,-1.239948E1,8.2E1,1.4700576E0,7.8E1,7.2E1,7.2E1,3.7E1,4E1,8.8E1,1E0,5.3E1,7.8E1,5.2E1,7.5E1,7.854836E1,4.4E1,-1.0252868E1,-8.003973E0,-5.9425025E0,3.3E1,9.44447E1,1.3839742E0,-6.3199005E0,1.589154E0,5.3E1,6.866796E1,1.6208985E0,8.040836E1,1.8359275E0,1E0,1E0,2.056717E0,3.4E1,3.7E1,2.056717E0,2.116084E0,1E0,2.2720838E0,5.25369E0,6.0528927E1,2.6618335E0,2.8679888E0,5.612008E0,2.515266E0,1.3502803E1,9.685602E0,-1.365919E0,-4.5943174E0,-8.428794E0,-4.316579E0,-7.9274187E0,-5.9876E0,-5.7116904E0,-4.3867764E0,-1.9934677E0,-4.5260525E0,-4.0105925E0,-2.096201E0,-2.8790321E0,-1.2733138E0,-4.7665496E0,-3.2979577E0,-3.667377E-1,1.1546406E0,-2.1464155E0,-5.5461633E-1,8.470754E-1,2.4851775E0,2.3370523E0,4.4224334E0,6.477536E0,4.212115E0,8.095321E0,6.0449677E0,-3.209863E-1,1.1690152E0,-1.8744506E0,-3.7021258E-1,1.4214294E-1,1.9800224E0,2.4722142E0,3.9268672E0,6.381148E-1,3.1544435E0,3.452257E0,5.7744985E0,6.907146E0,9.945438E0,7.565755E0,9.497123E0],"split_indices":[5,5,5,5,0,8,0,5,8,5,5,5,5,5,5,0,0,5,0,0,0,8,8,0,3,8,0,8,0,9,8,0,0,0,8,7,5,0,5,8,7,5,9,5,3,3,5,8,8,5,5,3,5,0,7,5,5,0,5,0,0,0,0,0,0,0,0,0,0,0,0,0,0,0,0,0,0,0,0,0,0,0,0,0,0,0,0,0,0,0,0,0,0,0,0,0,0,0,0,0,0,0,0,0,0],"split_type":[0,0,0,0,0,0,0,0,0,0,0,0,0,0,0,0,0,0,0,0,0,0,0,0,0,0,0,0,0,0,0,0,0,0,0,0,0,0,0,0,0,0,0,0,0,0,0,0,0,0,0,0,0,0,0,0,0,0,0,0,0,0,0,0,0,0,0,0,0,0,0,0,0,0,0,0,0,0,0,0,0,0,0,0,0,0,0,0,0,0,0,0,0,0,0,0,0,0,0,0,0,0,0,0,0],"sum_hessian":[3.199E3,1.392E3,1.807E3,4.17E2,9.75E2,1.367E3,4.4E2,1.52E2,2.65E2,4.9E2,4.85E2,5.82E2,7.85E2,2.19E2,2.21E2,3.5E1,1.17E2,1.19E2,1.46E2,2.47E2,2.43E2,1.79E2,3.06E2,3.41E2,2.41E2,4.11E2,3.74E2,9.2E1,1.27E2,1.63E2,5.8E1,6.2E1,5.5E1,7.9E1,4E1,8.6E1,6E1,6.7E1,1.8E2,7.6E1,1.67E2,5.8E1,1.21E2,1.32E2,1.74E2,1.64E2,1.77E2,1.22E2,1.19E2,1.77E2,2.34E2,2.31E2,1.43E2,3.6E1,5.6E1,5E1,7.7E1,1.4E1,1.49E2,4.1E1,1.7E1,3E0,3.7E1,8.2E1,4E0,1.9E1,4.1E1,3.7E1,1.43E2,7E0,6.9E1,2.2E1,1.45E2,2.7E1,3.1E1,2E1,1.01E2,6.6E1,6.6E1,8.4E1,9E1,7.8E1,8.6E1,8.3E1,9.4E1,2.6E1,9.6E1,4.7E1,7.2E1,9E1,8.7E1,1.69E2,6.5E1,1.11E2,1.2E2,6.8E1,7.5E1,6E0,5E1,1.9E1,3.1E1,6.2E1,1.5E1,6.2E1,8.7E1],"tree_param":{"num_deleted":"0","num_feature":"10","num_nodes":"105","size_leaf_vector":"1"}},{"base_weights":[2.2656988E-1,-3.055975E1,3.0993605E1,-5.9170185E1,-1.6158762E1,1.8191076E1,5.7098404E1,-9.2569725E1,-5.240271E1,-2.905263E1,-2.5902307E0,2.5209036E0,3.435893E1,4.0028904E1,8.3928406E1,-7.219268E1,-9.857547E0,-7.410207E0,-4.7042637E1,-3.891713E1,-1.8330393E1,-7.1423864E0,7.6322436E0,-6.013588E0,1.0711465E1,2.6686972E1,4.6683758E1,2.8660788E1,6.158429E1,7.9036354E1,1.1898604E2,-9.438112E0,-5.954758E0,-5.883132E1,-4.0498966E1,-2.762537E1,-4.712926E1,-2.7476912E1,-8.833721E0,-2.6475258E1,-4.1639776E0,-1.945284E0,1.2484877E1,-1.5204407E1,5.3885126E-1,3.946785E0,1.815779E1,3.348414E1,1.4409755E1,5.8919144E1,4.122287E1,4.1964436E0,3.262619E1,5.485582E1,9.3294935E0,9.895402E0,7.272818E1,5.679101E0,1.2547074E1,-6.8900294E0,-4.9367547E0,-4.3864164E0,-2.2373123E0,-3.5432377E0,-2.0232575E0,-5.2170596E0,-3.9125707E0,-3.8406098E0,-1.9380566E0,-1.5965925E-1,-1.9452578E0,-3.0256662E0,-3.7736595E-1,-1.6471434E0,-1.3698284E-1,1.2726228E-1,-2.1022065E0,2.255558E-1,1.7638397E0,-2.0112007E0,-4.2824784E-1,-3.8403025E-1,1.1622955E0,7.113657E-1,-1.667188E0,2.6662037E0,1.2006001E0,2.3204927E0,4.2026057E0,7.4376047E-1,2.0487578E0,3.9273763E0,6.577026E0,3.2659738E0,4.6358223E0,-2.2286797E0,8.949027E-1,2.216444E0,4.4549117E0,3.467847E0,6.166242E0,6.2162013E0,8.108482E0],"categories":[],"categories_nodes":[],"categories_segments":[],"categories_sizes":[],"default_left":[0,0,0,0,0,0,0,0,0,0,0,0,0,0,0,0,0,0,0,0,0,0,0,0,0,0,0,0,0,0,0,0,0,0,0,0,0,0,0,0,0,0,0,0,0,0,0,0,0,0,0,0,0,0,0,0,0,0,0,0,0,0,0,0,0,0,0,0,0,0,0,0,0,0,0,0,0,0,0,0,0,0,0,0,0,0,0,0,0,0,0,0,0,0,0,0,0,0,0,0,0,0,0],"id":3,"left_children":[1,3,5,7,9,11,13,15,17,19,21,23,25,27,29,31,-1,-1,33,35,37,39,41,43,45,47,49,51,53,55,57,-1,-1,59,61,63,65,67,69,71,73,75,77,79,81,83,85,87,89,91,93,95,97,99,-1,-1,101,-1,-1,-1,-1,-1,-1,-1,-1,-1,-1,-1,-1,-1,-1,-1,-1,-1,-1,-1,-1,-1,-1,-1,-1,-1,-1,-1,-1,-1,-1,-1,-1,-1,-1,-1,-1,-1,-1,-1,-1,-1,-1,-1,-1,-1,-1],"loss_changes":[3.035788E6,6.590901E5,5.346884E5,1.16287E5,1.865941E5,2.727709E5,2.3798088E5,3.75825E3,4.8608875E4,5.7136844E4,2.429883E4,3.8371332E4,4.886125E4,7.762019E4,2.556275E4,1.0982344E3,0E0,0E0,2.5532562E4,2.502575E4,2.2685078E4,2.0673506E4,7.5080137E3,1.6209452E4,1.4030287E4,2.6967844E4,1.10580625E4,2.0619766E4,1.8550812E4,1.5653375E4,2.1324375E3,0E0,0E0,8.688625E3,1.34073125E4,6.3188438E3,4.5264688E3,1.110707E4,1.0034192E4,4.0029258E3,1.0773758E4,3.4050298E3,5.5989453E3,5.9146816E3,7.714574E3,9.781551E3,6.6341055E3,1.7544938E4,4.88751E3,5.482E3,4.7664062E3,4.0998896E3,2.195711E4,1.0761844E4,0E0,0E0,7.4835625E3,0E0,0E0,0E0,0E0,0E0,0E0,0E0,0E0,0E0,0E0,0E0,0E0,0E0,0E0,0E0,0E0,0E0,0E0,0E0,0E0,0E0,0E0,0E0,0E0,0E0,0E0,0E0,0E0,0E0,0E0,0E0,0E0,0E0,0E0,0E0,0E0,0E0,0E0,0E0,0E0,0E0,0E0,0E0,0E0,0E0,0E0],"parents":[2147483647,0,0,1,1,2,2,3,3,4,4,5,5,6,6,7,7,8,8,9,9,10,10,11,11,12,12,13,13,14,14,15,15,18,18,19,19,20,20,21,21,22,22,23,23,24,24,25,25,26,26,27,27,28,28,29,29,30,30,33,33,34,34,35,35,36,36,37,37,38,38,39,39,40,40,41,41,42,42,43,43,44,44,45,45,46,46,47,47,48,48,49,49,50,50,51,51,52,52,53,53,56,56],"right_children":[2,4,6,8,10,12,14,16,18,20,22,24,26,28,30,32,-1,-1,34,36,38,40,42,44,46,48,50,52,54,56,58,-1,-1,60,62,64,66,68,70,72,74,76,78,80,82,84,86,88,90,92,94,96,98,100,-1,-1,102,-1,-1,-1,-1,-1,-1,-1,-1,-1,-1,-1,-1,-1,-1,-1,-1,-1,-1,-1,-1,-1,-1,-1,-1,-1,-1,-1,-1,-1,-1,-1,-1,-1,-1,-1,-1,-1,-1,-1,-1,-1,-1,-1,-1,-1,-1],"split_conditions":[2.4730498E2,1.8884535E2,3.0982187E2,1.3461806E2,8.2E1,8.2E1,8.5E1,4.3E1,7.5E1,2.2087534E2,9E1,1E0,2.8101633E2,3.5539606E2,3.9640784E2,1.02523544E2,-9.857547E0,-7.410207E0,1.6210686E2,5.2E1,1E0,1.9861496E2,2.1133142E2,7.5E1,2.7732077E2,4.2E1,3.7E1,7E1,4.141364E2,3.4E1,8.040836E1,-9.438112E0,-5.954758E0,8.5E1,9E1,1E0,7.2E1,7.5E1,5.5E1,9.246678E1,8.2892746E1,8.5E1,7.3574265E1,8.5805145E1,2.844698E2,6.2E1,5.2E1,1E0,1E0,9E1,7.6446785E1,3.1836868E2,1E0,7.5E1,9.3294935E0,9.895402E0,1E0,5.679101E0,1.2547074E1,-6.8900294E0,-4.9367547E0,-4.3864164E0,-2.2373123E0,-3.5432377E0,-2.0232575E0,-5.2170596E0,-3.9125707E0,-3.8406098E0,-1.9380566E0,-1.5965925E-1,-1.9452578E0,-3.0256662E0,-3.7736595E-1,-1.6471434E0,-1.3698284E-1,1.2726228E-1,-2.1022065E0,2.255558E-1,1.7638397E0,-2.0112007E0,-4.2824784E-1,-3.8403025E-1,1.1622955E0,7.113657E-1,-1.667188E0,2.6662037E0,1.2006001E0,2.3204927E0,4.2026057E0,7.4376047E-1,2.0487578E0,3.9273763E0,6.577026E0,3.2659738E0,4.6358223E0,-2.2286797E0,8.949027E-1,2.216444E0,4.4549117E0,3.467847E0,6.166242E0,6.2162013E0,8.108482E0],"split_indices":[6,6,6,6,0,0,0,8,0,6,0,3,6,6,6,6,0,0,6,8,3,6,6,0,6,8,8,0,6,8,9,0,0,0,0,3,0,0,8,7,9,2,7,7,6,8,8,3,3,0,7,6,3,0,0,0,3,0,0,0,0,0,0,0,0,0,0,0,0,0,0,0,0,0,0,0,0,0,0,0,0,0,0,0,0,0,0,0,0,0,0,0,0,0,0,0,0,0,0,0,0,0,0],"split_type":[0,0,0,0,0,0,0,0,0,0,0,0,0,0,0,0,0,0,0,0,0,0,0,0,0,0,0,0,0,0,0,0,0,0,0,0,0,0,0,0,0,0,0,0,0,0,0,0,0,0,0,0,0,0,0,0,0,0,0,0,0,0,0,0,0,0,0,0,0,0,0,0,0,0,0,0,0,0,0,0,0,0,0,0,0,0,0,0,0,0,0,0,0,0,0,0,0,0,0,0,0,0,0],"sum_hessian":[3.203E3,1.601E3,1.602E3,5.35E2,1.066E3,1.076E3,5.26E2,8.8E1,4.47E2,5.46E2,5.2E2,5.47E2,5.29E2,3.23E2,2.03E2,2.3E1,6.5E1,8.6E1,3.61E2,2.83E2,2.63E2,3.6E2,1.6E2,2.68E2,2.79E2,3.28E2,2.01E2,2.13E2,1.1E2,1.81E2,2.2E1,6E0,1.7E1,1.26E2,2.35E2,1.21E2,1.62E2,1.33E2,1.3E2,4.7E1,3.13E2,5.4E1,1.06E2,1.11E2,1.57E2,1.47E2,1.32E2,2.1E2,1.18E2,5.9E1,1.42E2,3E1,1.83E2,9.3E1,1.7E1,4E1,1.41E2,3E0,1.9E1,5.8E1,6.8E1,1.97E2,3.8E1,5.7E1,6.4E1,9.6E1,6.6E1,5.5E1,7.8E1,7.8E1,5.2E1,4E1,7E0,5.7E1,2.56E2,4.7E1,7E0,3.6E1,7E1,7.6E1,3.5E1,1.13E2,4.4E1,1.28E2,1.9E1,5.4E1,7.8E1,9.7E1,1.13E2,5.6E1,6.2E1,1.7E1,4.2E1,5.6E1,8.6E1,4E0,2.6E1,9.9E1,8.4E1,2.5E1,6.8E1,6.6E1,7.5E1],"tree_param":{"num_deleted":"0","num_feature":"10","num_nodes":"103","size_leaf_vector":"1"}},{"base_weights":[-9.371663E-2,-3.2650925E1,3.2524456E1,-6.2128414E1,-1.9022322E1,2.1518147E1,6.8479454E1,-7.699763E1,-4.8474075E1,-5.701113E0,-2.856706E1,5.805314E0,3.6134644E1,4.8148403E1,8.565285E1,-9.085535E1,-6.828517E1,-3.9575603E1,-5.714114E1,-1.6036047E1,7.4615164E0,-4.05512E1,-2.127495E1,-3.0182893E0,1.5416623E1,2.6271355E1,5.2084084E1,4.1907307E1,8.205897E1,7.633172E1,1.1560206E1,-1.0180095E1,-8.203722E0,-7.3794685E1,-5.2600708E1,-4.4630226E1,-3.251182E1,-7.166168E0,-5.377781E1,-2.3126749E1,-9.987543E0,1.4242225E0,1.3664686E1,-3.4613827E1,-4.730649E1,-3.2592716E1,-1.6760078E1,-1.3052099E1,3.5619068E0,4.0505414E0,2.4716032E1,3.7466187E1,2.004617E1,6.7733925E1,4.532058E1,2.6952251E1,5.0123318E1,4.065934E0,8.568678E0,8.783032E0,6.725194E1,-6.738031E0,-8.221988E0,-5.402788E0,-2.515378E0,-4.853028E0,-3.663255E0,-3.5889308E0,-1.9980074E0,-5.7698717E0,-4.527521E0,-2.8000274E0,-1.4887748E0,-4.3033144E-1,-1.7370085E0,-9.2939615E-1,3.479733E-1,5.562538E-1,2.1034698E0,-3.6153667E0,-2.1184144E0,-5.159062E0,-4.1533995E0,-3.3486047E0,9.69635E-3,-2.2932642E0,-1.2463278E0,-2.0306041E0,-6.265413E-1,6.0325545E-1,-8.6678904E-1,-4.0723538E-1,1.0744913E0,2.0579727E0,3.3591897E0,2.6816447E0,4.1311965E0,1.5436747E0,2.6422365E0,5.078022E0,7.2531776E0,3.4696465E0,5.1449285E0,1.6539925E0,3.6398427E0,3.7574692E0,5.6500015E0,5.5523953E0,7.316793E0],"categories":[],"categories_nodes":[],"categories_segments":[],"categories_sizes":[],"default_left":[0,0,0,0,0,0,0,0,0,0,0,0,0,0,0,0,0,0,0,0,0,0,0,0,0,0,0,0,0,0,0,0,0,0,0,0,0,0,0,0,0,0,0,0,0,0,0,0,0,0,0,0,0,0,0,0,0,0,0,0,0,0,0,0,0,0,0,0,0,0,0,0,0,0,0,0,0,0,0,0,0,0,0,0,0,0,0,0,0,0,0,0,0,0,0,0,0,0,0,0,0,0,0,0,0,0,0,0,0],"id":4,"left_children":[1,3,5,7,9,11,13,15,17,19,21,23,25,27,29,31,33,35,37,39,41,43,45,47,49,51,53,55,57,59,-1,-1,-1,61,63,65,67,-1,69,71,73,75,77,79,81,83,85,87,89,91,93,95,97,99,101,103,105,-1,-1,-1,107,-1,-1,-1,-1,-1,-1,-1,-1,-1,-1,-1,-1,-1,-1,-1,-1,-1,-1,-1,-1,-1,-1,-1,-1,-1,-1,-1,-1,-1,-1,-1,-1,-1,-1,-1,-1,-1,-1,-1,-1,-1,-1,-1,-1,-1,-1,-1,-1],"loss_changes":[3.4056952E6,6.435981E5,6.3248E5,9.919075E4,1.3956875E5,2.8181662E5,1.26794875E5,2.287725E4,1.8320938E4,6.269656E4,5.50605E4,5.0337953E4,9.867544E4,3.3373938E4,4.7547125E4,3.16875E2,9.240625E3,3.3614062E3,2.6290312E3,1.0830852E4,7.581455E3,8.0205312E3,1.9888125E4,2.0515012E4,2.9915203E4,2.6770719E4,2.2534125E4,1.6949094E4,4.0834375E2,1.046925E4,0E0,0E0,0E0,3.896875E2,3.1745312E2,5.8425E2,1.8168867E3,0E0,1.1111875E3,4.3168945E3,5.8400166E3,2.323018E3,5.851625E3,1.9580781E3,5.682344E2,3.3064766E3,7.3490547E3,5.9254355E3,5.7325425E3,7.0591445E3,5.0305547E3,4.6192812E3,7.111922E3,2.0797188E3,9.405531E3,4.802293E3,5.469422E3,0E0,0E0,0E0,2.30775E3,0E0,0E0,0E0,0E0,0E0,0E0,0E0,0E0,0E0,0E0,0E0,0E0,0E0,0E0,0E0,0E0,0E0,0E0,0E0,0E0,0E0,0E0,0E0,0E0,0E0,0E0,0E0,0E0,0E0,0E0,0E0,0E0,0E0,0E0,0E0,0E0,0E0,0E0,0E0,0E0,0E0,0E0,0E0,0E0,0E0,0E0,0E0,0E0],"parents":[2147483647,0,0,1,1,2,2,3,3,4,4,5,5,6,6,7,7,8,8,9,9,10,10,11,11,12,12,13,13,14,14,15,15,16,16,17,17,18,18,19,19,20,20,21,21,22,22,23,23,24,24,25,25,26,26,27,27,28,28,29,29,33,33,34,34,35,35,36,36,38,38,39,39,40,40,41,41,42,42,43,43,44,44,45,45,46,46,47,47,48,48,49,49,50,50,51,51,52,52,53,53,54,54,55,55,56,56,60,60],"right_children":[2,4,6,8,10,12,14,16,18,20,22,24,26,28,30,32,34,36,38,40,42,44,46,48,50,52,54,56,58,60,-1,-1,-1,62,64,66,68,-1,70,72,74,76,78,80,82,84,86,88,90,92,94,96,98,100,102,104,106,-1,-1,-1,108,-1,-1,-1,-1,-1,-1,-1,-1,-1,-1,-1,-1,-1,-1,-1,-1,-1,-1,-1,-1,-1,-1,-1,-1,-1,-1,-1,-1,-1,-1,-1,-1,-1,-1,-1,-1,-1,-1,-1,-1,-1,-1,-1,-1,-1,-1,-1,-1],"split_conditions":[2.5051094E2,1.9752243E2,3.082346E2,1.7475493E2,4.5E1,8E1,8E1,1.5089636E2,4.6E1,2.2988333E2,2.216434E2,2.7682953E2,2.8238113E2,3.584986E2,3.4871362E2,1.3614908E2,8.8E1,8.8E1,7E1,2.11649E2,8.8E1,5.4E1,7.2E1,7.5E1,7.5E1,3.8E1,3.7E1,7.5E1,6.400979E1,3.8E1,1.1560206E1,-1.0180095E1,-8.203722E0,5.3E1,9.3129776E1,1.9124576E2,2.0474208E2,-7.166168E0,8.557356E1,2.1179936E2,4E1,2.3386598E2,2.3873607E2,8.8E1,8.355929E1,3.1836868E2,7.98408E1,2.5701877E2,5.8E1,2.8170825E2,2.9382846E2,2.5912128E2,2.6767093E2,2.6431683E2,2.8170825E2,3.2700043E2,3.1949606E2,4.065934E0,8.568678E0,8.783032E0,3.0778384E2,-6.738031E0,-8.221988E0,-5.402788E0,-2.515378E0,-4.853028E0,-3.663255E0,-3.5889308E0,-1.9980074E0,-5.7698717E0,-4.527521E0,-2.8000274E0,-1.4887748E0,-4.3033144E-1,-1.7370085E0,-9.2939615E-1,3.479733E-1,5.562538E-1,2.1034698E0,-3.6153667E0,-2.1184144E0,-5.159062E0,-4.1533995E0,-3.3486047E0,9.69635E-3,-2.2932642E0,-1.2463278E0,-2.0306041E0,-6.265413E-1,6.0325545E-1,-8.6678904E-1,-4.0723538E-1,1.0744913E0,2.0579727E0,3.3591897E0,2.6816447E0,4.1311965E0,1.5436747E0,2.6422365E0,5.078022E0,7.2531776E0,3.4696465E0,5.1449285E0,1.6539925E0,3.6398427E0,3.7574692E0,5.6500015E0,5.5523953E0,7.316793E0],"split_indices":[4,4,4,4,8,0,0,4,8,4,4,4,4,4,4,4,0,0,0,4,0,8,0,0,0,8,8,0,7,8,0,0,0,8,7,4,6,0,7,6,8,4,6,0,7,6,7,6,8,6,4,4,4,6,6,4,4,0,0,0,6,0,0,0,0,0,0,0,0,0,0,0,0,0,0,0,0,0,0,0,0,0,0,0,0,0,0,0,0,0,0,0,0,0,0,0,0,0,0,0,0,0,0,0,0,0,0,0,0],"split_type":[0,0,0,0,0,0,0,0,0,0,0,0,0,0,0,0,0,0,0,0,0,0,0,0,0,0,0,0,0,0,0,0,0,0,0,0,0,0,0,0,0,0,0,0,0,0,0,0,0,0,0,0,0,0,0,0,0,0,0,0,0,0,0,0,0,0,0,0,0,0,0,0,0,0,0,0,0,0,0,0,0,0,0,0,0,0,0,0,0,0,0,0,0,0,0,0,0,0,0,0,0,0,0,0,0,0,0,0,0],"sum_hessian":[3.205E3,1.604E3,1.601E3,5.06E2,1.098E3,1.227E3,3.74E2,2.4E2,2.66E2,4.59E2,6.39E2,5.92E2,6.35E2,1.73E2,2.01E2,8.9E1,1.51E2,1.34E2,1.32E2,2.57E2,2.02E2,2.4E2,3.99E2,3.09E2,2.83E2,3.94E2,2.41E2,1.48E2,2.5E1,1.56E2,4.5E1,3.5E1,5.4E1,1.09E2,4.2E1,7.5E1,5.9E1,2.1E1,1.11E2,1.17E2,1.4E2,1.03E2,9.9E1,1.31E2,1.09E2,1.12E2,2.87E2,1.22E2,1.87E2,1.28E2,1.55E2,1.39E2,2.55E2,7E1,1.71E2,5.4E1,9.4E1,3E0,2.2E1,6.5E1,9.1E1,6.7E1,4.2E1,3.9E1,3E0,4.7E1,2.8E1,4.5E1,1.4E1,7.2E1,3.9E1,7.2E1,4.5E1,8E1,6E1,1.6E1,8.7E1,4.8E1,5.1E1,1.16E2,1.5E1,5.8E1,5.1E1,1.09E2,3E0,1.16E2,1.71E2,5.8E1,6.4E1,1.56E2,3.1E1,5.8E1,7E1,1.08E2,4.7E1,3.9E1,1E2,1.5E2,1.05E2,1.8E1,5.2E1,6.5E1,1.06E2,2.7E1,2.7E1,3.4E1,6E1,3.4E1,5.7E1],"tree_param":{"num_deleted":"0","num_feature":"10","num_nodes":"109","size_leaf_vector":"1"}},{"base_weights":[1.2654866E-1,-2.9459734E1,2.9456339E1,-5.6046204E1,-1.7051617E1,1.8707918E1,5.856974E1,-7.215454E1,-4.4304714E1,-2.5426651E1,-4.1286488E0,7.6528E0,3.5065285E1,4.148332E1,7.320439E1,-8.353438E0,-6.3147884E1,-5.7213173E1,-3.8771816E1,-3.6171402E1,-1.762207E1,-1.1078287E1,8.830802E0,-4.131391E0,1.3654656E1,2.6689817E1,4.9062313E1,3.0094269E1,5.2686176E1,6.573656E1,1.029403E1,-6.8033843E0,-4.8916507E0,-6.3858705E0,-4.9589376E0,-4.292812E1,-2.939859E1,-4.608786E1,-3.2676556E1,-2.7314213E1,-1.2930315E1,-1.5831509E1,-4.1798997E0,-3.7967684E0,1.1367199E1,-8.902189E0,9.934253E0,5.320094E0,2.3187778E1,2.1321672E1,3.6312447E1,3.9182972E1,5.8607525E1,3.7051014E1,2.0302217E1,4.1270195E1,6.3067135E1,5.4811543E1,7.128627E1,-4.950351E0,-3.9230728E0,-3.6102746E0,-2.0229032E0,-5.1155424E0,-3.9555855E0,-3.9784222E0,-3.0190597E0,-3.3861148E0,-2.1326911E0,-9.488379E-1,-2.2804782E0,-2.131211E0,-1.181015E0,-1.4996964E0,2.1608256E-1,5.564961E-1,-5.756399E-1,6.6489214E-1,1.5832579E0,-1.5800995E0,-2.4947484E-1,2.0950209E-1,1.6969963E0,-3.7033603E-1,1.3227166E0,1.601653E0,3.0476491E0,1.425372E0,2.8314514E0,3.155229E0,4.6807914E0,1.245329E0,4.128604E0,4.8942957E0,6.8490252E0,1.1008695E0,4.091827E0,6.703889E-1,2.5613918E0,2.5341814E0,4.453464E0,5.3851166E0,7.574923E0,6.0719047E0,3.9694993E0,6.2701592E0,7.8329034E0],"categories":[],"categories_nodes":[],"categories_segments":[],"categories_sizes":[],"default_left":[0,0,0,0,0,0,0,0,0,0,0,0,0,0,0,0,0,0,0,0,0,0,0,0,0,0,0,0,0,0,0,0,0,0,0,0,0,0,0,0,0,0,0,0,0,0,0,0,0,0,0,0,0,0,0,0,0,0,0,0,0,0,0,0,0,0,0,0,0,0,0,0,0,0,0,0,0,0,0,0,0,0,0,0,0,0,0,0,0,0,0,0,0,0,0,0,0,0,0,0,0,0,0,0,0,0,0],"id":5,"left_children":[1,3,5,7,9,11,13,15,17,19,21,23,25,27,29,-1,31,33,35,37,39,41,43,45,47,49,51,53,55,57,-1,-1,-1,-1,-1,59,61,63,65,67,69,71,73,75,77,79,81,83,85,87,89,91,93,95,97,99,101,103,105,-1,-1,-1,-1,-1,-1,-1,-1,-1,-1,-1,-1,-1,-1,-1,-1,-1,-1,-1,-1,-1,-1,-1,-1,-1,-1,-1,-1,-1,-1,-1,-1,-1,-1,-1,-1,-1,-1,-1,-1,-1,-1,-1,-1,-1,-1,-1,-1],"loss_changes":[2.7907145E6,5.271879E5,5.042675E5,9.3061625E4,1.1818775E5,2.1329072E5,1.05725E5,1.6541625E4,1.8984188E4,5.495528E4,3.891542E4,4.9990645E4,5.4485188E4,2.4306938E4,4.4956875E4,0E0,5.213E3,1.2297188E3,6.950875E3,8.1206562E3,1.719543E4,9.1456875E3,4.8802236E3,1.6126273E4,3.7058445E4,1.47166875E4,1.4385E4,6.2585E3,9.356156E3,7.5393125E3,0E0,0E0,0E0,0E0,0E0,1.5499688E3,3.444289E3,2.8451562E2,2.4847656E3,4.1721406E3,8.685059E3,3.403543E3,7.9899004E3,5.0903708E2,2.547164E3,7.871212E3,3.3269692E3,1.7958559E4,1.0901898E4,9.230047E3,3.8110312E3,4.5397656E3,5.0412188E3,5.486367E3,3.075416E3,1.5162812E3,1.868625E3,3.6521875E3,2.4505625E3,0E0,0E0,0E0,0E0,0E0,0E0,0E0,0E0,0E0,0E0,0E0,0E0,0E0,0E0,0E0,0E0,0E0,0E0,0E0,0E0,0E0,0E0,0E0,0E0,0E0,0E0,0E0,0E0,0E0,0E0,0E0,0E0,0E0,0E0,0E0,0E0,0E0,0E0,0E0,0E0,0E0,0E0,0E0,0E0,0E0,0E0,0E0,0E0],"parents":[2147483647,0,0,1,1,2,2,3,3,4,4,5,5,6,6,7,7,8,8,9,9,10,10,11,11,12,12,13,13,14,14,16,16,17,17,18,18,19,19,20,20,21,21,22,22,23,23,24,24,25,25,26,26,27,27,28,28,29,29,35,35,36,36,37,37,38,38,39,39,40,40,41,41,42,42,43,43,44,44,45,45,46,46,47,47,48,48,49,49,50,50,51,51,52,52,53,53,54,54,55,55,56,56,57,57,58,58],"right_children":[2,4,6,8,10,12,14,16,18,20,22,24,26,28,30,-1,32,34,36,38,40,42,44,46,48,50,52,54,56,58,-1,-1,-1,-1,-1,60,62,64,66,68,70,72,74,76,78,80,82,84,86,88,90,92,94,96,98,100,102,104,106,-1,-1,-1,-1,-1,-1,-1,-1,-1,-1,-1,-1,-1,-1,-1,-1,-1,-1,-1,-1,-1,-1,-1,-1,-1,-1,-1,-1,-1,-1,-1,-1,-1,-1,-1,-1,-1,-1,-1,-1,-1,-1,-1,-1,-1,-1,-1,-1],"split_conditions":[2.5051094E2,1.9752243E2,3.029911E2,1.715125E2,8.5E1,8.5E1,8.2E1,1.5089636E2,7.8E1,2.2358803E2,2.3540799E2,7.5E1,2.8072144E2,3.2243573E2,3.4871362E2,-8.353438E0,8.8E1,1.8653801E2,8.8E1,7.2E1,7.5E1,9E1,6.911615E1,2.8829114E2,2.749061E2,9E1,1E0,7.8E1,9.113058E1,3.051158E2,1.029403E1,-6.8033843E0,-4.8916507E0,-6.3858705E0,-4.9589376E0,1.8111655E2,1E0,2.1629565E2,6.964594E1,2.3657549E2,8.5E1,2.09894E2,2.1506519E2,2.0783566E2,2.4256029E2,1E0,1E0,1E0,1E0,1E0,8.914791E1,5.8853294E1,9E1,7E1,7.5E1,7E1,3.41661E2,8.2E1,8.8E1,-4.950351E0,-3.9230728E0,-3.6102746E0,-2.0229032E0,-5.1155424E0,-3.9555855E0,-3.9784222E0,-3.0190597E0,-3.3861148E0,-2.1326911E0,-9.488379E-1,-2.2804782E0,-2.131211E0,-1.181015E0,-1.4996964E0,2.1608256E-1,5.564961E-1,-5.756399E-1,6.6489214E-1,1.5832579E0,-1.5800995E0,-2.4947484E-1,2.0950209E-1,1.6969963E0,-3.7033603E-1,1.3227166E0,1.601653E0,3.0476491E0,1.425372E0,2.8314514E0,3.155229E0,4.6807914E0,1.245329E0,4.128604E0,4.8942957E0,6.8490252E0,1.1008695E0,4.091827E0,6.703889E-1,2.5613918E0,2.5341814E0,4.453464E0,5.3851166E0,7.574923E0,6.0719047E0,3.9694993E0,6.2701592E0,7.8329034E0],"split_indices":[4,4,4,4,0,0,0,4,0,4,4,0,4,4,4,0,0,4,0,0,0,0,7,4,4,0,3,2,9,6,0,0,0,0,0,4,3,6,7,4,2,6,4,6,4,3,3,3,3,3,7,7,0,0,0,0,4,2,0,0,0,0,0,0,0,0,0,0,0,0,0,0,0,0,0,0,0,0,0,0,0,0,0,0,0,0,0,0,0,0,0,0,0,0,0,0,0,0,0,0,0,0,0,0,0,0,0],"split_type":[0,0,0,0,0,0,0,0,0,0,0,0,0,0,0,0,0,0,0,0,0,0,0,0,0,0,0,0,0,0,0,0,0,0,0,0,0,0,0,0,0,0,0,0,0,0,0,0,0,0,0,0,0,0,0,0,0,0,0,0,0,0,0,0,0,0,0,0,0,0,0,0,0,0,0,0,0,0,0,0,0,0,0,0,0,0,0,0,0,0,0,0,0,0,0,0,0,0,0,0,0,0,0,0,0,0,0],"sum_hessian":[3.214E3,1.6E3,1.614E3,5.08E2,1.092E3,1.18E3,4.34E2,2.12E2,2.96E2,6.62E2,4.3E2,7.05E2,4.75E2,2.02E2,2.32E2,9E1,1.22E2,8.6E1,2.1E2,2.77E2,3.85E2,2.8E2,1.5E2,2.38E2,4.67E2,2.99E2,1.76E2,1.02E2,1E2,1.88E2,4.4E1,8.8E1,3.4E1,4.2E1,4.4E1,1.43E2,6.7E1,6.9E1,2.08E2,1.24E2,2.61E2,1.65E2,1.15E2,2.5E1,1.25E2,1.78E2,6E1,2.5E2,2.17E2,1.94E2,1.05E2,8.9E1,8.7E1,5.8E1,4.4E1,5E1,5E1,6.7E1,1.21E2,4.7E1,9.6E1,3.7E1,3E1,3.5E1,3.4E1,5E1,1.58E2,5.7E1,6.7E1,1.95E2,6.6E1,6.8E1,9.7E1,4.2E1,7.3E1,4E0,2.1E1,6.2E1,6.3E1,8.5E1,9.3E1,2.9E1,3.1E1,1.17E2,1.33E2,1.11E2,1.06E2,9.8E1,9.6E1,7.5E1,3E1,7E0,8.2E1,4.7E1,4E1,8E0,5E1,1.3E1,3.1E1,1E1,4E1,3.2E1,1.8E1,4.6E1,2.1E1,5.9E1,6.2E1],"tree_param":{"num_deleted":"0","num_feature":"10","num_nodes":"107","size_leaf_vector":"1"}},{"base_weights":[3.6205642E-2,-3.227808E1,2.183394E1,-5.5256268E1,-2.176832E1,8.624193E0,4.3411194E1,-7.2373215E1,-4.8559902E1,-3.076039E1,-1.3376403E1,-2.0910592E0,1.9581722E1,5.738244E1,2.6453415E1,-8.355601E0,-6.5153984E1,-5.5818626E1,-4.1119534E1,-3.7837753E1,-2.5146847E1,-2.1329721E1,-4.9723573E0,-1.1633111E1,3.4930272E0,1.2575524E1,3.1286276E1,5.0282524E1,8.386891E1,1.9180431E1,4.701876E1,-7.518468E0,-5.619671E0,-6.310578E0,-4.9280556E1,-4.452733E1,-2.8842165E1,-4.2663845E1,-3.2867836E1,-2.061008E1,-3.1399107E1,-2.7411777E1,-1.5849912E1,7.035973E0,-8.735969E0,-1.707344E1,-3.523595E0,-4.3366303E0,9.77788E0,2.48647E1,9.59503E0,4.021925E1,2.3374271E1,4.2389088E1,5.8415733E1,7.830298E1,1.2555338E1,1.2428555E1,2.640231E1,4.0441452E1,5.964626E1,-4.5808234E0,-6.051759E0,-5.026963E0,-3.7680485E0,-3.069311E0,-1.4763755E0,-5.266442E0,-3.929197E0,-3.5750318E0,-2.3728447E0,-2.326374E0,-1.27326E0,-4.085546E0,-2.6896398E0,-2.3258128E0,-3.4374623E0,-2.1390753E0,-9.593429E-1,-1.2924942E-1,1.3745164E0,-1.1781319E0,-1.3374698E-1,-1.3020961E0,-2.3252456E0,1.9926709E-1,-1.647239E0,1.776392E0,-5.988339E-1,3.33379E-1,1.5717508E0,1.567963E0,2.9219213E0,2.9908273E-1,1.3692234E0,3.3323522E0,4.6074386E0,2.0116043E0,3.3125145E0,2.6429348E0,4.564508E0,5.0240717E0,6.7519875E0,8.64285E0,6.323043E0,7.999998E-1,2.310149E0,3.1265342E0,1.3608282E0,2.6395268E0,4.505177E0,4.7438846E0,7.8779E0],"categories":[],"categories_nodes":[],"categories_segments":[],"categories_sizes":[],"default_left":[0,0,0,0,0,0,0,0,0,0,0,0,0,0,0,0,0,0,0,0,0,0,0,0,0,0,0,0,0,0,0,0,0,0,0,0,0,0,0,0,0,0,0,0,0,0,0,0,0,0,0,0,0,0,0,0,0,0,0,0,0,0,0,0,0,0,0,0,0,0,0,0,0,0,0,0,0,0,0,0,0,0,0,0,0,0,0,0,0,0,0,0,0,0,0,0,0,0,0,0,0,0,0,0,0,0,0,0,0,0,0,0,0],"id":6,"left_children":[1,3,5,7,9,11,13,15,17,19,21,23,25,27,29,-1,31,33,35,37,39,41,43,45,47,49,51,53,55,57,59,-1,-1,-1,61,63,65,67,69,71,73,75,77,79,81,83,85,87,89,91,93,95,97,99,101,103,-1,105,107,109,111,-1,-1,-1,-1,-1,-1,-1,-1,-1,-1,-1,-1,-1,-1,-1,-1,-1,-1,-1,-1,-1,-1,-1,-1,-1,-1,-1,-1,-1,-1,-1,-1,-1,-1,-1,-1,-1,-1,-1,-1,-1,-1,-1,-1,-1,-1,-1,-1,-1,-1,-1,-1],"loss_changes":[2.243444E6,3.0862775E5,5.417476E5,4.255125E4,6.614047E4,1.3870706E5,1.6953075E5,3.50225E3,1.346525E4,1.5927031E4,3.0504047E4,3.1905068E4,4.7492766E4,7.0049875E4,4.8150953E4,0E0,2.2307812E3,3.7872812E3,4.900547E3,3.0514375E3,6.1552656E3,7.3933984E3,1.0185246E4,9.687955E3,1.8643664E4,1.3200387E4,1.4461297E4,1.7672188E4,9.1735E3,1.1565711E4,4.6374844E3,0E0,0E0,0E0,3.7767188E2,2.5791406E3,4.543496E2,9.901094E2,1.6747812E3,2.668586E3,3.1097031E3,2.3760781E3,4.159631E3,3.0363835E3,3.8357354E3,2.9989219E3,6.462881E3,6.2743193E3,7.983551E3,2.3771172E3,7.99383E3,2.534625E3,3.0772578E3,7.2566875E3,7.9087812E3,3.7055312E3,0E0,5.862088E3,6.8495234E3,2.6243828E3,2.5563516E3,0E0,0E0,0E0,0E0,0E0,0E0,0E0,0E0,0E0,0E0,0E0,0E0,0E0,0E0,0E0,0E0,0E0,0E0,0E0,0E0,0E0,0E0,0E0,0E0,0E0,0E0,0E0,0E0,0E0,0E0,0E0,0E0,0E0,0E0,0E0,0E0,0E0,0E0,0E0,0E0,0E0,0E0,0E0,0E0,0E0,0E0,0E0,0E0,0E0,0E0,0E0,0E0],"parents":[2147483647,0,0,1,1,2,2,3,3,4,4,5,5,6,6,7,7,8,8,9,9,10,10,11,11,12,12,13,13,14,14,16,16,17,17,18,18,19,19,20,20,21,21,22,22,23,23,24,24,25,25,26,26,27,27,28,28,29,29,30,30,34,34,35,35,36,36,37,37,38,38,39,39,40,40,41,41,42,42,43,43,44,44,45,45,46,46,47,47,48,48,49,49,50,50,51,51,52,52,53,53,54,54,55,55,57,57,58,58,59,59,60,60],"right_children":[2,4,6,8,10,12,14,16,18,20,22,24,26,28,30,-1,32,34,36,38,40,42,44,46,48,50,52,54,56,58,60,-1,-1,-1,62,64,66,68,70,72,74,76,78,80,82,84,86,88,90,92,94,96,98,100,102,104,-1,106,108,110,112,-1,-1,-1,-1,-1,-1,-1,-1,-1,-1,-1,-1,-1,-1,-1,-1,-1,-1,-1,-1,-1,-1,-1,-1,-1,-1,-1,-1,-1,-1,-1,-1,-1,-1,-1,-1,-1,-1,-1,-1,-1,-1,-1,-1,-1,-1,-1,-1,-1,-1,-1,-1],"split_conditions":[2.3892876E2,1.9124576E2,2.873918E2,1.5757173E2,8E1,8.2E1,5E1,1.2967598E2,8E1,2.1449832E2,2.1826695E2,7.5E1,2.672346E2,3.3092252E2,3.2552423E2,-8.355601E0,7.8E1,1.7355194E2,1.9488686E2,1E0,5.5E1,8.8E1,3.6E1,2.672346E2,2.6074008E2,3.5E1,4E1,1E0,3.8060608E2,1E0,3.5194263E2,-7.518468E0,-5.619671E0,-6.310578E0,6E1,1E0,2.2911366E2,7E1,2.2251804E2,2.3441742E2,2.0326373E2,4.4E1,2.0474208E2,1E0,2.4615005E2,5.8E1,8.2E1,7.2E1,1E0,2.4814272E2,2.4991154E2,9E1,2.9838235E2,2.6636984E2,8.8E1,4.2E1,1.2555338E1,3.2702994E2,5.8E1,7E1,3.8810837E2,-4.5808234E0,-6.051759E0,-5.026963E0,-3.7680485E0,-3.069311E0,-1.4763755E0,-5.266442E0,-3.929197E0,-3.5750318E0,-2.3728447E0,-2.326374E0,-1.27326E0,-4.085546E0,-2.6896398E0,-2.3258128E0,-3.4374623E0,-2.1390753E0,-9.593429E-1,-1.2924942E-1,1.3745164E0,-1.1781319E0,-1.3374698E-1,-1.3020961E0,-2.3252456E0,1.9926709E-1,-1.647239E0,1.776392E0,-5.988339E-1,3.33379E-1,1.5717508E0,1.567963E0,2.9219213E0,2.9908273E-1,1.3692234E0,3.3323522E0,4.6074386E0,2.0116043E0,3.3125145E0,2.6429348E0,4.564508E0,5.0240717E0,6.7519875E0,8.64285E0,6.323043E0,7.999998E-1,2.310149E0,3.1265342E0,1.3608282E0,2.6395268E0,4.505177E0,4.7438846E0,7.8779E0],"split_indices":[4,4,4,4,0,0,8,6,0,4,4,0,4,4,4,0,0,6,6,3,8,0,8,4,4,8,8,3,4,3,4,0,0,0,8,3,6,0,6,4,6,8,6,3,6,8,2,2,3,4,4,0,6,6,0,8,0,6,8,0,6,0,0,0,0,0,0,0,0,0,0,0,0,0,0,0,0,0,0,0,0,0,0,0,0,0,0,0,0,0,0,0,0,0,0,0,0,0,0,0,0,0,0,0,0,0,0,0,0,0,0,0,0],"split_type":[0,0,0,0,0,0,0,0,0,0,0,0,0,0,0,0,0,0,0,0,0,0,0,0,0,0,0,0,0,0,0,0,0,0,0,0,0,0,0,0,0,0,0,0,0,0,0,0,0,0,0,0,0,0,0,0,0,0,0,0,0,0,0,0,0,0,0,0,0,0,0,0,0,0,0,0,0,0,0,0,0,0,0,0,0,0,0,0,0,0,0,0,0,0,0,0,0,0,0,0,0,0,0,0,0,0,0,0,0,0,0,0,0],"sum_hessian":[3.183E3,1.282E3,1.901E3,4.01E2,8.81E2,1.18E3,7.21E2,1.1E2,2.91E2,4.24E2,4.57E2,5.97E2,5.83E2,3.94E2,3.27E2,3.9E1,7.1E1,1.44E2,1.47E2,1.85E2,2.39E2,2.34E2,2.23E2,2.2E2,3.77E2,3.66E2,2.17E2,3.13E2,8.1E1,2.43E2,8.4E1,3E1,4.1E1,6.4E1,8E1,1.13E2,3.4E1,9E1,9.5E1,1.41E2,9.8E1,1.09E2,1.25E2,5.3E1,1.7E2,1.31E2,8.9E1,1.68E2,2.09E2,7E1,2.96E2,1E2,1.17E2,1.62E2,1.51E2,7.4E1,7E0,1.27E2,1.16E2,5.8E1,2.6E1,6.5E1,1.5E1,5.8E1,5.5E1,2.9E1,5E0,1.9E1,7.1E1,7E1,2.5E1,1.04E2,3.7E1,2.9E1,6.9E1,7.1E1,3.8E1,6.5E1,6E1,2.4E1,2.9E1,1.2E2,5E1,8.1E1,5E1,6.3E1,2.6E1,1.1E1,1.57E2,1.01E2,1.08E2,2.4E1,4.6E1,1.14E2,1.82E2,4.9E1,5.1E1,9E1,2.7E1,2.9E1,1.33E2,8.3E1,6.8E1,4.5E1,2.9E1,9.1E1,3.6E1,8.3E1,3.3E1,1.6E1,4.2E1,1.8E1,8E0],"tree_param":{"num_deleted":"0","num_feature":"10","num_nodes":"113","size_leaf_vector":"1"}},{"base_weights":[-2.4802724E-1,-2.58424E1,2.1916105E1,-4.6569252E1,-1.5328065E1,1.0443173E1,3.989288E1,-5.8358734E1,-3.745157E1,-4.4033284E0,-2.2146452E1,2.1904406E1,4.4152924E-1,2.5704033E1,5.183411E1,-7.718639E0,-5.3693607E1,-2.9923405E1,-4.4718956E1,-1.2930419E1,3.104865E0,-2.640092E1,-1.448015E1,1.3821319E1,3.0298664E1,5.55709E0,-9.710618E0,1.9094563E1,4.1647243E1,4.727618E1,8.4863815E1,-5.746286E1,-4.1963074E1,-3.4778297E1,-2.3823328E1,-4.0890133E1,-5.2231476E1,-1.4526408E1,1.3527755E0,-1.8096691E0,8.386181E0,-3.68743E1,-2.2984627E1,-6.78983E0,-1.9421703E1,7.633264E0,1.934638E1,2.139697E1,3.6676186E1,-6.492389E-1,1.1669368E1,-1.5543416E1,-3.8363833E0,3.0467854E1,1.3278223E1,3.552499E1,5.793272E1,3.8924854E1,5.5540188E1,7.4622397E0,1.1525113E1,-6.7138467E0,-5.4334483E0,-2.0788944E0,-4.3446975E0,-3.894893E0,-2.638486E0,-2.6874309E0,-1.1448311E0,-5.086386E0,-3.7593772E0,-5.371816E0,-2.3538394E0,-1.9163866E0,-9.880349E-1,-6.402764E-1,1.2829489E0,-7.212722E-1,1.7909601E-1,7.038704E-2,1.295782E0,-3.4504986E0,-4.4028964E0,-2.76206E0,-1.8439585E0,-1.4221346E0,-1.6120116E-1,-2.6346242E0,-1.6507742E0,2.0442202E0,3.911426E-1,3.562569E-1,2.2613337E0,3.1885645E0,1.5032326E0,3.2368226E0,4.9025245E0,-8.950357E-1,1.7993729E-1,7.014074E-1,1.6984434E0,-1.983606E0,-8.8684386E-1,-2.6823316E-2,-1.7376944E0,2.0216825E0,3.2945435E0,6.737871E-1,2.0086958E0,1.9725217E0,4.0816407E0,6.2690034E0,3.398866E0,3.3398945E0,5.085394E0,6.342672E0,4.8862195E0],"categories":[],"categories_nodes":[],"categories_segments":[],"categories_sizes":[],"default_left":[0,0,0,0,0,0,0,0,0,0,0,0,0,0,0,0,0,0,0,0,0,0,0,0,0,0,0,0,0,0,0,0,0,0,0,0,0,0,0,0,0,0,0,0,0,0,0,0,0,0,0,0,0,0,0,0,0,0,0,0,0,0,0,0,0,0,0,0,0,0,0,0,0,0,0,0,0,0,0,0,0,0,0,0,0,0,0,0,0,0,0,0,0,0,0,0,0,0,0,0,0,0,0,0,0,0,0,0,0,0,0,0,0,0,0,0,0],"id":7,"left_children":[1,3,5,7,9,11,13,15,17,19,21,23,25,27,29,-1,31,33,35,37,39,41,43,45,47,49,51,53,55,57,59,61,63,65,67,69,71,73,75,77,79,81,83,85,87,89,91,93,95,97,99,101,103,105,107,109,111,113,115,-1,-1,-1,-1,-1,-1,-1,-1,-1,-1,-1,-1,-1,-1,-1,-1,-1,-1,-1,-1,-1,-1,-1,-1,-1,-1,-1,-1,-1,-1,-1,-1,-1,-1,-1,-1,-1,-1,-1,-1,-1,-1,-1,-1,-1,-1,-1,-1,-1,-1,-1,-1,-1,-1,-1,-1,-1,-1],"loss_changes":[1.8323044E6,3.259557E5,3.5659075E5,5.1981125E4,7.409097E4,1.2126785E5,1.1285725E5,1.49901875E4,1.43561875E4,2.4625979E4,1.960725E4,3.3027625E4,2.9448148E4,3.1865297E4,5.09245E4,0E0,5.4490625E3,3.4301797E3,1.9969688E3,4.1242207E3,5.336652E3,1.32080625E4,8.263973E3,8.499539E3,1.28911875E4,1.43101E4,6.4484434E3,1.4210422E4,6.905953E3,2.0120562E4,4.7626875E3,3.3540625E2,5.671094E2,1.6962734E3,2.2181484E3,1.3666875E3,6.474375E2,3.2981797E3,1.7739406E3,2.0950793E3,3.4664678E3,8.3328125E1,5.7862188E3,3.361647E3,2.264629E3,5.6860127E3,6.7749688E3,6.3919336E3,5.799703E3,3.8381484E3,4.5796777E3,2.5432793E3,4.6317905E3,1.2080625E3,6.4526387E3,4.8738438E3,4.794922E2,9.103828E3,5.31625E3,0E0,0E0,0E0,0E0,0E0,0E0,0E0,0E0,0E0,0E0,0E0,0E0,0E0,0E0,0E0,0E0,0E0,0E0,0E0,0E0,0E0,0E0,0E0,0E0,0E0,0E0,0E0,0E0,0E0,0E0,0E0,0E0,0E0,0E0,0E0,0E0,0E0,0E0,0E0,0E0,0E0,0E0,0E0,0E0,0E0,0E0,0E0,0E0,0E0,0E0,0E0,0E0,0E0,0E0,0E0,0E0,0E0,0E0],"parents":[2147483647,0,0,1,1,2,2,3,3,4,4,5,5,6,6,7,7,8,8,9,9,10,10,11,11,12,12,13,13,14,14,16,16,17,17,18,18,19,19,20,20,21,21,22,22,23,23,24,24,25,25,26,26,27,27,28,28,29,29,30,30,31,31,32,32,33,33,34,34,35,35,36,36,37,37,38,38,39,39,40,40,41,41,42,42,43,43,44,44,45,45,46,46,47,47,48,48,49,49,50,50,51,51,52,52,53,53,54,54,55,55,56,56,57,57,58,58],"right_children":[2,4,6,8,10,12,14,16,18,20,22,24,26,28,30,-1,32,34,36,38,40,42,44,46,48,50,52,54,56,58,60,62,64,66,68,70,72,74,76,78,80,82,84,86,88,90,92,94,96,98,100,102,104,106,108,110,112,114,116,-1,-1,-1,-1,-1,-1,-1,-1,-1,-1,-1,-1,-1,-1,-1,-1,-1,-1,-1,-1,-1,-1,-1,-1,-1,-1,-1,-1,-1,-1,-1,-1,-1,-1,-1,-1,-1,-1,-1,-1,-1,-1,-1,-1,-1,-1,-1,-1,-1,-1,-1,-1,-1,-1,-1,-1,-1,-1],"split_conditions":[1.9654257E0,1.5801793E0,2.3116992E0,1.3720999E0,4.4E1,4.7E1,8E1,1.0891926E0,4.6E1,1.7687415E0,1.852578E0,2.1281583E0,5.7E1,2.6041937E0,2.789709E0,-7.718639E0,8.8E1,1E0,5.6E1,9.5E1,1E0,7.2E1,5.2E1,1E0,1E0,2.1340127E0,2.1378767E0,5.2E1,2.8679888E0,2.4581861E0,3.0448487E0,7.2E1,6.430201E1,8E1,9E1,7.0708336E1,1.5751104E0,1E0,1E0,8.1026405E1,1.8462903E0,6.6E1,2.1768343E2,1E0,7E1,3.5E1,6.585961E1,3.6E1,3.1459955E2,7.5E1,7.8E1,1E0,6.6E1,2.3727891E0,1E0,7E1,8.2E1,9E1,4E1,7.4622397E0,1.1525113E1,-6.7138467E0,-5.4334483E0,-2.0788944E0,-4.3446975E0,-3.894893E0,-2.638486E0,-2.6874309E0,-1.1448311E0,-5.086386E0,-3.7593772E0,-5.371816E0,-2.3538394E0,-1.9163866E0,-9.880349E-1,-6.402764E-1,1.2829489E0,-7.212722E-1,1.7909601E-1,7.038704E-2,1.295782E0,-3.4504986E0,-4.4028964E0,-2.76206E0,-1.8439585E0,-1.4221346E0,-1.6120116E-1,-2.6346242E0,-1.6507742E0,2.0442202E0,3.911426E-1,3.562569E-1,2.2613337E0,3.1885645E0,1.5032326E0,3.2368226E0,4.9025245E0,-8.950357E-1,1.7993729E-1,7.014074E-1,1.6984434E0,-1.983606E0,-8.8684386E-1,-2.6823316E-2,-1.7376944E0,2.0216825E0,3.2945435E0,6.737871E-1,2.0086958E0,1.9725217E0,4.0816407E0,6.2690034E0,3.398866E0,3.3398945E0,5.085394E0,6.342672E0,4.8862195E0],"split_indices":[5,5,5,5,8,8,0,5,8,5,5,5,8,5,5,0,0,3,8,0,3,0,8,3,3,5,5,8,5,5,5,0,7,1,0,7,5,3,3,7,5,8,6,3,0,8,7,8,6,0,0,3,8,5,3,0,2,0,8,0,0,0,0,0,0,0,0,0,0,0,0,0,0,0,0,0,0,0,0,0,0,0,0,0,0,0,0,0,0,0,0,0,0,0,0,0,0,0,0,0,0,0,0,0,0,0,0,0,0,0,0,0,0,0,0,0,0],"split_type":[0,0,0,0,0,0,0,0,0,0,0,0,0,0,0,0,0,0,0,0,0,0,0,0,0,0,0,0,0,0,0,0,0,0,0,0,0,0,0,0,0,0,0,0,0,0,0,0,0,0,0,0,0,0,0,0,0,0,0,0,0,0,0,0,0,0,0,0,0,0,0,0,0,0,0,0,0,0,0,0,0,0,0,0,0,0,0,0,0,0,0,0,0,0,0,0,0,0,0,0,0,0,0,0,0,0,0,0,0,0,0,0,0,0,0,0,0],"sum_hessian":[3.228E3,1.498E3,1.73E3,5.03E2,9.95E2,1.057E3,6.73E2,2.17E2,2.86E2,3.83E2,6.12E2,4.92E2,5.65E2,3.09E2,3.64E2,4E1,1.77E2,1.43E2,1.43E2,1.79E2,2.04E2,3.92E2,2.2E2,2.52E2,2.4E2,3.76E2,1.89E2,2.2E2,8.9E1,3.22E2,4.2E1,1.31E2,4.6E1,7.7E1,6.6E1,9.9E1,4.4E1,1.61E2,1.8E1,1.06E2,9.8E1,9.4E1,2.98E2,8.7E1,1.33E2,1.2E2,1.32E2,1.02E2,1.38E2,1.87E2,1.89E2,9.4E1,9.5E1,7.3E1,1.47E2,6.7E1,2.2E1,1.63E2,1.59E2,3.4E1,8E0,2.7E1,1.04E2,4E0,4.2E1,4.9E1,2.8E1,5.2E1,1.4E1,2.1E1,7.8E1,4.1E1,3E0,7.9E1,8.2E1,1.1E1,7E0,4.2E1,6.4E1,3.7E1,6.1E1,7.5E1,1.9E1,1.45E2,1.53E2,3.5E1,5.2E1,3.7E1,9.6E1,2.6E1,9.4E1,2.3E1,1.09E2,3.7E1,6.5E1,1.05E2,3.3E1,4.2E1,1.45E2,1.02E2,8.7E1,5.6E1,3.8E1,7.6E1,1.9E1,1.6E1,5.7E1,7.6E1,7.1E1,1.8E1,4.9E1,1.7E1,5E0,1.14E2,4.9E1,6.9E1,9E1],"tree_param":{"num_deleted":"0","num_feature":"10","num_nodes":"117","size_leaf_vector":"1"}},{"base_weights":[5.4813378E-2,-2.4365667E1,1.9087458E1,-4.5051994E1,-1.7037704E1,9.101352E0,3.694075E1,-5.700958E1,-3.8692127E1,-8.978194E0,-2.3948141E1,1.7421515E1,-2.1784658E0,4.8029606E1,2.3265486E1,-7.309743E0,-5.2706493E1,-3.0305174E1,-4.5350033E1,-2.031959E1,-3.8728588E0,-2.9855833E1,-1.6769588E1,1.0842048E1,2.559809E1,-8.368088E0,3.224859E0,4.1966347E1,7.0347435E1,1.4493448E1,3.6151188E1,-5.8692317E0,-4.0920424E0,-3.454435E1,-2.5359024E1,-5.032988E1,-3.911536E1,-2.3362759E1,-1.165695E1,-7.197678E0,4.240201E0,-4.0197105E1,-2.7336834E1,-2.3061594E1,-1.1047514E1,3.3529162E0,1.4977888E1,1.8989614E1,3.3329582E1,-1.1938231E1,1.3402052E0,-2.2754598E0,8.539059E0,3.2302547E1,4.7454033E1,6.516419E1,1.0110629E1,8.934273E0,2.0474518E1,3.1608725E1,5.2621307E1,-2.4891756E0,-3.7701662E0,-2.8864021E0,-1.96249E0,-5.244764E0,-3.215683E0,-4.0739255E0,-2.62624E0,-2.8969579E0,-1.838237E0,2.0640694E-1,-1.5583614E0,4.252234E-1,-9.394922E-1,1.6493523E0,2.5002E-1,-4.6845775E0,-3.4829984E0,-3.0295627E0,-2.0669448E0,-1.552972E0,-2.7634141E0,-1.551746E0,-4.1805488E-1,-3.824707E-1,9.40442E-1,2.7663338E-1,1.7405866E0,1.6215407E0,3.6028144E0,2.4332983E0,3.9905775E0,-1.5277084E0,-4.7381184E-1,-1.3746749E0,4.4480595E-1,1.7218319E-1,-7.832114E-1,1.1125983E0,-1.7404705E-1,1.0035193E0,3.3304543E0,4.2020016E0,5.271621E0,5.2251053E0,7.547475E0,4.1756954E-2,1.1411122E0,5.675756E-1,2.5008886E0,2.2496388E0,3.7551312E0,4.1175857E0,7.452086E0],"categories":[],"categories_nodes":[],"categories_segments":[],"categories_sizes":[],"default_left":[0,0,0,0,0,0,0,0,0,0,0,0,0,0,0,0,0,0,0,0,0,0,0,0,0,0,0,0,0,0,0,0,0,0,0,0,0,0,0,0,0,0,0,0,0,0,0,0,0,0,0,0,0,0,0,0,0,0,0,0,0,0,0,0,0,0,0,0,0,0,0,0,0,0,0,0,0,0,0,0,0,0,0,0,0,0,0,0,0,0,0,0,0,0,0,0,0,0,0,0,0,0,0,0,0,0,0,0,0,0,0,0,0,0,0],"id":8,"left_children":[1,3,5,7,9,11,13,15,17,19,21,23,25,27,29,-1,31,33,35,37,39,41,43,45,47,49,51,53,55,57,59,-1,-1,61,63,65,67,69,71,73,75,77,79,81,83,85,87,89,91,93,95,97,99,101,103,105,-1,107,109,111,113,-1,-1,-1,-1,-1,-1,-1,-1,-1,-1,-1,-1,-1,-1,-1,-1,-1,-1,-1,-1,-1,-1,-1,-1,-1,-1,-1,-1,-1,-1,-1,-1,-1,-1,-1,-1,-1,-1,-1,-1,-1,-1,-1,-1,-1,-1,-1,-1,-1,-1,-1,-1,-1,-1],"loss_changes":[1.4994004E6,2.1342081E5,3.2288962E5,2.5846562E4,5.7982688E4,1.0928075E5,9.7443375E4,4.857375E3,1.2242906E4,2.7943277E4,2.3328344E4,3.576317E4,1.6582547E4,4.548075E4,3.2589906E4,0E0,4.8549062E3,1.4454062E3,2.1828125E3,3.6784375E3,9.067258E3,6.891625E3,8.958664E3,1.1501195E4,1.45876875E4,8.0235225E3,7.765951E3,1.35201875E4,5.3521562E3,5.6661016E3,7.156422E3,0E0,0E0,7.924297E2,5.3408984E2,1.0375E3,2.591875E2,2.5343906E3,2.2425088E3,6.028127E3,2.0463008E3,4.298828E2,4.300578E3,3.733754E3,4.107674E3,5.856872E3,7.0656875E3,7.1153125E3,7.06875E3,3.9883926E3,3.014164E3,2.923812E3,3.6102715E3,2.0265E3,2.8938438E3,4.9640625E3,0E0,1.9558491E3,5.4916445E3,4.2935625E3,2.9355781E3,0E0,0E0,0E0,0E0,0E0,0E0,0E0,0E0,0E0,0E0,0E0,0E0,0E0,0E0,0E0,0E0,0E0,0E0,0E0,0E0,0E0,0E0,0E0,0E0,0E0,0E0,0E0,0E0,0E0,0E0,0E0,0E0,0E0,0E0,0E0,0E0,0E0,0E0,0E0,0E0,0E0,0E0,0E0,0E0,0E0,0E0,0E0,0E0,0E0,0E0,0E0,0E0,0E0,0E0],"parents":[2147483647,0,0,1,1,2,2,3,3,4,4,5,5,6,6,7,7,8,8,9,9,10,10,11,11,12,12,13,13,14,14,16,16,17,17,18,18,19,19,20,20,21,21,22,22,23,23,24,24,25,25,26,26,27,27,28,28,29,29,30,30,33,33,34,34,35,35,36,36,37,37,38,38,39,39,40,40,41,41,42,42,43,43,44,44,45,45,46,46,47,47,48,48,49,49,50,50,51,51,52,52,53,53,54,54,55,55,57,57,58,58,59,59,60,60],"right_children":[2,4,6,8,10,12,14,16,18,20,22,24,26,28,30,-1,32,34,36,38,40,42,44,46,48,50,52,54,56,58,60,-1,-1,62,64,66,68,70,72,74,76,78,80,82,84,86,88,90,92,94,96,98,100,102,104,106,-1,108,110,112,114,-1,-1,-1,-1,-1,-1,-1,-1,-1,-1,-1,-1,-1,-1,-1,-1,-1,-1,-1,-1,-1,-1,-1,-1,-1,-1,-1,-1,-1,-1,-1,-1,-1,-1,-1,-1,-1,-1,-1,-1,-1,-1,-1,-1,-1,-1,-1,-1,-1,-1,-1,-1,-1,-1],"split_conditions":[2.4256029E2,1.8816246E2,2.9050397E2,1.5870967E2,4.7E1,5E1,5E1,1.2452799E2,4.5E1,2.0680038E2,2.2358803E2,2.672346E2,1E0,3.3530884E2,3.1592313E2,-7.309743E0,8.5E1,8.8E1,1.8037346E2,2.1296295E2,2.3330222E2,7E1,1E0,8.5E1,8.8E1,7.8E1,2.667516E2,2.9617493E2,3.8060608E2,8.355929E1,3.584986E2,-5.8692317E0,-4.0920424E0,8.2E1,1.7747633E2,9.350265E1,8.5E1,1E0,3.5E1,3.3E1,3.2E1,2.0609285E2,2.2621394E2,5.3E1,7.8E1,1E0,6.622742E1,3.3265738E2,1E0,2.844698E2,2.190416E2,5.6E1,6E1,7.671818E1,1E0,1E0,1.0110629E1,2.690403E2,8.372805E1,1E0,9.851115E1,-2.4891756E0,-3.7701662E0,-2.8864021E0,-1.96249E0,-5.244764E0,-3.215683E0,-4.0739255E0,-2.62624E0,-2.8969579E0,-1.838237E0,2.0640694E-1,-1.5583614E0,4.252234E-1,-9.394922E-1,1.6493523E0,2.5002E-1,-4.6845775E0,-3.4829984E0,-3.0295627E0,-2.0669448E0,-1.552972E0,-2.7634141E0,-1.551746E0,-4.1805488E-1,-3.824707E-1,9.40442E-1,2.7663338E-1,1.7405866E0,1.6215407E0,3.6028144E0,2.4332983E0,3.9905775E0,-1.5277084E0,-4.7381184E-1,-1.3746749E0,4.4480595E-1,1.7218319E-1,-7.832114E-1,1.1125983E0,-1.7404705E-1,1.0035193E0,3.3304543E0,4.2020016E0,5.271621E0,5.2251053E0,7.547475E0,4.1756954E-2,1.1411122E0,5.675756E-1,2.5008886E0,2.2496388E0,3.7551312E0,4.1175857E0,7.452086E0],"split_indices":[4,4,4,4,8,8,8,4,8,4,4,4,3,4,4,0,0,0,6,6,4,0,3,0,0,0,4,6,4,7,4,0,0,0,4,7,0,3,8,8,8,4,6,8,0,3,7,6,3,6,6,8,8,9,3,3,0,6,9,3,9,0,0,0,0,0,0,0,0,0,0,0,0,0,0,0,0,0,0,0,0,0,0,0,0,0,0,0,0,0,0,0,0,0,0,0,0,0,0,0,0,0,0,0,0,0,0,0,0,0,0,0,0,0,0],"split_type":[0,0,0,0,0,0,0,0,0,0,0,0,0,0,0,0,0,0,0,0,0,0,0,0,0,0,0,0,0,0,0,0,0,0,0,0,0,0,0,0,0,0,0,0,0,0,0,0,0,0,0,0,0,0,0,0,0,0,0,0,0,0,0,0,0,0,0,0,0,0,0,0,0,0,0,0,0,0,0,0,0,0,0,0,0,0,0,0,0,0,0,0,0,0,0,0,0,0,0,0,0,0,0,0,0,0,0,0,0,0,0,0,0,0,0],"sum_hessian":[3.224E3,1.412E3,1.812E3,3.68E2,1.044E3,1.163E3,6.49E2,1.25E2,2.43E2,4.83E2,5.61E2,6.69E2,4.94E2,3.57E2,2.92E2,2.3E1,1.02E2,1.1E2,1.33E2,1.49E2,3.34E2,3.06E2,2.55E2,3.72E2,2.97E2,2.3E2,2.64E2,2.83E2,7.4E1,1.75E2,1.17E2,6.5E1,3.7E1,5.6E1,5.4E1,7E1,6.3E1,1.09E2,4E1,2.37E2,9.7E1,5.7E1,2.49E2,1.2E2,1.35E2,1.33E2,2.39E2,1.62E2,1.35E2,1.68E2,6.2E1,1.3E2,1.34E2,1.05E2,1.78E2,6.6E1,8E0,9.2E1,8.3E1,9.4E1,2.3E1,1.6E1,4E1,3.1E1,2.3E1,6.1E1,9E0,5.4E1,9E0,4.9E1,6E1,9E0,3.1E1,3.8E1,1.99E2,1.1E1,8.6E1,2.2E1,3.5E1,1.7E2,7.9E1,4.7E1,7.3E1,8.1E1,5.4E1,6.1E1,7.2E1,4E1,1.99E2,1.41E2,2.1E1,5.9E1,7.6E1,1.14E2,5.4E1,1E1,5.2E1,7.6E1,5.4E1,1.07E2,2.7E1,5E0,1E2,9.2E1,8.6E1,3.2E1,3.4E1,2.1E1,7.1E1,2E1,6.3E1,3.9E1,5.5E1,1.7E1,6E0],"tree_param":{"num_deleted":"0","num_feature":"10","num_nodes":"115","size_leaf_vector":"1"}},{"base_weights":[8.313383E-2,-1.689661E1,1.7148321E1,-3.2739605E1,-9.440023E0,9.765896E0,3.331648E1,-4.4301643E1,-2.6042126E1,-1.5534125E1,-1.1413066E-1,2.0457827E1,2.6120372E0,2.0273754E1,4.5467934E1,-5.2455296E1,-3.831895E1,-2.1574066E1,-3.734235E1,-7.383442E0,-1.9418648E1,-4.7507057E0,4.7874584E0,1.3801031E1,2.6872091E1,5.360476E0,-8.338284E0,1.5105483E1,3.136227E1,3.8486843E1,5.843631E1,-6.035093E0,-4.499002E1,-4.274196E1,-2.6566324E1,-2.5217398E1,-1.4153102E1,-2.053872E1,-3.8934956E1,-1.246489E1,-2.4649382E0,-2.5190054E1,-1.2956254E1,4.0965586E0,-8.12884E0,1.591834E0,1.1154539E1,4.972497E0,1.9899992E1,2.4103886E1,3.850237E1,1.2791803E0,9.776406E0,-1.239773E1,-3.5534613E0,1.755343E1,-7.5207148E0,2.6591995E1,4.634782E1,2.9377216E1,4.5368366E1,5.1370632E1,6.97677E1,-3.482825E0,-5.1579413E0,-4.8185153E0,-3.7061958E0,-1.3337388E0,-2.7927647E0,-3.7602117E0,-2.235517E0,-1.276333E0,-3.7342937E0,-3.1975265E0,-1.1055163E0,-1.7947453E0,-4.00634E0,-1.5319195E0,-3.1341948E-2,-1.876994E0,-4.626661E-2,-2.9200833E0,-2.1067865E0,-1.8359149E0,-7.681417E-1,-7.842998E-1,8.0760556E-1,-2.6737769E0,-6.312936E-1,-8.042798E-1,4.6111456E-1,1.3401312E0,3.9137924E-1,-8.574509E-2,1.0569782E0,3.120198E0,1.3814257E0,3.9228578E0,2.2307231E0,2.4406624E0,4.170097E0,-9.631663E-2,1.0649402E0,7.898559E-1,2.1996105E0,-1.4978187E0,-5.535774E-1,-4.749798E-1,1.4955866E0,-1.5715587E0,1.8566297E0,-1.4555448E0,7.785539E-1,2.842239E0,7.531812E-2,3.0502355E0,7.8256464E0,3.3189354E0,8.3422846E-1,3.9481506E0,5.7401175E0,4.1121354E0,6.019849E0,4.1412873E0,7.630816E0],"categories":[],"categories_nodes":[],"categories_segments":[],"categories_sizes":[],"default_left":[0,0,0,0,0,0,0,0,0,0,0,0,0,0,0,0,0,0,0,0,0,0,0,0,0,0,0,0,0,0,0,0,0,0,0,0,0,0,0,0,0,0,0,0,0,0,0,0,0,0,0,0,0,0,0,0,0,0,0,0,0,0,0,0,0,0,0,0,0,0,0,0,0,0,0,0,0,0,0,0,0,0,0,0,0,0,0,0,0,0,0,0,0,0,0,0,0,0,0,0,0,0,0,0,0,0,0,0,0,0,0,0,0,0,0,0,0,0,0,0,0,0,0,0,0],"id":9,"left_children":[1,3,5,7,9,11,13,15,17,19,21,23,25,27,29,31,33,35,37,39,41,43,45,47,49,51,53,55,57,59,61,-1,63,65,67,69,71,73,75,77,79,81,83,85,87,89,91,93,95,97,99,101,103,105,107,109,111,113,115,117,119,121,123,-1,-1,-1,-1,-1,-1,-1,-1,-1,-1,-1,-1,-1,-1,-1,-1,-1,-1,-1,-1,-1,-1,-1,-1,-1,-1,-1,-1,-1,-1,-1,-1,-1,-1,-1,-1,-1,-1,-1,-1,-1,-1,-1,-1,-1,-1,-1,-1,-1,-1,-1,-1,-1,-1,-1,-1,-1,-1,-1,-1,-1,-1],"loss_changes":[9.23763E5,1.8846594E5,1.894531E5,3.8409312E4,6.18309E4,8.3546266E4,7.7998625E4,7.054125E3,1.5648266E4,2.0687203E4,9.817899E3,1.8326984E4,1.978756E4,1.3390258E4,2.1008375E4,1.7539531E3,4.627547E3,6.0198906E3,1.6296719E3,5.3163086E3,1.6267031E4,6.668672E3,4.2537964E3,1.1582902E4,6.2129844E3,9.448315E3,2.5182812E3,9.382766E3,4.1931016E3,9.316719E3,3.4495E3,0E0,1.0742109E3,6.481094E2,2.176836E2,4.7187188E3,2.0966572E3,7.267964E2,1.2171953E3,3.635456E3,3.5805676E3,3.2485469E3,5.8982383E3,3.009196E3,5.268419E3,4.1384277E3,1.0846006E3,2.9469036E3,8.368422E3,4.064414E3,8.2416016E2,5.7683174E3,5.6058496E3,1.1722295E3,1.4429062E3,5.380332E3,1.9444812E3,2.8133867E3,6.1974414E3,5.8132656E3,4.4534062E3,2.7622188E3,2.577125E3,0E0,0E0,0E0,0E0,0E0,0E0,0E0,0E0,0E0,0E0,0E0,0E0,0E0,0E0,0E0,0E0,0E0,0E0,0E0,0E0,0E0,0E0,0E0,0E0,0E0,0E0,0E0,0E0,0E0,0E0,0E0,0E0,0E0,0E0,0E0,0E0,0E0,0E0,0E0,0E0,0E0,0E0,0E0,0E0,0E0,0E0,0E0,0E0,0E0,0E0,0E0,0E0,0E0,0E0,0E0,0E0,0E0,0E0,0E0,0E0,0E0,0E0],"parents":[2147483647,0,0,1,1,2,2,3,3,4,4,5,5,6,6,7,7,8,8,9,9,10,10,11,11,12,12,13,13,14,14,15,15,16,16,17,17,18,18,19,19,20,20,21,21,22,22,23,23,24,24,25,25,26,26,27,27,28,28,29,29,30,30,32,32,33,33,34,34,35,35,36,36,37,37,38,38,39,39,40,40,41,41,42,42,43,43,44,44,45,45,46,46,47,47,48,48,49,49,50,50,51,51,52,52,53,53,54,54,55,55,56,56,57,57,58,58,59,59,60,60,61,61,62,62],"right_children":[2,4,6,8,10,12,14,16,18,20,22,24,26,28,30,32,34,36,38,40,42,44,46,48,50,52,54,56,58,60,62,-1,64,66,68,70,72,74,76,78,80,82,84,86,88,90,92,94,96,98,100,102,104,106,108,110,112,114,116,118,120,122,124,-1,-1,-1,-1,-1,-1,-1,-1,-1,-1,-1,-1,-1,-1,-1,-1,-1,-1,-1,-1,-1,-1,-1,-1,-1,-1,-1,-1,-1,-1,-1,-1,-1,-1,-1,-1,-1,-1,-1,-1,-1,-1,-1,-1,-1,-1,-1,-1,-1,-1,-1,-1,-1,-1,-1,-1,-1,-1,-1,-1,-1,-1],"split_conditions":[2.4730498E2,1.8807481E2,3.1177216E2,1.5566576E2,8.5E1,4.4E1,8E1,1.32327E2,5.2E1,4.8E1,1E0,1E0,6E1,3.6133646E2,3.5539606E2,1E0,8.8E1,8.8E1,7.703254E1,1E0,2.2251804E2,3.5E1,9E1,2.7065366E2,2.9617493E2,2.7732077E2,1E0,6.4E1,9.790407E1,1E0,3.9640784E2,-6.035093E0,4.5E1,7.8E1,3.2E1,1.6210686E2,9.977653E1,7.5E1,1.6103564E2,2.3420084E2,6.328842E1,1E0,1E0,8.433628E1,7.777772E1,2.0783566E2,4.3E1,8.195002E1,3.6E1,3.2E1,7.282999E1,9.1395134E1,8.5E1,9.4994514E1,9.653846E1,5.008831E1,3.426778E2,9.709119E1,4.049798E2,5E1,9E1,8.8E1,7.399376E1,-3.482825E0,-5.1579413E0,-4.8185153E0,-3.7061958E0,-1.3337388E0,-2.7927647E0,-3.7602117E0,-2.235517E0,-1.276333E0,-3.7342937E0,-3.1975265E0,-1.1055163E0,-1.7947453E0,-4.00634E0,-1.5319195E0,-3.1341948E-2,-1.876994E0,-4.626661E-2,-2.9200833E0,-2.1067865E0,-1.8359149E0,-7.681417E-1,-7.842998E-1,8.0760556E-1,-2.6737769E0,-6.312936E-1,-8.042798E-1,4.6111456E-1,1.3401312E0,3.9137924E-1,-8.574509E-2,1.0569782E0,3.120198E0,1.3814257E0,3.9228578E0,2.2307231E0,2.4406624E0,4.170097E0,-9.631663E-2,1.0649402E0,7.898559E-1,2.1996105E0,-1.4978187E0,-5.535774E-1,-4.749798E-1,1.4955866E0,-1.5715587E0,1.8566297E0,-1.4555448E0,7.785539E-1,2.842239E0,7.531812E-2,3.0502355E0,7.8256464E0,3.3189354E0,8.3422846E-1,3.9481506E0,5.7401175E0,4.1121354E0,6.019849E0,4.1412873E0,7.630816E0],"split_indices":[6,6,6,6,0,8,0,6,8,8,3,3,8,6,6,3,0,0,9,3,6,8,0,6,6,6,3,8,9,3,6,0,8,0,8,6,9,1,6,6,7,3,3,9,9,6,8,7,8,8,7,7,0,9,7,7,6,9,6,8,0,0,7,0,0,0,0,0,0,0,0,0,0,0,0,0,0,0,0,0,0,0,0,0,0,0,0,0,0,0,0,0,0,0,0,0,0,0,0,0,0,0,0,0,0,0,0,0,0,0,0,0,0,0,0,0,0,0,0,0,0,0,0,0,0],"split_type":[0,0,0,0,0,0,0,0,0,0,0,0,0,0,0,0,0,0,0,0,0,0,0,0,0,0,0,0,0,0,0,0,0,0,0,0,0,0,0,0,0,0,0,0,0,0,0,0,0,0,0,0,0,0,0,0,0,0,0,0,0,0,0,0,0,0,0,0,0,0,0,0,0,0,0,0,0,0,0,0,0,0,0,0,0,0,0,0,0,0,0,0,0,0,0,0,0,0,0,0,0,0,0,0,0,0,0,0,0,0,0,0,0,0,0,0,0,0,0,0,0,0,0,0,0],"sum_hessian":[3.186E3,1.597E3,1.589E3,5.1E2,1.087E3,1.092E3,4.97E2,1.85E2,3.25E2,6.57E2,4.3E2,4.37E2,6.55E2,2.41E2,2.56E2,7.5E1,1.1E2,2.35E2,9E1,2.13E2,4.44E2,2.21E2,2.09E2,2.16E2,2.21E2,5.24E2,1.31E2,1.66E2,7.5E1,1.69E2,8.7E1,3.3E1,4.2E1,7.8E1,3.2E1,1.56E2,7.9E1,9E0,8.1E1,1.04E2,1.09E2,2.33E2,2.11E2,6.1E1,1.6E2,1.4E2,6.9E1,8.9E1,1.27E2,1.81E2,4E1,2.73E2,2.51E2,7E1,6.1E1,1.5E2,1.6E1,5.9E1,1.6E1,7.5E1,9.4E1,5.7E1,3E1,1.9E1,2.3E1,3.6E1,4.2E1,4E0,2.8E1,2.7E1,1.29E2,7.6E1,3E0,3E0,6E0,5E0,7.6E1,8.4E1,2E1,1.1E1,9.8E1,1.15E2,1.18E2,1.03E2,1.08E2,1.5E1,4.6E1,1.3E1,1.47E2,3.3E1,1.07E2,5.2E1,1.7E1,4.4E1,4.5E1,4.3E1,8.4E1,1.7E1,1.64E2,9E0,3.1E1,2.21E2,5.2E1,2.19E2,3.2E1,5E1,2E1,5.8E1,3E0,4E0,1.46E2,1.1E1,5E0,5.5E1,4E0,1.2E1,4E0,6.3E1,1.2E1,6.6E1,2.8E1,2.9E1,2.8E1,7E0,2.3E1],"tree_param":{"num_deleted":"0","num_feature":"10","num_nodes":"125","size_leaf_vector":"1"}},{"base_weights":[1.1686995E-1,-1.6134396E1,2.0416523E1,-3.1553604E1,-7.2951584E0,1.3998741E1,3.7449535E1,-4.2941994E1,-2.533288E1,3.2411388E-1,-1.36431675E1,6.8191867E0,2.4077694E1,4.9923683E1,2.8260426E1,-5.4893467E1,-3.8656338E1,-1.9911324E1,-3.0684294E1,-6.9613233E0,6.526482E0,-1.868373E1,-8.108416E0,1.8588126E0,1.3167808E1,1.5204273E1,2.8231169E1,4.533647E1,7.2170763E0,2.1585838E1,3.451059E1,-6.505442E0,-4.764013E1,-3.2533485E1,-4.5060096E0,-2.5325321E1,-1.4853565E1,-4.1832134E1,-2.8264992E1,-1.0887462E1,-2.5514793E0,1.3784618E1,3.5453782E0,-2.6418583E1,-1.6070297E1,-1.2135635E1,-4.493257E0,7.03465E0,-5.247641E0,5.50428E0,1.7055449E1,-1.2387427E0,1.7525513E1,3.7552067E1,2.4906736E1,5.804033E0,4.1231277E1,2.5174807E1,1.0566181E1,2.3460152E1,4.0394257E1,-2.0972095E0,-4.9373426E0,-3.499855E0,-1.9883578E0,-2.739888E0,-1.0623558E0,-1.8876965E0,-9.7480553E-1,-4.408415E0,-2.6512046E0,-3.0793164E0,-2.1739414E0,-1.369319E0,-5.081202E-1,-7.3941076E-1,2.401764E-2,-7.5770736E-2,1.6363525E0,-7.349415E-2,7.227869E-1,-1.5165256E0,-2.9034264E0,-1.4455159E0,-3.3189828E0,-1.8969421E0,-9.151749E-1,-7.0826165E-2,-8.1721985E-1,1.04125194E-1,1.1519508E0,-1.4018469E-1,-1.3589553E0,-3.500845E-2,8.587931E-1,1.3678638E0,2.4712996E0,6.075277E-1,-1.1153177E0,1.9855146E0,7.781513E-1,3.3595216E0,4.8837085E0,1.9121045E0,2.963804E0,3.5933983E0,5.2520747E0,1.4216366E0,2.82044E0,1.4486184E0,2.8256148E-1,3.0717752E0,1.3935908E0,4.3144646E0,1.8742332E0],"categories":[],"categories_nodes":[],"categories_segments":[],"categories_sizes":[],"default_left":[0,0,0,0,0,0,0,0,0,0,0,0,0,0,0,0,0,0,0,0,0,0,0,0,0,0,0,0,0,0,0,0,0,0,0,0,0,0,0,0,0,0,0,0,0,0,0,0,0,0,0,0,0,0,0,0,0,0,0,0,0,0,0,0,0,0,0,0,0,0,0,0,0,0,0,0,0,0,0,0,0,0,0,0,0,0,0,0,0,0,0,0,0,0,0,0,0,0,0,0,0,0,0,0,0,0,0,0,0,0,0,0,0,0,0],"id":10,"left_children":[1,3,5,7,9,11,13,15,17,19,21,23,25,27,29,31,33,35,37,39,41,43,45,47,49,51,53,55,-1,57,59,-1,61,63,-1,65,67,69,71,73,75,77,79,81,83,85,87,89,91,93,95,97,99,101,103,-1,105,107,109,111,113,-1,-1,-1,-1,-1,-1,-1,-1,-1,-1,-1,-1,-1,-1,-1,-1,-1,-1,-1,-1,-1,-1,-1,-1,-1,-1,-1,-1,-1,-1,-1,-1,-1,-1,-1,-1,-1,-1,-1,-1,-1,-1,-1,-1,-1,-1,-1,-1,-1,-1,-1,-1,-1,-1],"loss_changes":[1.0454374E6,2.396434E5,1.5349431E5,4.4316375E4,5.417703E4,7.400419E4,4.2712438E4,9.393125E3,1.1482406E4,2.3090738E4,1.6891664E4,1.8868943E4,1.5266859E4,1.3248719E4,8.594125E3,1.0904688E3,5.1526562E3,5.3701797E3,4.4203594E3,4.039586E3,5.9212803E3,6.019625E3,4.2096074E3,1.2469357E4,7.7394375E3,5.290547E3,8.0136094E3,4.7417812E3,0E0,4.120383E3,6.4579062E3,0E0,6.6777344E2,2.1050781E3,0E0,2.753621E3,2.0932324E3,3.1714844E1,2.1959531E3,1.9486025E3,1.5166135E3,3.0142207E3,3.1111223E3,1.8806406E3,6.1792188E3,2.6375762E3,2.165589E3,5.2551396E3,4.567073E3,1.6285835E3,4.157426E3,1.3735248E3,2.5894258E3,1.6553906E3,5.3411875E3,0E0,4.502875E3,2.3503633E3,8.372849E2,2.470625E3,3.5324219E3,0E0,0E0,0E0,0E0,0E0,0E0,0E0,0E0,0E0,0E0,0E0,0E0,0E0,0E0,0E0,0E0,0E0,0E0,0E0,0E0,0E0,0E0,0E0,0E0,0E0,0E0,0E0,0E0,0E0,0E0,0E0,0E0,0E0,0E0,0E0,0E0,0E0,0E0,0E0,0E0,0E0,0E0,0E0,0E0,0E0,0E0,0E0,0E0,0E0,0E0,0E0,0E0,0E0,0E0],"parents":[2147483647,0,0,1,1,2,2,3,3,4,4,5,5,6,6,7,7,8,8,9,9,10,10,11,11,12,12,13,13,14,14,15,15,16,16,17,17,18,18,19,19,20,20,21,21,22,22,23,23,24,24,25,25,26,26,27,27,29,29,30,30,32,32,33,33,35,35,36,36,37,37,38,38,39,39,40,40,41,41,42,42,43,43,44,44,45,45,46,46,47,47,48,48,49,49,50,50,51,51,52,52,53,53,54,54,56,56,57,57,58,58,59,59,60,60],"right_children":[2,4,6,8,10,12,14,16,18,20,22,24,26,28,30,32,34,36,38,40,42,44,46,48,50,52,54,56,-1,58,60,-1,62,64,-1,66,68,70,72,74,76,78,80,82,84,86,88,90,92,94,96,98,100,102,104,-1,106,108,110,112,114,-1,-1,-1,-1,-1,-1,-1,-1,-1,-1,-1,-1,-1,-1,-1,-1,-1,-1,-1,-1,-1,-1,-1,-1,-1,-1,-1,-1,-1,-1,-1,-1,-1,-1,-1,-1,-1,-1,-1,-1,-1,-1,-1,-1,-1,-1,-1,-1,-1,-1,-1,-1,-1,-1],"split_conditions":[2.056717E0,1.6544031E0,2.4581861E0,1.3839742E0,4.7E1,8.5E1,4.4E1,1.2967598E2,4.6E1,1.8622411E0,1.8884736E0,2.2457716E0,2.1664891E0,2.815541E0,1E0,9.96224E-1,5E1,1E0,7E1,8.8E1,3.7E1,7.212827E1,1E0,5.4E1,7.5E1,7.5E1,3.5E1,3.4E1,7.2170763E0,5.6E1,3.086982E2,-6.505442E0,3.7E1,1.7895212E2,-4.5060096E0,2.2478497E2,8.8E1,2.0920328E2,1.6018245E0,8.685846E1,1.7205216E0,6.723584E1,1E0,4.8E1,6.6E1,7.2E1,5.4E1,1E0,6.2E1,2.7343314E2,3.2231482E2,2.0957918E0,4.4E1,3.2423495E2,1E0,5.804033E0,9.5212326E1,2.527385E0,9.527404E1,5.5E1,6.3E1,-2.0972095E0,-4.9373426E0,-3.499855E0,-1.9883578E0,-2.739888E0,-1.0623558E0,-1.8876965E0,-9.7480553E-1,-4.408415E0,-2.6512046E0,-3.0793164E0,-2.1739414E0,-1.369319E0,-5.081202E-1,-7.3941076E-1,2.401764E-2,-7.5770736E-2,1.6363525E0,-7.349415E-2,7.227869E-1,-1.5165256E0,-2.9034264E0,-1.4455159E0,-3.3189828E0,-1.8969421E0,-9.151749E-1,-7.0826165E-2,-8.1721985E-1,1.04125194E-1,1.1519508E0,-1.4018469E-1,-1.3589553E0,-3.500845E-2,8.587931E-1,1.3678638E0,2.4712996E0,6.075277E-1,-1.1153177E0,1.9855146E0,7.781513E-1,3.3595216E0,4.8837085E0,1.9121045E0,2.963804E0,3.5933983E0,5.2520747E0,1.4216366E0,2.82044E0,1.4486184E0,2.8256148E-1,3.0717752E0,1.3935908E0,4.3144646E0,1.8742332E0],"split_indices":[5,5,5,5,8,0,8,6,8,5,5,5,5,5,3,5,8,3,0,0,8,7,3,8,0,1,8,8,0,8,6,0,8,6,0,6,0,6,5,7,5,7,3,8,8,0,8,3,8,6,6,5,8,6,3,0,9,5,9,8,8,0,0,0,0,0,0,0,0,0,0,0,0,0,0,0,0,0,0,0,0,0,0,0,0,0,0,0,0,0,0,0,0,0,0,0,0,0,0,0,0,0,0,0,0,0,0,0,0,0,0,0,0,0,0],"split_type":[0,0,0,0,0,0,0,0,0,0,0,0,0,0,0,0,0,0,0,0,0,0,0,0,0,0,0,0,0,0,0,0,0,0,0,0,0,0,0,0,0,0,0,0,0,0,0,0,0,0,0,0,0,0,0,0,0,0,0,0,0,0,0,0,0,0,0,0,0,0,0,0,0,0,0,0,0,0,0,0,0,0,0,0,0,0,0,0,0,0,0,0,0,0,0,0,0,0,0,0,0,0,0,0,0,0,0,0,0,0,0,0,0,0,0],"sum_hessian":[3.167E3,1.759E3,1.408E3,6.4E2,1.119E3,1.024E3,3.84E2,2.24E2,4.16E2,5.09E2,6.1E2,5.99E2,4.25E2,1.61E2,2.23E2,5.6E1,1.68E2,2.09E2,2.07E2,2.34E2,2.75E2,3.18E2,2.92E2,3.37E2,2.62E2,1.37E2,2.88E2,1.36E2,2.5E1,1.1E2,1.13E2,2E1,3.6E1,8.9E1,7.9E1,9.9E1,1.1E2,3.4E1,1.73E2,1.23E2,1.11E2,7.9E1,1.96E2,7.8E1,2.4E2,1.37E2,1.55E2,1.95E2,1.42E2,8.9E1,1.73E2,1.7E1,1.2E2,7.3E1,2.15E2,3E1,1.06E2,8.2E1,2.8E1,4.1E1,7.2E1,3E0,3.3E1,7.3E1,1.6E1,8.6E1,1.3E1,6E1,5E1,2.8E1,6E0,1.22E2,5.1E1,8.2E1,4.1E1,4E1,7.1E1,1.2E1,6.7E1,9.1E1,1.05E2,1.6E1,6.2E1,2.21E2,1.9E1,4E1,9.7E1,7.7E1,7.8E1,8.4E1,1.11E2,9.8E1,4.4E1,3.1E1,5.8E1,1.22E2,5.1E1,1E1,7E0,9.6E1,2.4E1,5.7E1,1.6E1,9.9E1,1.16E2,7.5E1,3.1E1,1.9E1,6.3E1,1.8E1,1E1,2.2E1,1.9E1,6.3E1,9E0],"tree_param":{"num_deleted":"0","num_feature":"10","num_nodes":"115","size_leaf_vector":"1"}},{"base_weights":[7.035751E-2,-1.6459848E1,1.629199E1,-3.0554337E1,-8.775803E0,9.984215E0,3.3104107E1,-4.4010036E1,-2.5919943E1,-4.3600726E0,-1.7698582E1,1.5353117E1,-1.18304595E-1,2.2469294E1,4.18646E1,-5.692972E0,-4.0155567E1,-3.0629812E1,-2.1016113E1,-9.532149E0,1.6386204E0,-2.4713446E1,-1.3823276E1,8.7392E0,2.0777847E1,-4.3357964E0,4.267978E0,1.9341154E1,4.358863E1,3.7785686E1,6.3812775E1,-4.7644067E0,-3.550083E1,-2.278401E1,-3.3266167E1,-1.6127985E1,-2.6949883E1,-1.3407192E1,-3.124886E0,-2.601449E0,5.5373673E0,-2.9517634E0,-2.1808453E1,-1.8757303E1,-1.0637133E1,1.3677125E1,3.6051984E0,2.899554E1,1.6682388E1,-7.9227495E0,1.8682771E0,2.0452778E0,1.2099706E1,1.2134057E1,2.4213047E1,2.127849E0,4.809724E1,3.5980476E1,5.6741848E1,5.5393324E0,8.015402E0,-4.163054E0,-2.940056E0,-2.4063132E0,-1.037829E0,-3.7260034E0,-2.8389637E0,-1.7783015E0,-7.78938E-1,-3.7832139E0,-2.4337337E0,-1.4888954E0,-3.8166898E-1,-8.676883E-1,9.06732E-2,-9.093798E-1,1.23943046E-1,-1.4078093E-1,7.9776144E-1,-2.521328E0,-1.7558285E0,-1.5602382E0,-2.3746443E0,-1.7499815E0,-7.490082E-1,7.839756E-1,1.9693679E0,-1.0995721E0,4.776939E-1,2.297163E0,3.4857337E0,1.1967412E0,2.0869818E0,-1.4962083E0,-4.698452E-1,-8.407338E-1,5.3811055E-1,-1.1894907E-2,9.3255675E-1,-3.1087738E-1,1.3290784E0,6.8657655E-1,1.9453083E0,1.8071371E0,3.0005274E0,5.573598E0,3.4874904E0,3.2419605E0,4.2273226E0,6.3567977E0,2.0346453E0],"categories":[],"categories_nodes":[],"categories_segments":[],"categories_sizes":[],"default_left":[0,0,0,0,0,0,0,0,0,0,0,0,0,0,0,0,0,0,0,0,0,0,0,0,0,0,0,0,0,0,0,0,0,0,0,0,0,0,0,0,0,0,0,0,0,0,0,0,0,0,0,0,0,0,0,0,0,0,0,0,0,0,0,0,0,0,0,0,0,0,0,0,0,0,0,0,0,0,0,0,0,0,0,0,0,0,0,0,0,0,0,0,0,0,0,0,0,0,0,0,0,0,0,0,0,0,0,0,0,0,0],"id":11,"left_children":[1,3,5,7,9,11,13,15,17,19,21,23,25,27,29,-1,31,33,35,37,39,41,43,45,47,49,51,53,55,57,59,-1,61,63,65,67,69,71,73,75,77,-1,79,81,83,85,87,89,91,93,95,97,99,101,103,-1,105,107,109,-1,-1,-1,-1,-1,-1,-1,-1,-1,-1,-1,-1,-1,-1,-1,-1,-1,-1,-1,-1,-1,-1,-1,-1,-1,-1,-1,-1,-1,-1,-1,-1,-1,-1,-1,-1,-1,-1,-1,-1,-1,-1,-1,-1,-1,-1,-1,-1,-1,-1,-1,-1],"loss_changes":[8.537799E5,1.7052125E5,1.7008284E5,3.3523844E4,4.0188023E4,6.346347E4,3.9859688E4,4.7258438E3,8.959219E3,2.1269018E4,8.842969E3,2.7226812E4,7.54765E3,1.23635E4,1.8975031E4,0E0,2.20425E3,3.5801406E3,5.565086E3,9.0933125E3,5.271543E3,1.01191406E3,3.2560508E3,8.72052E3,1.3613266E4,4.6441826E3,3.455355E3,5.8823125E3,1.4843203E3,4.9299688E3,4.9948438E2,0E0,1.4986172E3,6.354531E2,1.9544531E3,1.4597969E3,1.6886484E3,3.195582E3,3.1423389E3,3.8273145E3,2.825247E3,0E0,6.817617E2,9.634922E2,2.8036455E3,6.024121E3,2.9774556E3,4.0663906E3,5.3146562E3,2.9237256E3,2.8243665E3,2.4757527E3,8.3937354E2,2.6785986E3,3.1526484E3,0E0,6.71875E1,2.8570938E3,2.6732617E3,0E0,0E0,0E0,0E0,0E0,0E0,0E0,0E0,0E0,0E0,0E0,0E0,0E0,0E0,0E0,0E0,0E0,0E0,0E0,0E0,0E0,0E0,0E0,0E0,0E0,0E0,0E0,0E0,0E0,0E0,0E0,0E0,0E0,0E0,0E0,0E0,0E0,0E0,0E0,0E0,0E0,0E0,0E0,0E0,0E0,0E0,0E0,0E0,0E0,0E0,0E0,0E0],"parents":[2147483647,0,0,1,1,2,2,3,3,4,4,5,5,6,6,7,7,8,8,9,9,10,10,11,11,12,12,13,13,14,14,16,16,17,17,18,18,19,19,20,20,21,21,22,22,23,23,24,24,25,25,26,26,27,27,28,28,29,29,30,30,32,32,33,33,34,34,35,35,36,36,37,37,38,38,39,39,40,40,42,42,43,43,44,44,45,45,46,46,47,47,48,48,49,49,50,50,51,51,52,52,53,53,54,54,56,56,57,57,58,58],"right_children":[2,4,6,8,10,12,14,16,18,20,22,24,26,28,30,-1,32,34,36,38,40,42,44,46,48,50,52,54,56,58,60,-1,62,64,66,68,70,72,74,76,78,-1,80,82,84,86,88,90,92,94,96,98,100,102,104,-1,106,108,110,-1,-1,-1,-1,-1,-1,-1,-1,-1,-1,-1,-1,-1,-1,-1,-1,-1,-1,-1,-1,-1,-1,-1,-1,-1,-1,-1,-1,-1,-1,-1,-1,-1,-1,-1,-1,-1,-1,-1,-1,-1,-1,-1,-1,-1,-1,-1,-1,-1,-1,-1,-1],"split_conditions":[2.5051094E2,2.0175603E2,3.029911E2,1.6164261E2,5.2E1,5.2E1,8E1,1.2020238E2,1E0,2.2988333E2,2.2358803E2,2.7081113E2,1E0,3.584986E2,3.5194263E2,-5.692972E0,7.8E1,4E1,4.8E1,8.8E1,1E0,7.7952194E1,7.98408E1,4.2E1,4E1,2.878493E2,2.9050397E2,7.5E1,6.911615E1,3.8810837E2,3.8060608E2,-4.7644067E0,1E0,2.2298807E2,1.8527966E2,9.093015E1,7E1,2.5145375E2,2.1449832E2,8.026312E1,7.306138E1,-2.9517634E0,7.5E1,6E1,2.1515887E2,1E0,5.7439816E1,2.846762E2,1E0,7E1,7.008377E1,7.8E1,2.3219995E2,3.2423495E2,1E0,2.127849E0,5.5E1,9E1,4.141364E2,5.5393324E0,8.015402E0,-4.163054E0,-2.940056E0,-2.4063132E0,-1.037829E0,-3.7260034E0,-2.8389637E0,-1.7783015E0,-7.78938E-1,-3.7832139E0,-2.4337337E0,-1.4888954E0,-3.8166898E-1,-8.676883E-1,9.06732E-2,-9.093798E-1,1.23943046E-1,-1.4078093E-1,7.9776144E-1,-2.521328E0,-1.7558285E0,-1.5602382E0,-2.3746443E0,-1.7499815E0,-7.490082E-1,7.839756E-1,1.9693679E0,-1.0995721E0,4.776939E-1,2.297163E0,3.4857337E0,1.1967412E0,2.0869818E0,-1.4962083E0,-4.698452E-1,-8.407338E-1,5.3811055E-1,-1.1894907E-2,9.3255675E-1,-3.1087738E-1,1.3290784E0,6.8657655E-1,1.9453083E0,1.8071371E0,3.0005274E0,5.573598E0,3.4874904E0,3.2419605E0,4.2273226E0,6.3567977E0,2.0346453E0],"split_indices":[4,4,4,4,8,8,0,6,3,4,4,4,3,4,4,0,0,8,8,0,3,7,7,8,8,6,4,0,7,6,4,0,3,6,4,7,0,6,4,7,7,0,0,8,6,3,7,4,3,0,7,0,6,6,3,0,8,0,6,0,0,0,0,0,0,0,0,0,0,0,0,0,0,0,0,0,0,0,0,0,0,0,0,0,0,0,0,0,0,0,0,0,0,0,0,0,0,0,0,0,0,0,0,0,0,0,0,0,0,0,0],"split_type":[0,0,0,0,0,0,0,0,0,0,0,0,0,0,0,0,0,0,0,0,0,0,0,0,0,0,0,0,0,0,0,0,0,0,0,0,0,0,0,0,0,0,0,0,0,0,0,0,0,0,0,0,0,0,0,0,0,0,0,0,0,0,0,0,0,0,0,0,0,0,0,0,0,0,0,0,0,0,0,0,0,0,0,0,0,0,0,0,0,0,0,0,0,0,0,0,0,0,0,0,0,0,0,0,0,0,0,0,0,0,0],"sum_hessian":[3.182E3,1.576E3,1.606E3,5.55E2,1.021E3,1.169E3,4.37E2,1.4E2,4.15E2,6.84E2,3.37E2,7.63E2,4.06E2,1.99E2,2.38E2,2.9E1,1.11E2,2.09E2,2.06E2,3.67E2,3.17E2,1.18E2,2.19E2,3.45E2,4.18E2,2.07E2,1.99E2,1.75E2,2.4E1,2.03E2,3.5E1,3.9E1,7.2E1,5.5E1,1.54E2,1.15E2,9.1E1,2.28E2,1.39E2,1.52E2,1.65E2,4.1E1,7.7E1,8.4E1,1.35E2,1.75E2,1.7E2,1.37E2,2.81E2,1.31E2,7.6E1,1.56E2,4.3E1,7.2E1,1.03E2,5E0,1.9E1,1.88E2,1.5E1,2.6E1,9E0,3.3E1,3.9E1,4.9E1,6E0,8.1E1,7.3E1,9.5E1,2E1,1.5E1,7.6E1,1.97E2,3.1E1,5.8E1,8.1E1,5.6E1,9.6E1,4.3E1,1.22E2,4E1,3.7E1,5.4E1,3E1,4.1E1,9.4E1,9E1,8.5E1,1.2E1,1.58E2,7E1,6.7E1,1.34E2,1.47E2,4E1,9.1E1,1.9E1,5.7E1,1.21E2,3.5E1,3E0,4E1,4.3E1,2.9E1,5.2E1,5.1E1,1E1,9E0,1.24E2,6.4E1,1.2E1,3E0],"tree_param":{"num_deleted":"0","num_feature":"10","num_nodes":"111","size_leaf_vector":"1"}},{"base_weights":[6.3008654E-1,-1.6611683E1,1.3509531E1,-3.2644764E1,-1.1963558E1,9.060143E0,3.466771E1,-4.2770065E1,-2.7857502E1,-7.485828E0,-1.800608E1,3.4206212E0,1.7152277E1,4.502811E1,2.7488342E1,-4.387423E0,-2.7087782E1,-3.4625786E1,-2.3976496E1,-1.22861805E1,-2.5178554E0,-2.4324879E1,-1.4702077E1,-1.4475033E0,8.806617E0,1.1317529E1,2.6071451E1,3.9115078E1,6.0396435E1,2.387857E1,4.4044876E1,-3.2547238E0,-1.619077E0,-1.4746339E0,-3.553665E1,-2.2268698E1,-3.64892E0,-4.231029E0,-1.4069759E1,-5.931352E0,1.5515316E0,-2.8439362E1,-2.0914705E1,-2.1308144E1,-1.2243762E1,-8.275289E0,1.9490466E0,1.2061836E0,1.2522542E1,1.7246372E1,8.260744E0,1.9676956E1,3.230516E1,3.5518517E1,5.100107E1,3.5313828E0,6.45065E0,1.5260558E1,2.780596E1,3.8417828E1,6.785278E0,-4.277866E0,-3.1410062E0,-2.3664849E0,-9.60145E-1,-8.278851E-1,2.764445E-1,-1.6616497E0,-1.1718447E0,-6.922206E-1,5.243019E-1,-1.2653342E-1,8.8092726E-1,-3.0333421E0,-1.9095185E0,-2.927855E-1,-2.196177E0,-2.274642E0,-3.0452192E-1,-1.0398563E0,-2.0853574E0,-5.43907E-1,-1.3434476E0,-2.6688486E-1,5.6855726E-1,-3.7446523E-1,5.7406515E-1,8.0693704E-1,1.6980904E0,1.2366713E0,2.4369256E0,3.722453E-1,1.1423987E0,7.159834E-1,2.1734016E0,2.0261667E0,3.458508E0,2.4667346E0,3.7958705E0,3.306877E0,5.8105483E0,8.847453E-1,2.086723E0,2.8836217E0,1.1310731E0,2.341112E0,4.5078673E0],"categories":[],"categories_nodes":[],"categories_segments":[],"categories_sizes":[],"default_left":[0,0,0,0,0,0,0,0,0,0,0,0,0,0,0,0,0,0,0,0,0,0,0,0,0,0,0,0,0,0,0,0,0,0,0,0,0,0,0,0,0,0,0,0,0,0,0,0,0,0,0,0,0,0,0,0,0,0,0,0,0,0,0,0,0,0,0,0,0,0,0,0,0,0,0,0,0,0,0,0,0,0,0,0,0,0,0,0,0,0,0,0,0,0,0,0,0,0,0,0,0,0,0,0,0,0,0],"id":12,"left_children":[1,3,5,7,9,11,13,15,17,19,21,23,25,27,29,-1,31,33,35,37,39,41,43,45,47,49,51,53,55,57,59,-1,-1,-1,61,63,-1,65,67,69,71,73,75,77,79,81,83,85,87,89,91,93,95,97,99,-1,-1,101,103,105,-1,-1,-1,-1,-1,-1,-1,-1,-1,-1,-1,-1,-1,-1,-1,-1,-1,-1,-1,-1,-1,-1,-1,-1,-1,-1,-1,-1,-1,-1,-1,-1,-1,-1,-1,-1,-1,-1,-1,-1,-1,-1,-1,-1,-1,-1,-1],"loss_changes":[7.130508E5,1.01926125E5,1.7271256E5,1.3730969E4,2.8705188E4,6.930565E4,2.2482562E4,4.8409375E2,4.7326875E3,1.461027E4,9.095891E3,2.3532553E4,3.217486E4,9.3503125E3,1.0356672E4,0E0,3.586914E0,8.29E2,2.1305078E3,4.4211406E3,4.218565E3,1.5610625E3,4.6076875E3,1.0962872E4,1.2014883E4,6.723672E3,9.165047E3,2.2837344E3,1.2171406E3,4.952914E3,1.8035664E3,0E0,0E0,0E0,7.7071875E2,1.9624414E3,0E0,1.6657908E3,1.3294375E3,1.8633691E3,2.8536282E3,6.01625E2,1.5905469E3,2.0295234E3,3.2910156E3,2.2223574E3,5.468019E3,3.1870627E3,5.538672E3,4.1438867E3,3.5735996E3,3.0343086E3,2.6711328E3,1.0962734E3,6.173789E2,0E0,0E0,1.682127E3,1.5052109E3,1.8365703E3,0E0,0E0,0E0,0E0,0E0,0E0,0E0,0E0,0E0,0E0,0E0,0E0,0E0,0E0,0E0,0E0,0E0,0E0,0E0,0E0,0E0,0E0,0E0,0E0,0E0,0E0,0E0,0E0,0E0,0E0,0E0,0E0,0E0,0E0,0E0,0E0,0E0,0E0,0E0,0E0,0E0,0E0,0E0,0E0,0E0,0E0,0E0],"parents":[2147483647,0,0,1,1,2,2,3,3,4,4,5,5,6,6,7,7,8,8,9,9,10,10,11,11,12,12,13,13,14,14,16,16,17,17,18,18,19,19,20,20,21,21,22,22,23,23,24,24,25,25,26,26,27,27,28,28,29,29,30,30,34,34,35,35,37,37,38,38,39,39,40,40,41,41,42,42,43,43,44,44,45,45,46,46,47,47,48,48,49,49,50,50,51,51,52,52,53,53,54,54,57,57,58,58,59,59],"right_children":[2,4,6,8,10,12,14,16,18,20,22,24,26,28,30,-1,32,34,36,38,40,42,44,46,48,50,52,54,56,58,60,-1,-1,-1,62,64,-1,66,68,70,72,74,76,78,80,82,84,86,88,90,92,94,96,98,100,-1,-1,102,104,106,-1,-1,-1,-1,-1,-1,-1,-1,-1,-1,-1,-1,-1,-1,-1,-1,-1,-1,-1,-1,-1,-1,-1,-1,-1,-1,-1,-1,-1,-1,-1,-1,-1,-1,-1,-1,-1,-1,-1,-1,-1,-1,-1,-1,-1,-1,-1],"split_conditions":[2.4256029E2,1.837572E2,3.1440823E2,1.5327438E2,5E1,8.5E1,4.4E1,9.604736E1,7.698391E1,2.1756693E2,2.0987964E2,2.7370944E2,2.7962152E2,3.4871362E2,3.584986E2,-4.387423E0,8E1,3.5E1,5.8E1,3.5E1,1E0,7.9637886E1,7.4569626E1,7.5E1,7.5E1,3.7E1,1E0,9.2E1,3.0431342E2,7.5E1,9.1695816E1,-3.2547238E0,-1.619077E0,-1.4746339E0,1.6833214E2,1.9861496E2,-3.64892E0,2.09894E2,1E0,9.44447E1,9E1,8E1,8.050241E1,2.3948991E2,6.3E1,5.8E1,1E0,1E0,1E0,8.6023636E1,2.5674908E2,6.375936E1,2.574775E2,6.8914185E1,3.0778384E2,3.5313828E0,6.45065E0,3.307513E2,6.2E1,1E0,6.785278E0,-4.277866E0,-3.1410062E0,-2.3664849E0,-9.60145E-1,-8.278851E-1,2.764445E-1,-1.6616497E0,-1.1718447E0,-6.922206E-1,5.243019E-1,-1.2653342E-1,8.8092726E-1,-3.0333421E0,-1.9095185E0,-2.927855E-1,-2.196177E0,-2.274642E0,-3.0452192E-1,-1.0398563E0,-2.0853574E0,-5.43907E-1,-1.3434476E0,-2.6688486E-1,5.6855726E-1,-3.7446523E-1,5.7406515E-1,8.0693704E-1,1.6980904E0,1.2366713E0,2.4369256E0,3.722453E-1,1.1423987E0,7.159834E-1,2.1734016E0,2.0261667E0,3.458508E0,2.4667346E0,3.7958705E0,3.306877E0,5.8105483E0,8.847453E-1,2.086723E0,2.8836217E0,1.1310731E0,2.341112E0,4.5078673E0],"split_indices":[4,4,4,4,8,0,8,7,7,4,4,4,4,4,4,0,0,8,8,8,3,7,7,0,0,8,3,0,6,0,7,0,0,0,4,6,0,6,3,7,0,0,7,4,8,8,3,3,3,7,4,7,6,7,6,0,0,6,8,3,0,0,0,0,0,0,0,0,0,0,0,0,0,0,0,0,0,0,0,0,0,0,0,0,0,0,0,0,0,0,0,0,0,0,0,0,0,0,0,0,0,0,0,0,0,0,0],"split_type":[0,0,0,0,0,0,0,0,0,0,0,0,0,0,0,0,0,0,0,0,0,0,0,0,0,0,0,0,0,0,0,0,0,0,0,0,0,0,0,0,0,0,0,0,0,0,0,0,0,0,0,0,0,0,0,0,0,0,0,0,0,0,0,0,0,0,0,0,0,0,0,0,0,0,0,0,0,0,0,0,0,0,0,0,0,0,0,0,0,0,0,0,0,0,0,0,0,0,0,0,0,0,0,0,0,0,0],"sum_hessian":[3.209E3,1.372E3,1.837E3,3.07E2,1.065E3,1.519E3,3.18E2,9.6E1,2.11E2,6.13E2,4.52E2,8.96E2,6.23E2,1.28E2,1.9E2,8.8E1,8E0,7.4E1,1.37E2,3.11E2,3.02E2,1.53E2,2.99E2,4.71E2,4.25E2,3.78E2,2.45E2,9.5E1,3.3E1,1.58E2,3.2E1,4E0,4E0,4E0,7E1,1.23E2,1.4E1,5.7E1,2.54E2,1.64E2,1.38E2,6.6E1,8.7E1,7.9E1,2.2E2,1.56E2,3.15E2,1.4E2,2.85E2,1.27E2,2.51E2,1.23E2,1.22E2,7.6E1,1.9E1,6E0,2.7E1,5.1E1,1.07E2,2.8E1,4E0,2.2E1,4.8E1,1.1E2,1.3E1,3.6E1,2.1E1,1.19E2,1.35E2,1.51E2,1.3E1,1E2,3.8E1,5.3E1,1.3E1,5E0,8.2E1,7.3E1,6E0,1.83E2,3.7E1,1.02E2,5.4E1,1.41E2,1.74E2,6.7E1,7.3E1,1.44E2,1.41E2,7.7E1,5E1,1.04E2,1.47E2,1.8E1,1.05E2,2.1E1,1.01E2,1.6E1,6E1,7E0,1.2E1,2.5E1,2.6E1,1E2,7E0,1E1,1.8E1],"tree_param":{"num_deleted":"0","num_feature":"10","num_nodes":"107","size_leaf_vector":"1"}},{"base_weights":[7.757343E-2,-1.1617914E1,1.4789672E1,-2.3935337E1,-6.0985174E0,1.05397415E1,2.8617855E1,-3.1112566E1,-1.8105911E1,2.1609716E0,-9.804369E0,1.8842594E1,5.3840475E0,3.9538635E1,2.1064974E1,-3.7790016E1,-2.7085924E1,-2.1748951E1,-1.2699251E1,-2.5537608E0,6.443236E0,-1.5279952E1,-6.691738E0,1.2960944E1,2.4832678E1,-1.474251E0,8.52651E0,3.5125935E1,5.6683193E1,1.5453914E1,2.6575602E1,-4.04433E1,-2.7141457E1,-2.4146362E1,-3.6292606E1,-2.7950289E1,-1.9746788E1,-1.64305E1,-8.31937E0,-6.9951515E0,1.4550512E0,2.2569754E0,1.0997406E1,-1.9142467E1,-1.1680139E1,-1.1045234E1,-3.0459044E0,5.66439E0,1.6366508E1,2.0334131E1,3.0943167E1,1.6320385E0,-7.1715E0,5.905604E0,1.6935257E1,2.9514748E1,4.4581818E1,4.641854E0,7.090327E0,1.9469566E1,5.29788E0,2.290111E1,4.0836563E1,-4.649193E0,-3.3436482E0,-3.1129777E0,-1.1965692E0,-2.87947E0,-1.88615E0,-3.8351617E0,-1.5836427E0,-3.1632106E0,-2.1823242E0,-2.4252803E0,-1.6581862E0,-2.0400894E0,-1.2442082E0,-1.0009183E0,1.1206076E-1,-1.0024899E0,-3.348973E-1,-9.870212E-2,9.359415E-1,1.1531276E0,-1.6880788E-2,7.8314847E-1,1.6288542E0,-6.209697E-1,-1.9553413E0,-1.776322E0,-8.3863753E-1,-2.1111495E0,-9.509447E-1,3.518159E-3,-1.0400032E0,2.966978E-2,1.0032858E0,1.430528E0,3.3132718E0,1.8348497E0,2.799255E0,1.8947405E0,3.3662E0,-1.5412843E-1,7.811052E-1,-8.419458E-1,8.5665953E-1,-8.04701E-1,6.812688E-1,8.28015E-1,1.9545529E0,2.2637832E0,3.3135612E0,3.0345592E0,4.9781413E0,1.5016046E0,2.3503199E0,1.0648761E-1,1.2503536E0,2.5186207E0,6.0608387E-1,2.884318E0,5.0946636E0],"categories":[],"categories_nodes":[],"categories_segments":[],"categories_sizes":[],"default_left":[0,0,0,0,0,0,0,0,0,0,0,0,0,0,0,0,0,0,0,0,0,0,0,0,0,0,0,0,0,0,0,0,0,0,0,0,0,0,0,0,0,0,0,0,0,0,0,0,0,0,0,0,0,0,0,0,0,0,0,0,0,0,0,0,0,0,0,0,0,0,0,0,0,0,0,0,0,0,0,0,0,0,0,0,0,0,0,0,0,0,0,0,0,0,0,0,0,0,0,0,0,0,0,0,0,0,0,0,0,0,0,0,0,0,0,0,0,0,0,0,0,0,0],"id":13,"left_children":[1,3,5,7,9,11,13,15,17,19,21,23,25,27,29,31,33,35,37,39,41,43,45,47,49,51,53,55,57,59,61,63,65,67,69,71,73,75,77,79,81,83,85,87,89,91,93,95,97,99,101,103,105,107,109,111,113,-1,-1,115,117,119,121,-1,-1,-1,-1,-1,-1,-1,-1,-1,-1,-1,-1,-1,-1,-1,-1,-1,-1,-1,-1,-1,-1,-1,-1,-1,-1,-1,-1,-1,-1,-1,-1,-1,-1,-1,-1,-1,-1,-1,-1,-1,-1,-1,-1,-1,-1,-1,-1,-1,-1,-1,-1,-1,-1,-1,-1,-1,-1,-1,-1],"loss_changes":[5.512969E5,1.2120378E5,8.308744E4,2.2526969E4,3.779277E4,4.642729E4,2.6628E4,5.584328E3,5.767242E3,7.74951E3,1.4416586E4,1.4330703E4,1.4496186E4,8.213031E3,5.7382812E3,1.4383672E3,3.3666016E3,1.7030234E3,1.9199785E3,3.2689922E3,3.8059072E3,4.0558672E3,8.615256E3,5.1730547E3,5.0007812E3,3.764087E3,1.0057465E4,4.5132344E3,4.9210938E2,4.0134688E3,4.246203E3,1.4042031E3,8.9424414E2,2.4491562E3,9.0353125E2,2.518086E2,1.6045938E3,8.038711E2,9.692124E2,9.261787E2,1.8824691E3,2.3878115E3,1.4781504E3,6.572578E2,3.094287E3,3.630168E3,6.7536943E3,1.6139431E3,4.4977773E3,1.3217656E3,2.129164E3,2.7185708E3,1.545148E3,4.522334E3,2.2979258E3,1.0371289E3,1.3682266E3,0E0,0E0,9.3662305E2,9.003754E2,2.9612344E3,8.2638477E2,0E0,0E0,0E0,0E0,0E0,0E0,0E0,0E0,0E0,0E0,0E0,0E0,0E0,0E0,0E0,0E0,0E0,0E0,0E0,0E0,0E0,0E0,0E0,0E0,0E0,0E0,0E0,0E0,0E0,0E0,0E0,0E0,0E0,0E0,0E0,0E0,0E0,0E0,0E0,0E0,0E0,0E0,0E0,0E0,0E0,0E0,0E0,0E0,0E0,0E0,0E0,0E0,0E0,0E0,0E0,0E0,0E0,0E0,0E0,0E0],"parents":[2147483647,0,0,1,1,2,2,3,3,4,4,5,5,6,6,7,7,8,8,9,9,10,10,11,11,12,12,13,13,14,14,15,15,16,16,17,17,18,18,19,19,20,20,21,21,22,22,23,23,24,24,25,25,26,26,27,27,28,28,29,29,30,30,31,31,32,32,33,33,34,34,35,35,36,36,37,37,38,38,39,39,40,40,41,41,42,42,43,43,44,44,45,45,46,46,47,47,48,48,49,49,50,50,51,51,52,52,53,53,54,54,55,55,56,56,59,59,60,60,61,61,62,62],"right_children":[2,4,6,8,10,12,14,16,18,20,22,24,26,28,30,32,34,36,38,40,42,44,46,48,50,52,54,56,58,60,62,64,66,68,70,72,74,76,78,80,82,84,86,88,90,92,94,96,98,100,102,104,106,108,110,112,114,-1,-1,116,118,120,122,-1,-1,-1,-1,-1,-1,-1,-1,-1,-1,-1,-1,-1,-1,-1,-1,-1,-1,-1,-1,-1,-1,-1,-1,-1,-1,-1,-1,-1,-1,-1,-1,-1,-1,-1,-1,-1,-1,-1,-1,-1,-1,-1,-1,-1,-1,-1,-1,-1,-1,-1,-1,-1,-1,-1,-1,-1,-1,-1,-1],"split_conditions":[2.5708963E2,2.0175603E2,3.115839E2,1.7623096E2,4.2E1,4.4E1,4.4E1,1.5089636E2,8.5E1,2.3157227E2,2.2583305E2,1E0,7.5E1,3.5194263E2,1E0,8.8E1,5.5E1,7.2E1,1E0,8.115795E1,8.4003105E1,7.8E1,1E0,2.7081113E2,2.846762E2,6E1,2.9238202E2,9E1,9E1,5.7E1,3.584986E2,1E0,1.4854507E2,1E0,8.9724014E1,8.457367E1,7.698391E1,8.232226E1,1.9943478E2,2.1826695E2,2.3375049E2,3.3E1,9E1,2.0261232E2,7.224482E1,2.0551836E2,5.6E1,7.948541E1,9.5E1,9.2E1,2.613264E2,8.557356E1,3.5327118E2,5.7439816E1,7.5779945E1,7.816421E1,7.548393E1,4.641854E0,7.090327E0,7.8E1,3.3265738E2,6.4E1,3.5120544E2,-4.649193E0,-3.3436482E0,-3.1129777E0,-1.1965692E0,-2.87947E0,-1.88615E0,-3.8351617E0,-1.5836427E0,-3.1632106E0,-2.1823242E0,-2.4252803E0,-1.6581862E0,-2.0400894E0,-1.2442082E0,-1.0009183E0,1.1206076E-1,-1.0024899E0,-3.348973E-1,-9.870212E-2,9.359415E-1,1.1531276E0,-1.6880788E-2,7.8314847E-1,1.6288542E0,-6.209697E-1,-1.9553413E0,-1.776322E0,-8.3863753E-1,-2.1111495E0,-9.509447E-1,3.518159E-3,-1.0400032E0,2.966978E-2,1.0032858E0,1.430528E0,3.3132718E0,1.8348497E0,2.799255E0,1.8947405E0,3.3662E0,-1.5412843E-1,7.811052E-1,-8.419458E-1,8.5665953E-1,-8.04701E-1,6.812688E-1,8.28015E-1,1.9545529E0,2.2637832E0,3.3135612E0,3.0345592E0,4.9781413E0,1.5016046E0,2.3503199E0,1.0648761E-1,1.2503536E0,2.5186207E0,6.0608387E-1,2.884318E0,5.0946636E0],"split_indices":[4,4,4,4,8,8,8,4,0,4,4,3,0,4,3,0,8,0,3,7,7,0,3,4,4,8,4,0,0,8,4,3,6,3,7,7,7,7,4,4,6,8,0,4,7,6,8,7,0,0,6,7,6,7,7,7,7,0,0,0,6,8,6,0,0,0,0,0,0,0,0,0,0,0,0,0,0,0,0,0,0,0,0,0,0,0,0,0,0,0,0,0,0,0,0,0,0,0,0,0,0,0,0,0,0,0,0,0,0,0,0,0,0,0,0,0,0,0,0,0,0,0,0],"split_type":[0,0,0,0,0,0,0,0,0,0,0,0,0,0,0,0,0,0,0,0,0,0,0,0,0,0,0,0,0,0,0,0,0,0,0,0,0,0,0,0,0,0,0,0,0,0,0,0,0,0,0,0,0,0,0,0,0,0,0,0,0,0,0,0,0,0,0,0,0,0,0,0,0,0,0,0,0,0,0,0,0,0,0,0,0,0,0,0,0,0,0,0,0,0,0,0,0,0,0,0,0,0,0,0,0,0,0,0,0,0,0,0,0,0,0,0,0,0,0,0,0,0,0],"sum_hessian":[3.202E3,1.784E3,1.418E3,5.51E2,1.233E3,1.086E3,3.32E2,2.45E2,3.06E2,3.82E2,8.51E2,4.15E2,6.71E2,1.34E2,1.98E2,8.9E1,1.56E2,1.81E2,1.25E2,1.82E2,2E2,3.07E2,5.44E2,2.11E2,2.04E2,2.11E2,4.6E2,1.09E2,2.5E1,1E2,9.8E1,6.9E1,2E1,1.21E2,3.5E1,4.1E1,1.4E2,6.6E1,5.9E1,8.6E1,9.6E1,1.05E2,9.5E1,1.46E2,1.61E2,2.47E2,2.97E2,6.8E1,1.43E2,1.2E2,8.4E1,1.37E2,7.4E1,3.52E2,1.08E2,7.1E1,3.8E1,1.7E1,8E0,7.1E1,2.9E1,8E1,1.8E1,3.4E1,3.5E1,1.5E1,5E0,6.2E1,5.9E1,3.1E1,4E0,2.3E1,1.8E1,5.5E1,8.5E1,3.1E1,3.5E1,5E1,9E0,4.6E1,4E1,7.4E1,2.2E1,2.1E1,8.4E1,6.1E1,3.4E1,5E0,1.41E2,5.5E1,1.06E2,3.1E1,2.16E2,2.1E2,8.7E1,3.1E1,3.7E1,1.29E2,1.4E1,9.8E1,2.2E1,1.7E1,6.7E1,9.1E1,4.6E1,6.9E1,5E0,2.1E1,3.31E2,2.6E1,8.2E1,2.7E1,4.4E1,1.2E1,2.6E1,3.6E1,3.5E1,1.9E1,1E1,7E1,1E1,1E1,8E0],"tree_param":{"num_deleted":"0","num_feature":"10","num_nodes":"123","size_leaf_vector":"1"}},{"base_weights":[1.6125347E-1,-1.4626796E1,1.0198464E1,-2.7922682E1,-1.0685842E1,3.4393458E0,1.9795866E1,-3.7732273E1,-2.5309978E1,-1.645273E1,-7.6183662E0,8.270864E0,-2.3046036E0,2.685571E1,1.1347231E1,-3.8675316E1,-1.4835837E0,-2.918758E1,-1.880954E1,-2.0533447E1,-1.35110855E1,-1.1365017E1,-3.2936246E0,4.0045094E0,1.155506E1,-6.1204405E0,1.1647971E0,2.4083967E1,4.9908894E1,8.709683E0,2.4131119E1,-4.8733954E0,-3.5208385E0,-2.6154879E1,-3.4013737E1,-1.9615488E1,3.5986954E-1,-2.8447113E1,-1.8445377E1,-1.2128574E1,-2.4392378E1,-9.764534E0,-1.9091732E1,-6.6808453E0,5.8966655E-1,-8.379442E0,5.045804E0,-5.309946E0,1.2396803E1,-7.9128327E0,3.2160826E0,-4.7388263E0,4.1106935E0,1.9659048E1,2.9041225E1,3.8180984E1,6.2654734E0,4.1375747E0,1.3376729E1,1.7156303E1,2.8819374E1,-1.8189366E0,-2.7800798E0,-3.9409218E0,-2.8910196E0,-2.2807958E0,-1.5017055E0,-3.0894306E0,-6.015386E-1,-1.4633118E0,-2.2698946E0,-1.352976E0,-4.8185793E-1,-2.763168E0,-1.5257138E0,-1.710096E0,-8.0276936E-1,-2.063143E0,-2.0358339E-1,-4.260145E-1,-1.176426E0,-1.4824355E-1,6.1558473E-1,-1.1595577E0,8.163027E-1,1.1047097E0,3.2998827E-1,-9.067654E-1,9.144518E-1,1.0205442E0,1.8514498E0,-1.3699389E0,-5.5358285E-1,-3.535529E-1,1.4711137E0,-5.735749E-1,7.8869337E-1,-5.608148E-1,6.171044E-1,2.6230538E0,1.5695748E0,2.6398752E0,3.9929173E0,2.064534E0,4.2404413E0,-2.1282151E-2,7.810353E-1,1.9322764E0,9.101902E-1,1.1956748E0,2.2651021E0,1.6898937E0,3.119238E0],"categories":[],"categories_nodes":[],"categories_segments":[],"categories_sizes":[],"default_left":[0,0,0,0,0,0,0,0,0,0,0,0,0,0,0,0,0,0,0,0,0,0,0,0,0,0,0,0,0,0,0,0,0,0,0,0,0,0,0,0,0,0,0,0,0,0,0,0,0,0,0,0,0,0,0,0,0,0,0,0,0,0,0,0,0,0,0,0,0,0,0,0,0,0,0,0,0,0,0,0,0,0,0,0,0,0,0,0,0,0,0,0,0,0,0,0,0,0,0,0,0,0,0,0,0,0,0,0,0,0,0,0,0],"id":14,"left_children":[1,3,5,7,9,11,13,15,17,19,21,23,25,27,29,31,-1,33,35,37,39,41,43,45,47,49,51,53,55,57,59,-1,-1,61,63,65,-1,67,69,71,73,75,77,79,81,83,85,87,89,91,93,95,97,99,101,103,-1,105,107,109,111,-1,-1,-1,-1,-1,-1,-1,-1,-1,-1,-1,-1,-1,-1,-1,-1,-1,-1,-1,-1,-1,-1,-1,-1,-1,-1,-1,-1,-1,-1,-1,-1,-1,-1,-1,-1,-1,-1,-1,-1,-1,-1,-1,-1,-1,-1,-1,-1,-1,-1,-1,-1],"loss_changes":[4.7468194E5,6.744897E4,1.23506875E5,6.599422E3,1.7544352E4,3.107414E4,4.6632844E4,7.1641406E2,5.394828E3,3.8725547E3,1.0558059E4,8.4711875E3,6.7858223E3,2.6138719E4,1.1925066E4,2.634922E2,0E0,1.24125E3,1.7156367E3,1.8335664E3,2.769375E3,4.138957E3,4.0163855E3,3.472109E3,4.9357656E3,4.1091895E3,4.69772E3,7.847422E3,4.3243906E3,6.344373E3,1.4956484E3,0E0,0E0,7.221211E2,3.132539E2,9.4558203E2,0E0,1.3475215E3,1.5451328E3,1.8073789E3,2.2515039E2,3.5809277E3,1.505125E3,1.9540645E3,1.6589111E3,1.2122574E3,2.5396465E3,1.0062776E3,4.191965E3,2.7419453E3,3.1575347E3,1.1778438E3,3.6390247E3,4.949328E3,4.0893125E3,1.0438125E3,0E0,2.4470623E3,3.5831895E3,4.9709912E2,4.5812695E2,0E0,0E0,0E0,0E0,0E0,0E0,0E0,0E0,0E0,0E0,0E0,0E0,0E0,0E0,0E0,0E0,0E0,0E0,0E0,0E0,0E0,0E0,0E0,0E0,0E0,0E0,0E0,0E0,0E0,0E0,0E0,0E0,0E0,0E0,0E0,0E0,0E0,0E0,0E0,0E0,0E0,0E0,0E0,0E0,0E0,0E0,0E0,0E0,0E0,0E0,0E0,0E0],"parents":[2147483647,0,0,1,1,2,2,3,3,4,4,5,5,6,6,7,7,8,8,9,9,10,10,11,11,12,12,13,13,14,14,15,15,17,17,18,18,19,19,20,20,21,21,22,22,23,23,24,24,25,25,26,26,27,27,28,28,29,29,30,30,33,33,34,34,35,35,37,37,38,38,39,39,40,40,41,41,42,42,43,43,44,44,45,45,46,46,47,47,48,48,49,49,50,50,51,51,52,52,53,53,54,54,55,55,57,57,58,58,59,59,60,60],"right_children":[2,4,6,8,10,12,14,16,18,20,22,24,26,28,30,32,-1,34,36,38,40,42,44,46,48,50,52,54,56,58,60,-1,-1,62,64,66,-1,68,70,72,74,76,78,80,82,84,86,88,90,92,94,96,98,100,102,104,-1,106,108,110,112,-1,-1,-1,-1,-1,-1,-1,-1,-1,-1,-1,-1,-1,-1,-1,-1,-1,-1,-1,-1,-1,-1,-1,-1,-1,-1,-1,-1,-1,-1,-1,-1,-1,-1,-1,-1,-1,-1,-1,-1,-1,-1,-1,-1,-1,-1,-1,-1,-1,-1,-1,-1],"split_conditions":[2.3745552E2,1.8111655E2,2.846762E2,1.4530551E2,7.8E1,4.8E1,5E1,9.2E1,8.5E1,2.0659982E2,2.1506519E2,2.5674908E2,1E0,3.4389447E2,3.327292E2,1.17723915E2,-1.4835837E0,5.5E1,2.1629565E2,6.911615E1,6.6E1,5E1,1E0,7.420319E1,5.6703564E1,8.2E1,7.2E1,1E0,3.6400677E2,1E0,1E0,-4.8733954E0,-3.5208385E0,7.5E1,7E1,1E0,3.5986954E-1,6.2E1,5.5E1,2.3278015E2,2.4279793E2,8.19139E1,9.350265E1,4.7E1,9E1,9.2E1,3.6E1,7.8E1,9E1,2.4094427E2,2.660198E2,3.2095007E2,8.245932E1,3.8E1,9.2E1,3.4871362E2,6.2654734E0,3.0009894E2,5.4E1,8.6727844E1,7E1,-1.8189366E0,-2.7800798E0,-3.9409218E0,-2.8910196E0,-2.2807958E0,-1.5017055E0,-3.0894306E0,-6.015386E-1,-1.4633118E0,-2.2698946E0,-1.352976E0,-4.8185793E-1,-2.763168E0,-1.5257138E0,-1.710096E0,-8.0276936E-1,-2.063143E0,-2.0358339E-1,-4.260145E-1,-1.176426E0,-1.4824355E-1,6.1558473E-1,-1.1595577E0,8.163027E-1,1.1047097E0,3.2998827E-1,-9.067654E-1,9.144518E-1,1.0205442E0,1.8514498E0,-1.3699389E0,-5.5358285E-1,-3.535529E-1,1.4711137E0,-5.735749E-1,7.8869337E-1,-5.608148E-1,6.171044E-1,2.6230538E0,1.5695748E0,2.6398752E0,3.9929173E0,2.064534E0,4.2404413E0,-2.1282151E-2,7.810353E-1,1.9322764E0,9.101902E-1,1.1956748E0,2.2651021E0,1.6898937E0,3.119238E0],"split_indices":[4,4,4,4,0,8,8,0,0,6,4,4,3,4,4,4,0,8,6,7,8,8,3,9,7,0,0,3,6,3,3,0,0,0,0,3,0,8,8,4,6,9,7,8,0,0,8,2,0,6,4,6,9,8,0,4,0,4,8,7,0,0,0,0,0,0,0,0,0,0,0,0,0,0,0,0,0,0,0,0,0,0,0,0,0,0,0,0,0,0,0,0,0,0,0,0,0,0,0,0,0,0,0,0,0,0,0,0,0,0,0,0,0],"split_type":[0,0,0,0,0,0,0,0,0,0,0,0,0,0,0,0,0,0,0,0,0,0,0,0,0,0,0,0,0,0,0,0,0,0,0,0,0,0,0,0,0,0,0,0,0,0,0,0,0,0,0,0,0,0,0,0,0,0,0,0,0,0,0,0,0,0,0,0,0,0,0,0,0,0,0,0,0,0,0,0,0,0,0,0,0,0,0,0,0,0,0,0,0,0,0,0,0,0,0,0,0,0,0,0,0,0,0,0,0,0,0,0,0],"sum_hessian":[3.196E3,1.292E3,1.904E3,2.94E2,9.98E2,1.118E3,7.86E2,5.9E1,2.35E2,3.45E2,6.53E2,6.07E2,5.11E2,4.27E2,3.59E2,5.6E1,3E0,1.45E2,9E1,1.42E2,2.03E2,3.49E2,3.04E2,2.65E2,3.42E2,2.43E2,2.68E2,3.83E2,4.4E1,2.99E2,6E1,1.1E1,4.5E1,9.3E1,5.2E1,8.7E1,3E0,2.7E1,1.15E2,1.82E2,2.1E1,2.91E2,5.8E1,1.62E2,1.42E2,2E1,2.45E2,1.6E1,3.26E2,2.04E2,3.9E1,8.9E1,1.79E2,2.05E2,1.78E2,2.5E1,1.9E1,1.52E2,1.47E2,2.6E1,3.4E1,1.8E1,7.5E1,2.2E1,3E1,4.9E1,3.8E1,2.4E1,3E0,6.3E1,5.2E1,1.52E2,3E1,1.4E1,7E0,5.4E1,2.37E2,5.3E1,5E0,1.11E2,5.1E1,1.04E2,3.8E1,1.7E1,3E0,5.4E1,1.91E2,1.3E1,3E0,2.42E2,8.4E1,5.8E1,1.46E2,2.5E1,1.4E1,8.3E1,6E0,3.1E1,1.48E2,7.5E1,1.3E2,1.46E2,3.2E1,6E0,1.9E1,7E1,8.2E1,6E1,8.7E1,1.5E1,1.1E1,7E0,2.7E1],"tree_param":{"num_deleted":"0","num_feature":"10","num_nodes":"113","size_leaf_vector":"1"}},{"base_weights":[1.062123E-1,-1.1078447E1,1.0988394E1,-1.9032204E1,-5.458545E0,7.5912695E0,2.6050901E1,-2.6659464E1,-1.5596435E1,-1.1391843E1,-2.3811982E0,5.880084E-1,1.1562827E1,2.2108229E1,4.3138245E1,-3.429686E1,-2.286823E1,-1.7618221E1,-9.552625E0,-1.3870602E1,-6.533562E0,-4.7450123E0,1.4145775E0,-3.154658E0,5.0974874E0,9.279361E0,1.9011683E1,1.9265438E1,3.3985397E1,3.0509342E1,5.422292E0,-3.5157177E1,-1.2362722E0,-2.9746164E1,-1.944089E1,-2.17741E1,-1.5471381E1,-1.4150542E1,-5.318139E0,-1.43007145E1,3.0483386E-1,-1.2562257E1,-2.9938285E0,-1.0306889E1,-2.539256E0,-4.638762E0,2.8655672E0,-6.565869E0,1.1207881E0,1.5708486E0,9.857549E0,7.513563E0,1.8600176E1,1.5865842E1,2.4924206E1,1.2486495E1,2.3869564E1,2.4102257E1,4.1319145E1,5.101244E-1,3.3350265E0,-4.525186E0,-3.2090642E0,-3.1545312E0,-1.9233335E0,-2.4632323E0,-1.3373226E0,-2.6518028E0,-1.7139996E0,-2.2088974E0,-1.4504982E0,-1.5661849E0,-1.5356062E-1,-8.143058E-1,1.4984167E-1,-1.4582982E0,3.4334007E-1,-1.7035763E0,-3.9640304E-1,-8.727955E-1,8.073192E-2,-1.3632512E0,-4.8331246E-1,-6.0242563E-1,9.893047E-2,-6.1010903E-1,8.5525465E-1,-6.877851E-1,3.675656E-1,-1.6946267E0,-5.845801E-1,-4.0038562E-1,5.976667E-1,-5.100371E-3,1.3690746E0,5.743921E-1,1.3759314E0,4.1733977E-1,1.1025373E0,1.7860292E-1,1.9620781E0,4.6236306E-1,1.7375771E0,2.0796142E0,3.4253209E0,8.10281E-1,1.6993887E0,1.9778416E0,3.2636116E0,2.6744907E0,9.748268E-1,5.053434E0,2.243293E0],"categories":[],"categories_nodes":[],"categories_segments":[],"categories_sizes":[],"default_left":[0,0,0,0,0,0,0,0,0,0,0,0,0,0,0,0,0,0,0,0,0,0,0,0,0,0,0,0,0,0,0,0,0,0,0,0,0,0,0,0,0,0,0,0,0,0,0,0,0,0,0,0,0,0,0,0,0,0,0,0,0,0,0,0,0,0,0,0,0,0,0,0,0,0,0,0,0,0,0,0,0,0,0,0,0,0,0,0,0,0,0,0,0,0,0,0,0,0,0,0,0,0,0,0,0,0,0,0,0,0,0,0,0],"id":15,"left_children":[1,3,5,7,9,11,13,15,17,19,21,23,25,27,29,31,33,35,37,39,41,43,45,47,49,51,53,55,57,59,-1,61,-1,63,65,67,69,71,73,75,-1,77,79,81,83,85,87,89,91,93,95,97,99,101,103,105,107,109,111,-1,-1,-1,-1,-1,-1,-1,-1,-1,-1,-1,-1,-1,-1,-1,-1,-1,-1,-1,-1,-1,-1,-1,-1,-1,-1,-1,-1,-1,-1,-1,-1,-1,-1,-1,-1,-1,-1,-1,-1,-1,-1,-1,-1,-1,-1,-1,-1,-1,-1,-1,-1,-1,-1],"loss_changes":[3.9070034E5,7.06527E4,8.305117E4,1.6744578E4,1.6933938E4,3.6956594E4,1.9183344E4,5.058922E3,5.3765312E3,3.7248086E3,5.5071934E3,8.1512188E3,1.42445625E4,7.6121797E3,6.0365234E3,7.871797E2,2.6698594E3,2.6839688E3,2.1812979E3,1.565625E3,2.286892E3,4.6099004E3,2.0859822E3,3.8581978E3,3.6597295E3,1.0572234E4,3.28325E3,5.940547E3,2.3316797E3,1.8471367E3,0E0,4.5935938E2,0E0,2.2041797E2,2.6592773E3,2.025293E3,1.1276602E3,1.02280664E3,1.2067516E3,1.0723594E3,0E0,1.468939E3,1.5335767E3,1.8800605E3,3.3512568E3,9.392756E2,1.5325298E3,9.974214E2,2.9605159E3,2.4984607E3,1.4117051E3,6.392252E3,1.7303594E3,2.1581562E3,1.8623828E3,1.4997881E3,3.5813672E3,5.701504E2,3.2100703E3,0E0,0E0,0E0,0E0,0E0,0E0,0E0,0E0,0E0,0E0,0E0,0E0,0E0,0E0,0E0,0E0,0E0,0E0,0E0,0E0,0E0,0E0,0E0,0E0,0E0,0E0,0E0,0E0,0E0,0E0,0E0,0E0,0E0,0E0,0E0,0E0,0E0,0E0,0E0,0E0,0E0,0E0,0E0,0E0,0E0,0E0,0E0,0E0,0E0,0E0,0E0,0E0,0E0,0E0],"parents":[2147483647,0,0,1,1,2,2,3,3,4,4,5,5,6,6,7,7,8,8,9,9,10,10,11,11,12,12,13,13,14,14,15,15,16,16,17,17,18,18,19,19,20,20,21,21,22,22,23,23,24,24,25,25,26,26,27,27,28,28,29,29,31,31,33,33,34,34,35,35,36,36,37,37,38,38,39,39,41,41,42,42,43,43,44,44,45,45,46,46,47,47,48,48,49,49,50,50,51,51,52,52,53,53,54,54,55,55,56,56,57,57,58,58],"right_children":[2,4,6,8,10,12,14,16,18,20,22,24,26,28,30,32,34,36,38,40,42,44,46,48,50,52,54,56,58,60,-1,62,-1,64,66,68,70,72,74,76,-1,78,80,82,84,86,88,90,92,94,96,98,100,102,104,106,108,110,112,-1,-1,-1,-1,-1,-1,-1,-1,-1,-1,-1,-1,-1,-1,-1,-1,-1,-1,-1,-1,-1,-1,-1,-1,-1,-1,-1,-1,-1,-1,-1,-1,-1,-1,-1,-1,-1,-1,-1,-1,-1,-1,-1,-1,-1,-1,-1,-1,-1,-1,-1,-1,-1,-1],"split_conditions":[2.4933218E2,2.0680038E2,3.1592313E2,1.7041475E2,7.8E1,7.8E1,9E1,1.32327E2,8.8E1,2.3540799E2,8.8E1,2.8019998E2,9E1,3.584986E2,1E0,9.730951E1,7.8E1,7.5779945E1,1.8807481E2,9.6758965E1,8.0115585E1,7.342015E1,2.1506519E2,8.3751656E1,7.5E1,3.2231482E2,2.8829114E2,7.8E1,3.4426044E2,7.671818E1,5.422292E0,7.5214E1,-1.2362722E0,1.6474197E2,1E0,1E0,7E1,9.807001E1,9.6848305E1,3.0681342E2,3.0483386E-1,9.4638756E1,7.2E1,9.358618E1,1E0,9.898096E1,7.5099754E1,2.0144043E2,1E0,3.493491E2,8.287504E1,1E0,6.938447E1,6.400979E1,9.5E1,1E0,9.4638756E1,9.7852516E1,8E1,5.101244E-1,3.3350265E0,-4.525186E0,-3.2090642E0,-3.1545312E0,-1.9233335E0,-2.4632323E0,-1.3373226E0,-2.6518028E0,-1.7139996E0,-2.2088974E0,-1.4504982E0,-1.5661849E0,-1.5356062E-1,-8.143058E-1,1.4984167E-1,-1.4582982E0,3.4334007E-1,-1.7035763E0,-3.9640304E-1,-8.727955E-1,8.073192E-2,-1.3632512E0,-4.8331246E-1,-6.0242563E-1,9.893047E-2,-6.1010903E-1,8.5525465E-1,-6.877851E-1,3.675656E-1,-1.6946267E0,-5.845801E-1,-4.0038562E-1,5.976667E-1,-5.100371E-3,1.3690746E0,5.743921E-1,1.3759314E0,4.1733977E-1,1.1025373E0,1.7860292E-1,1.9620781E0,4.6236306E-1,1.7375771E0,2.0796142E0,3.4253209E0,8.10281E-1,1.6993887E0,1.9778416E0,3.2636116E0,2.6744907E0,9.748268E-1,5.053434E0,2.243293E0],"split_indices":[4,4,4,4,0,0,0,6,0,4,0,4,0,4,3,7,0,7,6,7,7,7,4,7,0,6,4,0,6,9,0,7,0,4,3,3,0,9,9,6,0,9,0,9,3,9,9,6,3,6,7,3,9,7,0,3,9,9,1,0,0,0,0,0,0,0,0,0,0,0,0,0,0,0,0,0,0,0,0,0,0,0,0,0,0,0,0,0,0,0,0,0,0,0,0,0,0,0,0,0,0,0,0,0,0,0,0,0,0,0,0,0,0],"split_type":[0,0,0,0,0,0,0,0,0,0,0,0,0,0,0,0,0,0,0,0,0,0,0,0,0,0,0,0,0,0,0,0,0,0,0,0,0,0,0,0,0,0,0,0,0,0,0,0,0,0,0,0,0,0,0,0,0,0,0,0,0,0,0,0,0,0,0,0,0,0,0,0,0,0,0,0,0,0,0,0,0,0,0,0,0,0,0,0,0,0,0,0,0,0,0,0,0,0,0,0,0,0,0,0,0,0,0,0,0,0,0,0,0],"sum_hessian":[3.208E3,1.582E3,1.626E3,6.54E2,9.28E2,1.328E3,2.98E2,2.01E2,4.53E2,3.16E2,6.12E2,4.81E2,8.47E2,2.44E2,5.4E1,6.4E1,1.37E2,3.38E2,1.15E2,2.08E2,1.08E2,3.77E2,2.35E2,2.63E2,2.18E2,6.5E2,1.97E2,1.99E2,4.5E1,2.7E1,2.7E1,6.1E1,3E0,4.3E1,9.4E1,1.12E2,2.26E2,5.4E1,6.1E1,2.03E2,5E0,3.9E1,6.9E1,1.06E2,2.71E2,4.5E1,1.9E2,1.46E2,1.17E2,1.26E2,9.2E1,5.48E2,1.02E2,1.31E2,6.6E1,8.2E1,1.17E2,2.1E1,2.4E1,3E0,2.4E1,1.1E1,5E1,3.5E1,8E0,4.9E1,4.5E1,5.3E1,5.9E1,2.6E1,2E2,4.8E1,6E0,4.3E1,1.8E1,2E2,3E0,2.5E1,1.4E1,2.7E1,4.2E1,6.5E1,4.1E1,1.36E2,1.35E2,4.1E1,4E0,1.4E1,1.76E2,8E0,1.38E2,5.7E1,6E1,1.12E2,1.4E1,4.6E1,4.6E1,2.82E2,2.66E2,6E0,9.6E1,1.6E1,1.15E2,4.8E1,1.8E1,4.3E1,3.9E1,8.2E1,3.5E1,1.7E1,4E0,1.5E1,9E0],"tree_param":{"num_deleted":"0","num_feature":"10","num_nodes":"113","size_leaf_vector":"1"}},{"base_weights":[-1.1106738E-1,-9.10812E0,1.1124128E1,-1.8938461E1,-4.9487166E0,7.8761816E0,2.3696419E1,-2.9791822E1,-1.7034792E1,-8.470538E0,-1.7121488E0,4.908224E0,1.1622333E1,2.1974266E1,5.0053658E1,-3.0846106E1,-8.420915E-1,-2.0036587E1,-1.2985337E1,-1.1171666E1,-5.740651E0,-5.2812963E0,1.6281025E0,1.2593113E0,8.1793585E0,8.297915E0,1.5445035E1,1.6642427E1,2.66023E1,2.3000944E0,5.9400544E0,-3.2323072E0,-2.063628E0,-2.4032171E1,-1.8433233E1,-2.4316835E1,-1.2170784E1,-1.5404301E1,-9.295069E0,-4.288309E0,-1.058845E1,-5.825278E0,1.1828269E1,-3.256635E0,3.5959835E0,7.596347E-1,1.726449E1,6.1889834E0,1.5154952E1,-2.4998976E-1,1.0660432E1,1.1541811E1,1.8574348E1,1.2726192E1,2.0997599E1,1.1334741E1,2.909572E1,-2.7201705E0,-2.0082588E0,-2.0072505E0,-1.4886528E0,-3.0455415E0,-9.6117413E-1,-1.6650437E0,-1.0499504E0,-4.9659586E-1,-1.6089586E0,-1.0162586E0,-1.04002774E-1,-8.185696E-1,-2.6455614E-1,-1.4066285E0,-4.7826186E-1,-1.0053467E0,-4.0081125E-1,1.4763297E0,5.9205824E-1,-4.889458E-1,3.2692066E-1,5.7039416E-1,-2.1655026E-1,-3.1502393E-1,2.6417586E-1,8.0445814E-1,2.30115E0,1.8891437E-1,8.2661104E-1,-1.7382473E-1,1.6695213E0,4.763198E-1,-9.553053E-1,8.2857764E-1,1.7536567E0,1.335585E0,4.489327E-1,9.732422E-1,2.160608E0,1.5188264E0,5.1832455E-1,1.5025853E0,2.8225043E0,1.8737696E-1,2.0616279E0,2.2564528E0,3.1612842E0],"categories":[],"categories_nodes":[],"categories_segments":[],