{"learner":{"attributes":{"best_iteration":"38","best_score":"9.358803602857147"},"feature_names":[],"feature_types":[],"gradient_booster":{"model":{"cats":{"enc":[],"feature_segments":[],"sorted_idx":[]},"gbtree_model_param":{"num_parallel_tree":"1","num_trees":"59"},"iteration_indptr":[0,1,2,3,4,5,6,7,8,9,10,11,12,13,14,15,16,17,18,19,20,21,22,23,24,25,26,27,28,29,30,31,32,33,34,35,36,37,38,39,40,41,42,43,44,45,46,47,48,49,50,51,52,53,54,55,56,57,58,59],"tree_info":[0,0,0,0,0,0,0,0,0,0,0,0,0,0,0,0,0,0,0,0,0,0,0,0,0,0,0,0,0,0,0,0,0,0,0,0,0,0,0,0,0,0,0,0,0,0,0,0,0,0,0,0,0,0,0,0,0,0,0],"trees":[{"base_weights":[-8.983092E-2,-1.3523224E1,1.5895252E1,-2.561596E1,-6.124288E0,1.0445618E1,2.9500494E1,-3.6112373E1,-2.1631493E1,4.2377776E-1,-9.858601E0,4.089281E0,1.723678E1,2.1453608E1,3.855621E1,-4.1218407E1,-3.2120327E1,-1.5880637E1,-2.4753782E1,-6.935817E0,2.744174E0,-1.522176E1,-7.450193E0,-1.064844E0,6.7937517E0,1.1099432E1,2.123062E1,1.9541143E1,3.2603269E0,3.626471E1,5.259215E0,-4.321751E0,-3.1849837E0,-3.65414E1,-2.6720734E1,-1.771929E1,-9.809076E0,-2.795841E1,-2.215793E1,-1.1032923E1,-4.200838E0,-1.1738814E0,5.1442504E0,-1.9182951E1,-1.1265412E1,-1.31364975E1,-5.463566E0,-2.8285613E0,8.577644E0,1.9101528E0,9.631679E0,7.15098E0,1.4463498E1,2.3392113E1,1.4465469E1,2.3645546E1,1.5445638E1,3.6988792E1,1.6965916E1,-1.582827E0,-3.7430077E0,-8.230509E-1,-2.770282E0,-1.2391976E0,-1.9550492E0,-1.3054031E0,-3.091223E-1,-2.44393E0,-2.951909E0,-2.4548852E0,-1.8868593E0,-1.2047026E0,3.201824E-2,-5.14234E-1,4.799231E-1,-5.214692E-1,1.165679E-1,2.122383E-1,7.922624E-1,-1.4851774E0,-2.1163232E0,-6.2059546E-1,-1.3042859E0,-8.6655295E-1,-1.4695783E0,-7.637204E-1,-1.7209333E-1,-1.5284951E-1,-9.6797734E-1,1.1119132E0,1.683324E-1,-1.2154174E-1,4.0508023E-1,7.261715E-1,1.440062E0,2.6016048E-1,9.5678294E-1,8.335745E-1,1.5448204E0,1.9809729E0,2.6450346E0,9.009763E-1,1.6124219E0,1.8543004E0,2.5035906E0,9.104561E-1,1.9769423E0,3.3315504E0,4.0045633E0,7.0730966E-1,2.506546E0],"categories":[],"categories_nodes":[],"categories_segments":[],"categories_sizes":[],"default_left":[0,0,0,0,0,0,0,0,0,0,0,0,0,0,0,0,0,0,0,0,0,0,0,0,0,0,0,0,0,0,0,0,0,0,0,0,0,0,0,0,0,0,0,0,0,0,0,0,0,0,0,0,0,0,0,0,0,0,0,0,0,0,0,0,0,0,0,0,0,0,0,0,0,0,0,0,0,0,0,0,0,0,0,0,0,0,0,0,0,0,0,0,0,0,0,0,0,0,0,0,0,0,0,0,0,0,0,0,0,0,0],"id":0,"left_children":[1,3,5,7,9,11,13,15,17,19,21,23,25,27,29,31,33,35,37,39,41,43,45,47,49,51,53,55,-1,57,-1,-1,-1,59,61,63,65,67,69,71,73,75,77,79,81,83,85,87,89,91,93,95,97,99,101,103,105,107,109,-1,-1,-1,-1,-1,-1,-1,-1,-1,-1,-1,-1,-1,-1,-1,-1,-1,-1,-1,-1,-1,-1,-1,-1,-1,-1,-1,-1,-1,-1,-1,-1,-1,-1,-1,-1,-1,-1,-1,-1,-1,-1,-1,-1,-1,-1,-1,-1,-1,-1,-1,-1],"loss_changes":[6.8328325E5,1.545394E5,1.074185E5,2.6648656E4,2.6267137E4,4.4777805E4,2.9408031E4,2.317375E3,8.185703E3,6.6957896E3,8.719328E3,7.507086E3,1.20659375E4,4.0914531E3,4.3235625E3,2.0679688E1,1.5238281E3,1.7323945E3,1.9376719E3,1.0054458E3,2.8087183E3,3.0876133E3,5.2809395E3,3.1869194E3,4.8727812E3,2.5509824E3,4.0885469E3,2.8583203E3,0E0,1.7426406E3,0E0,0E0,0E0,4.146172E2,6.945078E2,1.0227383E3,8.7359595E2,9.1328125E0,9.087422E2,4.3101904E2,5.1618115E2,1.0842076E3,1.535418E3,5.7408594E2,8.883672E2,7.208418E2,2.857621E3,1.3913943E3,4.881355E2,8.816953E2,2.4136523E3,1.00743604E3,5.144883E2,1.9693203E3,5.3998535E2,1.9827344E2,2.5314492E3,4.8879688E2,4.605144E2,0E0,0E0,0E0,0E0,0E0,0E0,0E0,0E0,0E0,0E0,0E0,0E0,0E0,0E0,0E0,0E0,0E0,0E0,0E0,0E0,0E0,0E0,0E0,0E0,0E0,0E0,0E0,0E0,0E0,0E0,0E0,0E0,0E0,0E0,0E0,0E0,0E0,0E0,0E0,0E0,0E0,0E0,0E0,0E0,0E0,0E0,0E0,0E0,0E0,0E0,0E0,0E0],"parents":[2147483647,0,0,1,1,2,2,3,3,4,4,5,5,6,6,7,7,8,8,9,9,10,10,11,11,12,12,13,13,14,14,15,15,16,16,17,17,18,18,19,19,20,20,21,21,22,22,23,23,24,24,25,25,26,26,27,27,29,29,33,33,34,34,35,35,36,36,37,37,38,38,39,39,40,40,41,41,42,42,43,43,44,44,45,45,46,46,47,47,48,48,49,49,50,50,51,51,52,52,53,53,54,54,55,55,56,56,57,57,58,58],"right_children":[2,4,6,8,10,12,14,16,18,20,22,24,26,28,30,32,34,36,38,40,42,44,46,48,50,52,54,56,-1,58,-1,-1,-1,60,62,64,66,68,70,72,74,76,78,80,82,84,86,88,90,92,94,96,98,100,102,104,106,108,110,-1,-1,-1,-1,-1,-1,-1,-1,-1,-1,-1,-1,-1,-1,-1,-1,-1,-1,-1,-1,-1,-1,-1,-1,-1,-1,-1,-1,-1,-1,-1,-1,-1,-1,-1,-1,-1,-1,-1,-1,-1,-1,-1,-1,-1,-1,-1,-1,-1,-1,-1,-1],"split_conditions":[7.6312935E1,6.216896E1,9.156783E1,5.0960682E1,4.3E1,8.2E1,8.2E1,4.5865025E1,4.4E1,6.628648E1,6.711672E1,7.5E1,8.1065834E1,1.0466811E2,1.0624268E2,4.5694286E1,8.2E1,6.0033733E1,5.698083E1,8.8E1,8.8E1,7.8E1,7.2E1,8.861978E1,8.142688E1,8.8E1,4.4E1,5.2E1,3.2603269E0,5.3E1,5.259215E0,-4.321751E0,-3.1849837E0,5.8637955E1,7.2E1,3.5E1,9.5977875E1,5E1,7.8E1,7.799271E1,9.744356E1,6.678846E1,6.867877E1,5.2E1,7.496018E1,7.5E1,7.2721565E1,6.7E1,8E1,7.8E1,9.261301E1,7.7787125E1,6.678846E1,8.525601E1,8.3190254E1,9.334631E1,9.4745636E1,8.8E1,9.4745636E1,-1.582827E0,-3.7430077E0,-8.230509E-1,-2.770282E0,-1.2391976E0,-1.9550492E0,-1.3054031E0,-3.091223E-1,-2.44393E0,-2.951909E0,-2.4548852E0,-1.8868593E0,-1.2047026E0,3.201824E-2,-5.14234E-1,4.799231E-1,-5.214692E-1,1.165679E-1,2.122383E-1,7.922624E-1,-1.4851774E0,-2.1163232E0,-6.2059546E-1,-1.3042859E0,-8.6655295E-1,-1.4695783E0,-7.637204E-1,-1.7209333E-1,-1.5284951E-1,-9.6797734E-1,1.1119132E0,1.683324E-1,-1.2154174E-1,4.0508023E-1,7.261715E-1,1.440062E0,2.6016048E-1,9.5678294E-1,8.335745E-1,1.5448204E0,1.9809729E0,2.6450346E0,9.009763E-1,1.6124219E0,1.8543004E0,2.5035906E0,9.104561E-1,1.9769423E0,3.3315504E0,4.0045633E0,7.0730966E-1,2.506546E0],"split_indices":[4,4,4,4,8,0,0,4,8,4,4,0,4,4,4,6,0,4,4,0,0,0,0,4,4,0,8,8,0,8,0,0,0,7,2,8,9,8,0,6,9,6,6,8,7,2,4,8,2,0,6,4,6,4,4,4,4,0,4,0,0,0,0,0,0,0,0,0,0,0,0,0,0,0,0,0,0,0,0,0,0,0,0,0,0,0,0,0,0,0,0,0,0,0,0,0,0,0,0,0,0,0,0,0,0,0,0,0,0,0,0],"split_type":[0,0,0,0,0,0,0,0,0,0,0,0,0,0,0,0,0,0,0,0,0,0,0,0,0,0,0,0,0,0,0,0,0,0,0,0,0,0,0,0,0,0,0,0,0,0,0,0,0,0,0,0,0,0,0,0,0,0,0,0,0,0,0,0,0,0,0,0,0,0,0,0,0,0,0,0,0,0,0,0,0,0,0,0,0,0,0,0,0,0,0,0,0,0,0,0,0,0,0,0,0,0,0,0,0,0,0,0,0,0,0],"sum_hessian":[3.18E3,1.728E3,1.452E3,6.55E2,1.073E3,1.038E3,4.14E2,1.78E2,4.77E2,3.9E2,6.83E2,5.37E2,5.01E2,2.21E2,1.93E2,7.4E1,1.04E2,1.7E2,3.07E2,9.3E1,2.97E2,2.1E2,4.73E2,1.85E2,3.52E2,1.99E2,3.02E2,1.91E2,3E1,1.69E2,2.4E1,5.8E1,1.6E1,5.4E1,5E1,1.29E2,4.1E1,1.33E2,1.74E2,3.6E1,5.7E1,1.13E2,1.84E2,1.03E2,1.07E2,1.21E2,3.52E2,1.57E2,2.8E1,1.3E2,2.22E2,9.3E1,1.06E2,2.27E2,7.5E1,9.3E1,9.8E1,1.62E2,7E0,3E0,5.1E1,3E0,4.7E1,3.5E1,9.4E1,2.7E1,1.4E1,4.6E1,8.7E1,9.7E1,7.7E1,3.3E1,3E0,5.2E1,5E0,4.1E1,7.2E1,8.9E1,9.5E1,3.5E1,6.8E1,2.9E1,7.8E1,3.3E1,8.8E1,2.22E2,1.3E2,1.33E2,2.4E1,2E1,8E0,5.3E1,7.7E1,1.5E2,7.2E1,3.3E1,6E1,1.6E1,9E1,1.08E2,1.19E2,1.9E1,5.6E1,2.3E1,7E1,4.1E1,5.7E1,7.9E1,8.3E1,4E0,3E0],"tree_param":{"num_deleted":"0","num_feature":"10","num_nodes":"111","size_leaf_vector":"1"}},{"base_weights":[-1.8538366E-1,-1.3264841E1,1.31352625E1,-2.3038246E1,-6.584801E0,7.4144573E0,2.4158056E1,-3.256355E1,-1.9376877E1,-1.15794325E1,-2.6606233E0,2.7187402E0,1.3679641E1,1.7380806E1,3.204438E1,-3.7806358E0,-2.8139334E1,-2.3771284E1,-1.5029484E1,-1.42535E1,-8.152492E0,-7.3029313E0,-1.2414822E-1,-3.0012982E0,5.293346E0,8.166659E0,1.6492588E1,1.4159948E1,2.630481E1,2.9396866E1,4.1178734E1,-3.3391247E0,-2.5098093E1,-2.7276342E1,-2.2191675E1,-1.6750753E1,-1.0236278E1,-1.5734545E1,-9.793575E0,-5.130912E0,-1.1759279E1,-1.0756128E1,-5.841237E0,-2.361582E0,2.5049875E0,-5.8957696E0,4.721477E-1,1.8749884E0,8.907911E0,1.3777853E1,5.82575E0,1.3390465E1,1.9565857E1,7.740195E0,1.6871496E1,2.1764105E1,3.0742702E1,2.578237E1,3.2929153E0,4.257769E0,2.3107288E0,-1.4724568E0,-2.6045473E0,-1.5420418E0,-2.7970932E0,-2.295608E0,-1.6140299E0,-1.4453368E0,-2.0507886E0,-1.2826552E0,-6.259241E-1,-1.3852696E0,-2.0522676E0,-1.276565E0,-7.372257E-1,-6.2248176E-1,7.632468E-2,-1.2885594E0,-9.304774E-2,-1.1736227E0,-5.7597136E-1,-3.863845E-1,-9.123527E-1,-6.7748535E-1,-1.2711042E-1,-4.3641764E-1,3.871125E-1,2.4628435E-1,-7.9912645E-1,-2.8233525E-1,2.6197413E-1,5.087213E-1,3.5494532E-2,4.818096E-1,1.2749029E0,5.42839E-1,1.4706544E0,2.162487E-1,9.252365E-1,1.1933959E0,2.0475023E0,1.7142309E0,2.3004978E0,5.6584615E-1,1.5784304E0,1.3612489E0,1.9745795E0,1.3242959E0,2.444376E0,1.9935732E0,3.3602962E0,1.824665E0,2.7648687E0],"categories":[],"categories_nodes":[],"categories_segments":[],"categories_sizes":[],"default_left":[0,0,0,0,0,0,0,0,0,0,0,0,0,0,0,0,0,0,0,0,0,0,0,0,0,0,0,0,0,0,0,0,0,0,0,0,0,0,0,0,0,0,0,0,0,0,0,0,0,0,0,0,0,0,0,0,0,0,0,0,0,0,0,0,0,0,0,0,0,0,0,0,0,0,0,0,0,0,0,0,0,0,0,0,0,0,0,0,0,0,0,0,0,0,0,0,0,0,0,0,0,0,0,0,0,0,0,0,0,0,0,0,0],"id":1,"left_children":[1,3,5,7,9,11,13,15,17,19,21,23,25,27,29,-1,31,33,35,37,39,41,43,45,47,49,51,53,55,57,59,-1,61,63,65,67,69,71,73,75,77,79,81,83,85,87,89,91,93,95,97,99,101,103,105,107,109,111,-1,-1,-1,-1,-1,-1,-1,-1,-1,-1,-1,-1,-1,-1,-1,-1,-1,-1,-1,-1,-1,-1,-1,-1,-1,-1,-1,-1,-1,-1,-1,-1,-1,-1,-1,-1,-1,-1,-1,-1,-1,-1,-1,-1,-1,-1,-1,-1,-1,-1,-1,-1,-1,-1,-1],"loss_changes":[5.5317025E5,1.0443469E5,9.900991E4,2.2033E4,1.8646398E4,3.0469223E4,2.8139469E4,3.0815156E3,8.656031E3,3.7212148E3,6.298029E3,8.763861E3,6.7482734E3,7.9876797E3,4.7556875E3,0E0,7.693047E2,6.7978125E2,1.8059297E3,1.3890039E3,1.96504E3,8.8949316E2,2.0471349E3,1.8632771E3,5.048129E3,1.9143379E3,2.5280703E3,3.6269648E3,8.5715234E2,1.6347969E3,3.4948438E2,0E0,2.806953E2,1.2431641E2,3.934375E2,1.210625E3,5.9771387E2,1.2800977E3,3.4285107E2,6.6940576E2,1.0111465E3,1.9998682E2,8.396494E2,8.953478E2,1.5183206E3,1.7892922E3,6.089546E2,1.0327864E3,3.063001E3,2.59333E2,1.3470828E3,1.2898984E3,8.101836E2,1.01375635E3,1.1423438E3,6.087051E2,4.3753125E2,9.113828E2,0E0,0E0,0E0,0E0,0E0,0E0,0E0,0E0,0E0,0E0,0E0,0E0,0E0,0E0,0E0,0E0,0E0,0E0,0E0,0E0,0E0,0E0,0E0,0E0,0E0,0E0,0E0,0E0,0E0,0E0,0E0,0E0,0E0,0E0,0E0,0E0,0E0,0E0,0E0,0E0,0E0,0E0,0E0,0E0,0E0,0E0,0E0,0E0,0E0,0E0,0E0,0E0,0E0,0E0,0E0],"parents":[2147483647,0,0,1,1,2,2,3,3,4,4,5,5,6,6,7,7,8,8,9,9,10,10,11,11,12,12,13,13,14,14,16,16,17,17,18,18,19,19,20,20,21,21,22,22,23,23,24,24,25,25,26,26,27,27,28,28,29,29,30,30,32,32,33,33,34,34,35,35,36,36,37,37,38,38,39,39,40,40,41,41,42,42,43,43,44,44,45,45,46,46,47,47,48,48,49,49,50,50,51,51,52,52,53,53,54,54,55,55,56,56,57,57],"right_children":[2,4,6,8,10,12,14,16,18,20,22,24,26,28,30,-1,32,34,36,38,40,42,44,46,48,50,52,54,56,58,60,-1,62,64,66,68,70,72,74,76,78,80,82,84,86,88,90,92,94,96,98,100,102,104,106,108,110,112,-1,-1,-1,-1,-1,-1,-1,-1,-1,-1,-1,-1,-1,-1,-1,-1,-1,-1,-1,-1,-1,-1,-1,-1,-1,-1,-1,-1,-1,-1,-1,-1,-1,-1,-1,-1,-1,-1,-1,-1,-1,-1,-1,-1,-1,-1,-1,-1,-1,-1,-1,-1,-1,-1,-1],"split_conditions":[4.9831334E-1,4.1445974E-1,5.925558E-1,3.3973786E-1,8E1,8.5E1,8.2E1,3.0576685E-1,8E1,4.6440583E-1,4.4855833E-1,7.5E1,5.246402E-1,6.6184515E-1,6.8289244E-1,-3.7806358E0,7.8E1,7.2E1,3.9914274E-1,7.196885E1,5.5E1,5.729127E1,8.8E1,8.230575E1,5.428459E-1,3.5E1,1E0,7.2E1,6.977874E-1,8.8E1,4.8E1,-3.3391247E0,3.4E1,7.2E1,9.253011E1,4.3E1,8.445867E1,5.8E1,1E0,8.4835846E1,9.793012E1,9E1,7.8E1,8.397689E1,8.0144936E1,5.4E1,8.7403366E1,4.7E1,1E0,6.2599785E1,1E0,9.4646614E1,5.58335E-1,1.0535165E2,6.186473E-1,7.2E1,1.0416771E2,8.4602554E1,3.2929153E0,4.257769E0,2.3107288E0,-1.4724568E0,-2.6045473E0,-1.5420418E0,-2.7970932E0,-2.295608E0,-1.6140299E0,-1.4453368E0,-2.0507886E0,-1.2826552E0,-6.259241E-1,-1.3852696E0,-2.0522676E0,-1.276565E0,-7.372257E-1,-6.2248176E-1,7.632468E-2,-1.2885594E0,-9.304774E-2,-1.1736227E0,-5.7597136E-1,-3.863845E-1,-9.123527E-1,-6.7748535E-1,-1.2711042E-1,-4.3641764E-1,3.871125E-1,2.4628435E-1,-7.9912645E-1,-2.8233525E-1,2.6197413E-1,5.087213E-1,3.5494532E-2,4.818096E-1,1.2749029E0,5.42839E-1,1.4706544E0,2.162487E-1,9.252365E-1,1.1933959E0,2.0475023E0,1.7142309E0,2.3004978E0,5.6584615E-1,1.5784304E0,1.3612489E0,1.9745795E0,1.3242959E0,2.444376E0,1.9935732E0,3.3602962E0,1.824665E0,2.7648687E0],"split_indices":[5,5,5,5,0,0,0,5,0,5,5,0,5,5,5,0,0,0,5,6,8,6,0,6,5,8,3,0,5,0,8,0,8,2,7,8,7,8,3,6,9,0,2,9,9,8,9,8,3,6,3,6,5,6,5,0,6,6,0,0,0,0,0,0,0,0,0,0,0,0,0,0,0,0,0,0,0,0,0,0,0,0,0,0,0,0,0,0,0,0,0,0,0,0,0,0,0,0,0,0,0,0,0,0,0,0,0,0,0,0,0,0,0],"split_type":[0,0,0,0,0,0,0,0,0,0,0,0,0,0,0,0,0,0,0,0,0,0,0,0,0,0,0,0,0,0,0,0,0,0,0,0,0,0,0,0,0,0,0,0,0,0,0,0,0,0,0,0,0,0,0,0,0,0,0,0,0,0,0,0,0,0,0,0,0,0,0,0,0,0,0,0,0,0,0,0,0,0,0,0,0,0,0,0,0,0,0,0,0,0,0,0,0,0,0,0,0,0,0,0,0,0,0,0,0,0,0,0,0],"sum_hessian":[3.173E3,1.601E3,1.572E3,6.49E2,9.52E2,1.036E3,5.36E2,1.78E2,4.71E2,4.18E2,5.34E2,5.93E2,4.43E2,2.9E2,2.46E2,7.8E1,1E2,2.32E2,2.39E2,2.33E2,1.85E2,1.88E2,3.46E2,1.84E2,4.09E2,1.51E2,2.92E2,2.15E2,7.5E1,1.94E2,5.2E1,3.3E1,6.7E1,6.7E1,1.65E2,1.74E2,6.5E1,1.73E2,6E1,1.02E2,8.3E1,5.4E1,1.34E2,1.87E2,1.59E2,1E2,8.4E1,2.11E2,1.98E2,4.3E1,1.08E2,1.48E2,1.44E2,6.5E1,1.5E2,4E1,3.5E1,1E2,9.4E1,4.7E1,5E0,7E0,6E1,5E0,6.2E1,1.44E2,2.1E1,1.11E2,6.3E1,3.8E1,2.7E1,1.27E2,4.6E1,2.5E1,3.5E1,8.6E1,1.6E1,7.5E1,8E0,4.4E1,1E1,8.5E1,4.9E1,3.6E1,1.51E2,2.6E1,1.33E2,2E1,8E1,3.3E1,5.1E1,6.7E1,1.44E2,9.7E1,1.01E2,5E0,3.8E1,5.3E1,5.5E1,1.25E2,2.3E1,8.8E1,5.6E1,5.3E1,1.2E1,7.3E1,7.7E1,1.1E1,2.9E1,9E0,2.6E1,2.2E1,7.8E1],"tree_param":{"num_deleted":"0","num_feature":"10","num_nodes":"113","size_leaf_vector":"1"}},{"base_weights":[8.169939E-2,-9.877613E0,1.41282425E1,-1.9684801E1,-3.8325174E0,1.0385766E1,2.6488115E1,-2.9483198E1,-1.6472757E1,-8.286087E0,4.6162214E-2,1.7263306E1,5.982325E0,2.1122356E1,3.4948048E1,-3.4362347E1,-2.5982033E1,-1.1685571E1,-1.9367048E1,-1.1595226E1,-4.100932E0,-2.0291274E0,4.8739953E0,1.4236859E1,2.244506E1,8.027274E0,9.3238205E-1,1.8868805E1,2.9155287E1,3.2334515E1,4.433289E0,-3.4908016E1,-1.66068E0,-3.0714226E0,-2.1206608E1,-1.3906506E1,-8.156274E0,-2.1410662E1,-1.6734364E1,-1.3997727E1,-1.0055211E1,-8.394087E0,-1.5595396E0,-6.3127136E0,-8.133821E-1,2.6412382E0,7.5791473E0,1.1038798E1,1.6929745E1,1.7657393E1,2.5710423E1,5.9502068E0,1.3521841E1,3.7555346E0,-1.0996177E0,1.2043541E1,2.0882305E1,3.08451E1,6.2106913E-1,2.5841267E0,3.402497E0,-3.692772E0,-2.678962E0,-1.0314915E0,-2.2550015E0,-7.2231334E-1,-1.4820366E0,-1.0707533E0,-4.4215098E-1,-2.29798E0,-1.9646071E0,-2.1005232E0,-1.4411108E0,-1.8603762E0,-1.244199E0,-1.1721379E0,-7.678945E-1,-2.919742E-1,-9.644699E-1,-1.1294208E-1,-1.3959149E0,-7.6779145E-1,-3.7069272E-2,2.7303654E-1,-2.1790026E-1,-1.664273E-1,3.8855717E-1,5.9802216E-1,1.23917E0,1.3668694E0,7.8342956E-1,1.3629731E0,1.96724E0,1.491582E0,2.2294948E0,2.0267026E0,2.8210268E0,3.401707E-1,8.9199096E-1,7.6227546E-1,1.4613514E0,2.623632E-1,7.5236887E-1,-4.6546578E-1,1.9210128E-1,1.3346604E0,-2.018375E-1,1.8488865E0,2.4120393E0,3.1761787E0,1.5316986E0],"categories":[],"categories_nodes":[],"categories_segments":[],"categories_sizes":[],"default_left":[0,0,0,0,0,0,0,0,0,0,0,0,0,0,0,0,0,0,0,0,0,0,0,0,0,0,0,0,0,0,0,0,0,0,0,0,0,0,0,0,0,0,0,0,0,0,0,0,0,0,0,0,0,0,0,0,0,0,0,0,0,0,0,0,0,0,0,0,0,0,0,0,0,0,0,0,0,0,0,0,0,0,0,0,0,0,0,0,0,0,0,0,0,0,0,0,0,0,0,0,0,0,0,0,0,0,0,0,0,0,0],"id":2,"left_children":[1,3,5,7,9,11,13,15,17,19,21,23,25,27,29,31,33,35,37,39,41,43,45,47,49,51,53,55,57,59,-1,61,-1,-1,63,65,67,69,71,73,75,77,79,81,83,85,87,89,91,93,95,97,99,101,103,105,107,109,-1,-1,-1,-1,-1,-1,-1,-1,-1,-1,-1,-1,-1,-1,-1,-1,-1,-1,-1,-1,-1,-1,-1,-1,-1,-1,-1,-1,-1,-1,-1,-1,-1,-1,-1,-1,-1,-1,-1,-1,-1,-1,-1,-1,-1,-1,-1,-1,-1,-1,-1,-1,-1],"loss_changes":[4.4780053E5,1.10963766E5,6.1149875E4,2.1981375E4,2.003901E4,3.0815227E4,1.32375625E4,2.0906406E3,7.2525625E3,7.4294805E3,6.232068E3,5.9183438E3,6.435592E3,2.9026719E3,1.4531094E3,9.334375E1,1.738875E3,1.4990645E3,1.44025E3,9.705117E2,2.6044558E3,2.259524E3,1.1084302E3,1.9977695E3,1.8085391E3,4.984783E3,1.0427281E3,1.8340977E3,1.3556094E3,1.6851562E2,0E0,1.0292969E2,0E0,0E0,5.8350195E2,6.5420703E2,7.324678E2,5.6523438E1,1.1920156E3,5.8949414E2,6.484336E2,5.7990234E2,7.933878E2,7.7510596E2,1.651295E3,5.6386804E2,5.7043066E2,8.9363965E2,9.594492E2,4.5201172E2,5.6645703E2,2.4205498E3,6.6560547E2,3.0339978E2,1.147492E3,7.060425E2,4.4879688E2,3.5472656E1,0E0,0E0,0E0,0E0,0E0,0E0,0E0,0E0,0E0,0E0,0E0,0E0,0E0,0E0,0E0,0E0,0E0,0E0,0E0,0E0,0E0,0E0,0E0,0E0,0E0,0E0,0E0,0E0,0E0,0E0,0E0,0E0,0E0,0E0,0E0,0E0,0E0,0E0,0E0,0E0,0E0,0E0,0E0,0E0,0E0,0E0,0E0,0E0,0E0,0E0,0E0,0E0,0E0],"parents":[2147483647,0,0,1,1,2,2,3,3,4,4,5,5,6,6,7,7,8,8,9,9,10,10,11,11,12,12,13,13,14,14,15,15,16,16,17,17,18,18,19,19,20,20,21,21,22,22,23,23,24,24,25,25,26,26,27,27,28,28,29,29,31,31,34,34,35,35,36,36,37,37,38,38,39,39,40,40,41,41,42,42,43,43,44,44,45,45,46,46,47,47,48,48,49,49,50,50,51,51,52,52,53,53,54,54,55,55,56,56,57,57],"right_children":[2,4,6,8,10,12,14,16,18,20,22,24,26,28,30,32,34,36,38,40,42,44,46,48,50,52,54,56,58,60,-1,62,-1,-1,64,66,68,70,72,74,76,78,80,82,84,86,88,90,92,94,96,98,100,102,104,106,108,110,-1,-1,-1,-1,-1,-1,-1,-1,-1,-1,-1,-1,-1,-1,-1,-1,-1,-1,-1,-1,-1,-1,-1,-1,-1,-1,-1,-1,-1,-1,-1,-1,-1,-1,-1,-1,-1,-1,-1,-1,-1,-1,-1,-1,-1,-1,-1,-1,-1,-1,-1,-1,-1],"split_conditions":[5.1858085E-1,4.224439E-1,6.272759E-1,3.3973786E-1,8E1,4.4E1,8.5E1,2.9500857E-1,4.4E1,4.773588E-1,4.9198374E-1,5.746464E-1,5.7E1,6.977874E-1,7.0828456E-1,9.932763E1,8.2E1,4.002249E-1,7.8E1,7.5E1,7.2E1,4.419099E-1,1E0,1E0,1E0,5.907985E-1,6E1,7.2E1,8E1,8.5064766E1,4.433289E0,9E1,-1.66068E0,-3.0714226E0,6.596616E1,3.3E1,8.514166E1,7.5E1,3.7406135E-1,8.361954E1,4.561147E-1,5.3E1,6.6E1,9.2E1,3.7E1,8.5E1,9.2E1,4E1,9.128436E1,9E1,5.882782E-1,1E0,7.2E1,5.8E1,1E0,9.8790215E1,1E0,6.2E1,6.2106913E-1,2.5841267E0,3.402497E0,-3.692772E0,-2.678962E0,-1.0314915E0,-2.2550015E0,-7.2231334E-1,-1.4820366E0,-1.0707533E0,-4.4215098E-1,-2.29798E0,-1.9646071E0,-2.1005232E0,-1.4411108E0,-1.8603762E0,-1.244199E0,-1.1721379E0,-7.678945E-1,-2.919742E-1,-9.644699E-1,-1.1294208E-1,-1.3959149E0,-7.6779145E-1,-3.7069272E-2,2.7303654E-1,-2.1790026E-1,-1.664273E-1,3.8855717E-1,5.9802216E-1,1.23917E0,1.3668694E0,7.8342956E-1,1.3629731E0,1.96724E0,1.491582E0,2.2294948E0,2.0267026E0,2.8210268E0,3.401707E-1,8.9199096E-1,7.6227546E-1,1.4613514E0,2.623632E-1,7.5236887E-1,-4.6546578E-1,1.9210128E-1,1.3346604E0,-2.018375E-1,1.8488865E0,2.4120393E0,3.1761787E0,1.5316986E0],"split_indices":[5,5,5,5,0,8,0,5,8,5,5,5,8,5,5,9,0,5,0,0,0,5,3,3,3,5,8,0,1,9,0,0,0,0,7,8,7,0,5,9,5,8,8,0,8,0,0,8,9,0,5,3,0,8,3,9,3,8,0,0,0,0,0,0,0,0,0,0,0,0,0,0,0,0,0,0,0,0,0,0,0,0,0,0,0,0,0,0,0,0,0,0,0,0,0,0,0,0,0,0,0,0,0,0,0,0,0,0,0,0,0],"split_type":[0,0,0,0,0,0,0,0,0,0,0,0,0,0,0,0,0,0,0,0,0,0,0,0,0,0,0,0,0,0,0,0,0,0,0,0,0,0,0,0,0,0,0,0,0,0,0,0,0,0,0,0,0,0,0,0,0,0,0,0,0,0,0,0,0,0,0,0,0,0,0,0,0,0,0,0,0,0,0,0,0,0,0,0,0,0,0,0,0,0,0,0,0,0,0,0,0,0,0,0,0,0,0,0,0,0,0,0,0,0,0],"sum_hessian":[3.199E3,1.872E3,1.327E3,7.13E2,1.159E3,1.02E3,3.07E2,1.74E2,5.39E2,5.39E2,6.2E2,3.97E2,6.23E2,1.9E2,1.17E2,6.9E1,1.05E2,2.05E2,3.34E2,3E2,2.39E2,4.34E2,1.86E2,2.53E2,1.44E2,4.43E2,1.8E2,1.51E2,3.9E1,9.5E1,2.2E1,6.6E1,3E0,5E1,5.5E1,1.24E2,8.1E1,1.84E2,1.5E2,1.14E2,1.86E2,8.8E1,1.51E2,9.5E1,3.39E2,1.03E2,8.3E1,1.18E2,1.35E2,6.1E1,8.3E1,3.23E2,1.2E2,7.5E1,1.05E2,3.6E1,1.15E2,3.6E1,3E0,2.3E1,7.2E1,5E1,1.6E1,7E0,4.8E1,1.6E1,1.08E2,4.7E1,3.4E1,9.1E1,9.3E1,5E1,1E2,2.6E1,8.8E1,1.07E2,7.9E1,1.7E1,7.1E1,1.47E2,4E0,7.7E1,1.8E1,9.4E1,2.45E2,2.3E1,8E1,6.4E1,1.9E1,6.3E1,5.5E1,6.4E1,7.1E1,4.1E1,2E1,2.9E1,5.4E1,1.75E2,1.48E2,2E1,1E2,5.9E1,1.6E1,4.8E1,5.7E1,3.3E1,3E0,7E1,4.5E1,3.3E1,3E0],"tree_param":{"num_deleted":"0","num_feature":"10","num_nodes":"111","size_leaf_vector":"1"}},{"base_weights":[-1.1433342E-1,-9.072035E0,9.853111E0,-2.0328941E1,-6.058808E0,5.336073E0,1.659744E1,-2.9049166E1,-1.8317833E1,-1.4028053E0,-1.011762E1,2.9213858E-1,1.0559673E1,2.3190317E1,1.2022008E1,-3.6272151E0,-2.6353207E0,-2.0814064E1,-1.5419723E1,-4.0895796E0,3.8121336E0,-1.4986861E1,-7.1268477E0,-1.4507871E0,3.550869E0,8.601918E0,1.4660764E1,1.9696468E1,3.162151E1,9.476747E0,1.8850586E1,-2.5535313E1,-1.8434298E1,-7.827399E0,-1.6342892E1,-5.999714E0,-3.4853634E-1,5.4736876E0,-2.0287055E-1,-1.7680277E1,-1.1523232E1,-5.2938724E0,-1.0497835E1,-4.487779E0,1.3520262E-1,1.4968307E0,6.5915594E0,6.3336535E0,1.2453179E1,1.0120262E1,1.6206657E1,1.7078608E1,2.2121313E1,2.8713574E0,4.351773E0,1.2953504E1,6.326596E0,1.3785158E1,2.174285E1,-2.812655E0,-2.0366695E0,-9.896426E-1,-1.9123415E0,-2.4130324E-1,-1.0552232E0,-1.4045712E-1,-1.6703812E0,-2.9114905E-1,-7.2707886E-1,-3.3189124E-1,4.441672E-1,4.1923314E-1,1.025398E0,-2.8818542E-1,6.649136E-1,-1.0948913E0,-1.9068063E0,-1.5495838E0,-9.919645E-1,-8.2220715E-1,-2.7440488E-1,-1.6095923E0,-9.136084E-1,-6.637446E-1,-8.798761E-2,2.2985967E-1,-1.923514E-1,-8.564093E-2,6.160983E-1,1.3483888E0,5.525522E-1,7.705943E-1,6.795321E-2,1.865824E0,1.0161514E0,1.2173603E0,6.2936865E-2,1.4568337E0,2.0188167E0,1.419175E0,1.9529257E0,1.8719733E0,2.4891927E0,2.8958866E-1,1.3802028E0,5.485384E-1,1.4179654E0,1.497671E0,-6.2200166E-3,1.8706331E0,2.8917875E0],"categories":[],"categories_nodes":[],"categories_segments":[],"categories_sizes":[],"default_left":[0,0,0,0,0,0,0,0,0,0,0,0,0,0,0,0,0,0,0,0,0,0,0,0,0,0,0,0,0,0,0,0,0,0,0,0,0,0,0,0,0,0,0,0,0,0,0,0,0,0,0,0,0,0,0,0,0,0,0,0,0,0,0,0,0,0,0,0,0,0,0,0,0,0,0,0,0,0,0,0,0,0,0,0,0,0,0,0,0,0,0,0,0,0,0,0,0,0,0,0,0,0,0,0,0,0,0,0,0,0,0],"id":3,"left_children":[1,3,5,7,9,11,13,15,17,19,21,23,25,27,29,-1,-1,31,33,35,37,39,41,43,45,47,49,51,53,55,57,59,61,63,65,67,69,71,73,75,77,79,81,83,85,87,89,91,93,95,97,99,101,-1,-1,103,105,107,109,-1,-1,-1,-1,-1,-1,-1,-1,-1,-1,-1,-1,-1,-1,-1,-1,-1,-1,-1,-1,-1,-1,-1,-1,-1,-1,-1,-1,-1,-1,-1,-1,-1,-1,-1,-1,-1,-1,-1,-1,-1,-1,-1,-1,-1,-1,-1,-1,-1,-1,-1,-1],"loss_changes":[2.861597E5,5.7130484E4,4.612372E4,5.7064375E3,2.517548E4,2.3972057E4,1.8058172E4,3.0358203E2,1.7878594E3,8.730686E3,1.02596875E4,2.640754E3,3.4604922E3,6.6774375E3,6.0928945E3,0E0,0E0,1.2551406E3,8.4391016E2,2.9342373E3,1.4159207E3,2.3121758E3,2.6801152E3,1.4604834E3,1.0011272E3,2.583629E3,8.3708594E2,7.4821094E2,1.1993672E3,2.8184844E3,1.1178203E3,7.857031E1,4.315039E2,2.2404578E2,6.378867E2,1.0455107E3,2.0066499E3,8.7435596E2,1.1752391E3,1.1894766E3,6.145654E2,2.134128E3,1.0320195E3,8.0001E2,8.952219E2,1.081442E3,4.011797E2,1.499188E3,1.4001543E3,7.510918E2,3.8732812E2,3.5619336E2,3.684453E2,0E0,0E0,1.025127E3,8.5171094E2,6.29417E2,7.615156E2,0E0,0E0,0E0,0E0,0E0,0E0,0E0,0E0,0E0,0E0,0E0,0E0,0E0,0E0,0E0,0E0,0E0,0E0,0E0,0E0,0E0,0E0,0E0,0E0,0E0,0E0,0E0,0E0,0E0,0E0,0E0,0E0,0E0,0E0,0E0,0E0,0E0,0E0,0E0,0E0,0E0,0E0,0E0,0E0,0E0,0E0,0E0,0E0,0E0,0E0,0E0,0E0],"parents":[2147483647,0,0,1,1,2,2,3,3,4,4,5,5,6,6,7,7,8,8,9,9,10,10,11,11,12,12,13,13,14,14,17,17,18,18,19,19,20,20,21,21,22,22,23,23,24,24,25,25,26,26,27,27,28,28,29,29,30,30,31,31,32,32,33,33,34,34,35,35,36,36,37,37,38,38,39,39,40,40,41,41,42,42,43,43,44,44,45,45,46,46,47,47,48,48,49,49,50,50,51,51,52,52,55,55,56,56,57,57,58,58],"right_children":[2,4,6,8,10,12,14,16,18,20,22,24,26,28,30,-1,-1,32,34,36,38,40,42,44,46,48,50,52,54,56,58,60,62,64,66,68,70,72,74,76,78,80,82,84,86,88,90,92,94,96,98,100,102,-1,-1,104,106,108,110,-1,-1,-1,-1,-1,-1,-1,-1,-1,-1,-1,-1,-1,-1,-1,-1,-1,-1,-1,-1,-1,-1,-1,-1,-1,-1,-1,-1,-1,-1,-1,-1,-1,-1,-1,-1,-1,-1,-1,-1,-1,-1,-1,-1,-1,-1,-1,-1,-1,-1,-1,-1],"split_conditions":[7.475836E1,5.2468605E1,9.1127075E1,3.9566566E1,4.7E1,8.2E1,4.4E1,3.0220602E1,8.2E1,6.7089096E1,6.2506702E1,7.8E1,9E1,1.0611981E2,1.0769432E2,-3.6272151E0,-2.6353207E0,4.5694286E1,6.6465195E1,9E1,4.3E1,1E0,5.7E1,7.948843E1,8.327346E1,8.354801E1,8.878762E1,8.8E1,1.24301796E2,5.2E1,7.5E1,1E0,5.968795E1,8E1,6.994311E1,3.8E1,6.2599785E1,7.272373E1,8E1,4.8E1,7.2E1,6.834348E1,8.141591E1,1E0,5.4E1,9.536033E1,7.939052E1,4.7E1,7.5E1,8.5064766E1,8.6447E1,9.089168E1,1E0,2.8713574E0,4.351773E0,9.2033905E1,9.398381E1,9.8739685E1,1.20392746E2,-2.812655E0,-2.0366695E0,-9.896426E-1,-1.9123415E0,-2.4130324E-1,-1.0552232E0,-1.4045712E-1,-1.6703812E0,-2.9114905E-1,-7.2707886E-1,-3.3189124E-1,4.441672E-1,4.1923314E-1,1.025398E0,-2.8818542E-1,6.649136E-1,-1.0948913E0,-1.9068063E0,-1.5495838E0,-9.919645E-1,-8.2220715E-1,-2.7440488E-1,-1.6095923E0,-9.136084E-1,-6.637446E-1,-8.798761E-2,2.2985967E-1,-1.923514E-1,-8.564093E-2,6.160983E-1,1.3483888E0,5.525522E-1,7.705943E-1,6.795321E-2,1.865824E0,1.0161514E0,1.2173603E0,6.2936865E-2,1.4568337E0,2.0188167E0,1.419175E0,1.9529257E0,1.8719733E0,2.4891927E0,2.8958866E-1,1.3802028E0,5.485384E-1,1.4179654E0,1.497671E0,-6.2200166E-3,1.8706331E0,2.8917875E0],"split_indices":[6,6,6,6,8,0,8,6,0,6,6,0,0,6,6,0,0,6,7,0,8,3,8,6,6,6,9,0,6,8,0,3,7,1,9,8,6,6,2,8,0,6,9,3,8,9,9,8,2,9,6,9,3,0,0,6,7,9,6,0,0,0,0,0,0,0,0,0,0,0,0,0,0,0,0,0,0,0,0,0,0,0,0,0,0,0,0,0,0,0,0,0,0,0,0,0,0,0,0,0,0,0,0,0,0,0,0,0,0,0,0],"split_type":[0,0,0,0,0,0,0,0,0,0,0,0,0,0,0,0,0,0,0,0,0,0,0,0,0,0,0,0,0,0,0,0,0,0,0,0,0,0,0,0,0,0,0,0,0,0,0,0,0,0,0,0,0,0,0,0,0,0,0,0,0,0,0,0,0,0,0,0,0,0,0,0,0,0,0,0,0,0,0,0,0,0,0,0,0,0,0,0,0,0,0,0,0,0,0,0,0,0,0,0,0,0,0,0,0,0,0,0,0,0,0],"sum_hessian":[3.203E3,1.687E3,1.516E3,3.55E2,1.332E3,9.09E2,6.07E2,6.4E1,2.91E2,6.21E2,7.11E2,4.63E2,4.46E2,2.47E2,3.6E2,1.4E1,5E1,1.53E2,1.38E2,4.1E2,2.11E2,2.69E2,4.42E2,3.02E2,1.61E2,3.04E2,1.42E2,1.77E2,7E1,2.64E2,9.6E1,4.8E1,1.05E2,1.6E1,1.22E2,2.71E2,1.39E2,1.49E2,6.2E1,1.49E2,1.2E2,2.88E2,1.54E2,1.03E2,1.99E2,9.7E1,6.4E1,1.93E2,1.11E2,3.8E1,1.04E2,8.9E1,8.8E1,5.9E1,1.1E1,1.24E2,1.4E2,3.7E1,5.9E1,2.9E1,1.9E1,9E0,9.6E1,6E0,1E1,3E0,1.19E2,8E1,1.91E2,8.6E1,5.3E1,1.19E2,3E1,4.5E1,1.7E1,2.7E1,1.22E2,3.2E1,8.8E1,1.33E2,1.55E2,2.8E1,1.26E2,6.4E1,3.9E1,9.7E1,1.02E2,6.5E1,3.2E1,7E0,5.7E1,1.55E2,3.8E1,2.8E1,8.3E1,3.1E1,7E0,7.7E1,2.7E1,4.4E1,4.5E1,4.3E1,4.5E1,1E1,1.14E2,1.28E2,1.2E1,3.4E1,3E0,4.4E1,1.5E1],"tree_param":{"num_deleted":"0","num_feature":"10","num_nodes":"111","size_leaf_vector":"1"}},{"base_weights":[6.263829E-2,-1.1863579E1,8.245472E0,-1.8647104E1,-7.050702E0,3.2290053E0,1.6952734E1,-2.6233145E1,-1.5749943E1,-1.0825895E1,-3.6856272E0,-2.613411E0,6.1246486E0,1.1975997E1,2.24844E1,-3.4084457E1,-2.4032536E1,-1.1910283E1,-1.8464064E1,-1.33130045E1,-7.8052945E0,-6.6890287E0,-1.6011862E0,5.515398E-1,-5.246619E0,3.9522696E0,1.1341426E1,8.308818E0,1.7557873E1,1.706595E1,2.6579927E1,-3.570097E0,-1.8841709E0,-2.9081342E0,-2.1398546E1,-5.5241704E0,-1.2601153E1,-2.099149E1,-1.673708E1,-1.4283559E1,-1.0191314E1,-2.1900315E0,-8.351554E0,-7.1436014E0,-2.5171554E-1,7.280587E-1,-5.0675707E0,-9.641658E-1,6.3631577E0,-8.182837E0,-1.7341789E0,1.9608979E0,6.861776E0,1.36699915E1,8.013592E0,1.0949345E1,3.7764003E0,1.5963741E1,2.5740355E1,2.0356169E1,1.4328758E1,2.4683702E1,3.427246E1,-2.2167888E0,-1.2684122E0,-3.198062E-1,-8.0195487E-1,-1.4205807E0,-9.910905E-1,-1.4663585E0,-2.1975849E0,-2.014182E0,-1.5138716E0,-1.6069164E0,-1.2402676E0,-1.2627712E0,-7.822439E-1,-4.5462202E-2,-7.257604E-1,-8.895796E-1,-3.231297E-1,-9.290787E-1,-5.530297E-1,3.2448894E-1,-4.305802E-1,-1.9148436E-1,4.298635E-1,-5.866456E-1,2.4593763E-1,-8.145823E-3,-3.9812717E-1,7.766916E-1,-9.48763E-2,-9.4591534E-1,-4.251382E-1,-3.3246357E-2,-8.1736183E-1,3.2441506E-1,-1.7079094E-1,4.3509242E-1,8.763647E-1,1.3958442E0,3.1855085E-1,6.351399E-1,1.2496316E0,9.454486E-1,1.5203645E0,-1.5045838E-1,5.5621976E-1,1.2473269E0,1.7303675E0,1.5549681E0,3.0445764E0,8.781597E-1,2.078687E0,1.477393E0,4.498326E-1,1.5484371E0,2.603944E0,2.7669494E0,4.0784926E0],"categories":[],"categories_nodes":[],"categories_segments":[],"categories_sizes":[],"default_left":[0,0,0,0,0,0,0,0,0,0,0,0,0,0,0,0,0,0,0,0,0,0,0,0,0,0,0,0,0,0,0,0,0,0,0,0,0,0,0,0,0,0,0,0,0,0,0,0,0,0,0,0,0,0,0,0,0,0,0,0,0,0,0,0,0,0,0,0,0,0,0,0,0,0,0,0,0,0,0,0,0,0,0,0,0,0,0,0,0,0,0,0,0,0,0,0,0,0,0,0,0,0,0,0,0,0,0,0,0,0,0,0,0,0,0,0,0,0,0,0,0],"id":4,"left_children":[1,3,5,7,9,11,13,15,17,19,21,23,25,27,29,31,33,35,37,39,41,43,45,47,49,51,53,55,57,59,61,-1,-1,-1,63,65,67,69,71,73,75,77,79,81,83,85,87,89,91,93,95,97,99,101,103,105,107,109,111,113,115,117,119,-1,-1,-1,-1,-1,-1,-1,-1,-1,-1,-1,-1,-1,-1,-1,-1,-1,-1,-1,-1,-1,-1,-1,-1,-1,-1,-1,-1,-1,-1,-1,-1,-1,-1,-1,-1,-1,-1,-1,-1,-1,-1,-1,-1,-1,-1,-1,-1,-1,-1,-1,-1,-1,-1,-1,-1,-1,-1],"loss_changes":[3.1297178E5,4.2471938E4,8.3022016E4,1.1472734E4,9.677059E3,2.0452764E4,1.886039E4,1.7321562E3,3.8830312E3,2.5985E3,2.5301885E3,3.345287E3,9.1105625E3,7.3843906E3,6.8208125E3,6.1078125E1,9.551719E2,6.609668E2,6.444375E2,4.458203E2,4.867754E2,4.8321582E2,1.9499717E3,1.6186675E3,2.2434272E3,3.2997783E3,1.7248184E3,2.638003E3,1.4762891E3,1.00171094E3,1.8466875E3,0E0,0E0,0E0,2.6509375E2,7.771265E1,5.0001562E2,2.2846875E2,4.588789E2,2.915547E2,1.8775146E2,1.3663834E2,3.8804102E2,4.840664E2,1.8418437E2,1.3767888E3,5.9804565E2,3.880999E2,3.9808936E2,5.5553076E2,9.080842E2,1.6111249E3,1.0684326E3,3.7116992E2,6.638618E2,7.504922E2,8.009591E2,3.6113672E2,5.7690625E2,1.285664E2,2.9046484E2,1.4883594E3,3.2670703E2,0E0,0E0,0E0,0E0,0E0,0E0,0E0,0E0,0E0,0E0,0E0,0E0,0E0,0E0,0E0,0E0,0E0,0E0,0E0,0E0,0E0,0E0,0E0,0E0,0E0,0E0,0E0,0E0,0E0,0E0,0E0,0E0,0E0,0E0,0E0,0E0,0E0,0E0,0E0,0E0,0E0,0E0,0E0,0E0,0E0,0E0,0E0,0E0,0E0,0E0,0E0,0E0,0E0,0E0,0E0,0E0,0E0,0E0],"parents":[2147483647,0,0,1,1,2,2,3,3,4,4,5,5,6,6,7,7,8,8,9,9,10,10,11,11,12,12,13,13,14,14,15,15,16,16,17,17,18,18,19,19,20,20,21,21,22,22,23,23,24,24,25,25,26,26,27,27,28,28,29,29,30,30,34,34,35,35,36,36,37,37,38,38,39,39,40,40,41,41,42,42,43,43,44,44,45,45,46,46,47,47,48,48,49,49,50,50,51,51,52,52,53,53,54,54,55,55,56,56,57,57,58,58,59,59,60,60,61,61,62,62],"right_children":[2,4,6,8,10,12,14,16,18,20,22,24,26,28,30,32,34,36,38,40,42,44,46,48,50,52,54,56,58,60,62,-1,-1,-1,64,66,68,70,72,74,76,78,80,82,84,86,88,90,92,94,96,98,100,102,104,106,108,110,112,114,116,118,120,-1,-1,-1,-1,-1,-1,-1,-1,-1,-1,-1,-1,-1,-1,-1,-1,-1,-1,-1,-1,-1,-1,-1,-1,-1,-1,-1,-1,-1,-1,-1,-1,-1,-1,-1,-1,-1,-1,-1,-1,-1,-1,-1,-1,-1,-1,-1,-1,-1,-1,-1,-1,-1,-1,-1,-1,-1,-1],"split_conditions":[7.1047714E1,6.0033733E1,8.619696E1,4.9401726E1,8E1,7.8E1,8.2E1,3.8770065E1,4.6E1,6.6631996E1,6.557033E1,5.4E1,8.1065834E1,9.4745636E1,9.18148E1,9.547502E1,7.8E1,3.3E1,5.4927822E1,6.834348E1,4.6E1,9.5E1,4.2E1,8.3554596E1,7.919708E1,8.8E1,4.4E1,5.5E1,1.0829148E2,4E1,1.0466811E2,-3.570097E0,-1.8841709E0,-2.9081342E0,9.297495E1,6.0346275E1,5.698083E1,6.83295E1,7.5E1,7.5E1,8.4344696E1,7.076423E1,8.179757E1,6.261115E1,9.040444E1,6.8180565E1,8.2595116E1,7.8E1,7.8E1,9.011157E1,6.6E1,5E1,7.548579E1,8.60677E1,9.163078E1,9.279709E1,8.007291E1,7.2E1,7.2E1,6.3530846E1,9.398381E1,8.1569244E1,1.1634407E2,-2.2167888E0,-1.2684122E0,-3.198062E-1,-8.0195487E-1,-1.4205807E0,-9.910905E-1,-1.4663585E0,-2.1975849E0,-2.014182E0,-1.5138716E0,-1.6069164E0,-1.2402676E0,-1.2627712E0,-7.822439E-1,-4.5462202E-2,-7.257604E-1,-8.895796E-1,-3.231297E-1,-9.290787E-1,-5.530297E-1,3.2448894E-1,-4.305802E-1,-1.9148436E-1,4.298635E-1,-5.866456E-1,2.4593763E-1,-8.145823E-3,-3.9812717E-1,7.766916E-1,-9.48763E-2,-9.4591534E-1,-4.251382E-1,-3.3246357E-2,-8.1736183E-1,3.2441506E-1,-1.7079094E-1,4.3509242E-1,8.763647E-1,1.3958442E0,3.1855085E-1,6.351399E-1,1.2496316E0,9.454486E-1,1.5203645E0,-1.5045838E-1,5.5621976E-1,1.2473269E0,1.7303675E0,1.5549681E0,3.0445764E0,8.781597E-1,2.078687E0,1.477393E0,4.498326E-1,1.5484371E0,2.603944E0,2.7669494E0,4.0784926E0],"split_indices":[4,4,4,4,0,0,0,4,8,4,4,8,4,4,4,7,0,8,4,6,8,0,8,4,4,0,8,8,4,8,4,0,0,0,7,6,4,7,0,1,7,4,6,4,7,6,6,1,1,7,8,8,4,4,6,4,6,0,0,6,7,6,6,0,0,0,0,0,0,0,0,0,0,0,0,0,0,0,0,0,0,0,0,0,0,0,0,0,0,0,0,0,0,0,0,0,0,0,0,0,0,0,0,0,0,0,0,0,0,0,0,0,0,0,0,0,0,0,0,0,0],"split_type":[0,0,0,0,0,0,0,0,0,0,0,0,0,0,0,0,0,0,0,0,0,0,0,0,0,0,0,0,0,0,0,0,0,0,0,0,0,0,0,0,0,0,0,0,0,0,0,0,0,0,0,0,0,0,0,0,0,0,0,0,0,0,0,0,0,0,0,0,0,0,0,0,0,0,0,0,0,0,0,0,0,0,0,0,0,0,0,0,0,0,0,0,0,0,0,0,0,0,0,0,0,0,0,0,0,0,0,0,0,0,0,0,0,0,0,0,0,0,0,0,0],"sum_hessian":[3.205E3,1.304E3,1.901E3,5.4E2,7.64E2,1.207E3,6.94E2,1.47E2,3.93E2,3.59E2,4.05E2,4E2,8.07E2,3.67E2,3.27E2,2.9E1,1.18E2,1.65E2,2.28E2,1.95E2,1.64E2,1.65E2,2.4E2,1.82E2,2.18E2,5.71E2,2.36E2,2.23E2,1.44E2,1.43E2,1.84E2,2.5E1,4E0,3.7E1,8.1E1,1.7E1,1.48E2,8.8E1,1.4E2,1.46E2,4.9E1,1.5E1,1.49E2,1.54E2,1.1E1,1.44E2,9.6E1,1.45E2,3.7E1,1.18E2,1E2,3.4E2,2.31E2,1.37E2,9.9E1,1.4E2,8.3E1,1.23E2,2.1E1,6.2E1,8.1E1,1.51E2,3.3E1,7.3E1,8E0,1E1,7E0,9E1,5.8E1,1.4E1,7.4E1,4.1E1,9.9E1,7.1E1,7.5E1,2.2E1,2.7E1,1.2E1,3E0,1.34E2,1.5E1,6.4E1,9E1,6E0,5E0,8.3E1,6.1E1,8.7E1,9E0,1.13E2,3.2E1,3.1E1,6E0,8.8E1,3E1,8.3E1,1.7E1,2.52E2,8.8E1,1.01E2,1.3E2,1.33E2,4E0,7.4E1,2.5E1,1.06E2,3.4E1,2.1E1,6.2E1,3.7E1,8.6E1,8E0,1.3E1,3E0,5.9E1,7.7E1,4E0,2.1E1,1.3E2,1.9E1,1.4E1],"tree_param":{"num_deleted":"0","num_feature":"10","num_nodes":"121","size_leaf_vector":"1"}},{"base_weights":[1.3293346E-2,-1.0096303E1,8.376736E0,-1.7029222E1,-6.144981E0,4.4201264E0,1.6607714E1,-2.4103798E1,-1.46812935E1,-9.6036005E0,-2.8472874E0,4.6321943E-1,8.429643E0,1.1687889E1,2.1860369E1,-3.0652788E1,-2.2088501E1,-1.7249939E1,-1.2310415E1,-1.2160592E1,-7.283185E0,-5.026824E0,-7.273761E-1,-5.3807216E0,1.8009663E0,4.2867966E0,1.1190851E1,9.140924E0,1.6688477E1,1.5186065E1,2.4425392E1,-3.243119E0,-1.5965894E0,-2.348031E1,-1.6802843E1,-1.7466595E1,-2.8379342E-1,-1.0365413E1,-1.480908E1,-1.3930622E1,-1.0573212E1,-9.468164E0,-4.8250055E0,-7.75718E0,-2.8367949E0,-4.2415633E0,9.9068713E-1,-8.647868E0,-1.1545026E0,-1.1365073E0,4.247991E0,1.7494607E0,7.124787E0,8.399452E0,1.3666419E1,1.0921125E1,4.1566596E0,1.5519084E1,2.9826338E0,1.7224154E1,8.307493E0,2.2410967E1,3.0918488E1,-2.4926825E0,-1.7595167E0,-7.139026E-1,-1.8298855E0,-1.9704857E0,-1.5945188E0,-1.351841E0,-8.34589E-1,-1.5263245E0,-4.0156323E-1,-1.5173235E0,-1.027862E0,-1.1474694E0,-7.57309E-1,-1.0489795E0,-4.6849972E-1,-6.99608E-1,-3.220056E-1,2.6642224E-1,-8.0940956E-1,-3.630868E-1,5.398175E-1,-5.3105575E-1,2.6505773E-3,-4.8659864E-1,1.8386E-1,-1.0781909E0,-4.968849E-1,2.389028E-1,-5.0970376E-1,-2.6617673E-1,1.0631756E-1,2.3849349E-1,6.19225E-1,3.3243105E-1,-6.6059634E-2,7.598517E-2,8.176652E-1,7.619192E-1,1.6486672E0,1.1327022E0,1.631174E0,5.904783E-1,1.1957959E0,5.2716937E-2,7.5045025E-1,1.1572411E0,1.7304156E0,1.3168273E0,1.9742119E0,3.8935736E-1,1.0377021E0,1.7728535E0,2.4064264E0,2.294952E0,3.5548947E0],"categories":[],"categories_nodes":[],"categories_segments":[],"categories_sizes":[],"default_left":[0,0,0,0,0,0,0,0,0,0,0,0,0,0,0,0,0,0,0,0,0,0,0,0,0,0,0,0,0,0,0,0,0,0,0,0,0,0,0,0,0,0,0,0,0,0,0,0,0,0,0,0,0,0,0,0,0,0,0,0,0,0,0,0,0,0,0,0,0,0,0,0,0,0,0,0,0,0,0,0,0,0,0,0,0,0,0,0,0,0,0,0,0,0,0,0,0,0,0,0,0,0,0,0,0,0,0,0,0,0,0,0,0,0,0,0,0,0,0],"id":5,"left_children":[1,3,5,7,9,11,13,15,17,19,21,23,25,27,29,31,33,35,37,39,41,43,45,47,49,51,53,55,57,59,61,-1,-1,63,65,67,-1,69,71,73,75,77,79,81,83,85,87,89,91,93,95,97,99,101,103,105,107,109,-1,111,113,115,117,-1,-1,-1,-1,-1,-1,-1,-1,-1,-1,-1,-1,-1,-1,-1,-1,-1,-1,-1,-1,-1,-1,-1,-1,-1,-1,-1,-1,-1,-1,-1,-1,-1,-1,-1,-1,-1,-1,-1,-1,-1,-1,-1,-1,-1,-1,-1,-1,-1,-1,-1,-1,-1,-1,-1,-1],"loss_changes":[2.7191594E5,3.9779E4,5.7242E4,8.412641E3,1.0567094E4,1.8874893E4,1.4497E4,1.0334141E3,2.2145781E3,2.5972656E3,2.199711E3,4.6999604E3,6.711082E3,3.6275508E3,4.3330312E3,2.0870508E2,3.5916797E2,5.3854297E2,8.694219E2,4.515371E2,1.2419453E3,1.3821318E3,1.4716631E3,1.5354958E3,3.5201055E3,1.7004707E3,2.32925E3,1.7188242E3,1.0535586E3,9.618711E2,1.8784922E3,0E0,0E0,2.2967578E2,2.2825E2,3.15625E2,0E0,6.6183203E2,3.7796094E2,2.862207E2,2.276289E2,5.6505176E2,3.7716406E2,3.8726416E2,8.825936E2,3.6567236E2,8.2305945E2,4.394756E2,7.109724E2,7.511744E2,9.5151807E2,4.8448804E2,7.4273975E2,9.383867E2,9.6352344E2,6.869668E2,6.513927E2,4.520547E2,0E0,3.494922E2,1.4086377E2,7.613828E2,8.0191797E2,0E0,0E0,0E0,0E0,0E0,0E0,0E0,0E0,0E0,0E0,0E0,0E0,0E0,0E0,0E0,0E0,0E0,0E0,0E0,0E0,0E0,0E0,0E0,0E0,0E0,0E0,0E0,0E0,0E0,0E0,0E0,0E0,0E0,0E0,0E0,0E0,0E0,0E0,0E0,0E0,0E0,0E0,0E0,0E0,0E0,0E0,0E0,0E0,0E0,0E0,0E0,0E0,0E0,0E0,0E0,0E0],"parents":[2147483647,0,0,1,1,2,2,3,3,4,4,5,5,6,6,7,7,8,8,9,9,10,10,11,11,12,12,13,13,14,14,15,15,16,16,17,17,18,18,19,19,20,20,21,21,22,22,23,23,24,24,25,25,26,26,27,27,28,28,29,29,30,30,33,33,34,34,35,35,37,37,38,38,39,39,40,40,41,41,42,42,43,43,44,44,45,45,46,46,47,47,48,48,49,49,50,50,51,51,52,52,53,53,54,54,55,55,56,56,57,57,59,59,60,60,61,61,62,62],"right_children":[2,4,6,8,10,12,14,16,18,20,22,24,26,28,30,32,34,36,38,40,42,44,46,48,50,52,54,56,58,60,62,-1,-1,64,66,68,-1,70,72,74,76,78,80,82,84,86,88,90,92,94,96,98,100,102,104,106,108,110,-1,112,114,116,118,-1,-1,-1,-1,-1,-1,-1,-1,-1,-1,-1,-1,-1,-1,-1,-1,-1,-1,-1,-1,-1,-1,-1,-1,-1,-1,-1,-1,-1,-1,-1,-1,-1,-1,-1,-1,-1,-1,-1,-1,-1,-1,-1,-1,-1,-1,-1,-1,-1,-1,-1,-1,-1,-1,-1,-1],"split_conditions":[7.28577E1,5.9871414E1,8.861978E1,4.9401726E1,8.2E1,8.2E1,8.2E1,3.8770065E1,8E1,6.6631996E1,8.8E1,7E1,7.855714E1,9.707985E1,9.18148E1,9.816166E1,9E1,7.261634E1,7.8E1,6.3366585E1,1E0,1E0,6.557033E1,8.127597E1,7.978494E1,1E0,1E0,8E1,1.1584358E2,8.2E1,1.0394844E2,-3.243119E0,-1.5965894E0,9.569255E1,6.596616E1,5.4927822E1,-2.8379342E-1,5.219558E1,9.9690384E1,6.6061005E1,7.196885E1,8.1569244E1,8.032488E1,7.166673E1,8.2134995E1,9.740446E1,7.992525E1,1E0,8.220984E1,7.8E1,1E0,8.667149E1,8.5E1,9.5E1,8.3190254E1,7E1,1E0,7.5E1,2.9826338E0,1E0,8.713376E1,8.790949E1,1E0,-2.4926825E0,-1.7595167E0,-7.139026E-1,-1.8298855E0,-1.9704857E0,-1.5945188E0,-1.351841E0,-8.34589E-1,-1.5263245E0,-4.0156323E-1,-1.5173235E0,-1.027862E0,-1.1474694E0,-7.57309E-1,-1.0489795E0,-4.6849972E-1,-6.99608E-1,-3.220056E-1,2.6642224E-1,-8.0940956E-1,-3.630868E-1,5.398175E-1,-5.3105575E-1,2.6505773E-3,-4.8659864E-1,1.8386E-1,-1.0781909E0,-4.968849E-1,2.389028E-1,-5.0970376E-1,-2.6617673E-1,1.0631756E-1,2.3849349E-1,6.19225E-1,3.3243105E-1,-6.6059634E-2,7.598517E-2,8.176652E-1,7.619192E-1,1.6486672E0,1.1327022E0,1.631174E0,5.904783E-1,1.1957959E0,5.2716937E-2,7.5045025E-1,1.1572411E0,1.7304156E0,1.3168273E0,1.9742119E0,3.8935736E-1,1.0377021E0,1.7728535E0,2.4064264E0,2.294952E0,3.5548947E0],"split_indices":[4,4,4,4,0,0,0,4,0,4,0,0,4,4,4,9,0,6,2,4,3,3,4,6,4,3,3,2,4,2,4,0,0,9,7,4,0,6,9,6,6,6,7,9,6,9,9,3,7,0,3,7,0,0,4,0,3,0,0,3,9,6,3,0,0,0,0,0,0,0,0,0,0,0,0,0,0,0,0,0,0,0,0,0,0,0,0,0,0,0,0,0,0,0,0,0,0,0,0,0,0,0,0,0,0,0,0,0,0,0,0,0,0,0,0,0,0,0,0],"split_type":[0,0,0,0,0,0,0,0,0,0,0,0,0,0,0,0,0,0,0,0,0,0,0,0,0,0,0,0,0,0,0,0,0,0,0,0,0,0,0,0,0,0,0,0,0,0,0,0,0,0,0,0,0,0,0,0,0,0,0,0,0,0,0,0,0,0,0,0,0,0,0,0,0,0,0,0,0,0,0,0,0,0,0,0,0,0,0,0,0,0,0,0,0,0,0,0,0,0,0,0,0,0,0,0,0,0,0,0,0,0,0,0,0,0,0,0,0,0,0],"sum_hessian":[3.214E3,1.455E3,1.759E3,5.27E2,9.28E2,1.189E3,5.7E2,1.29E2,3.98E2,4.52E2,4.76E2,5.99E2,5.9E2,2.96E2,2.74E2,2.7E1,1.02E2,1.88E2,2.1E2,2.13E2,2.39E2,2.34E2,2.42E2,1.11E2,4.88E2,2.37E2,3.53E2,1.98E2,9.8E1,7.8E1,1.96E2,2.3E1,4E0,7.8E1,2.4E1,1.85E2,3E0,1.21E2,8.9E1,9.7E1,1.16E2,1.25E2,1.14E2,1.03E2,1.31E2,7.9E1,1.63E2,6.2E1,4.9E1,2.22E2,2.66E2,1.26E2,1.11E2,1.68E2,1.85E2,1.45E2,5.3E1,9.2E1,6E0,5.9E1,1.9E1,1.53E2,4.3E1,6E1,1.8E1,4E0,2E1,7E1,1.15E2,4.5E1,7.6E1,8.5E1,4E0,7E1,2.7E1,8.7E1,2.9E1,1.02E2,2.3E1,4.7E1,6.7E1,3E0,1E2,1.2E2,1.1E1,6.3E1,1.6E1,2E1,1.43E2,3.8E1,2.4E1,2.6E1,2.3E1,1.31E2,9.1E1,1.37E2,1.29E2,7.6E1,5E1,1.6E1,9.5E1,1.55E2,1.3E1,1.01E2,8.4E1,2.6E1,1.19E2,2.6E1,2.7E1,3.1E1,6.1E1,2.5E1,3.4E1,7E0,1.2E1,4.3E1,1.1E2,1.8E1,2.5E1],"tree_param":{"num_deleted":"0","num_feature":"10","num_nodes":"119","size_leaf_vector":"1"}},{"base_weights":[1.4368515E-2,-6.8890224E0,9.768087E0,-1.4065942E1,-2.9278526E0,7.2229133E0,1.9195438E1,-2.0331797E1,-1.1741893E1,-5.3864026E0,5.040982E-1,1.1961089E1,4.646737E0,1.5017095E1,2.4887346E1,-2.9951198E0,-1.9327389E1,-1.4321016E1,-8.166283E0,-7.400368E0,-2.8658946E0,-2.804527E0,3.1495552E0,9.8989725E0,1.7821692E1,2.7338367E0,7.63987E0,1.2538025E1,1.8331104E1,2.3225838E1,3.8777719E0,-1.22155485E1,-1.9858107E1,-8.835991E0,-1.4775355E1,-9.46865E0,-5.2587066E0,-9.304553E0,-5.3976126E0,-2.1010122E0,-1.1589299E1,-5.737438E0,-4.3496192E-1,1.2163833E0,5.4022107E0,7.142928E0,1.2390514E1,1.8307194E1,5.498317E-1,3.2663238E-1,5.282632E0,9.6349125E0,3.4920259E0,6.4639983E0,1.4030447E1,1.4924677E1,2.1113603E0,1.9395068E0,2.540118E0,-1.5552478E0,-6.642551E-1,-2.4883962E0,-1.8900083E0,-1.0796987E0,3.6432338E-1,-1.5965532E0,-1.3227134E0,-7.523466E-1,-1.1078767E0,-7.9129195E-1,-1.5959899E-1,-1.0238743E0,-2.7268884E-1,-9.491617E-1,-3.8885152E-1,-2.9973456E-1,2.4596894E-1,-1.2415632E0,-4.1221425E-1,-1.5555231E-1,-7.506038E-1,3.058531E-1,-2.305434E-1,-2.56291E-1,2.5443068E-1,8.2385033E-1,3.8359123E-1,3.8131908E-1,8.258212E-1,1.0620863E0,1.5247201E0,1.5571808E0,2.0182066E0,1.0702121E-1,-7.824025E-1,4.1874456E-1,9.326612E-1,6.2067187E-1,1.086163E0,-8.088525E-2,6.137171E-1,9.790142E-1,9.302358E-2,9.3128395E-1,1.5310178E0,1.9892921E0,1.2896136E0],"categories":[],"categories_nodes":[],"categories_segments":[],"categories_sizes":[],"default_left":[0,0,0,0,0,0,0,0,0,0,0,0,0,0,0,0,0,0,0,0,0,0,0,0,0,0,0,0,0,0,0,0,0,0,0,0,0,0,0,0,0,0,0,0,0,0,0,0,0,0,0,0,0,0,0,0,0,0,0,0,0,0,0,0,0,0,0,0,0,0,0,0,0,0,0,0,0,0,0,0,0,0,0,0,0,0,0,0,0,0,0,0,0,0,0,0,0,0,0,0,0,0,0,0,0,0,0],"id":6,"left_children":[1,3,5,7,9,11,13,15,17,19,21,23,25,27,29,-1,31,33,35,37,39,41,43,45,47,49,51,53,55,57,-1,59,61,63,65,67,69,71,73,75,77,79,81,83,85,87,89,91,-1,93,95,97,99,101,103,105,-1,-1,-1,-1,-1,-1,-1,-1,-1,-1,-1,-1,-1,-1,-1,-1,-1,-1,-1,-1,-1,-1,-1,-1,-1,-1,-1,-1,-1,-1,-1,-1,-1,-1,-1,-1,-1,-1,-1,-1,-1,-1,-1,-1,-1,-1,-1,-1,-1,-1,-1],"loss_changes":[2.1445819E5,5.2977195E4,3.1531133E4,9.412766E3,1.0153664E4,1.2649598E4,6.2814375E3,1.1359844E3,4.362664E3,3.5361914E3,4.4115396E3,4.244008E3,3.8485576E3,1.1144492E3,1.7933906E3,0E0,3.7321484E2,5.6735547E2,7.2880176E2,1.4318066E3,2.0627366E3,1.5536255E3,1.2121028E3,1.7841797E3,4.5936523E2,2.5377986E3,2.1413994E3,7.865635E2,3.258125E2,3.9451953E2,0E0,1.5482617E2,2.5235938E2,6.273722E2,2.613047E2,3.5639648E2,6.280476E2,1.1874492E3,1.1479775E3,1.1888319E3,1.0142627E2,7.2703125E2,8.2378595E2,7.69348E2,5.4027075E2,4.5749854E2,5.5333203E2,1.4371875E2,0E0,1.3046799E3,8.498052E2,6.752383E2,9.952477E2,3.7634875E2,3.198252E2,8.28418E1,0E0,0E0,0E0,0E0,0E0,0E0,0E0,0E0,0E0,0E0,0E0,0E0,0E0,0E0,0E0,0E0,0E0,0E0,0E0,0E0,0E0,0E0,0E0,0E0,0E0,0E0,0E0,0E0,0E0,0E0,0E0,0E0,0E0,0E0,0E0,0E0,0E0,0E0,0E0,0E0,0E0,0E0,0E0,0E0,0E0,0E0,0E0,0E0,0E0,0E0,0E0],"parents":[2147483647,0,0,1,1,2,2,3,3,4,4,5,5,6,6,7,7,8,8,9,9,10,10,11,11,12,12,13,13,14,14,16,16,17,17,18,18,19,19,20,20,21,21,22,22,23,23,24,24,25,25,26,26,27,27,28,28,29,29,31,31,32,32,33,33,34,34,35,35,36,36,37,37,38,38,39,39,40,40,41,41,42,42,43,43,44,44,45,45,46,46,47,47,49,49,50,50,51,51,52,52,53,53,54,54,55,55],"right_children":[2,4,6,8,10,12,14,16,18,20,22,24,26,28,30,-1,32,34,36,38,40,42,44,46,48,50,52,54,56,58,-1,60,62,64,66,68,70,72,74,76,78,80,82,84,86,88,90,92,-1,94,96,98,100,102,104,106,-1,-1,-1,-1,-1,-1,-1,-1,-1,-1,-1,-1,-1,-1,-1,-1,-1,-1,-1,-1,-1,-1,-1,-1,-1,-1,-1,-1,-1,-1,-1,-1,-1,-1,-1,-1,-1,-1,-1,-1,-1,-1,-1,-1,-1,-1,-1,-1,-1,-1,-1],"split_conditions":[7.7787125E1,6.2362328E1,9.4745636E1,5.0960682E1,8.5E1,4.3E1,8.5E1,3.6410988E1,8.5E1,7.1476265E1,6.979085E1,8.861978E1,8.663956E1,1E0,1.1032453E2,-2.9951198E0,3.4E1,4.3E1,5.9660572E1,1E0,6.4E1,1E0,1E0,1E0,9.438699E1,7.8E1,5.5E1,9.707985E1,9.927677E1,9.1163956E1,3.8777719E0,4.5865025E1,3.6168255E1,6.834348E1,1E0,4E1,9E1,7.867368E1,6.526014E1,9.7857315E1,8.924997E1,3.4E1,3.7E1,6.3390995E1,3.6E1,7.978494E1,8.375025E1,1E0,5.498317E-1,6.6E1,9.2033905E1,8.577702E1,8.913847E1,9.589433E1,7.2E1,4.3E1,2.1113603E0,1.9395068E0,2.540118E0,-1.5552478E0,-6.642551E-1,-2.4883962E0,-1.8900083E0,-1.0796987E0,3.6432338E-1,-1.5965532E0,-1.3227134E0,-7.523466E-1,-1.1078767E0,-7.9129195E-1,-1.5959899E-1,-1.0238743E0,-2.7268884E-1,-9.491617E-1,-3.8885152E-1,-2.9973456E-1,2.4596894E-1,-1.2415632E0,-4.1221425E-1,-1.5555231E-1,-7.506038E-1,3.058531E-1,-2.305434E-1,-2.56291E-1,2.5443068E-1,8.2385033E-1,3.8359123E-1,3.8131908E-1,8.258212E-1,1.0620863E0,1.5247201E0,1.5571808E0,2.0182066E0,1.0702121E-1,-7.824025E-1,4.1874456E-1,9.326612E-1,6.2067187E-1,1.086163E0,-8.088525E-2,6.137171E-1,9.790142E-1,9.302358E-2,9.3128395E-1,1.5310178E0,1.9892921E0,1.2896136E0],"split_indices":[4,4,4,4,0,8,0,4,0,4,4,4,4,3,4,0,8,8,4,3,8,3,3,3,4,0,8,4,4,9,0,4,6,6,3,8,0,6,4,9,6,8,8,6,8,4,4,3,0,8,6,9,9,4,0,8,0,0,0,0,0,0,0,0,0,0,0,0,0,0,0,0,0,0,0,0,0,0,0,0,0,0,0,0,0,0,0,0,0,0,0,0,0,0,0,0,0,0,0,0,0,0,0,0,0,0,0],"split_type":[0,0,0,0,0,0,0,0,0,0,0,0,0,0,0,0,0,0,0,0,0,0,0,0,0,0,0,0,0,0,0,0,0,0,0,0,0,0,0,0,0,0,0,0,0,0,0,0,0,0,0,0,0,0,0,0,0,0,0,0,0,0,0,0,0,0,0,0,0,0,0,0,0,0,0,0,0,0,0,0,0,0,0,0,0,0,0,0,0,0,0,0,0,0,0,0,0,0,0,0,0,0,0,0,0,0,0],"sum_hessian":[3.183E3,1.864E3,1.319E3,6.62E2,1.202E3,1.04E3,2.79E2,1.77E2,4.85E2,7E2,5.02E2,3.65E2,6.75E2,1.63E2,1.16E2,1.4E1,1.63E2,2.8E2,2.05E2,3.88E2,3.12E2,2.23E2,2.79E2,2.72E2,9.3E1,4.13E2,2.62E2,9.6E1,6.7E1,1.06E2,1E1,1.3E1,1.5E2,2.3E1,2.57E2,1.4E2,6.5E1,1.97E2,1.91E2,2.88E2,2.4E1,9.9E1,1.24E2,1.51E2,1.28E2,1.31E2,1.41E2,8.9E1,4E0,2.13E2,2E2,1.76E2,8.6E1,2E1,7.6E1,3.3E1,3.4E1,4.2E1,6.4E1,7E0,6E0,2E1,1.3E2,2E1,3E0,1.4E2,1.17E2,6.6E1,7.4E1,3.7E1,2.8E1,1.72E2,2.5E1,5E1,1.41E2,2.41E2,4.7E1,2.1E1,3E0,3E1,6.9E1,4.3E1,8.1E1,3.9E1,1.12E2,4.4E1,8.4E1,3.4E1,9.7E1,9E1,5.1E1,4E1,4.9E1,1.96E2,1.7E1,1.59E2,4.1E1,4.8E1,1.28E2,3.3E1,5.3E1,1.2E1,8E0,1.8E1,5.8E1,7E0,2.6E1],"tree_param":{"num_deleted":"0","num_feature":"10","num_nodes":"107","size_leaf_vector":"1"}},{"base_weights":[-1.9391277E-1,-7.3080564E0,7.642352E0,-1.3815029E1,-4.079619E0,5.040634E0,1.5605978E1,-1.8589792E1,-1.1528714E1,-1.7541733E0,-7.4284744E0,2.2073927E0,9.165555E0,2.12235E1,1.1978903E1,-2.153889E1,-1.6326847E1,-8.440858E0,-1.3220532E1,-4.903009E0,1.448638E-2,-9.737155E0,-5.0368724E0,-1.5520132E-1,4.823644E0,7.336774E0,1.2857728E1,1.978838E1,2.8095947E1,1.0094466E1,1.6872162E1,-2.726539E0,-1.9896796E0,-1.9917519E1,-1.419425E1,-9.058248E0,1.4037551E0,-1.6557E1,-1.2301431E1,-8.440737E-1,-5.987544E0,-1.5506665E0,2.1360352E0,-1.1572291E1,-7.4327655E0,-7.5534596E0,-3.143922E0,-4.7542105E0,7.166867E-1,6.5494514E0,1.3586478E0,4.9566464E0,9.597535E0,1.3441288E1,3.0419722E0,1.703581E1,2.2672628E1,1.1644661E0,2.9976408E0,7.8991833E0,1.2971391E1,2.0041208E1,1.3172735E1,-9.975792E-1,-2.0817251E0,-8.467227E-1,-1.5116794E0,-1.1004275E0,-6.744794E-1,-1.1689972E-1,4.9369445E-1,-9.916655E-1,-1.7234849E0,-7.260333E-1,-1.2864304E0,-3.1927976E-1,2.7703664E-1,-1.0072439E0,-5.579282E-1,-3.1389877E-1,2.829316E-2,3.840095E-2,4.5963344E-1,-1.3575103E0,-9.5148385E-1,-7.976789E-1,1.4642464E-1,-9.4117403E-1,-5.246018E-1,-2.3929779E-1,-7.5183773E-1,-7.6711994E-1,-8.651783E-2,-1.0020607E-1,2.511531E-1,1.084871E0,5.399359E-1,-8.024504E-2,3.699875E-1,9.329487E-1,3.8059515E-1,6.221926E-1,1.1627194E0,1.0633217E0,1.5751745E0,-5.171291E-3,7.720428E-1,1.7729E0,6.9013363E-1,6.879703E-1,2.3713222E0,9.457493E-1,5.3617394E-1,9.2990106E-1,1.6585077E0,1.4899951E0,2.3695261E0,3.9641303E-1,1.6599401E0],"categories":[],"categories_nodes":[],"categories_segments":[],"categories_sizes":[],"default_left":[0,0,0,0,0,0,0,0,0,0,0,0,0,0,0,0,0,0,0,0,0,0,0,0,0,0,0,0,0,0,0,0,0,0,0,0,0,0,0,0,0,0,0,0,0,0,0,0,0,0,0,0,0,0,0,0,0,0,0,0,0,0,0,0,0,0,0,0,0,0,0,0,0,0,0,0,0,0,0,0,0,0,0,0,0,0,0,0,0,0,0,0,0,0,0,0,0,0,0,0,0,0,0,0,0,0,0,0,0,0,0,0,0,0,0,0,0,0,0],"id":7,"left_children":[1,3,5,7,9,11,13,15,17,19,21,23,25,27,29,31,33,35,37,39,41,43,45,47,49,51,53,55,57,59,61,-1,-1,63,65,67,69,71,73,75,77,79,81,83,85,87,89,91,93,95,97,99,101,103,105,107,109,-1,-1,111,113,115,117,-1,-1,-1,-1,-1,-1,-1,-1,-1,-1,-1,-1,-1,-1,-1,-1,-1,-1,-1,-1,-1,-1,-1,-1,-1,-1,-1,-1,-1,-1,-1,-1,-1,-1,-1,-1,-1,-1,-1,-1,-1,-1,-1,-1,-1,-1,-1,-1,-1,-1,-1,-1,-1,-1,-1,-1],"loss_changes":[1.8006711E5,3.5507312E4,3.1764531E4,5.9068906E3,8.809381E3,1.3535434E4,7.4442656E3,8.458086E2,1.8818477E3,3.7319365E3,2.5114277E3,4.260021E3,3.0906719E3,8.890625E2,1.9662695E3,1.5804297E2,5.2556445E2,8.5224023E2,5.447422E2,1.0551592E3,1.4312067E3,9.0586914E2,1.0708511E3,1.4593762E3,1.9457432E3,1.6620996E3,8.4531836E2,6.0216797E2,3.5829883E2,9.691133E2,4.7127148E2,0E0,0E0,1.2021289E2,2.3948438E2,5.0926953E2,8.795827E1,5.143164E1,4.6073633E2,4.503322E2,2.5910156E2,7.234348E2,7.8655975E2,4.000957E2,5.3023096E2,3.693711E2,4.1791882E2,6.504767E2,9.466421E2,1.01771094E3,5.598171E2,7.531726E2,1.0357871E3,7.7710547E2,1.4590282E2,3.5289258E2,7.8697266E2,0E0,0E0,3.3926758E2,7.9868555E2,2.4424902E2,9.418955E2,0E0,0E0,0E0,0E0,0E0,0E0,0E0,0E0,0E0,0E0,0E0,0E0,0E0,0E0,0E0,0E0,0E0,0E0,0E0,0E0,0E0,0E0,0E0,0E0,0E0,0E0,0E0,0E0,0E0,0E0,0E0,0E0,0E0,0E0,0E0,0E0,0E0,0E0,0E0,0E0,0E0,0E0,0E0,0E0,0E0,0E0,0E0,0E0,0E0,0E0,0E0,0E0,0E0,0E0,0E0,0E0],"parents":[2147483647,0,0,1,1,2,2,3,3,4,4,5,5,6,6,7,7,8,8,9,9,10,10,11,11,12,12,13,13,14,14,15,15,16,16,17,17,18,18,19,19,20,20,21,21,22,22,23,23,24,24,25,25,26,26,27,27,28,28,29,29,30,30,33,33,34,34,35,35,36,36,37,37,38,38,39,39,40,40,41,41,42,42,43,43,44,44,45,45,46,46,47,47,48,48,49,49,50,50,51,51,52,52,53,53,54,54,55,55,56,56,59,59,60,60,61,61,62,62],"right_children":[2,4,6,8,10,12,14,16,18,20,22,24,26,28,30,32,34,36,38,40,42,44,46,48,50,52,54,56,58,60,62,-1,-1,64,66,68,70,72,74,76,78,80,82,84,86,88,90,92,94,96,98,100,102,104,106,108,110,-1,-1,112,114,116,118,-1,-1,-1,-1,-1,-1,-1,-1,-1,-1,-1,-1,-1,-1,-1,-1,-1,-1,-1,-1,-1,-1,-1,-1,-1,-1,-1,-1,-1,-1,-1,-1,-1,-1,-1,-1,-1,-1,-1,-1,-1,-1,-1,-1,-1,-1,-1,-1,-1,-1,-1,-1,-1,-1,-1,-1],"split_conditions":[5.0449955E-1,4.002249E-1,6.153042E-1,3.3973786E-1,5E1,8.5E1,4.4E1,3.0576685E-1,4.4E1,4.4513834E-1,4.5909724E-1,5.5607504E-1,5.672111E-1,7.0828456E-1,6.8289244E-1,2.427399E-1,7.8E1,6.93599E1,7.2E1,3.5E1,8.8E1,1E0,7.2E1,7E1,5.5E1,1E0,5.3E1,8.514166E1,8.5E1,1E0,5.3E1,-2.726539E0,-1.9896796E0,4.8E1,4.1584816E1,1E0,4.2E1,3.4895372E-1,6.0596165E1,1E0,5.103619E1,1E0,7.2347595E1,6.3205048E1,8.2595116E1,1E0,9.253011E1,8.230575E1,1E0,4.4E1,1E0,3.3E1,8.8E1,1E0,9.340874E1,8.405463E1,7.2E1,1.1644661E0,2.9976408E0,5.4E1,7.8E1,1.0920936E2,5.6E1,-9.975792E-1,-2.0817251E0,-8.467227E-1,-1.5116794E0,-1.1004275E0,-6.744794E-1,-1.1689972E-1,4.9369445E-1,-9.916655E-1,-1.7234849E0,-7.260333E-1,-1.2864304E0,-3.1927976E-1,2.7703664E-1,-1.0072439E0,-5.579282E-1,-3.1389877E-1,2.829316E-2,3.840095E-2,4.5963344E-1,-1.3575103E0,-9.5148385E-1,-7.976789E-1,1.4642464E-1,-9.4117403E-1,-5.246018E-1,-2.3929779E-1,-7.5183773E-1,-7.6711994E-1,-8.651783E-2,-1.0020607E-1,2.511531E-1,1.084871E0,5.399359E-1,-8.024504E-2,3.699875E-1,9.329487E-1,3.8059515E-1,6.221926E-1,1.1627194E0,1.0633217E0,1.5751745E0,-5.171291E-3,7.720428E-1,1.7729E0,6.9013363E-1,6.879703E-1,2.3713222E0,9.457493E-1,5.3617394E-1,9.2990106E-1,1.6585077E0,1.4899951E0,2.3695261E0,3.9641303E-1,1.6599401E0],"split_indices":[5,5,5,5,8,0,8,5,8,5,5,5,5,5,5,5,0,6,0,8,0,3,0,0,8,3,8,7,0,3,8,0,0,8,6,3,8,5,7,3,6,3,6,6,6,3,7,6,3,8,3,8,0,3,6,7,2,0,0,8,0,6,8,0,0,0,0,0,0,0,0,0,0,0,0,0,0,0,0,0,0,0,0,0,0,0,0,0,0,0,0,0,0,0,0,0,0,0,0,0,0,0,0,0,0,0,0,0,0,0,0,0,0,0,0,0,0,0,0],"split_type":[0,0,0,0,0,0,0,0,0,0,0,0,0,0,0,0,0,0,0,0,0,0,0,0,0,0,0,0,0,0,0,0,0,0,0,0,0,0,0,0,0,0,0,0,0,0,0,0,0,0,0,0,0,0,0,0,0,0,0,0,0,0,0,0,0,0,0,0,0,0,0,0,0,0,0,0,0,0,0,0,0,0,0,0,0,0,0,0,0,0,0,0,0,0,0,0,0,0,0,0,0,0,0,0,0,0,0,0,0,0,0,0,0,0,0,0,0,0,0],"sum_hessian":[3.228E3,1.692E3,1.536E3,5.6E2,1.132E3,1.159E3,3.77E2,1.79E2,3.81E2,6.69E2,4.63E2,6.88E2,4.71E2,1.46E2,2.31E2,7.4E1,1.05E2,1.37E2,2.44E2,2.4E2,4.29E2,2.34E2,2.29E2,3.62E2,3.26E2,3.17E2,1.54E2,1.24E2,2.2E1,1.69E2,6.2E1,1.3E1,6.1E1,3.6E1,6.9E1,1.29E2,8E0,4.9E1,1.95E2,5.1E1,1.89E2,2.47E2,1.82E2,1.28E2,1.06E2,9.7E1,1.32E2,5.7E1,3.05E2,2.17E2,1.09E2,1.56E2,1.61E2,1.45E2,9E0,6.7E1,5.7E1,3E0,1.9E1,9.8E1,7.1E1,3.1E1,3.1E1,4E0,3.2E1,1.1E1,5.8E1,6.8E1,6.1E1,5E0,3E0,6E0,4.3E1,2.1E1,1.74E2,3.1E1,2E1,1.5E1,1.74E2,1.32E2,1.15E2,1.07E2,7.5E1,6.2E1,6.6E1,1E2,6E0,5.2E1,4.5E1,1.14E2,1.8E1,3.2E1,2.5E1,1.56E2,1.49E2,4.4E1,1.73E2,5.7E1,5.2E1,3.1E1,1.25E2,6.2E1,9.9E1,6.8E1,7.7E1,6E0,3E0,6.2E1,5E0,4E0,5.3E1,5.9E1,3.9E1,3.7E1,3.4E1,1.5E1,1.6E1,9E0,2.2E1],"tree_param":{"num_deleted":"0","num_feature":"10","num_nodes":"119","size_leaf_vector":"1"}},{"base_weights":[-8.498776E-2,-7.357176E0,6.156686E0,-1.422833E1,-4.916479E0,2.821796E0,1.1331277E1,-1.7740076E1,-1.2122987E1,-2.7271652E0,-7.9271817E0,6.5315223E0,7.3828876E-1,1.57855E1,8.395313E0,-2.5113008E0,-1.668731E1,-9.043431E0,-1.3653902E1,-5.646206E0,-3.7574622E-1,-9.539018E0,-6.26664E0,4.2354445E0,9.465409E0,-2.650332E0,2.0154595E0,1.3567088E1,2.0508583E1,7.0322847E0,1.6429499E1,-1.8181995E1,-1.2769262E1,-9.977642E0,-3.5858164E0,-1.3820576E1,-5.6028867E-1,-1.1246685E1,-5.203515E0,-1.7727646E0,1.6123667E0,-7.7019434E0,-1.2172544E1,-8.763729E0,-4.9850755E0,2.401414E0,6.280772E0,7.3510413E0,1.1210974E1,-1.0592186E0,-5.8918066E0,6.5400106E-1,4.7671604E0,9.517789E0,1.5562925E1,1.8173119E1,2.9292236E1,8.622501E0,3.818643E0,1.38666935E1,2.1089787E1,-6.646598E-1,-1.8634812E0,-1.7969536E0,-1.0352978E0,-1.0409786E0,-3.7590024E-4,-4.738639E-1,-5.430081E-2,-5.061978E-1,-1.3955921E0,-1.2847832E0,-1.6051385E-1,-2.5381318E-1,-5.8699894E-1,-2.8247678E-1,2.60434E-1,8.3736193E-1,8.931883E-2,-8.522118E-1,-3.5842574E-1,-1.2752627E0,6.834546E-2,-1.117326E0,-7.156789E-1,-6.338127E-1,-2.6112106E-1,5.203257E-1,1.2572907E-1,4.1332322E-1,1.0577726E0,5.4884607E-1,9.597074E-1,6.961832E-1,1.2671244E0,-5.421418E-1,-3.1529274E-3,-3.534797E-1,-1.0208263E0,3.594443E-2,7.290792E-1,2.2565623E-1,6.631519E-1,5.666332E-1,1.2961086E0,1.5161448E0,2.369153E0,1.1476691E0,1.9243532E0,2.018086E0,3.4125435E0,5.7714623E-1,1.0824294E0,-8.003869E-1,4.3003294E-1,1.0194865E0,1.5389314E0,1.2656094E0,2.319067E0],"categories":[],"categories_nodes":[],"categories_segments":[],"categories_sizes":[],"default_left":[0,0,0,0,0,0,0,0,0,0,0,0,0,0,0,0,0,0,0,0,0,0,0,0,0,0,0,0,0,0,0,0,0,0,0,0,0,0,0,0,0,0,0,0,0,0,0,0,0,0,0,0,0,0,0,0,0,0,0,0,0,0,0,0,0,0,0,0,0,0,0,0,0,0,0,0,0,0,0,0,0,0,0,0,0,0,0,0,0,0,0,0,0,0,0,0,0,0,0,0,0,0,0,0,0,0,0,0,0,0,0,0,0,0,0,0,0,0,0],"id":8,"left_children":[1,3,5,7,9,11,13,15,17,19,21,23,25,27,29,-1,31,33,35,37,39,41,43,45,47,49,51,53,55,57,59,61,63,65,67,69,-1,71,73,75,77,79,81,83,85,87,89,91,93,95,97,99,101,103,105,107,109,111,113,115,117,-1,-1,-1,-1,-1,-1,-1,-1,-1,-1,-1,-1,-1,-1,-1,-1,-1,-1,-1,-1,-1,-1,-1,-1,-1,-1,-1,-1,-1,-1,-1,-1,-1,-1,-1,-1,-1,-1,-1,-1,-1,-1,-1,-1,-1,-1,-1,-1,-1,-1,-1,-1,-1,-1,-1,-1,-1,-1],"loss_changes":[1.4643017E5,2.491604E4,2.9924234E4,2.6653828E3,7.234418E3,8.16426E3,8.757703E3,6.9447656E2,1.0387422E3,4.3833013E3,1.1778711E3,2.5183828E3,2.9395586E3,2.5368672E3,4.3938574E3,0E0,5.201914E2,3.9624365E2,1.3935352E2,6.4642773E2,9.888622E2,1.0315117E3,6.941797E2,7.9055615E2,5.283994E2,9.5236914E2,1.843279E3,1.3525703E3,1.1860898E3,1.7749062E3,4.087207E2,3.4894336E2,3.0117773E2,3.0925E2,4.600818E1,1.1593555E2,0E0,2.8668286E2,4.5678564E2,9.6976685E2,7.063884E2,4.4105566E2,7.109326E2,2.1634375E2,4.8040894E2,3.614621E2,8.8682446E2,2.72125E2,4.6205762E2,5.6414E2,5.8315137E2,6.436902E2,7.4709375E2,7.7344434E2,3.8322266E1,2.7066406E2,1.0482422E1,1.417334E3,7.1172314E2,6.977295E1,3.9557617E1,0E0,0E0,0E0,0E0,0E0,0E0,0E0,0E0,0E0,0E0,0E0,0E0,0E0,0E0,0E0,0E0,0E0,0E0,0E0,0E0,0E0,0E0,0E0,0E0,0E0,0E0,0E0,0E0,0E0,0E0,0E0,0E0,0E0,0E0,0E0,0E0,0E0,0E0,0E0,0E0,0E0,0E0,0E0,0E0,0E0,0E0,0E0,0E0,0E0,0E0,0E0,0E0,0E0,0E0,0E0,0E0,0E0,0E0],"parents":[2147483647,0,0,1,1,2,2,3,3,4,4,5,5,6,6,7,7,8,8,9,9,10,10,11,11,12,12,13,13,14,14,16,16,17,17,18,18,19,19,20,20,21,21,22,22,23,23,24,24,25,25,26,26,27,27,28,28,29,29,30,30,31,31,32,32,33,33,34,34,35,35,37,37,38,38,39,39,40,40,41,41,42,42,43,43,44,44,45,45,46,46,47,47,48,48,49,49,50,50,51,51,52,52,53,53,54,54,55,55,56,56,57,57,58,58,59,59,60,60],"right_children":[2,4,6,8,10,12,14,16,18,20,22,24,26,28,30,-1,32,34,36,38,40,42,44,46,48,50,52,54,56,58,60,62,64,66,68,70,-1,72,74,76,78,80,82,84,86,88,90,92,94,96,98,100,102,104,106,108,110,112,114,116,118,-1,-1,-1,-1,-1,-1,-1,-1,-1,-1,-1,-1,-1,-1,-1,-1,-1,-1,-1,-1,-1,-1,-1,-1,-1,-1,-1,-1,-1,-1,-1,-1,-1,-1,-1,-1,-1,-1,-1,-1,-1,-1,-1,-1,-1,-1,-1,-1,-1,-1,-1,-1,-1,-1,-1,-1,-1,-1],"split_conditions":[7.3028244E1,5.698083E1,8.619696E1,4.9401726E1,5E1,4.3E1,4.4E1,3.6410988E1,4.4E1,6.557033E1,1E0,7.919708E1,7.5E1,9.666527E1,1.0243387E2,-2.5113008E0,8.876833E1,6.2599785E1,9.717401E1,7.8E1,6.9959274E1,5.7E1,6.3366585E1,1E0,1E0,6E1,8.202151E1,8.878762E1,1.1634407E2,5.5E1,1.184129E2,3.2E1,8.183353E1,9.908887E1,8.065682E1,3.3919514E1,-5.6028867E-1,9.735007E1,3.5E1,9.2E1,6.438707E1,8.8E1,9.9644135E1,7.5E1,9.512805E1,3.5E1,8.7684135E1,8.716051E1,8.7275925E1,6.6610855E1,8.9303955E1,9.2E1,8.179757E1,1E0,8.5E1,6.83295E1,1.0624268E2,9.156783E1,6.7867805E1,1.0394844E2,7.2E1,-6.646598E-1,-1.8634812E0,-1.7969536E0,-1.0352978E0,-1.0409786E0,-3.7590024E-4,-4.738639E-1,-5.430081E-2,-5.061978E-1,-1.3955921E0,-1.2847832E0,-1.6051385E-1,-2.5381318E-1,-5.8699894E-1,-2.8247678E-1,2.60434E-1,8.3736193E-1,8.931883E-2,-8.522118E-1,-3.5842574E-1,-1.2752627E0,6.834546E-2,-1.117326E0,-7.156789E-1,-6.338127E-1,-2.6112106E-1,5.203257E-1,1.2572907E-1,4.1332322E-1,1.0577726E0,5.4884607E-1,9.597074E-1,6.961832E-1,1.2671244E0,-5.421418E-1,-3.1529274E-3,-3.534797E-1,-1.0208263E0,3.594443E-2,7.290792E-1,2.2565623E-1,6.631519E-1,5.666332E-1,1.2961086E0,1.5161448E0,2.369153E0,1.1476691E0,1.9243532E0,2.018086E0,3.4125435E0,5.7714623E-1,1.0824294E0,-8.003869E-1,4.3003294E-1,1.0194865E0,1.5389314E0,1.2656094E0,2.319067E0],"split_indices":[4,4,4,4,8,8,8,4,8,4,3,4,0,4,4,0,7,6,7,0,6,8,4,3,3,8,4,9,6,8,6,8,9,9,7,6,0,9,8,0,7,2,9,0,9,8,7,6,9,6,7,0,6,3,2,7,4,4,6,4,0,0,0,0,0,0,0,0,0,0,0,0,0,0,0,0,0,0,0,0,0,0,0,0,0,0,0,0,0,0,0,0,0,0,0,0,0,0,0,0,0,0,0,0,0,0,0,0,0,0,0,0,0,0,0,0,0,0,0],"split_type":[0,0,0,0,0,0,0,0,0,0,0,0,0,0,0,0,0,0,0,0,0,0,0,0,0,0,0,0,0,0,0,0,0,0,0,0,0,0,0,0,0,0,0,0,0,0,0,0,0,0,0,0,0,0,0,0,0,0,0,0,0,0,0,0,0,0,0,0,0,0,0,0,0,0,0,0,0,0,0,0,0,0,0,0,0,0,0,0,0,0,0,0,0,0,0,0,0,0,0,0,0,0,0,0,0,0,0,0,0,0,0,0,0,0,0,0,0,0,0],"sum_hessian":[3.224E3,1.489E3,1.735E3,3.89E2,1.1E3,1.056E3,6.79E2,1.43E2,2.46E2,6.38E2,4.62E2,3.79E2,6.77E2,2.68E2,4.11E2,1.5E1,1.28E2,8.4E1,1.62E2,2.84E2,3.54E2,2.32E2,2.3E2,2.14E2,1.65E2,1.85E2,4.92E2,1.85E2,8.3E1,3.53E2,5.8E1,9E1,3.8E1,7.1E1,1.3E1,1.58E2,4E0,1.9E1,2.65E2,2.08E2,1.46E2,1.39E2,9.3E1,7.6E1,1.54E2,1.14E2,1E2,7.7E1,8.8E1,1.25E2,6E1,3.3E2,1.62E2,6.3E1,1.22E2,6.8E1,1.5E1,2.35E2,1.18E2,4E1,1.8E1,4E0,8.6E1,1E1,2.8E1,6.8E1,3E0,9E0,4E0,3E0,1.55E2,1.6E1,3E0,5.4E1,2.11E2,1.68E2,4E1,1.3E1,1.33E2,1.15E2,2.4E1,8.9E1,4E0,2.8E1,4.8E1,9.7E1,5.7E1,3.2E1,8.2E1,6.8E1,3.2E1,4.4E1,3.3E1,2.4E1,6.4E1,2.3E1,1.02E2,4E1,2E1,3.17E2,1.3E1,7E1,9.2E1,3.1E1,3.2E1,1.19E2,3E0,1.1E1,5.7E1,7E0,8E0,1.04E2,1.31E2,4E0,1.14E2,1.4E1,2.6E1,5E0,1.3E1],"tree_param":{"num_deleted":"0","num_feature":"10","num_nodes":"119","size_leaf_vector":"1"}},{"base_weights":[-3.0915443E-2,-6.6773496E0,3.880081E0,-1.2040879E1,-4.9735417E0,1.4022799E0,9.038907E0,-1.6285696E1,-1.06547575E1,-3.0255666E0,-7.7705555E0,-6.034906E-1,4.3375874E0,1.2940608E1,6.509757E0,-1.9226503E1,-1.2960751E1,-1.2167648E1,-7.302435E0,-6.3744383E0,-1.7982194E0,-9.275615E0,-5.9230113E0,-3.1634867E0,4.5994642E-1,2.6796744E0,5.955683E0,9.589441E0,1.7066063E1,4.9801664E0,9.797505E0,-8.1319183E-1,-2.0034626E1,-1.5899109E1,-8.471506E0,-1.3669183E1,-1.0038471E1,1.2164719E0,-8.121653E0,-6.906542E0,-2.0497596E0,-1.1873699E-1,-3.0288677E0,-1.1229026E1,-6.7405295E0,-8.853104E0,-5.3481483E0,-7.1299977E0,-1.7780592E0,-1.0111839E0,2.0363762E0,-7.7187556E-1,2.8626835E0,2.729345E0,7.927558E0,1.1311997E1,7.576671E0,1.43255205E1,1.9896383E1,5.664145E0,-3.4925382E0,1.0411396E1,4.179417E0,-2.4452589E0,-1.6761665E0,-1.9506003E0,-1.1860679E0,-6.010031E-1,-1.2664745E0,-4.675823E-2,-1.4151124E0,-1.4629592E0,-8.7210554E-1,4.355087E-1,-2.201261E-1,-2.5350288E-1,-8.987918E-1,4.0235916E-1,-7.2066563E-1,-7.505943E-1,-3.3729598E-2,-1.3626075E-1,2.792295E-1,-6.848459E-1,-2.165451E-1,-8.17429E-1,-1.3157218E0,-4.7788343E-1,-1.1381671E0,-1.0010113E0,-0E0,-7.5171983E-1,-4.1000876E-1,-8.5769886E-1,-1.652457E-1,-2.1200037E-1,1.3516039E0,-1.7274795E-1,3.128225E-1,2.583042E-1,-1.5619002E-1,4.898317E-1,2.0246418E-1,4.0124783E-1,-4.813005E-1,1.7898715E-1,8.768628E-1,5.001363E-1,1.2204382E0,6.630765E-1,1.1952289E0,1.7152716E0,1.1403879E0,1.7042122E0,2.493234E0,7.389393E-1,3.8935107E-1,2.0301906E-2,-4.9909624E-1,9.704363E-1,1.4660314E0,1.5645556E-1,1.0300432E0],"categories":[],"categories_nodes":[],"categories_segments":[],"categories_sizes":[],"default_left":[0,0,0,0,0,0,0,0,0,0,0,0,0,0,0,0,0,0,0,0,0,0,0,0,0,0,0,0,0,0,0,0,0,0,0,0,0,0,0,0,0,0,0,0,0,0,0,0,0,0,0,0,0,0,0,0,0,0,0,0,0,0,0,0,0,0,0,0,0,0,0,0,0,0,0,0,0,0,0,0,0,0,0,0,0,0,0,0,0,0,0,0,0,0,0,0,0,0,0,0,0,0,0,0,0,0,0,0,0,0,0,0,0,0,0,0,0,0,0,0,0,0,0],"id":9,"left_children":[1,3,5,7,9,11,13,15,17,19,21,23,25,27,29,31,33,35,37,39,41,43,45,47,49,51,53,55,57,59,61,-1,63,65,67,69,71,73,75,77,79,81,83,85,87,89,91,93,95,97,99,-1,101,103,105,107,109,111,113,115,117,119,121,-1,-1,-1,-1,-1,-1,-1,-1,-1,-1,-1,-1,-1,-1,-1,-1,-1,-1,-1,-1,-1,-1,-1,-1,-1,-1,-1,-1,-1,-1,-1,-1,-1,-1,-1,-1,-1,-1,-1,-1,-1,-1,-1,-1,-1,-1,-1,-1,-1,-1,-1,-1,-1,-1,-1,-1,-1,-1,-1,-1],"loss_changes":[8.286964E4,1.0730895E4,2.5640852E4,1.4947969E3,4.868176E3,7.9924004E3,6.337875E3,4.124961E2,1.00975586E3,2.170251E3,9.668262E2,2.1986978E3,1.4613252E3,3.3590781E3,1.9462051E3,1.3910156E2,3.2455908E2,3.3357422E2,4.9908862E2,3.1171484E2,8.0539795E2,9.1787695E2,2.3421191E2,1.2888208E3,1.3263868E3,5.430349E2,1.745915E3,4.0820117E2,5.880469E2,1.6020757E3,3.8613867E2,0E0,3.42666E1,5.6833008E1,8.7161865E1,5.263623E2,2.6322607E2,8.48907E1,2.8579102E2,4.4263086E2,1.5552373E2,6.04739E2,7.2629614E2,5.500088E2,7.633982E2,2.6684058E2,3.5513354E2,4.6828687E2,9.5317694E2,8.829159E2,5.470438E2,0E0,4.4999585E2,1.0547609E3,8.7115234E2,3.596045E2,2.0447485E2,3.053994E2,3.327207E2,7.4296094E2,1.17779816E2,1.9175684E2,2.0677637E2,0E0,0E0,0E0,0E0,0E0,0E0,0E0,0E0,0E0,0E0,0E0,0E0,0E0,0E0,0E0,0E0,0E0,0E0,0E0,0E0,0E0,0E0,0E0,0E0,0E0,0E0,0E0,0E0,0E0,0E0,0E0,0E0,0E0,0E0,0E0,0E0,0E0,0E0,0E0,0E0,0E0,0E0,0E0,0E0,0E0,0E0,0E0,0E0,0E0,0E0,0E0,0E0,0E0,0E0,0E0,0E0,0E0,0E0,0E0,0E0],"parents":[2147483647,0,0,1,1,2,2,3,3,4,4,5,5,6,6,7,7,8,8,9,9,10,10,11,11,12,12,13,13,14,14,15,15,16,16,17,17,18,18,19,19,20,20,21,21,22,22,23,23,24,24,25,25,26,26,27,27,28,28,29,29,30,30,32,32,33,33,34,34,35,35,36,36,37,37,38,38,39,39,40,40,41,41,42,42,43,43,44,44,45,45,46,46,47,47,48,48,49,49,50,50,52,52,53,53,54,54,55,55,56,56,57,57,58,58,59,59,60,60,61,61,62,62],"right_children":[2,4,6,8,10,12,14,16,18,20,22,24,26,28,30,32,34,36,38,40,42,44,46,48,50,52,54,56,58,60,62,-1,64,66,68,70,72,74,76,78,80,82,84,86,88,90,92,94,96,98,100,-1,102,104,106,108,110,112,114,116,118,120,122,-1,-1,-1,-1,-1,-1,-1,-1,-1,-1,-1,-1,-1,-1,-1,-1,-1,-1,-1,-1,-1,-1,-1,-1,-1,-1,-1,-1,-1,-1,-1,-1,-1,-1,-1,-1,-1,-1,-1,-1,-1,-1,-1,-1,-1,-1,-1,-1,-1,-1,-1,-1,-1,-1,-1,-1,-1,-1,-1,-1],"split_conditions":[6.728745E1,5.019979E1,9.042257E1,3.9566566E1,4.8E1,8.5E1,4.4E1,9.214296E1,8E1,5.6488064E1,1E0,7.5E1,1E0,1.0115595E2,1.0463587E2,6.994311E1,7.8E1,1E0,3.3E1,8E1,4E1,6.1418415E1,7.992525E1,8.4421135E1,1E0,6.677003E1,7.6130684E1,4E1,1.0920936E2,6.3E1,6.2E1,-8.1319183E-1,8.2935036E1,5.3E1,8E1,5.2692673E1,7E1,7.5E1,4.1584816E1,6.925928E1,7.712201E1,6.4093056E1,8.281566E1,7.7156265E1,8.5E1,6.2E1,7.2E1,8.230575E1,9.765496E1,9.7857315E1,8.8E1,-7.7187556E-1,3.5E1,7.4869E1,7.8486015E1,7.2E1,9.840669E1,3.8E1,7.8E1,5.2E1,6.5E1,1.20392746E2,7.5E1,-2.4452589E0,-1.6761665E0,-1.9506003E0,-1.1860679E0,-6.010031E-1,-1.2664745E0,-4.675823E-2,-1.4151124E0,-1.4629592E0,-8.7210554E-1,4.355087E-1,-2.201261E-1,-2.5350288E-1,-8.987918E-1,4.0235916E-1,-7.2066563E-1,-7.505943E-1,-3.3729598E-2,-1.3626075E-1,2.792295E-1,-6.848459E-1,-2.165451E-1,-8.17429E-1,-1.3157218E0,-4.7788343E-1,-1.1381671E0,-1.0010113E0,-0E0,-7.5171983E-1,-4.1000876E-1,-8.5769886E-1,-1.652457E-1,-2.1200037E-1,1.3516039E0,-1.7274795E-1,3.128225E-1,2.583042E-1,-1.5619002E-1,4.898317E-1,2.0246418E-1,4.0124783E-1,-4.813005E-1,1.7898715E-1,8.768628E-1,5.001363E-1,1.2204382E0,6.630765E-1,1.1952289E0,1.7152716E0,1.1403879E0,1.7042122E0,2.493234E0,7.389393E-1,3.8935107E-1,2.0301906E-2,-4.9909624E-1,9.704363E-1,1.4660314E0,1.5645556E-1,1.0300432E0],"split_indices":[6,6,6,6,8,0,8,9,1,6,3,0,3,6,6,9,0,3,8,2,8,6,9,9,3,9,6,8,6,8,8,0,9,8,1,7,0,2,6,9,9,6,9,7,2,8,0,6,7,9,2,0,8,6,9,2,6,8,2,8,8,6,1,0,0,0,0,0,0,0,0,0,0,0,0,0,0,0,0,0,0,0,0,0,0,0,0,0,0,0,0,0,0,0,0,0,0,0,0,0,0,0,0,0,0,0,0,0,0,0,0,0,0,0,0,0,0,0,0,0,0,0,0],"split_type":[0,0,0,0,0,0,0,0,0,0,0,0,0,0,0,0,0,0,0,0,0,0,0,0,0,0,0,0,0,0,0,0,0,0,0,0,0,0,0,0,0,0,0,0,0,0,0,0,0,0,0,0,0,0,0,0,0,0,0,0,0,0,0,0,0,0,0,0,0,0,0,0,0,0,0,0,0,0,0,0,0,0,0,0,0,0,0,0,0,0,0,0,0,0,0,0,0,0,0,0,0,0,0,0,0,0,0,0,0,0,0,0,0,0,0,0,0,0,0,0,0,0,0],"sum_hessian":[3.186E3,1.18E3,2.006E3,2.83E2,8.97E2,1.356E3,6.5E2,6.7E1,2.16E2,5.3E2,3.67E2,8.06E2,5.5E2,2.54E2,3.96E2,3.3E1,3.4E1,1.47E2,6.9E1,1.41E2,3.89E2,2E2,1.67E2,2.36E2,5.7E2,2.73E2,2.77E2,1.42E2,1.12E2,2.72E2,1.24E2,3E0,3E1,1.9E1,1.5E1,8.3E1,6.4E1,6E0,6.3E1,1.25E2,1.6E1,1.65E2,2.24E2,1.11E2,8.9E1,2.5E1,1.42E2,6E1,1.76E2,2.95E2,2.75E2,4E0,2.69E2,1.06E2,1.71E2,7.4E1,6.8E1,6E1,5.2E1,2.52E2,2E1,1.11E2,1.3E1,1E1,2E1,8E0,1.1E1,1.1E1,4E0,3E0,8E1,1.2E1,5.2E1,3E0,3E0,9E0,5.4E1,3E0,1.22E2,3E0,1.3E1,1.16E2,4.9E1,4E1,1.84E2,4.5E1,6.6E1,6.4E1,2.5E1,2.2E1,3E0,5E1,9.2E1,4.7E1,1.3E1,1.73E2,3E0,2.52E2,4.3E1,2.39E2,3.6E1,7.7E1,1.92E2,9.1E1,1.5E1,2.1E1,1.5E2,1E1,6.4E1,5.8E1,1E1,2.8E1,3.2E1,3.6E1,1.6E1,1.26E2,1.26E2,6E0,1.4E1,9.8E1,1.3E1,1E1,3E0],"tree_param":{"num_deleted":"0","num_feature":"10","num_nodes":"123","size_leaf_vector":"1"}},{"base_weights":[-5.2339103E-2,-6.322899E0,5.1039877E0,-1.1955598E1,-4.221355E0,2.6028762E0,1.037878E1,-1.4899332E1,-1.0252069E1,-6.3691397E0,-2.3787162E0,3.7275958E-1,4.952403E0,1.4751694E1,7.8044896E0,-1.6986824E1,-1.2629983E1,-1.5677267E0,-1.0608454E1,-8.291448E0,-4.8612213E0,-5.9108586E0,-1.7028267E0,-1.1503179E0,2.1093946E0,2.96239E0,7.4376655E0,1.3334937E1,1.7754251E1,5.6421776E0,1.013754E1,-1.7342513E0,-6.757336E-1,-2.7100916E0,-1.3502433E1,9.357403E-1,-6.207729E-1,-1.2531077E1,-9.404334E0,-1.0344807E1,-6.329805E0,-3.36014E0,-6.762106E0,-1.757192E-2,-6.9949174E0,-2.999382E0,-5.580121E-1,-4.747146E0,-1.3998286E-1,2.680235E0,-4.182217E0,1.2248733E0,4.837977E0,5.4692645E0,9.287518E0,1.1058441E1,1.4920112E1,1.2112052E0,1.9117085E1,6.1752305E0,-1.3407074E0,9.126842E0,1.4698609E0,-0E0,-4.7269025E-1,-1.5788463E0,-1.0116724E0,-1.4191414E-1,2.6524976E-1,-8.030019E-1,-1.3262875E0,-1.1575133E0,-8.279349E-1,1.9721184E-2,-1.0670555E0,-8.0302066E-1,-4.4158658E-1,-3.6890242E-1,3.0906197E-1,-1.0500907E0,-5.8048433E-1,-2.2297285E-1,2.1842812E-1,-8.219841E-1,-1.8814646E-1,-3.9060593E-1,2.7941767E-2,2.2782555E-1,-1.3396035E-1,-1.2169375E-1,-7.0152605E-1,-5.2340906E-2,5.589945E-1,1.522371E-1,6.218935E-1,-6.170451E-1,2.794226E-1,7.139855E-2,7.2536135E-1,5.447512E-1,-1.1668817E-1,4.7709298E-1,1.1164721E0,2.4466491E-1,1.0364206E0,7.7625936E-1,1.2885051E0,1.5345794E0,5.2754486E-1,1.7592858E0,2.8991697E0,4.9491522E-1,8.783642E-1,-4.3122527E-1,3.3233947E-1,8.462907E-1,1.9094391E0],"categories":[],"categories_nodes":[],"categories_segments":[],"categories_sizes":[],"default_left":[0,0,0,0,0,0,0,0,0,0,0,0,0,0,0,0,0,0,0,0,0,0,0,0,0,0,0,0,0,0,0,0,0,0,0,0,0,0,0,0,0,0,0,0,0,0,0,0,0,0,0,0,0,0,0,0,0,0,0,0,0,0,0,0,0,0,0,0,0,0,0,0,0,0,0,0,0,0,0,0,0,0,0,0,0,0,0,0,0,0,0,0,0,0,0,0,0,0,0,0,0,0,0,0,0,0,0,0,0,0,0,0,0,0,0,0,0],"id":10,"left_children":[1,3,5,7,9,11,13,15,17,19,21,23,25,27,29,31,33,35,37,39,41,43,45,47,49,51,53,55,57,59,61,-1,-1,63,65,67,-1,69,71,73,75,77,79,81,83,85,87,89,91,93,95,97,99,101,103,105,107,-1,109,111,113,115,-1,-1,-1,-1,-1,-1,-1,-1,-1,-1,-1,-1,-1,-1,-1,-1,-1,-1,-1,-1,-1,-1,-1,-1,-1,-1,-1,-1,-1,-1,-1,-1,-1,-1,-1,-1,-1,-1,-1,-1,-1,-1,-1,-1,-1,-1,-1,-1,-1,-1,-1,-1,-1,-1,-1],"loss_changes":[1.0246352E5,1.687534E4,2.291404E4,1.7904531E3,4.111744E3,6.18573E3,6.175367E3,4.4570898E2,7.527949E2,1.3526445E3,1.3332449E3,1.6080554E3,2.820707E3,6.364453E2,1.7270781E3,1.350957E2,5.762637E2,1.3411305E2,4.3325977E2,7.7872363E2,7.523862E2,5.7415576E2,7.0153613E2,1.1762633E3,1.0310463E3,1.039563E3,8.762461E2,3.5205273E2,2.4975977E2,7.011006E2,6.425332E2,0E0,0E0,3.7962265E1,3.407705E2,3.6229687E1,0E0,1.8452246E2,2.7093945E2,3.4998828E2,3.2128613E2,3.3818005E2,3.6331592E2,7.793755E1,4.5955762E2,6.614186E2,5.6380914E2,5.5913074E2,5.6045825E2,1.0591626E3,3.5047842E2,5.1146588E2,5.704514E2,4.462849E2,9.3087305E2,2.7718848E2,2.5364062E2,0E0,2.2279883E2,5.084297E2,2.0846445E2,7.6876074E2,0E0,0E0,0E0,0E0,0E0,0E0,0E0,0E0,0E0,0E0,0E0,0E0,0E0,0E0,0E0,0E0,0E0,0E0,0E0,0E0,0E0,0E0,0E0,0E0,0E0,0E0,0E0,0E0,0E0,0E0,0E0,0E0,0E0,0E0,0E0,0E0,0E0,0E0,0E0,0E0,0E0,0E0,0E0,0E0,0E0,0E0,0E0,0E0,0E0,0E0,0E0,0E0,0E0,0E0,0E0],"parents":[2147483647,0,0,1,1,2,2,3,3,4,4,5,5,6,6,7,7,8,8,9,9,10,10,11,11,12,12,13,13,14,14,15,15,16,16,17,17,18,18,19,19,20,20,21,21,22,22,23,23,24,24,25,25,26,26,27,27,28,28,29,29,30,30,33,33,34,34,35,35,37,37,38,38,39,39,40,40,41,41,42,42,43,43,44,44,45,45,46,46,47,47,48,48,49,49,50,50,51,51,52,52,53,53,54,54,55,55,56,56,58,58,59,59,60,60,61,61],"right_children":[2,4,6,8,10,12,14,16,18,20,22,24,26,28,30,32,34,36,38,40,42,44,46,48,50,52,54,56,58,60,62,-1,-1,64,66,68,-1,70,72,74,76,78,80,82,84,86,88,90,92,94,96,98,100,102,104,106,108,-1,110,112,114,116,-1,-1,-1,-1,-1,-1,-1,-1,-1,-1,-1,-1,-1,-1,-1,-1,-1,-1,-1,-1,-1,-1,-1,-1,-1,-1,-1,-1,-1,-1,-1,-1,-1,-1,-1,-1,-1,-1,-1,-1,-1,-1,-1,-1,-1,-1,-1,-1,-1,-1,-1,-1,-1,-1,-1],"split_conditions":[4.8571795E-1,3.798722E-1,5.907985E-1,3.2934484E-1,8E1,8.2E1,4.4E1,8E1,3.3E1,4.350676E-1,4.002249E-1,1E0,5.404389E-1,6.5479994E-1,6.316376E-1,9.9384155E1,6.596616E1,8.7540436E1,7.8E1,7.5E1,5.5E1,3.5E1,1E0,7E1,6.4E1,1E0,1E0,1E0,8.5E1,6.6E1,8.5E1,-1.7342513E0,-6.757336E-1,3.6E1,9.326056E1,8.220984E1,-6.207729E-1,7.2E1,5.019979E1,3.8206553E-1,1E0,8.6215675E1,8.1650055E1,5.729127E1,9.768172E1,9.768172E1,7.281617E1,8.138733E1,5.825253E-1,9.645379E1,5.6237185E-1,9.5E1,9.463518E1,1.0045911E2,7.5E1,9.128436E1,9.388151E1,1.2112052E0,7.354969E-1,9.679554E1,1E0,7.722905E-1,1.4698609E0,-0E0,-4.7269025E-1,-1.5788463E0,-1.0116724E0,-1.4191414E-1,2.6524976E-1,-8.030019E-1,-1.3262875E0,-1.1575133E0,-8.279349E-1,1.9721184E-2,-1.0670555E0,-8.0302066E-1,-4.4158658E-1,-3.6890242E-1,3.0906197E-1,-1.0500907E0,-5.8048433E-1,-2.2297285E-1,2.1842812E-1,-8.219841E-1,-1.8814646E-1,-3.9060593E-1,2.7941767E-2,2.2782555E-1,-1.3396035E-1,-1.2169375E-1,-7.0152605E-1,-5.2340906E-2,5.589945E-1,1.522371E-1,6.218935E-1,-6.170451E-1,2.794226E-1,7.139855E-2,7.2536135E-1,5.447512E-1,-1.1668817E-1,4.7709298E-1,1.1164721E0,2.4466491E-1,1.0364206E0,7.7625936E-1,1.2885051E0,1.5345794E0,5.2754486E-1,1.7592858E0,2.8991697E0,4.9491522E-1,8.783642E-1,-4.3122527E-1,3.3233947E-1,8.462907E-1,1.9094391E0],"split_indices":[5,5,5,5,0,0,8,0,8,5,5,3,5,5,5,9,7,7,0,1,8,8,3,0,8,3,3,3,0,8,0,0,0,8,9,7,0,1,6,5,3,6,9,6,9,9,7,7,5,9,5,0,7,6,1,9,7,0,5,6,3,5,0,0,0,0,0,0,0,0,0,0,0,0,0,0,0,0,0,0,0,0,0,0,0,0,0,0,0,0,0,0,0,0,0,0,0,0,0,0,0,0,0,0,0,0,0,0,0,0,0,0,0,0,0,0,0],"split_type":[0,0,0,0,0,0,0,0,0,0,0,0,0,0,0,0,0,0,0,0,0,0,0,0,0,0,0,0,0,0,0,0,0,0,0,0,0,0,0,0,0,0,0,0,0,0,0,0,0,0,0,0,0,0,0,0,0,0,0,0,0,0,0,0,0,0,0,0,0,0,0,0,0,0,0,0,0,0,0,0,0,0,0,0,0,0,0,0,0,0,0,0,0,0,0,0,0,0,0,0,0,0,0,0,0,0,0,0,0,0,0,0,0,0,0,0,0],"sum_hessian":[3.167E3,1.429E3,1.738E3,3.87E2,1.042E3,1.18E3,5.58E2,1.39E2,2.48E2,4.8E2,5.62E2,6.06E2,5.74E2,2.05E2,3.53E2,6.9E1,7E1,1E1,2.38E2,2.09E2,2.71E2,8.9E1,4.73E2,3.23E2,2.83E2,3.2E2,2.54E2,1.43E2,6.2E1,1.85E2,1.68E2,6.6E1,3E0,6E0,6.4E1,7E0,3E0,8.8E1,1.5E2,1E2,1.09E2,1.53E2,1.18E2,1.4E1,7.5E1,2.21E2,2.52E2,7E1,2.53E2,2.6E2,2.3E1,1.67E2,1.53E2,1.25E2,1.29E2,6.2E1,8.1E1,1.4E1,4.8E1,1.72E2,1.3E1,1.4E2,2.8E1,3E0,3E0,3.6E1,2.8E1,3E0,4E0,1.4E1,7.4E1,4.8E1,1.02E2,3E0,9.7E1,5.6E1,5.3E1,1.46E2,7E0,2.2E1,9.6E1,7E0,7E0,6E1,1.5E1,1.73E2,4.8E1,5.4E1,1.98E2,2.8E1,4.2E1,2.38E2,1.5E1,1.97E2,6.3E1,1.8E1,5E0,1.55E2,1.2E1,1.39E2,1.4E1,1.13E2,1.2E1,1.8E1,1.11E2,2.4E1,3.8E1,7.7E1,4E0,4.4E1,4E0,1.19E2,5.3E1,8E0,5E0,1.33E2,7E0],"tree_param":{"num_deleted":"0","num_feature":"10","num_nodes":"117","size_leaf_vector":"1"}},{"base_weights":[5.9252057E-2,-5.45166E0,4.7976303E0,-9.517586E0,-3.1266901E0,2.494659E0,9.505499E0,-1.4905521E1,-8.660799E0,-5.2292457E0,-1.1434476E0,5.2437518E-2,4.6984615E0,7.4447985E0,1.3112626E1,-2.1469238E0,-1.3368306E1,-5.9046893E0,-9.797137E0,-7.014425E0,-3.9570706E0,-3.2055795E0,-1.053398E-1,-1.7819268E0,1.5358263E0,2.2418177E0,5.970279E0,6.749492E0,1.3910101E1,1.2303815E1,2.6102443E0,-1.390005E1,-2.2909379E-1,-7.5191994E0,-4.0279627E0,-1.2253427E1,-9.004183E0,-5.8589635E0,-8.404359E0,-1.3757215E0,-4.9711685E0,-2.3248518E0,-6.999954E0,-9.679134E-1,3.1420746E0,-5.432462E0,-8.1752044E-1,1.9735013E0,-5.1048684E0,5.779838E-1,4.2919564E0,4.483635E0,7.4487906E0,8.529361E0,4.7910933E0,1.5364951E1,6.089258E0,9.576511E0,1.343243E1,-1.4922471E0,-1.0550536E0,-3.8248923E-1,-8.6568844E-1,-5.3740114E-2,-5.4254794E-1,-1.619771E0,-1.0159831E0,-1.099857E0,-7.988631E-1,-8.418975E-1,-4.963664E-1,-8.8894933E-1,-3.416642E-1,-2.0348695E-1,2.7550638E-1,2.2049832E-1,-5.136113E-1,-2.6234156E-1,5.823062E-1,-9.180061E-1,-8.8191845E-2,-2.8373122E-1,6.0056936E-2,4.4804406E-1,3.243829E-2,-6.2995493E-1,3.784643E-1,6.4184684E-1,-1.2026944E-1,4.6434667E-2,3.8465887E-1,-2.1124268E-1,-9.918708E-1,5.9062785E-1,-2.1027507E-2,1.8964255E-1,6.496175E-1,3.95051E-1,1.131534E0,5.9616137E-1,9.436305E-1,7.5291336E-1,1.0378423E0,3.0172023E-1,7.033978E-1,6.6576326E-1,1.6534604E0,3.1122527E-1,7.518949E-1,1.2237183E0,7.025744E-1,1.1803838E0,1.5555247E0],"categories":[],"categories_nodes":[],"categories_segments":[],"categories_sizes":[],"default_left":[0,0,0,0,0,0,0,0,0,0,0,0,0,0,0,0,0,0,0,0,0,0,0,0,0,0,0,0,0,0,0,0,0,0,0,0,0,0,0,0,0,0,0,0,0,0,0,0,0,0,0,0,0,0,0,0,0,0,0,0,0,0,0,0,0,0,0,0,0,0,0,0,0,0,0,0,0,0,0,0,0,0,0,0,0,0,0,0,0,0,0,0,0,0,0,0,0,0,0,0,0,0,0,0,0,0,0,0,0,0,0,0,0],"id":11,"left_children":[1,3,5,7,9,11,13,15,17,19,21,23,25,27,29,-1,31,33,35,37,39,41,43,45,47,49,51,53,55,57,-1,59,-1,61,63,65,67,69,71,73,75,77,79,81,83,85,87,89,91,93,95,97,99,101,103,105,107,109,111,-1,-1,-1,-1,-1,-1,-1,-1,-1,-1,-1,-1,-1,-1,-1,-1,-1,-1,-1,-1,-1,-1,-1,-1,-1,-1,-1,-1,-1,-1,-1,-1,-1,-1,-1,-1,-1,-1,-1,-1,-1,-1,-1,-1,-1,-1,-1,-1,-1,-1,-1,-1,-1,-1],"loss_changes":[8.314309E4,1.388402E4,1.8536742E4,2.3382734E3,3.9047275E3,6.1941606E3,4.0777852E3,4.3597754E2,1.3937695E3,1.0044785E3,1.0354373E3,1.4911405E3,1.8760596E3,1.5223809E3,1.8077812E3,0E0,3.2584668E2,3.8669727E2,5.244453E2,2.5126465E2,6.9408105E2,5.2416724E2,9.075901E2,8.5748096E2,8.9042065E2,7.065392E2,8.402207E2,1.097623E3,2.9115088E2,4.631328E2,0E0,3.863965E1,0E0,2.7245605E2,3.1844385E2,4.6864453E2,4.1861523E2,1.9982227E2,1.692334E2,2.1518968E2,2.3888184E2,3.3850165E2,3.91037E2,7.525504E2,2.545011E2,4.316864E2,5.5068524E2,8.0341455E2,2.515419E2,4.8902026E2,4.779065E2,6.858447E2,5.274502E2,2.3448047E2,6.0639575E2,1.7276611E2,5.329376E0,3.193037E2,2.7691797E2,0E0,0E0,0E0,0E0,0E0,0E0,0E0,0E0,0E0,0E0,0E0,0E0,0E0,0E0,0E0,0E0,0E0,0E0,0E0,0E0,0E0,0E0,0E0,0E0,0E0,0E0,0E0,0E0,0E0,0E0,0E0,0E0,0E0,0E0,0E0,0E0,0E0,0E0,0E0,0E0,0E0,0E0,0E0,0E0,0E0,0E0,0E0,0E0,0E0,0E0,0E0,0E0,0E0,0E0],"parents":[2147483647,0,0,1,1,2,2,3,3,4,4,5,5,6,6,7,7,8,8,9,9,10,10,11,11,12,12,13,13,14,14,16,16,17,17,18,18,19,19,20,20,21,21,22,22,23,23,24,24,25,25,26,26,27,27,28,28,29,29,31,31,33,33,34,34,35,35,36,36,37,37,38,38,39,39,40,40,41,41,42,42,43,43,44,44,45,45,46,46,47,47,48,48,49,49,50,50,51,51,52,52,53,53,54,54,55,55,56,56,57,57,58,58],"right_children":[2,4,6,8,10,12,14,16,18,20,22,24,26,28,30,-1,32,34,36,38,40,42,44,46,48,50,52,54,56,58,-1,60,-1,62,64,66,68,70,72,74,76,78,80,82,84,86,88,90,92,94,96,98,100,102,104,106,108,110,112,-1,-1,-1,-1,-1,-1,-1,-1,-1,-1,-1,-1,-1,-1,-1,-1,-1,-1,-1,-1,-1,-1,-1,-1,-1,-1,-1,-1,-1,-1,-1,-1,-1,-1,-1,-1,-1,-1,-1,-1,-1,-1,-1,-1,-1,-1,-1,-1,-1,-1,-1,-1,-1,-1],"split_conditions":[7.3028244E1,5.9871414E1,8.841504E1,4.5865025E1,8.2E1,8E1,8.5E1,3.0220602E1,4.2E1,6.628648E1,6.543728E1,7.978494E1,7.7787125E1,1.0624268E2,1.1032453E2,-2.1469238E0,5.1714867E1,5.5306095E1,4.844647E1,5.5E1,5E1,7.127231E1,9.2E1,7E1,6.7E1,1E0,1E0,5.2E1,7.8E1,9.18148E1,2.6102443E0,9E1,-2.2909379E-1,7.3237206E1,3.5E1,7.5E1,5.415093E1,4.6E1,7.457844E1,7.249816E1,4.8729828E1,6.9959274E1,8.2E1,1E0,3.4E1,7.919708E1,7.3280235E1,1E0,8.220984E1,6.8117775E1,8.0476585E1,9.5E1,8.3190254E1,1.0157938E2,1E0,6.616153E1,1.0829148E2,3.8E1,8.566875E1,-1.4922471E0,-1.0550536E0,-3.8248923E-1,-8.6568844E-1,-5.3740114E-2,-5.4254794E-1,-1.619771E0,-1.0159831E0,-1.099857E0,-7.988631E-1,-8.418975E-1,-4.963664E-1,-8.8894933E-1,-3.416642E-1,-2.0348695E-1,2.7550638E-1,2.2049832E-1,-5.136113E-1,-2.6234156E-1,5.823062E-1,-9.180061E-1,-8.8191845E-2,-2.8373122E-1,6.0056936E-2,4.4804406E-1,3.243829E-2,-6.2995493E-1,3.784643E-1,6.4184684E-1,-1.2026944E-1,4.6434667E-2,3.8465887E-1,-2.1124268E-1,-9.918708E-1,5.9062785E-1,-2.1027507E-2,1.8964255E-1,6.496175E-1,3.95051E-1,1.131534E0,5.9616137E-1,9.436305E-1,7.5291336E-1,1.0378423E0,3.0172023E-1,7.033978E-1,6.6576326E-1,1.6534604E0,3.1122527E-1,7.518949E-1,1.2237183E0,7.025744E-1,1.1803838E0,1.5555247E0],"split_indices":[4,4,4,4,0,0,0,6,8,4,4,4,4,4,4,0,6,4,6,8,8,6,0,0,8,3,3,8,1,4,0,0,0,7,8,0,4,8,6,4,7,6,1,3,8,4,4,3,7,7,7,0,4,6,3,7,4,8,7,0,0,0,0,0,0,0,0,0,0,0,0,0,0,0,0,0,0,0,0,0,0,0,0,0,0,0,0,0,0,0,0,0,0,0,0,0,0,0,0,0,0,0,0,0,0,0,0,0,0,0,0,0,0],"split_type":[0,0,0,0,0,0,0,0,0,0,0,0,0,0,0,0,0,0,0,0,0,0,0,0,0,0,0,0,0,0,0,0,0,0,0,0,0,0,0,0,0,0,0,0,0,0,0,0,0,0,0,0,0,0,0,0,0,0,0,0,0,0,0,0,0,0,0,0,0,0,0,0,0,0,0,0,0,0,0,0,0,0,0,0,0,0,0,0,0,0,0,0,0,0,0,0,0,0,0,0,0,0,0,0,0,0,0,0,0,0,0,0,0],"sum_hessian":[3.182E3,1.471E3,1.711E3,5.34E2,9.37E2,1.15E3,5.61E2,7.1E1,4.63E2,4.54E2,4.83E2,5.46E2,6.04E2,3.59E2,2.02E2,1.1E1,6E1,1.37E2,3.26E2,1.87E2,2.67E2,1.61E2,3.22E2,2.44E2,3.02E2,2.07E2,3.97E2,3.26E2,3.3E1,1.92E2,1E1,5.7E1,3E0,7.2E1,6.5E1,7.6E1,2.5E2,1.05E2,8.2E1,7.6E1,1.91E2,1.32E2,2.9E1,2.55E2,6.7E1,5E1,1.94E2,2.84E2,1.8E1,1.15E2,9.2E1,2E2,1.97E2,1.69E2,1.57E2,2.7E1,6E0,5.9E1,1.33E2,4.1E1,1.6E1,1.8E1,5.4E1,1.9E1,4.6E1,2.4E1,5.2E1,8.1E1,1.69E2,2.5E1,8E1,7.4E1,8E0,6.6E1,1E1,4E0,1.87E2,1.28E2,4E0,2.1E1,8E0,1.16E2,1.39E2,4.5E1,2.2E1,4.6E1,4E0,9E0,1.85E2,1.58E2,1.26E2,1.2E1,6E0,1.4E1,1.01E2,4.5E1,4.7E1,1.87E2,1.3E1,1.15E2,8.2E1,1.13E2,5.6E1,8.9E1,6.8E1,4E0,2.3E1,3E0,3E0,2.7E1,3.2E1,7.9E1,5.4E1],"tree_param":{"num_deleted":"0","num_feature":"10","num_nodes":"113","size_leaf_vector":"1"}},{"base_weights":[8.7344356E-2,-4.925217E0,4.2616253E0,-8.516708E0,-2.9449437E0,2.6616807E0,9.680079E0,-1.3521059E1,-7.5851254E0,-1.0591718E0,-4.7808447E0,5.127757E0,9.316525E-1,7.3519907E0,1.3536255E1,-1.7702564E0,-1.2197517E1,-1.2140225E1,-6.7893505E0,-2.6809263E0,1.3810158E-1,-6.0412297E0,-3.5521114E0,3.1887047E0,7.3535795E0,-1.309576E0,1.8769991E0,3.844034E0,8.506551E0,1.1664869E1,1.9083523E1,-1.1032631E1,-1.7374638E1,-9.483204E0,-1.4659532E1,-8.4249E0,-5.653826E0,-4.29458E0,-1.1191094E0,8.815822E-1,-2.1605067E0,-6.581495E0,-2.42201E0,-5.4025836E0,-2.5100658E0,4.721634E0,1.2276465E0,6.4187207E0,1.0043486E1,-1.31724E-1,-3.5331776E0,5.749068E-1,3.3185117E0,1.5903773E0,6.505676E0,6.9591217E0,1.1464796E1,1.0282834E1,1.4611341E1,2.1465029E1,1.4311748E1,-3.9126995E-1,-1.1987357E0,-2.0356429E0,-7.7878433E-1,-1.0506039E0,-2.9423055E-1,-1.2907442E0,-1.9792E0,-1.16496086E-1,-8.7145895E-1,-1.9162373E-1,-6.153315E-1,-6.5804946E-1,-2.0122103E-1,-1.5871142E-1,5.444829E-1,3.195316E-2,4.8890835E-1,-6.479493E-1,-7.612071E-2,-7.046827E-1,-3.4179246E-1,3.1630013E-2,-6.4561784E-1,-6.77791E-1,-3.3581457E-1,-2.8908268E-1,2.3550943E-1,7.371225E-1,3.916244E-1,-2.8733537E-1,2.1121588E-1,5.8111286E-1,1.2064979E0,7.239253E-1,1.2384427E0,1.8579376E-1,-1.691439E-1,-4.1509676E-1,1.3200079E-1,-8.765891E-3,3.4815615E-1,4.4103584E-1,1.0964079E-1,-3.8519364E-2,7.5710005E-1,7.232872E-1,1.2748107E-2,5.10569E-1,9.111423E-1,6.3668424E-1,1.2418846E0,8.365242E-1,1.3102652E0,1.508546E0,7.2590864E-1,1.7116597E0,2.692271E0,8.600146E-1,1.7152798E0],"categories":[],"categories_nodes":[],"categories_segments":[],"categories_sizes":[],"default_left":[0,0,0,0,0,0,0,0,0,0,0,0,0,0,0,0,0,0,0,0,0,0,0,0,0,0,0,0,0,0,0,0,0,0,0,0,0,0,0,0,0,0,0,0,0,0,0,0,0,0,0,0,0,0,0,0,0,0,0,0,0,0,0,0,0,0,0,0,0,0,0,0,0,0,0,0,0,0,0,0,0,0,0,0,0,0,0,0,0,0,0,0,0,0,0,0,0,0,0,0,0,0,0,0,0,0,0,0,0,0,0,0,0,0,0,0,0,0,0,0,0],"id":12,"left_children":[1,3,5,7,9,11,13,15,17,19,21,23,25,27,29,-1,31,33,35,37,39,41,43,45,47,49,51,53,55,57,59,61,63,65,67,69,71,73,75,77,79,81,83,85,87,89,91,93,95,97,99,101,103,105,107,109,111,113,115,117,119,-1,-1,-1,-1,-1,-1,-1,-1,-1,-1,-1,-1,-1,-1,-1,-1,-1,-1,-1,-1,-1,-1,-1,-1,-1,-1,-1,-1,-1,-1,-1,-1,-1,-1,-1,-1,-1,-1,-1,-1,-1,-1,-1,-1,-1,-1,-1,-1,-1,-1,-1,-1,-1,-1,-1,-1,-1,-1,-1,-1],"loss_changes":[6.7186445E4,1.0350375E4,1.5161484E4,2.3102266E3,3.255641E3,5.771299E3,3.4804219E3,2.2383398E2,1.5069863E3,9.054489E2,7.163008E2,2.3838174E3,1.6911492E3,9.8265137E2,1.3210996E3,0E0,1.9143945E2,2.8697266E2,6.4926953E2,4.9365833E2,4.6148993E2,4.40708E2,4.5614722E2,8.9545703E2,5.851904E2,6.198886E2,1.0506898E3,3.7274316E2,7.7897656E2,3.1148828E2,9.8325195E1,3.2537402E2,1.2451123E2,1.9521167E2,2.0034668E1,3.0853516E2,4.074497E2,4.9197754E2,3.215951E2,4.5741028E2,3.9321838E2,2.7370605E2,3.5615378E2,2.2084912E2,2.9955084E2,3.285083E2,4.8843506E2,5.970718E2,3.350791E2,4.8724152E2,2.5161896E2,5.7069604E2,6.399822E2,4.2898016E2,1.3284973E2,4.5469043E2,2.2546582E2,3.262334E2,6.7773438E0,5.6881836E1,9.33125E1,0E0,0E0,0E0,0E0,0E0,0E0,0E0,0E0,0E0,0E0,0E0,0E0,0E0,0E0,0E0,0E0,0E0,0E0,0E0,0E0,0E0,0E0,0E0,0E0,0E0,0E0,0E0,0E0,0E0,0E0,0E0,0E0,0E0,0E0,0E0,0E0,0E0,0E0,0E0,0E0,0E0,0E0,0E0,0E0,0E0,0E0,0E0,0E0,0E0,0E0,0E0,0E0,0E0,0E0,0E0,0E0,0E0,0E0,0E0,0E0],"parents":[2147483647,0,0,1,1,2,2,3,3,4,4,5,5,6,6,7,7,8,8,9,9,10,10,11,11,12,12,13,13,14,14,16,16,17,17,18,18,19,19,20,20,21,21,22,22,23,23,24,24,25,25,26,26,27,27,28,28,29,29,30,30,31,31,32,32,33,33,34,34,35,35,36,36,37,37,38,38,39,39,40,40,41,41,42,42,43,43,44,44,45,45,46,46,47,47,48,48,49,49,50,50,51,51,52,52,53,53,54,54,55,55,56,56,57,57,58,58,59,59,60,60],"right_children":[2,4,6,8,10,12,14,16,18,20,22,24,26,28,30,-1,32,34,36,38,40,42,44,46,48,50,52,54,56,58,60,62,64,66,68,70,72,74,76,78,80,82,84,86,88,90,92,94,96,98,100,102,104,106,108,110,112,114,116,118,120,-1,-1,-1,-1,-1,-1,-1,-1,-1,-1,-1,-1,-1,-1,-1,-1,-1,-1,-1,-1,-1,-1,-1,-1,-1,-1,-1,-1,-1,-1,-1,-1,-1,-1,-1,-1,-1,-1,-1,-1,-1,-1,-1,-1,-1,-1,-1,-1,-1,-1,-1,-1,-1,-1,-1,-1,-1,-1,-1,-1],"split_conditions":[7.3028244E1,5.9660572E1,9.206065E1,4.5865025E1,4.7E1,4.4E1,8.5E1,3.6410988E1,7.2E1,6.628648E1,1E0,8.1065834E1,7.5E1,7.2E1,1.0394844E2,-1.7702564E0,5.4E1,7.958337E1,5.3821003E1,1E0,9.011157E1,7.8861275E1,6.526014E1,4E1,8.861978E1,6E1,1E0,1.02448326E2,9.927677E1,9.2E1,9E1,6.99487E1,7.5E1,6.226166E1,7.5E1,3.2E1,3.5E1,6.1418415E1,7.691937E1,8.796669E1,6.8417206E1,8.2E1,5.6E1,7.8E1,8.383737E1,3.2E1,7.5E1,1.0115595E2,1E0,8.220984E1,9.275376E1,8.73788E1,5.2E1,8.3507965E1,1.350224E2,1E0,7.081433E1,8.514166E1,1.1634407E2,1.1032453E2,7.539987E1,-3.9126995E-1,-1.1987357E0,-2.0356429E0,-7.7878433E-1,-1.0506039E0,-2.9423055E-1,-1.2907442E0,-1.9792E0,-1.16496086E-1,-8.7145895E-1,-1.9162373E-1,-6.153315E-1,-6.5804946E-1,-2.0122103E-1,-1.5871142E-1,5.444829E-1,3.195316E-2,4.8890835E-1,-6.479493E-1,-7.612071E-2,-7.046827E-1,-3.4179246E-1,3.1630013E-2,-6.4561784E-1,-6.77791E-1,-3.3581457E-1,-2.8908268E-1,2.3550943E-1,7.371225E-1,3.916244E-1,-2.8733537E-1,2.1121588E-1,5.8111286E-1,1.2064979E0,7.239253E-1,1.2384427E0,1.8579376E-1,-1.691439E-1,-4.1509676E-1,1.3200079E-1,-8.765891E-3,3.4815615E-1,4.4103584E-1,1.0964079E-1,-3.8519364E-2,7.5710005E-1,7.232872E-1,1.2748107E-2,5.10569E-1,9.111423E-1,6.3668424E-1,1.2418846E0,8.365242E-1,1.3102652E0,1.508546E0,7.2590864E-1,1.7116597E0,2.692271E0,8.600146E-1,1.7152798E0],"split_indices":[4,4,4,4,8,8,0,4,0,4,3,4,0,0,4,0,8,7,4,3,7,6,4,8,4,8,3,6,4,0,0,7,1,6,1,8,8,6,6,7,4,0,8,0,6,8,1,6,3,7,7,4,8,7,6,3,7,7,6,4,7,0,0,0,0,0,0,0,0,0,0,0,0,0,0,0,0,0,0,0,0,0,0,0,0,0,0,0,0,0,0,0,0,0,0,0,0,0,0,0,0,0,0,0,0,0,0,0,0,0,0,0,0,0,0,0,0,0,0,0,0],"split_type":[0,0,0,0,0,0,0,0,0,0,0,0,0,0,0,0,0,0,0,0,0,0,0,0,0,0,0,0,0,0,0,0,0,0,0,0,0,0,0,0,0,0,0,0,0,0,0,0,0,0,0,0,0,0,0,0,0,0,0,0,0,0,0,0,0,0,0,0,0,0,0,0,0,0,0,0,0,0,0,0,0,0,0,0,0,0,0,0,0,0,0,0,0,0,0,0,0,0,0,0,0,0,0,0,0,0,0,0,0,0,0,0,0,0,0,0,0,0,0,0,0],"sum_hessian":[3.209E3,1.458E3,1.751E3,5.17E2,9.41E2,1.353E3,3.98E2,7.9E1,4.38E2,4.65E2,4.76E2,5.57E2,7.96E2,2.5E2,1.48E2,1.6E1,6.3E1,6.3E1,3.75E2,1.97E2,2.68E2,2.33E2,2.43E2,2.99E2,2.58E2,2.36E2,5.6E2,6.3E1,1.87E2,1.13E2,3.5E1,5.4E1,9E0,3.3E1,3E1,1.51E2,2.24E2,9.6E1,1.01E2,2.03E2,6.5E1,2.02E2,3.1E1,8.6E1,1.57E2,1.67E2,1.32E2,1.94E2,6.4E1,1.55E2,8.1E1,2.95E2,2.65E2,3.5E1,2.8E1,1.25E2,6.2E1,8E1,3.3E1,2.1E1,1.4E1,7E0,4.7E1,6E0,3E0,2.8E1,5E0,2.5E1,5E0,6E0,1.45E2,2.7E1,1.97E2,4.7E1,4.9E1,9.5E1,6E0,1.79E2,2.4E1,1.5E1,5E1,1.75E2,2.7E1,1.9E1,1.2E1,5E1,3.6E1,1.46E2,1.1E1,3.7E1,1.3E2,2.3E1,1.09E2,1.77E2,1.7E1,3.1E1,3.3E1,6.8E1,8.7E1,7.2E1,9E0,2.41E2,5.4E1,1.77E2,8.8E1,2.7E1,8E0,2.5E1,3E0,6.9E1,5.6E1,1.1E1,5.1E1,5E1,3E1,3E1,3E0,1.4E1,7E0,6E0,8E0],"tree_param":{"num_deleted":"0","num_feature":"10","num_nodes":"121","size_leaf_vector":"1"}},{"base_weights":[3.474811E-2,-3.985966E0,4.406499E0,-6.8523445E0,-1.8092518E0,2.9224494E0,8.609933E0,-1.0805074E1,-5.870929E0,-2.7972379E0,9.232525E-1,1.3244884E0,5.127128E0,6.376271E0,1.2493433E1,-1.4001321E1,-9.708033E0,-6.3719482E0,-1.9456474E0,-5.571966E0,-2.053067E0,-5.900205E-1,2.315647E0,-5.8060056E-1,2.5882642E0,3.4474595E0,7.5803847E0,5.523549E0,1.07107E1,1.1357201E1,1.57371E1,-1.4897903E0,-3.5274768E-1,-1.1446623E1,-7.9193773E0,-5.7690787E0,-8.340289E0,-2.7207494E0,4.098324E0,-2.0290236E0,-6.315665E0,-2.7941432E0,1.4705788E-1,-8.554949E-2,-6.903317E0,2.6290677E0,-3.6424494E0,1.792585E-1,-2.7320755E0,1.4618195E0,4.318465E0,6.6314297E0,2.8064802E0,5.791261E0,9.219641E0,3.8666723E0,7.631765E0,4.5979633E0,1.2531003E1,1.4266664E1,1.0153042E1,1.0841978E1,1.8479467E1,-5.934241E-1,-1.1895117E0,-2.8545925E-2,-8.645995E-1,-6.705495E-1,-4.619162E-1,-6.066045E-1,-1.0510024E0,-3.3362028E-1,3.3576962E-1,5.8061326E-1,9.13982E-2,1.3515837E-1,-5.7813376E-1,-8.3953947E-1,-4.782301E-1,-3.876364E-1,-1.8451318E-1,-1.6360883E-1,2.3540156E-1,-3.1411928E-1,9.927428E-2,-1.1727799E0,-2.5197765E-1,6.410489E-1,2.1739137E-1,-6.512321E-1,1.1303483E-2,-6.665883E-1,5.065299E-2,2.1888177E-1,-4.5137402E-1,2.2469964E-3,3.1038868E-1,5.2916396E-1,-5.234284E-2,7.234448E-1,9.918488E-3,6.6189224E-1,2.2892402E-1,3.8733068E-1,8.220437E-1,1.2505026E0,8.000251E-1,2.0158748E-1,5.9725803E-1,8.937036E-1,5.643724E-1,8.946007E-1,-4.9974035E-2,1.4067587E0,5.2387756E-1,5.541796E-1,1.5785965E0,8.5383284E-1,1.1883415E0,1.2743291E0,4.4706938E-1,1.1084309E0,2.069191E0],"categories":[],"categories_nodes":[],"categories_segments":[],"categories_sizes":[],"default_left":[0,0,0,0,0,0,0,0,0,0,0,0,0,0,0,0,0,0,0,0,0,0,0,0,0,0,0,0,0,0,0,0,0,0,0,0,0,0,0,0,0,0,0,0,0,0,0,0,0,0,0,0,0,0,0,0,0,0,0,0,0,0,0,0,0,0,0,0,0,0,0,0,0,0,0,0,0,0,0,0,0,0,0,0,0,0,0,0,0,0,0,0,0,0,0,0,0,0,0,0,0,0,0,0,0,0,0,0,0,0,0,0,0,0,0,0,0,0,0,0,0,0,0],"id":13,"left_children":[1,3,5,7,9,11,13,15,17,19,21,23,25,27,29,31,33,35,37,39,41,43,45,47,49,51,53,55,57,59,61,-1,-1,63,65,67,69,71,73,75,77,79,81,83,85,87,89,91,93,95,97,99,101,103,105,107,109,111,113,115,117,119,121,-1,-1,-1,-1,-1,-1,-1,-1,-1,-1,-1,-1,-1,-1,-1,-1,-1,-1,-1,-1,-1,-1,-1,-1,-1,-1,-1,-1,-1,-1,-1,-1,-1,-1,-1,-1,-1,-1,-1,-1,-1,-1,-1,-1,-1,-1,-1,-1,-1,-1,-1,-1,-1,-1,-1,-1,-1,-1,-1,-1],"loss_changes":[5.631853E4,1.0400107E4,9.549176E3,2.7279727E3,2.5674622E3,3.9946816E3,3.3882207E3,3.5961523E2,1.125457E3,1.4290786E3,5.3462823E2,1.590723E3,1.9383184E3,8.854072E2,3.529668E2,2.6488818E2,2.46375E2,5.5922656E2,3.2488724E2,3.7367822E2,9.006897E2,3.8726526E2,2.5597052E2,4.3233698E2,7.668528E2,5.6208984E2,5.1114258E2,7.2384033E2,3.9687842E2,2.4159082E2,2.6656152E2,0E0,0E0,5.8658203E1,3.128142E2,3.9430664E2,5.168594E2,2.3565973E2,3.7527252E1,3.5075467E2,3.443999E2,4.1644287E2,5.548691E2,3.7894916E2,1.5935864E2,2.0206793E2,7.6820335E1,4.418434E2,6.150615E2,5.7158685E2,7.383196E2,1.8368481E2,4.5525232E2,4.095598E2,2.945166E2,4.6656726E2,1.9202686E2,2.4913069E2,2.7173047E2,3.0805566E2,1.25606445E2,1.2301453E2,1.11055664E2,0E0,0E0,0E0,0E0,0E0,0E0,0E0,0E0,0E0,0E0,0E0,0E0,0E0,0E0,0E0,0E0,0E0,0E0,0E0,0E0,0E0,0E0,0E0,0E0,0E0,0E0,0E0,0E0,0E0,0E0,0E0,0E0,0E0,0E0,0E0,0E0,0E0,0E0,0E0,0E0,0E0,0E0,0E0,0E0,0E0,0E0,0E0,0E0,0E0,0E0,0E0,0E0,0E0,0E0,0E0,0E0,0E0,0E0,0E0,0E0],"parents":[2147483647,0,0,1,1,2,2,3,3,4,4,5,5,6,6,7,7,8,8,9,9,10,10,11,11,12,12,13,13,14,14,15,15,16,16,17,17,18,18,19,19,20,20,21,21,22,22,23,23,24,24,25,25,26,26,27,27,28,28,29,29,30,30,33,33,34,34,35,35,36,36,37,37,38,38,39,39,40,40,41,41,42,42,43,43,44,44,45,45,46,46,47,47,48,48,49,49,50,50,51,51,52,52,53,53,54,54,55,55,56,56,57,57,58,58,59,59,60,60,61,61,62,62],"right_children":[2,4,6,8,10,12,14,16,18,20,22,24,26,28,30,32,34,36,38,40,42,44,46,48,50,52,54,56,58,60,62,-1,-1,64,66,68,70,72,74,76,78,80,82,84,86,88,90,92,94,96,98,100,102,104,106,108,110,112,114,116,118,120,122,-1,-1,-1,-1,-1,-1,-1,-1,-1,-1,-1,-1,-1,-1,-1,-1,-1,-1,-1,-1,-1,-1,-1,-1,-1,-1,-1,-1,-1,-1,-1,-1,-1,-1,-1,-1,-1,-1,-1,-1,-1,-1,-1,-1,-1,-1,-1,-1,-1,-1,-1,-1,-1,-1,-1,-1,-1,-1,-1,-1],"split_conditions":[7.5674934E1,6.3366585E1,9.206065E1,4.9401726E1,8.8E1,8.5E1,8.5E1,3.6168255E1,9.2E1,7.2E1,6.996636E1,8.120815E1,8.375025E1,1.0466811E2,1.0394844E2,9.262192E1,8.2E1,5.5E1,6.2362328E1,6.83295E1,7.28577E1,9.436541E1,9.582478E1,5.6E1,8.887875E1,3.3E1,1E0,1E0,1.0416771E2,7.5E1,1E0,-1.4897903E0,-3.5274768E-1,3.829253E1,6.596616E1,1E0,8.120564E1,6.9959274E1,8.42268E1,6E1,6.932312E1,1E0,1E0,5.947831E1,1E0,5.8908268E1,7.28577E1,5.8908268E1,7.7142914E1,7.8E1,8.5E1,9.479972E1,6.596616E1,8.458541E1,3.5E1,9.707985E1,5.2E1,9.930421E1,7.8E1,6.99487E1,1.0045911E2,1.20392746E2,7.539987E1,-5.934241E-1,-1.1895117E0,-2.8545925E-2,-8.645995E-1,-6.705495E-1,-4.619162E-1,-6.066045E-1,-1.0510024E0,-3.3362028E-1,3.3576962E-1,5.8061326E-1,9.13982E-2,1.3515837E-1,-5.7813376E-1,-8.3953947E-1,-4.782301E-1,-3.876364E-1,-1.8451318E-1,-1.6360883E-1,2.3540156E-1,-3.1411928E-1,9.927428E-2,-1.1727799E0,-2.5197765E-1,6.410489E-1,2.1739137E-1,-6.512321E-1,1.1303483E-2,-6.665883E-1,5.065299E-2,2.1888177E-1,-4.5137402E-1,2.2469964E-3,3.1038868E-1,5.2916396E-1,-5.234284E-2,7.234448E-1,9.918488E-3,6.6189224E-1,2.2892402E-1,3.8733068E-1,8.220437E-1,1.2505026E0,8.000251E-1,2.0158748E-1,5.9725803E-1,8.937036E-1,5.643724E-1,8.946007E-1,-4.9974035E-2,1.4067587E0,5.2387756E-1,5.541796E-1,1.5785965E0,8.5383284E-1,1.1883415E0,1.2743291E0,4.4706938E-1,1.1084309E0,2.069191E0],"split_indices":[4,4,4,4,0,0,0,6,0,0,4,4,4,4,4,7,0,8,4,7,4,7,7,8,6,8,3,3,6,2,3,0,0,6,7,3,7,6,7,8,4,3,3,6,3,6,4,6,4,0,2,7,7,7,8,4,8,6,1,7,6,6,7,0,0,0,0,0,0,0,0,0,0,0,0,0,0,0,0,0,0,0,0,0,0,0,0,0,0,0,0,0,0,0,0,0,0,0,0,0,0,0,0,0,0,0,0,0,0,0,0,0,0,0,0,0,0,0,0,0,0,0,0],"split_type":[0,0,0,0,0,0,0,0,0,0,0,0,0,0,0,0,0,0,0,0,0,0,0,0,0,0,0,0,0,0,0,0,0,0,0,0,0,0,0,0,0,0,0,0,0,0,0,0,0,0,0,0,0,0,0,0,0,0,0,0,0,0,0,0,0,0,0,0,0,0,0,0,0,0,0,0,0,0,0,0,0,0,0,0,0,0,0,0,0,0,0,0,0,0,0,0,0,0,0,0,0,0,0,0,0,0,0,0,0,0,0,0,0,0,0,0,0,0,0,0,0,0,0],"sum_hessian":[3.202E3,1.668E3,1.534E3,7.19E2,9.49E2,1.135E3,3.99E2,1.41E2,5.78E2,6.97E2,2.52E2,6.59E2,4.76E2,2.55E2,1.44E2,3.3E1,1.08E2,5.12E2,6.6E1,1.46E2,5.51E2,1.21E2,1.31E2,2.63E2,3.96E2,2.84E2,1.92E2,2.15E2,4E1,1.1E2,3.4E1,3E1,3E0,5.2E1,5.6E1,3.95E2,1.17E2,5.9E1,7E0,2.6E1,1.2E2,4.12E2,1.39E2,1.13E2,8E0,1.25E2,6E0,1.95E2,6.8E1,2.41E2,1.55E2,4.6E1,2.38E2,9.4E1,9.8E1,1.22E2,9.3E1,1E1,3E1,2.9E1,8.1E1,1.4E1,2E1,5E0,4.7E1,5E0,5.1E1,2.15E2,1.8E2,5.9E1,5.8E1,5.4E1,5E0,4E0,3E0,1.4E1,1.2E1,4.9E1,7.1E1,1.91E2,2.21E2,7.7E1,6.2E1,2.9E1,8.4E1,3E0,5E0,1.2E1,1.13E2,3E0,3E0,8E0,1.87E2,1.8E1,5E1,1.29E2,1.12E2,1.29E2,2.6E1,4.2E1,4E0,2.7E1,2.11E2,5.4E1,4E1,2.4E1,7.4E1,6.6E1,5.6E1,5.4E1,3.9E1,5E0,5E0,2.4E1,6E0,5E0,2.4E1,4.5E1,3.6E1,1E1,4E0,6E0,1.4E1],"tree_param":{"num_deleted":"0","num_feature":"10","num_nodes":"123","size_leaf_vector":"1"}},{"base_weights":[9.472014E-3,-3.3876143E0,4.2202096E0,-7.0571547E0,-1.8091778E0,2.7163565E0,7.985855E0,-9.35519E0,-5.9138207E0,-1.0379822E0,-4.4709797E0,-3.3704072E-2,4.0755E0,6.2921715E0,1.0814934E1,-9.626094E0,-1.464067E0,-9.658486E0,-5.371665E0,1.5866954E0,-1.5172684E0,-6.3736005E0,-2.941535E0,-3.693896E0,7.032735E-1,2.9552627E0,5.4171567E0,4.6704087E0,8.222327E0,9.588076E0,1.4464951E1,-1.1252164E1,-7.962991E0,1.7922466E-1,-4.3793637E-1,-1.05018425E1,-5.2007837E0,-5.5259323E0,3.477417E-1,-6.536946E-1,3.1919584E0,-3.0076187E0,-7.257187E-1,-3.020095E0,-7.5185685E0,-4.780519E-1,-4.4751906E0,-9.307577E-1,-3.2078106E0,1.3612875E0,-3.5723767E0,7.064103E0,2.4977927E0,4.3397117E0,7.602763E0,5.222132E0,-4.051967E0,6.227562E0,9.917156E0,7.7673955E0,1.3928957E1,9.640751E0,1.7092135E0,-1.2051333E0,-4.9165678E-1,-6.0143226E-1,-9.645875E-1,-3.5133192E-1,-1.1262492E0,-2.2367159E-1,-6.2933654E-1,-3.751501E-1,-6.245666E-1,-2.3916288E-1,4.1837522E-1,3.726005E-1,-1.8393333E-1,-4.006172E-1,-7.5960115E-2,-2.209665E-1,1.1772151E-3,-7.730741E-1,4.233615E-2,-3.648513E-1,-8.626035E-1,6.266295E-2,-5.0493866E-1,-5.068407E-1,2.6712427E-1,-4.4190788E-1,-1.08919516E-1,-1.4330359E-1,2.2709243E-1,-1.2536792E-1,-7.0374674E-1,4.325048E-1,1.1247904E0,1.09499775E-1,3.8055834E-1,2.7598616E-1,5.8923256E-1,5.1143354E-1,9.509279E-1,2.840023E-1,7.294426E-1,-7.9835996E-2,-7.894386E-1,-1.6679266E-1,7.0362943E-1,8.207659E-1,1.2570008E0,6.069852E-1,9.8594016E-1,6.3857645E-1,1.6926616E0,5.3802647E-2,1.1863264E0],"categories":[],"categories_nodes":[],"categories_segments":[],"categories_sizes":[],"default_left":[0,0,0,0,0,0,0,0,0,0,0,0,0,0,0,0,0,0,0,0,0,0,0,0,0,0,0,0,0,0,0,0,0,0,0,0,0,0,0,0,0,0,0,0,0,0,0,0,0,0,0,0,0,0,0,0,0,0,0,0,0,0,0,0,0,0,0,0,0,0,0,0,0,0,0,0,0,0,0,0,0,0,0,0,0,0,0,0,0,0,0,0,0,0,0,0,0,0,0,0,0,0,0,0,0,0,0,0,0,0,0,0,0,0,0,0,0],"id":14,"left_children":[1,3,5,7,9,11,13,15,17,19,21,23,25,27,29,31,33,35,37,39,41,43,45,47,49,51,53,55,57,59,61,63,65,-1,-1,67,69,71,-1,73,75,77,79,81,83,85,87,-1,89,91,93,95,97,99,101,103,105,107,109,111,113,115,-1,-1,-1,-1,-1,-1,-1,-1,-1,-1,-1,-1,-1,-1,-1,-1,-1,-1,-1,-1,-1,-1,-1,-1,-1,-1,-1,-1,-1,-1,-1,-1,-1,-1,-1,-1,-1,-1,-1,-1,-1,-1,-1,-1,-1,-1,-1,-1,-1,-1,-1,-1,-1,-1,-1],"loss_changes":[4.5745035E4,1.0238428E4,8.0639688E3,1.3409336E3,2.5381902E3,3.820499E3,1.8804082E3,3.5890234E2,6.734238E2,1.2125696E3,7.892871E2,9.1734247E2,1.0111875E3,7.647842E2,5.3508984E2,3.6550684E2,7.455944E1,1.0922705E2,4.4943457E2,5.382062E2,9.5770874E2,4.485171E2,5.867544E2,1.24429016E2,8.008447E2,6.862761E2,6.958213E2,7.0462915E2,3.2879688E2,8.064287E2,2.8881152E2,3.592998E2,2.2572754E2,0E0,0E0,1.50323E2,1.4216888E1,3.7147656E2,0E0,5.39478E2,2.4080621E2,6.2950415E2,5.835593E2,5.3929346E2,3.5732275E2,3.1164832E2,4.207594E2,0E0,1.332113E2,6.286257E2,2.956591E2,3.738025E2,6.172593E2,4.979812E2,4.290708E2,6.3975195E2,1.0534364E2,3.6985205E2,1.7138916E2,2.3686865E2,6.35772E2,2.9584094E2,0E0,0E0,0E0,0E0,0E0,0E0,0E0,0E0,0E0,0E0,0E0,0E0,0E0,0E0,0E0,0E0,0E0,0E0,0E0,0E0,0E0,0E0,0E0,0E0,0E0,0E0,0E0,0E0,0E0,0E0,0E0,0E0,0E0,0E0,0E0,0E0,0E0,0E0,0E0,0E0,0E0,0E0,0E0,0E0,0E0,0E0,0E0,0E0,0E0,0E0,0E0,0E0,0E0,0E0,0E0],"parents":[2147483647,0,0,1,1,2,2,3,3,4,4,5,5,6,6,7,7,8,8,9,9,10,10,11,11,12,12,13,13,14,14,15,15,16,16,17,17,18,18,19,19,20,20,21,21,22,22,23,23,24,24,25,25,26,26,27,27,28,28,29,29,30,30,31,31,32,32,35,35,36,36,37,37,39,39,40,40,41,41,42,42,43,43,44,44,45,45,46,46,48,48,49,49,50,50,51,51,52,52,53,53,54,54,55,55,56,56,57,57,58,58,59,59,60,60,61,61],"right_children":[2,4,6,8,10,12,14,16,18,20,22,24,26,28,30,32,34,36,38,40,42,44,46,48,50,52,54,56,58,60,62,64,66,-1,-1,68,70,72,-1,74,76,78,80,82,84,86,88,-1,90,92,94,96,98,100,102,104,106,108,110,112,114,116,-1,-1,-1,-1,-1,-1,-1,-1,-1,-1,-1,-1,-1,-1,-1,-1,-1,-1,-1,-1,-1,-1,-1,-1,-1,-1,-1,-1,-1,-1,-1,-1,-1,-1,-1,-1,-1,-1,-1,-1,-1,-1,-1,-1,-1,-1,-1,-1,-1,-1,-1,-1,-1,-1,-1],"split_conditions":[7.666856E1,6.0033733E1,9.18148E1,5.0960682E1,5.5E1,7.8E1,8.5E1,9.63294E1,7.2E1,3.5E1,6.868906E1,8.318949E1,8.375025E1,1E0,1.0394844E2,8E1,4.74096E1,5.8230133E1,7.561277E1,6.5053276E1,6.6980675E1,7.064562E1,6.980576E1,5.9359173E1,6.5E1,3.3E1,8.8E1,6.5E1,7.8E1,9.2E1,1E0,9.816166E1,8.8E1,1.7922466E-1,-4.3793637E-1,5.234306E1,5.1947403E1,7.225679E1,3.477417E-1,8.828943E1,9.547502E1,9.582384E1,8.838272E1,6.439596E1,5.729127E1,7.4939354E1,9.793012E1,-9.307577E-1,8.6938095E1,8.0377655E1,8.220984E1,1E0,9.351225E1,1E0,8.120564E1,9.707985E1,9.8790215E1,7.496954E1,8.358276E1,8.514166E1,9.023577E1,8.03959E1,1.7092135E0,-1.2051333E0,-4.9165678E-1,-6.0143226E-1,-9.645875E-1,-3.5133192E-1,-1.1262492E0,-2.2367159E-1,-6.2933654E-1,-3.751501E-1,-6.245666E-1,-2.3916288E-1,4.1837522E-1,3.726005E-1,-1.8393333E-1,-4.006172E-1,-7.5960115E-2,-2.209665E-1,1.1772151E-3,-7.730741E-1,4.233615E-2,-3.648513E-1,-8.626035E-1,6.266295E-2,-5.0493866E-1,-5.068407E-1,2.6712427E-1,-4.4190788E-1,-1.08919516E-1,-1.4330359E-1,2.2709243E-1,-1.2536792E-1,-7.0374674E-1,4.325048E-1,1.1247904E0,1.09499775E-1,3.8055834E-1,2.7598616E-1,5.8923256E-1,5.1143354E-1,9.509279E-1,2.840023E-1,7.294426E-1,-7.9835996E-2,-7.894386E-1,-1.6679266E-1,7.0362943E-1,8.207659E-1,1.2570008E0,6.069852E-1,9.8594016E-1,6.3857645E-1,1.6926616E0,5.3802647E-2,1.1863264E0],"split_indices":[4,4,4,4,8,0,0,7,0,8,4,9,4,3,4,0,4,4,6,6,4,7,6,9,8,8,0,8,0,0,3,9,0,0,0,4,6,7,0,7,7,9,9,4,6,4,9,0,6,4,7,3,9,3,7,4,9,9,7,7,9,9,0,0,0,0,0,0,0,0,0,0,0,0,0,0,0,0,0,0,0,0,0,0,0,0,0,0,0,0,0,0,0,0,0,0,0,0,0,0,0,0,0,0,0,0,0,0,0,0,0,0,0,0,0,0,0],"split_type":[0,0,0,0,0,0,0,0,0,0,0,0,0,0,0,0,0,0,0,0,0,0,0,0,0,0,0,0,0,0,0,0,0,0,0,0,0,0,0,0,0,0,0,0,0,0,0,0,0,0,0,0,0,0,0,0,0,0,0,0,0,0,0,0,0,0,0,0,0,0,0,0,0,0,0,0,0,0,0,0,0,0,0,0,0,0,0,0,0,0,0,0,0,0,0,0,0,0,0,0,0,0,0,0,0,0,0,0,0,0,0,0,0,0,0,0,0],"sum_hessian":[3.196E3,1.769E3,1.427E3,5.31E2,1.238E3,1.021E3,4.06E2,1.74E2,3.57E2,9.61E2,2.77E2,3.38E2,6.83E2,2.56E2,1.5E2,1.68E2,6E0,4.3E1,3.14E2,1.48E2,8.13E2,1.22E2,1.55E2,5.6E1,2.82E2,3.74E2,3.09E2,1.41E2,1.15E2,1.15E2,3.5E1,8.2E1,8.6E1,3E0,3E0,3.5E1,8E0,3.09E2,5E0,6.2E1,8.6E1,2.81E2,5.32E2,3.2E1,9E1,6E1,9.5E1,3E0,5.3E1,2.45E2,3.7E1,3.6E1,3.38E2,2.09E2,1E2,1.33E2,8E0,5.5E1,6E1,8.3E1,3.2E1,1.4E1,2.1E1,7.2E1,1E1,4.2E1,4.4E1,4E0,3.1E1,3E0,5E0,9.1E1,2.18E2,4.6E1,1.6E1,7.8E1,8E0,1.94E2,8.7E1,1.76E2,3.56E2,1.3E1,1.9E1,2.1E1,6.9E1,4.9E1,1.1E1,8.8E1,7E0,3.3E1,2E1,6E1,1.85E2,2.3E1,1.4E1,2.3E1,1.3E1,1.64E2,1.74E2,1.05E2,1.04E2,4.5E1,5.5E1,6.3E1,7E1,5E0,3E0,5E0,5E1,3.9E1,2.1E1,4.8E1,3.5E1,1E1,2.2E1,3E0,1.1E1],"tree_param":{"num_deleted":"0","num_feature":"10","num_nodes":"117","size_leaf_vector":"1"}},{"base_weights":[-4.9668793E-2,-2.8844202E0,3.8014739E0,-5.897483E0,-1.2575908E0,2.4448624E0,7.2339616E0,-7.7089286E0,-4.5911827E0,-2.3536859E0,2.545354E-1,6.281647E-1,4.4191594E0,5.538371E0,9.940846E0,-1.3801911E0,-7.321414E0,-5.9019156E0,-3.0931458E0,-3.3190281E0,-1.3241533E0,-1.0613179E0,1.6281301E0,-6.6961354E-1,1.9809326E0,3.0499446E0,5.8344097E0,4.1354966E0,7.200789E0,7.9630013E0,1.1410321E1,-3.6505313E0,-7.8478203E0,-7.5869327E0,-3.3628433E0,-1.073595E1,-2.6722195E0,4.5145655E-1,-3.4427075E0,-4.9719315E0,-6.15199E-1,-2.9363253E0,5.7779866E-1,7.5994664E-1,3.9606862E0,-3.3005326E0,4.835291E-2,-4.068532E0,2.2503624E0,1.5355903E0,4.2765713E0,3.2542307E0,7.145004E0,1.9397734E0,5.9932337E0,5.226685E0,9.006258E0,4.5890512E0,1.0178581E1,9.904853E0,1.4631669E1,-4.5791155E-1,4.4336286E-1,-9.3323404E-1,-6.5642077E-1,-8.1106216E-1,-2.1895118E-1,-5.09145E-1,-6.3880704E-2,-1.5496039E0,-3.8086712E-1,-3.4531048E-1,-1.8918889E-2,-4.746953E-1,-2.6641414E-1,-2.7450025E-1,-7.7298397E-1,-2.2507887E-2,-5.504087E-1,-3.8349646E-1,-3.14017E-2,3.1402215E-1,-3.1378813E-2,1.496211E-1,-3.0169994E-1,1.24927364E-1,6.1226624E-1,-3.9659962E-1,6.316993E-1,-9.965813E-2,2.2814949E-1,-6.114828E-1,1.016193E-1,5.1142663E-2,3.0524826E-1,2.0100418E-1,-2.8649813E-1,2.585519E-1,6.20082E-1,3.918377E-1,-4.1224656E-1,6.354179E-1,9.1093105E-1,3.0415273E-1,-2.8959948E-1,8.947274E-1,4.191098E-1,4.5334026E-1,1.1094176E0,9.544382E-1,-2.1592101E-2,6.1315054E-1,-2.0718622E-1,5.7833815E-1,1.2404557E0,1.0668296E0,6.6817683E-1,1.0167694E0,1.6221926E0],"categories":[],"categories_nodes":[],"categories_segments":[],"categories_sizes":[],"default_left":[0,0,0,0,0,0,0,0,0,0,0,0,0,0,0,0,0,0,0,0,0,0,0,0,0,0,0,0,0,0,0,0,0,0,0,0,0,0,0,0,0,0,0,0,0,0,0,0,0,0,0,0,0,0,0,0,0,0,0,0,0,0,0,0,0,0,0,0,0,0,0,0,0,0,0,0,0,0,0,0,0,0,0,0,0,0,0,0,0,0,0,0,0,0,0,0,0,0,0,0,0,0,0,0,0,0,0,0,0,0,0,0,0,0,0,0,0,0,0],"id":15,"left_children":[1,3,5,7,9,11,13,15,17,19,21,23,25,27,29,-1,31,33,35,37,39,41,43,45,47,49,51,53,55,57,59,61,63,65,67,69,71,-1,73,75,77,79,81,83,85,87,89,91,93,95,97,99,101,103,105,107,109,111,113,115,117,-1,-1,-1,-1,-1,-1,-1,-1,-1,-1,-1,-1,-1,-1,-1,-1,-1,-1,-1,-1,-1,-1,-1,-1,-1,-1,-1,-1,-1,-1,-1,-1,-1,-1,-1,-1,-1,-1,-1,-1,-1,-1,-1,-1,-1,-1,-1,-1,-1,-1,-1,-1,-1,-1,-1,-1,-1,-1],"loss_changes":[3.5043625E4,9.055183E3,6.318914E3,1.4967344E3,1.993045E3,3.5009258E3,1.710457E3,5.3433887E2,7.250215E2,6.87855E2,9.163539E2,8.968099E2,8.8819824E2,5.264746E2,3.3444336E2,0E0,4.6488965E2,8.333452E2,5.458236E2,3.6325366E2,8.730732E2,7.979315E2,4.987395E2,4.9349078E2,4.1645056E2,4.386631E2,7.500879E2,5.2601953E2,3.3643555E2,4.451797E2,2.5029199E2,2.7554858E2,3.620879E2,3.203999E2,3.8229517E2,2.3582031E2,3.3054504E2,0E0,3.460786E2,3.1552563E2,5.417556E2,2.8351843E2,3.1883054E2,5.104731E2,3.843684E2,3.8322443E2,4.831004E2,1.2117708E2,3.328429E2,2.332497E2,4.1261743E2,4.031698E2,1.7513818E2,3.3914795E2,3.3916162E2,1.6780579E2,2.7594092E2,3.0078583E2,3.080017E2,7.215918E1,2.7939453E0,0E0,0E0,0E0,0E0,0E0,0E0,0E0,0E0,0E0,0E0,0E0,0E0,0E0,0E0,0E0,0E0,0E0,0E0,0E0,0E0,0E0,0E0,0E0,0E0,0E0,0E0,0E0,0E0,0E0,