{"learner":{"attributes":{"best_iteration":"58","best_score":"5.930760116781433"},"feature_names":[],"feature_types":[],"gradient_booster":{"model":{"cats":{"enc":[],"feature_segments":[],"sorted_idx":[]},"gbtree_model_param":{"num_parallel_tree":"1","num_trees":"79"},"iteration_indptr":[0,1,2,3,4,5,6,7,8,9,10,11,12,13,14,15,16,17,18,19,20,21,22,23,24,25,26,27,28,29,30,31,32,33,34,35,36,37,38,39,40,41,42,43,44,45,46,47,48,49,50,51,52,53,54,55,56,57,58,59,60,61,62,63,64,65,66,67,68,69,70,71,72,73,74,75,76,77,78,79],"tree_info":[0,0,0,0,0,0,0,0,0,0,0,0,0,0,0,0,0,0,0,0,0,0,0,0,0,0,0,0,0,0,0,0,0,0,0,0,0,0,0,0,0,0,0,0,0,0,0,0,0,0,0,0,0,0,0,0,0,0,0,0,0,0,0,0,0,0,0,0,0,0,0,0,0,0,0,0,0,0,0],"trees":[{"base_weights":[-1.9670594E-1,2.8020918E0,-8.963726E0,-2.2798817E0,9.21987E0,-1.1187493E1,-5.3334193E0,-5.8962398E0,3.6748383E-2,1.272706E1,4.8627467E0,-8.059125E0,-1.2192145E1,-1.7819151E0,-9.576839E0,-8.711278E0,-4.467261E0,3.4238825E0,-2.5589302E0,1.0019876E1,1.9196625E1,2.6149771E0,1.1377385E1,-8.493264E0,-4.003218E0,-4.8202496E0,-1.2525669E1,-2.8634224E0,4.314257E0,-1.0007656E1,-6.278565E0,-6.4974375E0,-1.0418239E1,-1.180892E0,-5.604784E0,6.353645E0,8.7851125E-1,3.2912463E-1,-3.6088464E0,1.24173975E1,7.5732284E0,1.6038376E1,2.3075726E1,3.7465823E0,-1.0691817E0,1.5266826E1,9.910162E0,-1.0469022E1,-7.5341624E-1,2.0261772E-2,-5.7158146E0,-5.9001827E0,4.0956315E-2,-1.3665049E1,-1.1329437E1,2.953853E0,-3.5581377E0,5.8840184E0,-5.765435E-1,-8.816151E0,-1.1365021E1,-4.553998E0,-7.677639E0,-2.1626933E-1,-7.101625E-1,-1.1309772E0,-6.2046725E-1,-2.605497E-1,2.8411674E-1,-3.9076683E-1,-6.51648E-1,4.4603258E-1,8.5691184E-1,-7.9078026E-2,2.3730884E-1,-1.4595579E-1,3.357127E-1,-4.9948564E-1,-1.5331343E-1,8.716739E-1,1.464996E0,8.4783334E-1,3.4775653E-1,1.8723774E0,1.2904872E0,2.3815897E0,4.1437483E-1,2.801344E-1,6.0963774E-1,4.6734367E-2,-3.1926262E-1,4.8812437E-1,1.6201664E0,4.1795254E-1,1.1091387E0,-1.2070143E0,-7.629593E-1,-2.1141577E-1,-6.943074E-1,-2.0908152E-1,-9.940772E-1,-1.4347128E0,-1.2097597E0,-5.6934494E-1,-1.1423542E0,7.934766E-2,4.5348707E-1,-2.4817108E-1,-5.915556E-1,-7.3658987E-3,8.501356E-1,-9.117465E-1,-5.328786E-1,-5.6732076E-1,-1.1956222E0,-6.005286E-1,-4.8792277E-2,-1.0440156E0,-4.5396882E-1],"categories":[],"categories_nodes":[],"categories_segments":[],"categories_sizes":[],"default_left":[0,0,0,0,0,0,0,0,0,0,0,0,0,0,0,0,0,0,0,0,0,0,0,0,0,0,0,0,0,0,0,0,0,0,0,0,0,0,0,0,0,0,0,0,0,0,0,0,0,0,0,0,0,0,0,0,0,0,0,0,0,0,0,0,0,0,0,0,0,0,0,0,0,0,0,0,0,0,0,0,0,0,0,0,0,0,0,0,0,0,0,0,0,0,0,0,0,0,0,0,0,0,0,0,0,0,0,0,0,0,0,0,0,0,0,0,0,0,0],"id":0,"left_children":[1,3,5,7,9,11,13,15,17,19,21,23,25,27,29,31,33,35,37,39,41,43,45,47,49,51,53,55,57,59,61,63,65,67,69,71,73,75,77,79,81,83,85,87,89,91,93,95,-1,-1,97,99,-1,101,103,105,107,109,-1,111,113,115,117,-1,-1,-1,-1,-1,-1,-1,-1,-1,-1,-1,-1,-1,-1,-1,-1,-1,-1,-1,-1,-1,-1,-1,-1,-1,-1,-1,-1,-1,-1,-1,-1,-1,-1,-1,-1,-1,-1,-1,-1,-1,-1,-1,-1,-1,-1,-1,-1,-1,-1,-1,-1,-1,-1,-1,-1],"loss_changes":[8.3655875E4,7.735182E4,6.4858555E3,1.1092963E4,1.5951117E4,1.4774648E3,4.653662E3,2.0394668E3,7.1127124E3,9.963031E3,6.8366064E3,1.8485352E2,8.6727344E2,1.1330276E3,1.358916E2,5.84374E2,1.2824238E3,2.6112192E3,1.3902703E3,2.3148398E3,1.7086875E3,1.463428E3,5.309863E2,1.315586E2,1.0255003E2,1.0462686E2,3.3471875E2,5.965665E2,4.4532632E2,9.671484E1,9.656067E0,1.8799658E2,2.8870117E2,5.230652E2,3.6958984E2,6.441953E2,4.7356815E2,6.712742E2,9.5834717E2,1.5719258E3,7.329629E2,5.7143555E2,9.3547266E2,5.772915E2,2.7257086E2,2.1978174E2,5.613418E2,6.051294E1,0E0,0E0,2.8617157E1,2.0889392E2,0E0,1.6230469E1,2.9773438E1,5.0518326E1,3.143661E2,3.601139E2,0E0,2.352539E1,1.1211719E2,6.1332047E1,2.9124695E1,0E0,0E0,0E0,0E0,0E0,0E0,0E0,0E0,0E0,0E0,0E0,0E0,0E0,0E0,0E0,0E0,0E0,0E0,0E0,0E0,0E0,0E0,0E0,0E0,0E0,0E0,0E0,0E0,0E0,0E0,0E0,0E0,0E0,0E0,0E0,0E0,0E0,0E0,0E0,0E0,0E0,0E0,0E0,0E0,0E0,0E0,0E0,0E0,0E0,0E0,0E0,0E0,0E0,0E0,0E0,0E0],"parents":[2147483647,0,0,1,1,2,2,3,3,4,4,5,5,6,6,7,7,8,8,9,9,10,10,11,11,12,12,13,13,14,14,15,15,16,16,17,17,18,18,19,19,20,20,21,21,22,22,23,23,24,24,25,25,26,26,27,27,28,28,29,29,30,30,31,31,32,32,33,33,34,34,35,35,36,36,37,37,38,38,39,39,40,40,41,41,42,42,43,43,44,44,45,45,46,46,47,47,50,50,51,51,53,53,54,54,55,55,56,56,57,57,59,59,60,60,61,61,62,62],"right_children":[2,4,6,8,10,12,14,16,18,20,22,24,26,28,30,32,34,36,38,40,42,44,46,48,50,52,54,56,58,60,62,64,66,68,70,72,74,76,78,80,82,84,86,88,90,92,94,96,-1,-1,98,100,-1,102,104,106,108,110,-1,112,114,116,118,-1,-1,-1,-1,-1,-1,-1,-1,-1,-1,-1,-1,-1,-1,-1,-1,-1,-1,-1,-1,-1,-1,-1,-1,-1,-1,-1,-1,-1,-1,-1,-1,-1,-1,-1,-1,-1,-1,-1,-1,-1,-1,-1,-1,-1,-1,-1,-1,-1,-1,-1,-1,-1,-1,-1,-1],"split_conditions":[8.2E1,5.120282E1,5.35385E1,4.022726E1,4.6E1,8.5E1,8.8E1,3.257718E1,4.3E1,6.423362E1,6.7012436E1,5.1293716E1,4.4E1,6.4856636E1,7.213068E1,4.2E1,3.8E1,7.5E1,7.5E1,4E1,7.1001945E1,5.6E1,7.5E1,7.8E1,8.595267E1,9.832866E1,4.267079E1,4.3E1,9.888057E1,6E1,6.7999504E1,7.2E1,3.1831575E1,3.865551E1,7.5E1,4.623456E1,4.5870335E1,4.6828663E1,4.7326366E1,5.4725346E1,7.8E1,7.5E1,8E1,6.0559574E1,5.8E1,7.190381E1,5.7639103E1,4.2858227E1,-7.5341624E-1,2.0261772E-2,7.14579E1,9.5E1,4.0956315E-2,9.570484E1,4.2858227E1,9.2E1,5.8E1,6.841442E1,-5.765435E-1,6.5420235E1,5.4725346E1,9.697427E1,6.964388E1,-2.1626933E-1,-7.101625E-1,-1.1309772E0,-6.2046725E-1,-2.605497E-1,2.8411674E-1,-3.9076683E-1,-6.51648E-1,4.4603258E-1,8.5691184E-1,-7.9078026E-2,2.3730884E-1,-1.4595579E-1,3.357127E-1,-4.9948564E-1,-1.5331343E-1,8.716739E-1,1.464996E0,8.4783334E-1,3.4775653E-1,1.8723774E0,1.2904872E0,2.3815897E0,4.1437483E-1,2.801344E-1,6.0963774E-1,4.6734367E-2,-3.1926262E-1,4.8812437E-1,1.6201664E0,4.1795254E-1,1.1091387E0,-1.2070143E0,-7.629593E-1,-2.1141577E-1,-6.943074E-1,-2.0908152E-1,-9.940772E-1,-1.4347128E0,-1.2097597E0,-5.6934494E-1,-1.1423542E0,7.934766E-2,4.5348707E-1,-2.4817108E-1,-5.915556E-1,-7.3658987E-3,8.501356E-1,-9.117465E-1,-5.328786E-1,-5.6732076E-1,-1.1956222E0,-6.005286E-1,-4.8792277E-2,-1.0440156E0,-4.5396882E-1],"split_indices":[2,6,6,6,8,2,2,6,8,6,6,6,8,4,6,8,8,2,2,8,6,8,2,0,9,9,6,8,9,8,4,2,6,6,2,6,6,6,6,6,2,2,2,6,8,9,4,6,0,0,7,0,0,9,6,0,8,6,0,4,6,9,4,0,0,0,0,0,0,0,0,0,0,0,0,0,0,0,0,0,0,0,0,0,0,0,0,0,0,0,0,0,0,0,0,0,0,0,0,0,0,0,0,0,0,0,0,0,0,0,0,0,0,0,0,0,0,0,0],"split_type":[0,0,0,0,0,0,0,0,0,0,0,0,0,0,0,0,0,0,0,0,0,0,0,0,0,0,0,0,0,0,0,0,0,0,0,0,0,0,0,0,0,0,0,0,0,0,0,0,0,0,0,0,0,0,0,0,0,0,0,0,0,0,0,0,0,0,0,0,0,0,0,0,0,0,0,0,0,0,0,0,0,0,0,0,0,0,0,0,0,0,0,0,0,0,0,0,0,0,0,0,0,0,0,0,0,0,0,0,0,0,0,0,0,0,0,0,0,0,0],"sum_hessian":[3.18E3,2.37E3,8.1E2,1.323E3,1.047E3,5.01E2,3.09E2,5.16E2,8.07E2,5.79E2,4.68E2,1.24E2,3.77E2,1.69E2,1.4E2,1.72E2,3.44E2,3.5E2,4.57E2,4.1E2,1.69E2,3.49E2,1.19E2,1.11E2,1.3E1,1.7E1,3.6E2,1.44E2,2.5E1,1.22E2,1.8E1,7.7E1,9.5E1,8.9E1,2.55E2,1.62E2,1.88E2,1.22E2,3.35E2,2.05E2,2.05E2,9.6E1,7.3E1,2.67E2,8.2E1,3E1,8.9E1,3.3E1,7.8E1,4E0,9E0,1.4E1,3E0,1.79E2,1.81E2,1.5E1,1.29E2,2.2E1,3E0,6.9E1,5.3E1,1E1,8E0,1E1,6.7E1,7.7E1,1.8E1,6.6E1,2.3E1,9.1E1,1.64E2,8.9E1,7.3E1,8.9E1,9.9E1,7.7E1,4.5E1,2E2,1.35E2,7.9E1,1.26E2,1.67E2,3.8E1,4.9E1,4.7E1,7E1,3E0,1.92E2,7.5E1,4.8E1,3.4E1,3E0,2.7E1,1.6E1,7.3E1,1.9E1,1.4E1,3E0,6E0,8E0,6E0,1.19E2,6E1,4E0,1.77E2,7E0,8E0,9E1,3.9E1,7E0,1.5E1,6.2E1,7E0,6E0,4.7E1,7E0,3E0,3E0,5E0],"tree_param":{"num_deleted":"0","num_feature":"10","num_nodes":"119","size_leaf_vector":"1"}},{"base_weights":[-2.5702858E-1,2.7243009E0,-7.3992968E0,-1.7902337E0,8.647793E0,-5.0218477E0,-1.0580226E1,-5.6553755E0,4.2869824E-1,1.2009141E1,4.528007E0,-7.7863555E0,-1.0637105E0,-1.2205023E1,-8.799874E0,-8.006717E0,-4.305946E0,3.4361835E0,-1.9421648E0,8.7417E0,1.6726513E1,2.6361053E0,1.04099245E1,-6.597477E0,-9.834215E0,-2.7481701E0,1.630879E0,-1.229329E0,-6.178023E-1,-8.965969E0,-2.0845781E-1,-6.4974794E0,-9.546299E0,-1.7220635E0,-5.282952E0,5.3849177E0,1.6944807E0,-3.3079154E0,3.5027838E-1,1.0543689E1,6.765285E0,1.40716715E1,2.0385479E1,4.239248E0,5.1298E-1,1.2502765E1,6.7846236E0,1.5679612E0,-6.8976097E0,-1.1761112E0,-8.199153E0,-1.1452378E0,-4.8461957E0,8.954232E0,4.3606412E-1,-8.017057E0,-1.04986105E1,-8.802288E-1,-5.941133E-1,-1.0859689E0,-6.813335E-1,-5.444384E-1,-6.7927815E-2,-1.9292687E-1,-5.6937325E-1,3.741956E-1,7.575416E-1,2.1254908E-2,3.9132655E-1,-1.7897761E-1,-4.7099242E-1,4.391175E-1,-1.00916564E-1,8.6308855E-1,1.2591522E0,1.1431068E-1,7.231645E-1,1.6835884E0,1.1422561E0,2.3888762E0,1.8099434E0,2.4612406E-1,6.967756E-1,1.4277548E-1,-1.4647524E-1,1.4755768E0,8.213609E-1,4.375387E-1,9.338719E-1,-3.3457622E-2,2.7963993E-1,-9.767116E-1,-6.3402283E-1,-4.8970923E-1,-8.852504E-1,3.249886E-2,-3.1036255E-1,-2.5036803E-1,-7.1797055E-1,2.8546256E-1,1.1634707E0,-4.3151796E-2,7.768504E-1,-9.267392E-1,-6.757113E-1,-8.240104E-1,-1.1378335E0],"categories":[],"categories_nodes":[],"categories_segments":[],"categories_sizes":[],"default_left":[0,0,0,0,0,0,0,0,0,0,0,0,0,0,0,0,0,0,0,0,0,0,0,0,0,0,0,0,0,0,0,0,0,0,0,0,0,0,0,0,0,0,0,0,0,0,0,0,0,0,0,0,0,0,0,0,0,0,0,0,0,0,0,0,0,0,0,0,0,0,0,0,0,0,0,0,0,0,0,0,0,0,0,0,0,0,0,0,0,0,0,0,0,0,0,0,0,0,0,0,0,0,0,0,0,0,0],"id":1,"left_children":[1,3,5,7,9,11,13,15,17,19,21,23,25,27,29,31,33,35,37,39,41,43,45,47,49,51,53,-1,-1,55,-1,57,59,61,63,65,67,69,71,73,75,77,79,81,83,85,87,89,91,-1,93,95,97,99,101,103,105,-1,-1,-1,-1,-1,-1,-1,-1,-1,-1,-1,-1,-1,-1,-1,-1,-1,-1,-1,-1,-1,-1,-1,-1,-1,-1,-1,-1,-1,-1,-1,-1,-1,-1,-1,-1,-1,-1,-1,-1,-1,-1,-1,-1,-1,-1,-1,-1,-1,-1],"loss_changes":[6.760605E4,5.991782E4,7.016246E3,1.0912238E4,1.3362711E4,5.8668506E3,1.0446875E3,1.4365508E3,5.7752646E3,8.06675E3,4.8341934E3,7.028262E2,1.01223553E3,3.1794922E1,1.9658691E2,3.2673242E2,7.3996875E2,1.2018672E3,1.4197548E3,1.0559238E3,1.8176328E3,1.1273694E3,7.1748535E2,5.0884375E2,2.607422E2,4.5458093E2,7.476608E2,0E0,0E0,1.8885059E2,0E0,5.907007E1,2.1498682E2,3.1786063E2,2.8444287E2,5.751377E2,6.234922E2,5.953987E2,9.3864294E2,5.316074E2,3.9467676E2,7.4949414E2,2.7619922E2,8.9880493E2,2.626095E2,5.142949E2,2.1005835E2,1.987898E1,2.4994824E2,0E0,9.550488E1,2.2874904E2,3.0356665E2,1.6153644E2,4.8119797E2,1.2639453E2,4.1373047E1,0E0,0E0,0E0,0E0,0E0,0E0,0E0,0E0,0E0,0E0,0E0,0E0,0E0,0E0,0E0,0E0,0E0,0E0,0E0,0E0,0E0,0E0,0E0,0E0,0E0,0E0,0E0,0E0,0E0,0E0,0E0,0E0,0E0,0E0,0E0,0E0,0E0,0E0,0E0,0E0,0E0,0E0,0E0,0E0,0E0,0E0,0E0,0E0,0E0,0E0],"parents":[2147483647,0,0,1,1,2,2,3,3,4,4,5,5,6,6,7,7,8,8,9,9,10,10,11,11,12,12,13,13,14,14,15,15,16,16,17,17,18,18,19,19,20,20,21,21,22,22,23,23,24,24,25,25,26,26,29,29,31,31,32,32,33,33,34,34,35,35,36,36,37,37,38,38,39,39,40,40,41,41,42,42,43,43,44,44,45,45,46,46,47,47,48,48,50,50,51,51,52,52,53,53,54,54,55,55,56,56],"right_children":[2,4,6,8,10,12,14,16,18,20,22,24,26,28,30,32,34,36,38,40,42,44,46,48,50,52,54,-1,-1,56,-1,58,60,62,64,66,68,70,72,74,76,78,80,82,84,86,88,90,92,-1,94,96,98,100,102,104,106,-1,-1,-1,-1,-1,-1,-1,-1,-1,-1,-1,-1,-1,-1,-1,-1,-1,-1,-1,-1,-1,-1,-1,-1,-1,-1,-1,-1,-1,-1,-1,-1,-1,-1,-1,-1,-1,-1,-1,-1,-1,-1,-1,-1,-1,-1,-1,-1,-1,-1],"split_conditions":[8E1,5.1115288E1,8.8E1,3.9609085E1,4.6E1,5.3738987E1,4.946403E1,3.257718E1,4.3E1,6.1462074E1,6.603866E1,5.6E1,6.3788937E1,4.6923897E-1,5.6785095E-1,4.3E1,4E1,7.5E1,4.7230907E1,4E1,6.9628654E1,5.3E1,5.2E1,4E1,4.2082016E1,8.5E1,4.3E1,-1.229329E0,-6.178023E-1,6.2E1,-2.0845781E-1,2.4363949E1,3.069703E1,2.8704426E-1,6.4709274E1,4.623456E1,4.6973694E1,5E1,7.5E1,9.288558E1,7.970122E1,7.5E1,3.6E1,4.5404968E-1,7.8E1,7.8E1,7.185381E1,9.2567154E1,3.461403E1,-1.1761112E0,3.5918623E-1,5.3E1,8.299388E1,6.471022E1,5.6785095E-1,9.1203865E1,7.5809875E1,-8.802288E-1,-5.941133E-1,-1.0859689E0,-6.813335E-1,-5.444384E-1,-6.7927815E-2,-1.9292687E-1,-5.6937325E-1,3.741956E-1,7.575416E-1,2.1254908E-2,3.9132655E-1,-1.7897761E-1,-4.7099242E-1,4.391175E-1,-1.00916564E-1,8.6308855E-1,1.2591522E0,1.1431068E-1,7.231645E-1,1.6835884E0,1.1422561E0,2.3888762E0,1.8099434E0,2.4612406E-1,6.967756E-1,1.4277548E-1,-1.4647524E-1,1.4755768E0,8.213609E-1,4.375387E-1,9.338719E-1,-3.3457622E-2,2.7963993E-1,-9.767116E-1,-6.3402283E-1,-4.8970923E-1,-8.852504E-1,3.249886E-2,-3.1036255E-1,-2.5036803E-1,-7.1797055E-1,2.8546256E-1,1.1634707E0,-4.3151796E-2,7.768504E-1,-9.267392E-1,-6.757113E-1,-8.240104E-1,-1.1378335E0],"split_indices":[2,6,2,6,8,6,6,6,8,6,6,8,6,5,5,8,8,2,6,8,6,8,8,8,6,2,8,0,0,8,0,6,6,5,7,6,6,8,2,9,9,2,8,5,2,0,6,9,6,0,5,8,7,6,5,9,7,0,0,0,0,0,0,0,0,0,0,0,0,0,0,0,0,0,0,0,0,0,0,0,0,0,0,0,0,0,0,0,0,0,0,0,0,0,0,0,0,0,0,0,0,0,0,0,0,0,0],"split_type":[0,0,0,0,0,0,0,0,0,0,0,0,0,0,0,0,0,0,0,0,0,0,0,0,0,0,0,0,0,0,0,0,0,0,0,0,0,0,0,0,0,0,0,0,0,0,0,0,0,0,0,0,0,0,0,0,0,0,0,0,0,0,0,0,0,0,0,0,0,0,0,0,0,0,0,0,0,0,0,0,0,0,0,0,0,0,0,0,0,0,0,0,0,0,0,0,0,0,0,0,0,0,0,0,0,0,0],"sum_hessian":[3.173E3,2.239E3,9.34E2,1.271E3,9.68E2,5.36E2,3.98E2,4.63E2,8.08E2,5.32E2,4.36E2,3.15E2,2.21E2,2.05E2,1.93E2,1.67E2,2.96E2,3.56E2,4.52E2,3.16E2,2.16E2,3.31E2,1.05E2,2.02E2,1.13E2,1.36E2,8.5E1,2.01E2,4E0,1.88E2,5E0,8.7E1,8E1,8.2E1,2.14E2,1.67E2,1.89E2,2.83E2,1.69E2,1.63E2,1.53E2,1.28E2,8.8E1,1.88E2,1.43E2,6.5E1,4E1,7E0,1.95E2,4.9E1,6.4E1,7.8E1,5.8E1,1.1E1,7.4E1,1.2E2,6.8E1,1.4E1,7.3E1,5.2E1,2.8E1,1.7E1,6.5E1,2.4E1,1.9E2,9.7E1,7E1,1.14E2,7.5E1,1.37E2,1.46E2,4.2E1,1.27E2,8.7E1,7.6E1,1.2E1,1.41E2,6E1,6.8E1,3.1E1,5.7E1,1.15E2,7.3E1,9.8E1,4.5E1,4.1E1,2.4E1,2.2E1,1.8E1,3E0,4E0,2.9E1,1.66E2,1.2E1,5.2E1,4.5E1,3.3E1,3E1,2.8E1,4E0,7E0,6.7E1,7E0,5.7E1,6.3E1,2.2E1,4.6E1],"tree_param":{"num_deleted":"0","num_feature":"10","num_nodes":"107","size_leaf_vector":"1"}},{"base_weights":[8.09135E-2,2.52173E0,-7.3556843E0,-8.7113947E-1,6.9544935E0,-5.1619587E0,-9.586447E0,-4.174469E0,6.456191E-1,9.188163E0,2.9885008E0,-6.259378E0,-9.4480044E-1,-8.70073E0,-1.1012473E1,-1.6481864E0,-5.6355147E0,3.4416215E0,-1.443287E0,1.2143096E1,6.7751536E0,9.9377346E-1,6.186278E0,-9.595535E0,-5.5555596E0,9.932172E-1,-6.1322913E0,-1.0102746E1,-7.452757E0,-1.201177E0,-9.378285E0,-4.411231E0,1.1565997E-1,-7.2260017E0,-4.083584E0,5.628769E0,1.4049656E0,-9.349032E-2,-2.5089815E0,9.368982E0,1.4799386E1,5.5238795E0,1.1170147E1,2.5824742E0,-1.315843E0,3.205628E0,7.329557E0,-1.1122525E0,-7.99986E0,-3.3730495E0,-6.480574E0,-8.061192E-1,3.3592503E0,-6.558675E0,-2.4423023E-1,-1.1079139E0,-8.786469E0,-8.151115E0,-5.726564E0,-8.1786375E0,-1.1363649E0,1.5127705E-1,-4.9591747E-1,-5.411009E-1,1.0257506E-1,-9.169399E-1,-6.321088E-1,-6.743564E-1,-1.6186886E-1,7.5213325E-1,3.901079E-1,4.402162E-1,4.3413557E-2,-2.393137E-1,8.589875E-2,-3.5126272E-1,-1.2721394E-1,5.63031E-1,1.0509353E0,1.1180092E0,1.6532425E0,6.804053E-1,3.2698998E-1,1.21145E0,5.290876E-1,1.3960437E-1,4.7311005E-1,-2.4981289E-1,1.7943737E-1,-7.3625E-2,3.8858366E-1,4.481759E-1,9.037841E-1,-1.0733055E0,-5.8473223E-1,-5.3009194E-1,-2.3634945E-1,-4.6778518E-1,-7.6393455E-1,-1.7984994E-1,5.686338E-1,9.6003056E-2,7.331921E-1,-6.998177E-1,-3.0261207E-1,-4.105606E-1,-9.1864425E-1,-2.1961303E-1,-8.324103E-1,1.17455736E-1,-6.2901E-1,-8.480148E-1,-3.2446355E-1],"categories":[],"categories_nodes":[],"categories_segments":[],"categories_sizes":[],"default_left":[0,0,0,0,0,0,0,0,0,0,0,0,0,0,0,0,0,0,0,0,0,0,0,0,0,0,0,0,0,0,0,0,0,0,0,0,0,0,0,0,0,0,0,0,0,0,0,0,0,0,0,0,0,0,0,0,0,0,0,0,0,0,0,0,0,0,0,0,0,0,0,0,0,0,0,0,0,0,0,0,0,0,0,0,0,0,0,0,0,0,0,0,0,0,0,0,0,0,0,0,0,0,0,0,0,0,0,0,0,0,0,0,0],"id":2,"left_children":[1,3,5,7,9,11,13,15,17,19,21,23,25,27,29,31,33,35,37,39,41,43,45,47,49,51,53,55,57,-1,59,61,63,65,67,69,71,73,75,77,79,81,83,85,87,89,91,-1,93,95,97,99,101,103,-1,-1,105,107,109,111,-1,-1,-1,-1,-1,-1,-1,-1,-1,-1,-1,-1,-1,-1,-1,-1,-1,-1,-1,-1,-1,-1,-1,-1,-1,-1,-1,-1,-1,-1,-1,-1,-1,-1,-1,-1,-1,-1,-1,-1,-1,-1,-1,-1,-1,-1,-1,-1,-1,-1,-1,-1,-1],"loss_changes":[5.8102453E4,3.625256E4,3.8199414E3,6.8471904E3,9.228684E3,1.8491895E3,3.960664E2,1.5771196E3,5.4777964E3,4.6788555E3,2.4042805E3,6.9185547E2,8.510943E2,3.5337305E2,1.2363281E2,7.7583997E2,6.407451E2,1.7776299E3,7.7196387E2,2.0622148E3,1.9713848E3,8.621386E2,4.6956982E2,4.0684082E1,5.1215234E2,2.6691525E2,1.9268677E1,4.589453E1,1.1347168E2,0E0,4.8010742E1,2.0909985E2,4.980293E2,1.7438574E2,9.061682E2,6.0058057E2,6.057468E2,5.235154E2,3.6745837E2,5.744717E2,7.5952344E2,8.135342E2,3.8388477E2,3.4712067E2,3.575608E2,1.157905E2,4.6408643E2,0E0,1.1208154E2,1.4435437E2,3.4948633E2,2.4178557E2,2.4947726E2,8.871582E0,0E0,0E0,6.0182617E1,7.646973E1,1.7123889E2,3.2306396E1,0E0,0E0,0E0,0E0,0E0,0E0,0E0,0E0,0E0,0E0,0E0,0E0,0E0,0E0,0E0,0E0,0E0,0E0,0E0,0E0,0E0,0E0,0E0,0E0,0E0,0E0,0E0,0E0,0E0,0E0,0E0,0E0,0E0,0E0,0E0,0E0,0E0,0E0,0E0,0E0,0E0,0E0,0E0,0E0,0E0,0E0,0E0,0E0,0E0,0E0,0E0,0E0,0E0],"parents":[2147483647,0,0,1,1,2,2,3,3,4,4,5,5,6,6,7,7,8,8,9,9,10,10,11,11,12,12,13,13,14,14,15,15,16,16,17,17,18,18,19,19,20,20,21,21,22,22,23,23,24,24,25,25,26,26,27,27,28,28,30,30,31,31,32,32,33,33,34,34,35,35,36,36,37,37,38,38,39,39,40,40,41,41,42,42,43,43,44,44,45,45,46,46,48,48,49,49,50,50,51,51,52,52,53,53,56,56,57,57,58,58,59,59],"right_children":[2,4,6,8,10,12,14,16,18,20,22,24,26,28,30,32,34,36,38,40,42,44,46,48,50,52,54,56,58,-1,60,62,64,66,68,70,72,74,76,78,80,82,84,86,88,90,92,-1,94,96,98,100,102,104,-1,-1,106,108,110,112,-1,-1,-1,-1,-1,-1,-1,-1,-1,-1,-1,-1,-1,-1,-1,-1,-1,-1,-1,-1,-1,-1,-1,-1,-1,-1,-1,-1,-1,-1,-1,-1,-1,-1,-1,-1,-1,-1,-1,-1,-1,-1,-1,-1,-1,-1,-1,-1,-1,-1,-1,-1,-1],"split_conditions":[8.2E1,4.159262E-1,8.8E1,3.3087847E-1,4.8E1,4.7485512E-1,6.2E1,7.5E1,4.3E1,7.5E1,4.7868684E-1,3.1157717E-1,5.8E1,9.1293594E1,4.2414695E-1,2.8704426E-1,8E1,7.5E1,4.8E1,4.6923897E-1,5.039439E-1,7.8E1,7E1,9.324593E1,4.8E1,1E0,8.798902E1,4.1134593E-1,4.5243925E-1,-1.201177E0,9E1,6.857882E1,7.2E1,8.8689186E1,2.8933895E-1,3.6E1,3.4E1,8.728093E1,1E0,8.3784706E1,8E1,4.2E1,9.200991E1,7.5E1,9.677576E1,7.418088E1,5.087926E-1,-1.1122525E0,7.8E1,3.6130753E-1,8.5E1,5.8271426E-1,5.148001E-1,9.677576E1,-2.4423023E-1,-1.1079139E0,7.122502E1,9.1882675E1,4.567381E-1,9.915782E1,-1.1363649E0,1.5127705E-1,-4.9591747E-1,-5.411009E-1,1.0257506E-1,-9.169399E-1,-6.321088E-1,-6.743564E-1,-1.6186886E-1,7.5213325E-1,3.901079E-1,4.402162E-1,4.3413557E-2,-2.393137E-1,8.589875E-2,-3.5126272E-1,-1.2721394E-1,5.63031E-1,1.0509353E0,1.1180092E0,1.6532425E0,6.804053E-1,3.2698998E-1,1.21145E0,5.290876E-1,1.3960437E-1,4.7311005E-1,-2.4981289E-1,1.7943737E-1,-7.3625E-2,3.8858366E-1,4.481759E-1,9.037841E-1,-1.0733055E0,-5.8473223E-1,-5.3009194E-1,-2.3634945E-1,-4.6778518E-1,-7.6393455E-1,-1.7984994E-1,5.686338E-1,9.6003056E-2,7.331921E-1,-6.998177E-1,-3.0261207E-1,-4.105606E-1,-9.1864425E-1,-2.1961303E-1,-8.324103E-1,1.17455736E-1,-6.2901E-1,-8.480148E-1,-3.2446355E-1],"split_indices":[2,5,2,5,8,5,8,2,8,2,5,5,8,9,5,5,0,2,8,5,5,2,0,9,8,3,7,5,5,0,2,7,0,9,5,8,8,9,3,9,0,8,7,1,9,9,5,0,0,5,2,5,5,9,0,0,9,9,5,9,0,0,0,0,0,0,0,0,0,0,0,0,0,0,0,0,0,0,0,0,0,0,0,0,0,0,0,0,0,0,0,0,0,0,0,0,0,0,0,0,0,0,0,0,0,0,0,0,0,0,0,0,0],"split_type":[0,0,0,0,0,0,0,0,0,0,0,0,0,0,0,0,0,0,0,0,0,0,0,0,0,0,0,0,0,0,0,0,0,0,0,0,0,0,0,0,0,0,0,0,0,0,0,0,0,0,0,0,0,0,0,0,0,0,0,0,0,0,0,0,0,0,0,0,0,0,0,0,0,0,0,0,0,0,0,0,0,0,0,0,0,0,0,0,0,0,0,0,0,0,0,0,0,0,0,0,0,0,0,0,0,0,0,0,0,0,0,0,0],"sum_hessian":[3.199E3,2.409E3,7.9E2,1.365E3,1.044E3,4E2,3.9E2,4.29E2,9.36E2,6.67E2,3.77E2,3.17E2,8.3E1,2.45E2,1.45E2,1.58E2,2.71E2,4E2,5.36E2,2.98E2,3.69E2,2.33E2,1.44E2,5.3E1,2.64E2,6.1E1,2.2E1,1.12E2,1.33E2,8.6E1,5.9E1,6.1E1,9.7E1,1.32E2,1.39E2,1.92E2,2.08E2,2.37E2,2.99E2,1.48E2,1.5E2,2.89E2,8E1,1.38E2,9.5E1,4.1E1,1.03E2,2.4E1,2.9E1,8E1,1.84E2,3.5E1,2.6E1,1.9E1,3E0,6E1,5.2E1,9.2E1,4.1E1,4E1,1.9E1,5E0,5.6E1,1.3E1,8.4E1,3.9E1,9.3E1,6.6E1,7.3E1,9E1,1.02E2,5E1,1.58E2,6.9E1,1.68E2,1.64E2,1.35E2,3.6E1,1.12E2,5.1E1,9.9E1,1.83E2,1.06E2,6.8E1,1.2E1,9E1,4.8E1,6.9E1,2.6E1,6E0,3.5E1,4E1,6.3E1,1.1E1,1.8E1,2.6E1,5.4E1,7.4E1,1.1E2,3.1E1,4E0,1.7E1,9E0,1.6E1,3E0,5E0,4.7E1,3E0,8.9E1,3E0,3.8E1,3.7E1,3E0],"tree_param":{"num_deleted":"0","num_feature":"10","num_nodes":"113","size_leaf_vector":"1"}},{"base_weights":[3.756018E-2,2.2095714E0,-6.64696E0,-1.1354744E0,8.019391E0,-8.489995E0,-3.8785532E0,-4.5239716E0,9.3635935E-1,1.082756E1,4.71641E0,-7.1078024E0,-9.824278E0,-1.5389014E0,-6.808123E0,-6.218123E0,-3.0625412E0,2.9444075E0,-1.7694066E0,9.509317E0,1.744769E1,2.9741511E0,9.84568E0,-8.334804E0,-6.0518804E0,-1.0527805E0,-8.194075E0,-2.3172328E0,6.431636E0,-5.7286925E0,-7.544838E0,-5.660049E0,-9.181067E0,-1.2167361E0,-4.335617E0,4.964249E0,1.3657458E0,-6.269962E-1,-4.2257094E0,6.6852756E0,1.0987311E1,2.04306E1,1.3767503E1,4.5373015E0,9.060134E-1,1.3833873E1,8.457699E0,-1.013725E0,-7.0873017E0,-3.7495995E0,-6.8271713E0,-1.1061512E0,-7.0424457E0,-3.475416E0,6.1641116E-2,1.4325105E0,3.5004425E0,-7.900571E-1,-4.7077265E0,-8.770675E0,-5.9565263E0,-9.330998E-2,-6.010275E-1,-1.0016913E0,-5.0850683E-1,-2.5601387E-1,2.5101159E-2,-5.947145E-1,-3.7312657E-1,6.858749E-1,3.4392035E-1,7.404687E-2,5.214192E-1,-2.4480799E-1,9.10015E-2,-6.221239E-1,-3.154442E-1,1.1279931E0,5.824667E-1,1.3038628E0,8.6503696E-1,1.6556548E0,2.3327005E0,1.0535926E0,1.5877069E0,3.3107623E-1,6.187572E-1,1.4994286E-1,-1.7135172E-1,9.9368733E-1,1.7881247E0,9.017286E-1,3.6848235E-1,-5.162837E-1,-8.0616903E-1,-4.3306038E-1,-7.926386E-2,-7.0383346E-1,-1.5563367E-1,-8.159202E-1,-3.0224663E-1,1.3703229E-1,-4.1469255E-1,-9.559055E-2,4.6444365E-1,4.114918E-2,5.3671E-1,-8.09742E-3,-5.0418556E-1,-3.946017E-1,-9.299025E-1,-1.4886266E-1,-6.2940997E-1],"categories":[],"categories_nodes":[],"categories_segments":[],"categories_sizes":[],"default_left":[0,0,0,0,0,0,0,0,0,0,0,0,0,0,0,0,0,0,0,0,0,0,0,0,0,0,0,0,0,0,0,0,0,0,0,0,0,0,0,0,0,0,0,0,0,0,0,0,0,0,0,0,0,0,0,0,0,0,0,0,0,0,0,0,0,0,0,0,0,0,0,0,0,0,0,0,0,0,0,0,0,0,0,0,0,0,0,0,0,0,0,0,0,0,0,0,0,0,0,0,0,0,0,0,0,0,0,0,0,0,0,0,0],"id":3,"left_children":[1,3,5,7,9,11,13,15,17,19,21,23,25,27,29,31,33,35,37,39,41,43,45,47,49,-1,51,53,55,57,59,61,63,65,67,69,71,73,75,77,79,81,83,85,87,89,91,-1,93,95,97,-1,99,101,103,-1,105,-1,107,109,111,-1,-1,-1,-1,-1,-1,-1,-1,-1,-1,-1,-1,-1,-1,-1,-1,-1,-1,-1,-1,-1,-1,-1,-1,-1,-1,-1,-1,-1,-1,-1,-1,-1,-1,-1,-1,-1,-1,-1,-1,-1,-1,-1,-1,-1,-1,-1,-1,-1,-1,-1,-1],"loss_changes":[4.6532645E4,4.7020914E4,3.9762227E3,1.0787934E4,8.1467695E3,7.971094E2,2.154607E3,1.4234688E3,5.188703E3,3.9941406E3,3.6155342E3,2.5259082E2,1.8367578E2,1.1125504E3,6.678369E1,3.9135352E2,7.343721E2,1.7399658E3,1.1389504E3,1.5943477E3,5.715625E2,9.845847E2,4.5092773E2,1.6477832E2,2.0538525E2,0E0,1.7125879E2,4.4689343E2,3.1826984E2,9.680774E1,1.0204541E2,3.7280664E2,8.792163E1,2.572044E2,1.5799292E2,6.687886E2,7.391042E2,7.833098E2,2.5520703E2,4.8617578E2,1.1362266E3,6.984961E1,8.913379E1,3.3076172E2,2.0929227E2,2.1384961E2,1.7649902E2,0E0,8.0818115E1,5.6185333E1,9.503467E1,0E0,2.3011304E2,3.6064197E2,2.5662173E2,0E0,7.217178E1,0E0,6.7100464E1,7.159277E1,4.7165405E1,0E0,0E0,0E0,0E0,0E0,0E0,0E0,0E0,0E0,0E0,0E0,0E0,0E0,0E0,0E0,0E0,0E0,0E0,0E0,0E0,0E0,0E0,0E0,0E0,0E0,0E0,0E0,0E0,0E0,0E0,0E0,0E0,0E0,0E0,0E0,0E0,0E0,0E0,0E0,0E0,0E0,0E0,0E0,0E0,0E0,0E0,0E0,0E0,0E0,0E0,0E0,0E0],"parents":[2147483647,0,0,1,1,2,2,3,3,4,4,5,5,6,6,7,7,8,8,9,9,10,10,11,11,12,12,13,13,14,14,15,15,16,16,17,17,18,18,19,19,20,20,21,21,22,22,23,23,24,24,26,26,27,27,28,28,29,29,30,30,31,31,32,32,33,33,34,34,35,35,36,36,37,37,38,38,39,39,40,40,41,41,42,42,43,43,44,44,45,45,46,46,48,48,49,49,50,50,52,52,53,53,54,54,56,56,58,58,59,59,60,60],"right_children":[2,4,6,8,10,12,14,16,18,20,22,24,26,28,30,32,34,36,38,40,42,44,46,48,50,-1,52,54,56,58,60,62,64,66,68,70,72,74,76,78,80,82,84,86,88,90,92,-1,94,96,98,-1,100,102,104,-1,106,-1,108,110,112,-1,-1,-1,-1,-1,-1,-1,-1,-1,-1,-1,-1,-1,-1,-1,-1,-1,-1,-1,-1,-1,-1,-1,-1,-1,-1,-1,-1,-1,-1,-1,-1,-1,-1,-1,-1,-1,-1,-1,-1,-1,-1,-1,-1,-1,-1,-1,-1,-1,-1,-1,-1],"split_conditions":[8.2E1,5.3738987E1,5.3323166E1,4.1125267E1,4.6E1,8.8E1,8.8E1,3.5015965E1,4.6E1,7.044762E1,6.841442E1,4.2082016E1,9.6468254E1,7.802353E1,8.282226E1,5.2E1,4.3E1,7.5E1,5.5E1,5.814968E1,7.5E1,5.3E1,7.5E1,7.8E1,4.8E1,-1.0527805E0,7.8E1,6.40634E1,4.4E1,6.8280136E1,9.39078E1,7.2E1,3.344909E1,3.8868572E1,8.65272E1,3.6E1,5.2283863E1,4.7230907E1,4.5108223E1,3.3E1,4E1,9.280608E1,1E0,6.0450058E1,6E1,7.5E1,5.8E1,-1.013725E0,8.5E1,8.925036E1,9.738609E1,-1.1061512E0,4.9191902E1,4.4E1,9.185162E1,1.4325105E0,8.61317E1,-7.900571E-1,6.982917E1,7.122502E1,9.430445E1,-9.330998E-2,-6.010275E-1,-1.0016913E0,-5.0850683E-1,-2.5601387E-1,2.5101159E-2,-5.947145E-1,-3.7312657E-1,6.858749E-1,3.4392035E-1,7.404687E-2,5.214192E-1,-2.4480799E-1,9.10015E-2,-6.221239E-1,-3.154442E-1,1.1279931E0,5.824667E-1,1.3038628E0,8.6503696E-1,1.6556548E0,2.3327005E0,1.0535926E0,1.5877069E0,3.3107623E-1,6.187572E-1,1.4994286E-1,-1.7135172E-1,9.9368733E-1,1.7881247E0,9.017286E-1,3.6848235E-1,-5.162837E-1,-8.0616903E-1,-4.3306038E-1,-7.926386E-2,-7.0383346E-1,-1.5563367E-1,-8.159202E-1,-3.0224663E-1,1.3703229E-1,-4.1469255E-1,-9.559055E-2,4.6444365E-1,4.114918E-2,5.3671E-1,-8.09742E-3,-5.0418556E-1,-3.946017E-1,-9.299025E-1,-1.4886266E-1,-6.2940997E-1],"split_indices":[2,6,6,6,8,2,2,6,8,6,6,6,9,6,7,8,8,2,8,6,2,8,2,0,8,0,0,6,8,7,9,2,6,6,9,8,6,6,6,8,8,9,3,6,8,0,8,0,0,7,7,0,6,8,7,0,7,0,7,9,9,0,0,0,0,0,0,0,0,0,0,0,0,0,0,0,0,0,0,0,0,0,0,0,0,0,0,0,0,0,0,0,0,0,0,0,0,0,0,0,0,0,0,0,0,0,0,0,0,0,0,0,0],"split_type":[0,0,0,0,0,0,0,0,0,0,0,0,0,0,0,0,0,0,0,0,0,0,0,0,0,0,0,0,0,0,0,0,0,0,0,0,0,0,0,0,0,0,0,0,0,0,0,0,0,0,0,0,0,0,0,0,0,0,0,0,0,0,0,0,0,0,0,0,0,0,0,0,0,0,0,0,0,0,0,0,0,0,0,0,0,0,0,0,0,0,0,0,0,0,0,0,0,0,0,0,0,0,0,0,0,0,0,0,0,0,0,0,0],"sum_hessian":[3.203E3,2.418E3,7.85E2,1.535E3,8.83E2,4.7E2,3.15E2,5.82E2,9.53E2,4.76E2,4.07E2,2.34E2,2.36E2,1.76E2,1.39E2,2.68E2,3.14E2,5.47E2,4.06E2,3.99E2,7.7E1,3.05E2,1.02E2,1.05E2,1.29E2,1.61E2,7.5E1,1.61E2,1.5E1,6E1,7.9E1,2.28E2,4E1,1.29E2,1.85E2,2.39E2,3.08E2,2.78E2,1.28E2,1.39E2,2.6E2,4E1,3.7E1,1.73E2,1.32E2,2.4E1,7.8E1,4E1,6.5E1,3.4E1,9.5E1,1.9E1,5.6E1,1.08E2,5.3E1,3E0,1.2E1,1.7E1,4.3E1,4.2E1,3.7E1,1.6E1,2.12E2,3.2E1,8E0,6.7E1,6.2E1,4.8E1,1.37E2,1.05E2,1.34E2,2.66E2,4.2E1,1.27E2,1.51E2,4.3E1,8.5E1,2E1,1.19E2,1.36E2,1.24E2,2E1,2E1,1.7E1,2E1,1.01E2,7.2E1,1.08E2,2.4E1,1.4E1,1E1,6.9E1,9E0,2.4E1,4.1E1,2.8E1,6E0,9.1E1,4E0,4.3E1,1.3E1,1.3E1,9.5E1,4.4E1,9E0,5E0,7E0,3E0,4E1,5E0,3.7E1,3E0,3.4E1],"tree_param":{"num_deleted":"0","num_feature":"10","num_nodes":"113","size_leaf_vector":"1"}},{"base_weights":[1.8820694E-2,2.012526E0,-5.959708E0,-7.981391E-1,7.7812366E0,-7.604178E0,-3.3386831E0,-4.2097526E0,1.0764679E0,5.62945E0,1.1225074E1,-5.4569807E0,-8.274311E0,-1.0390424E0,-6.1393943E0,-5.7811284E0,-2.7036679E0,2.7610636E0,-1.200877E0,1.0063285E1,3.952184E0,1.3175517E1,7.3278513E0,-6.129541E0,-3.412768E0,-4.33017E0,-8.593933E0,5.244335E0,-1.9009626E0,-5.3669505E0,-8.141955E0,-4.4271827E0,-6.9243665E0,-7.258942E-1,-4.636078E0,4.5485373E0,1.3658817E0,-3.7827988E0,-2.893503E-1,1.6015346E0,1.0812283E1,5.235646E0,5.7943755E-1,1.0832552E1,1.559985E1,5.0059834E0,8.972872E0,-8.012144E0,-5.3902955E0,-1.4138989E-1,-4.319098E0,-5.1678967E0,2.3820244E-1,-9.444386E0,-7.7844944E0,3.1682308E0,1.3250722E0,-2.3326209E0,4.4518447E0,-6.1126676E0,-3.2241418E0,-5.1174097E0,-9.2209005E-1,2.6888192E-2,-4.7766373E-1,-8.3909315E-1,-5.217659E-1,1.0680889E-1,-2.0119531E-1,-3.8826844E-1,-5.548422E-1,5.85093E-1,2.500158E-1,9.4128914E-2,5.5508244E-1,-7.124115E-2,-4.796923E-1,5.3200927E-2,-2.3582105E-1,-1.5537945E-2,5.1792073E-1,1.1418198E0,3.6509404E-1,6.024648E-1,2.2264993E-1,1.2334321E-1,-2.6417968E-1,1.2578716E0,9.4671917E-1,1.8423079E0,1.2262375E0,6.022621E-1,1.7000127E-1,9.565466E-1,3.1899628E-1,-3.850294E-1,-8.4389067E-1,-9.9200314E-1,-4.5146465E-1,-1.8651864E-1,1.2459252E-1,-2.2628482E-1,-5.7659477E-1,-6.866308E-1,-2.4643569E-1,-8.494016E-1,-1.0300391E0,-6.765856E-1,-8.645081E-1,5.518546E-1,7.261239E-2,-8.084055E-2,-3.6272937E-1,1.5234019E-1,5.4749775E-1,-5.395322E-1,-8.11882E-1,-3.8822564E-1,1.8346383E-1,-7.343179E-2,-6.485738E-1],"categories":[],"categories_nodes":[],"categories_segments":[],"categories_sizes":[],"default_left":[0,0,0,0,0,0,0,0,0,0,0,0,0,0,0,0,0,0,0,0,0,0,0,0,0,0,0,0,0,0,0,0,0,0,0,0,0,0,0,0,0,0,0,0,0,0,0,0,0,0,0,0,0,0,0,0,0,0,0,0,0,0,0,0,0,0,0,0,0,0,0,0,0,0,0,0,0,0,0,0,0,0,0,0,0,0,0,0,0,0,0,0,0,0,0,0,0,0,0,0,0,0,0,0,0,0,0,0,0,0,0,0,0,0,0,0,0,0,0,0,0],"id":4,"left_children":[1,3,5,7,9,11,13,15,17,19,21,23,25,27,29,31,33,35,37,39,41,43,45,47,49,51,53,55,57,59,61,63,65,67,69,71,73,75,77,79,81,83,85,87,89,91,93,95,97,99,101,103,-1,105,107,109,-1,111,113,115,117,119,-1,-1,-1,-1,-1,-1,-1,-1,-1,-1,-1,-1,-1,-1,-1,-1,-1,-1,-1,-1,-1,-1,-1,-1,-1,-1,-1,-1,-1,-1,-1,-1,-1,-1,-1,-1,-1,-1,-1,-1,-1,-1,-1,-1,-1,-1,-1,-1,-1,-1,-1,-1,-1,-1,-1,-1,-1,-1,-1],"loss_changes":[3.8225277E4,3.900137E4,3.430293E3,1.0352657E4,5.7745156E3,6.614199E2,1.9959395E3,1.3419648E3,4.0125151E3,3.5805098E3,2.197E3,1.4310962E2,4.3171094E2,9.411476E2,1.715127E2,4.0161523E2,1.12355E3,1.4919995E3,1.0458016E3,8.24374E2,1.533106E3,9.6439453E2,3.4709473E2,7.933374E1,9.3821655E1,1.8127808E2,1.6156055E2,3.0544073E2,4.269931E2,1.4554297E2,7.2121826E1,2.1671411E2,3.303081E2,3.4139703E2,7.992993E1,6.861665E2,5.964934E2,3.572273E2,5.6219904E2,7.673509E1,4.861836E2,5.9593604E2,2.1167795E2,1.290459E2,6.755781E2,1.4023303E2,1.7039893E2,7.1295166E0,2.195238E2,2.1517399E1,6.0526764E1,1.06122375E2,0E0,4.32334E1,9.951465E1,9.8683365E1,0E0,2.7881458E2,2.0921432E1,6.421704E1,1.0387573E2,6.6485504E1,0E0,0E0,0E0,0E0,0E0,0E0,0E0,0E0,0E0,0E0,0E0,0E0,0E0,0E0,0E0,0E0,0E0,0E0,0E0,0E0,0E0,0E0,0E0,0E0,0E0,0E0,0E0,0E0,0E0,0E0,0E0,0E0,0E0,0E0,0E0,0E0,0E0,0E0,0E0,0E0,0E0,0E0,0E0,0E0,0E0,0E0,0E0,0E0,0E0,0E0,0E0,0E0,0E0,0E0,0E0,0E0,0E0,0E0,0E0],"parents":[2147483647,0,0,1,1,2,2,3,3,4,4,5,5,6,6,7,7,8,8,9,9,10,10,11,11,12,12,13,13,14,14,15,15,16,16,17,17,18,18,19,19,20,20,21,21,22,22,23,23,24,24,25,25,26,26,27,27,28,28,29,29,30,30,31,31,32,32,33,33,34,34,35,35,36,36,37,37,38,38,39,39,40,40,41,41,42,42,43,43,44,44,45,45,46,46,47,47,48,48,49,49,50,50,51,51,53,53,54,54,55,55,57,57,58,58,59,59,60,60,61,61],"right_children":[2,4,6,8,10,12,14,16,18,20,22,24,26,28,30,32,34,36,38,40,42,44,46,48,50,52,54,56,58,60,62,64,66,68,70,72,74,76,78,80,82,84,86,88,90,92,94,96,98,100,102,104,-1,106,108,110,-1,112,114,116,118,120,-1,-1,-1,-1,-1,-1,-1,-1,-1,-1,-1,-1,-1,-1,-1,-1,-1,-1,-1,-1,-1,-1,-1,-1,-1,-1,-1,-1,-1,-1,-1,-1,-1,-1,-1,-1,-1,-1,-1,-1,-1,-1,-1,-1,-1,-1,-1,-1,-1,-1,-1,-1,-1,-1,-1,-1,-1,-1,-1],"split_conditions":[8.2E1,5.4833797E1,5.35385E1,4.1269547E1,6.471022E1,8.5E1,8.8E1,3.5528606E1,4.6E1,4E1,4.8E1,5.0402954E1,4.6E1,4.4E1,6.4E1,4.3E1,4.5E1,7.5E1,4.522336E1,6.1776062E1,5.3E1,7.1001945E1,7.1001945E1,7.012404E1,7.618955E1,8.8E1,4.2082016E1,7.550403E1,7.098137E1,6.568181E1,7.5809875E1,3E1,3.1831575E1,3.7E1,5.2E1,4E1,9.5E1,7.5E1,5.5E1,9.2E1,7.8E1,7.8E1,6E1,3.8E1,7.5E1,5.6E1,6E1,3.3844673E1,3.3188602E1,5.4752525E1,5.38272E1,5.2934586E1,2.3820244E-1,6E1,4.7956863E1,4.2E1,1.3250722E0,5.2E1,7.141742E1,6.035104E1,8.8E1,5.6925293E1,-9.2209005E-1,2.6888192E-2,-4.7766373E-1,-8.3909315E-1,-5.217659E-1,1.0680889E-1,-2.0119531E-1,-3.8826844E-1,-5.548422E-1,5.85093E-1,2.500158E-1,9.4128914E-2,5.5508244E-1,-7.124115E-2,-4.796923E-1,5.3200927E-2,-2.3582105E-1,-1.5537945E-2,5.1792073E-1,1.1418198E0,3.6509404E-1,6.024648E-1,2.2264993E-1,1.2334321E-1,-2.6417968E-1,1.2578716E0,9.4671917E-1,1.8423079E0,1.2262375E0,6.022621E-1,1.7000127E-1,9.565466E-1,3.1899628E-1,-3.850294E-1,-8.4389067E-1,-9.9200314E-1,-4.5146465E-1,-1.8651864E-1,1.2459252E-1,-2.2628482E-1,-5.7659477E-1,-6.866308E-1,-2.4643569E-1,-8.494016E-1,-1.0300391E0,-6.765856E-1,-8.645081E-1,5.518546E-1,7.261239E-2,-8.084055E-2,-3.6272937E-1,1.5234019E-1,5.4749775E-1,-5.395322E-1,-8.11882E-1,-3.8822564E-1,1.8346383E-1,-7.343179E-2,-6.485738E-1],"split_indices":[2,6,6,6,6,2,2,6,8,8,8,4,8,8,8,8,8,2,6,7,8,6,6,7,7,1,6,6,4,6,7,8,6,8,8,8,0,2,8,0,2,2,8,8,2,8,8,6,6,4,4,4,0,8,4,8,0,8,6,4,1,6,0,0,0,0,0,0,0,0,0,0,0,0,0,0,0,0,0,0,0,0,0,0,0,0,0,0,0,0,0,0,0,0,0,0,0,0,0,0,0,0,0,0,0,0,0,0,0,0,0,0,0,0,0,0,0,0,0,0,0],"split_type":[0,0,0,0,0,0,0,0,0,0,0,0,0,0,0,0,0,0,0,0,0,0,0,0,0,0,0,0,0,0,0,0,0,0,0,0,0,0,0,0,0,0,0,0,0,0,0,0,0,0,0,0,0,0,0,0,0,0,0,0,0,0,0,0,0,0,0,0,0,0,0,0,0,0,0,0,0,0,0,0,0,0,0,0,0,0,0,0,0,0,0,0,0,0,0,0,0,0,0,0,0,0,0,0,0,0,0,0,0,0,0,0,0,0,0,0,0,0,0,0,0],"sum_hessian":[3.205E3,2.404E3,8.01E2,1.617E3,7.87E2,4.91E2,3.1E2,5.73E2,1.044E3,4.86E2,3.01E2,1.19E2,3.72E2,1.71E2,1.39E2,2.79E2,2.94E2,6E2,4.44E2,1.32E2,3.54E2,1.99E2,1.02E2,8.8E1,3.1E1,2.9E1,3.43E2,2E1,1.51E2,1.03E2,3.6E1,1.3E2,1.49E2,1.46E2,1.48E2,2.62E2,3.38E2,1.15E2,3.29E2,1.1E1,1.21E2,2.56E2,9.8E1,1.04E2,9.5E1,4.4E1,5.8E1,2.2E1,6.6E1,7E0,2.4E1,2.6E1,3E0,1.62E2,1.81E2,1.7E1,3E0,1.42E2,9E0,7.5E1,2.8E1,1.1E1,2.5E1,9E0,1.21E2,7.8E1,7.1E1,6.1E1,8.5E1,8.4E1,6.4E1,1.59E2,1.03E2,3.08E2,3E1,2.9E1,8.6E1,2.36E2,9.3E1,8E0,3E0,1.11E2,1E1,2.02E2,5.4E1,8.2E1,1.6E1,4.2E1,6.2E1,4.9E1,4.6E1,3.3E1,1.1E1,5.2E1,6E0,3E0,1.9E1,9E0,5.7E1,3E0,4E0,1.1E1,1.3E1,1.5E1,1.1E1,8.2E1,8E1,8.7E1,9.4E1,8E0,9E0,6.6E1,7.6E1,3E0,6E0,5.8E1,1.7E1,2.5E1,3E0,3E0,8E0],"tree_param":{"num_deleted":"0","num_feature":"10","num_nodes":"121","size_leaf_vector":"1"}},{"base_weights":[4.456769E-3,2.03544E0,-5.1106725E0,-9.857726E-1,6.477658E0,-7.0472064E0,-2.8950114E0,-3.764121E0,3.7570503E-1,5.1544623E0,1.0865923E1,-6.0631933E0,-8.165644E0,5.9575915E-1,-4.819986E0,-5.1195655E0,-2.9410317E0,2.4506469E0,-8.6542267E-1,3.4589293E0,7.8568773E0,1.3692124E1,8.760176E0,-7.514917E0,-5.2376175E0,-8.7689295E0,-6.610595E0,-2.1656132E-1,4.2334957E0,-4.1979055E0,-7.8369536E0,-6.3396945E0,-4.2132797E0,-3.9722834E0,-1.9029373E0,7.5657135E-1,4.251179E0,-2.2240164E0,9.20114E-1,5.6159377E0,2.2665627E0,6.456964E0,9.909865E0,7.861944E0,1.494077E1,7.2059135E0,1.0831512E1,-8.942874E-1,-6.9450874E0,-6.0780635E0,-4.1806664E0,-5.848748E0,-8.988201E0,-8.503938E0,-5.3537545E0,-1.1064427E0,1.4075904E0,1.3840659E0,5.734064E0,-6.492025E0,-3.5918436E0,-8.2215805E0,-3.8858458E-1,-7.187647E-1,-2.7446902E-1,-5.5303585E-2,-4.6127176E-1,-4.329128E-1,-1.8407556E-1,-5.2161556E-1,-1.3833046E-1,-3.72587E-2,3.3109027E-1,1.2039902E-1,5.0786203E-1,-3.4461436E-1,-5.7803106E-2,1.6950494E-2,3.0523166E-1,3.9906058E-1,7.015745E-1,1.03950456E-1,3.9647228E-1,-2.4171476E-1,6.6346437E-1,1.2342352E0,7.8259677E-1,8.9636576E-1,3.184759E-1,1.0996853E0,1.7148167E0,4.8403725E-1,8.7602633E-1,6.657682E-1,1.2665726E0,-7.218325E-1,-3.401439E-1,-8.8645726E-1,-5.289774E-1,-3.5310543E-1,-6.040965E-1,-8.0313206E-1,-2.5045583E-1,-9.0784866E-1,-4.6064734E-1,-9.135435E-1,-2.879717E-1,2.9644689E-2,-5.787431E-1,2.0885156E-1,-1.6854142E-1,-2.6743123E-2,3.175451E-1,3.4826556E-1,1.49262715E-2,2.198442E-1,6.287959E-1,-9.0849966E-1,-5.2304476E-1,-4.4430685E-1,-1.8713273E-1,-8.653886E-1,-4.871257E-1],"categories":[],"categories_nodes":[],"categories_segments":[],"categories_sizes":[],"default_left":[0,0,0,0,0,0,0,0,0,0,0,0,0,0,0,0,0,0,0,0,0,0,0,0,0,0,0,0,0,0,0,0,0,0,0,0,0,0,0,0,0,0,0,0,0,0,0,0,0,0,0,0,0,0,0,0,0,0,0,0,0,0,0,0,0,0,0,0,0,0,0,0,0,0,0,0,0,0,0,0,0,0,0,0,0,0,0,0,0,0,0,0,0,0,0,0,0,0,0,0,0,0,0,0,0,0,0,0,0,0,0,0,0,0,0,0,0,0,0,0,0,0,0],"id":5,"left_children":[1,3,5,7,9,11,13,15,17,19,21,23,25,27,29,31,33,35,37,39,41,43,45,47,49,51,53,55,57,59,61,63,65,67,69,71,73,75,77,79,81,83,85,87,89,91,93,-1,95,97,99,101,103,105,107,109,111,113,115,117,119,121,-1,-1,-1,-1,-1,-1,-1,-1,-1,-1,-1,-1,-1,-1,-1,-1,-1,-1,-1,-1,-1,-1,-1,-1,-1,-1,-1,-1,-1,-1,-1,-1,-1,-1,-1,-1,-1,-1,-1,-1,-1,-1,-1,-1,-1,-1,-1,-1,-1,-1,-1,-1,-1,-1,-1,-1,-1,-1,-1,-1,-1],"loss_changes":[3.3409902E4,3.0901812E4,3.9003086E3,5.1877783E3,5.354078E3,4.850371E2,2.8793015E3,4.872964E2,2.3741008E3,3.2615918E3,1.157332E3,2.7457227E2,1.515752E2,4.5343472E2,4.8389355E2,1.5911133E2,2.948152E2,1.0486152E3,1.4018743E3,1.1258545E3,7.276035E2,5.3543945E2,3.2579004E2,1.1975586E1,1.2546484E2,4.7756836E1,1.1252124E2,1.8363539E2,1.1107327E2,2.968506E2,3.6747803E1,1.926665E2,1.431366E2,9.866211E1,2.3832147E2,5.178072E2,4.1432593E2,6.574114E2,3.9927304E2,3.2810107E2,5.934121E2,2.7977637E2,4.589873E2,6.29906E1,4.4413086E2,2.3200342E2,3.1183936E2,0E0,4.313159E1,1.5597485E2,7.318115E1,8.101663E1,1.4569336E1,6.128308E1,1.0763025E2,1.551625E2,1.3439421E2,2.7621775E1,2.0578125E1,1.0479785E2,2.6199512E2,1.5875E1,0E0,0E0,0E0,0E0,0E0,0E0,0E0,0E0,0E0,0E0,0E0,0E0,0E0,0E0,0E0,0E0,0E0,0E0,0E0,0E0,0E0,0E0,0E0,0E0,0E0,0E0,0E0,0E0,0E0,0E0,0E0,0E0,0E0,0E0,0E0,0E0,0E0,0E0,0E0,0E0,0E0,0E0,0E0,0E0,0E0,0E0,0E0,0E0,0E0,0E0,0E0,0E0,0E0,0E0,0E0,0E0,0E0,0E0,0E0,0E0,0E0],"parents":[2147483647,0,0,1,1,2,2,3,3,4,4,5,5,6,6,7,7,8,8,9,9,10,10,11,11,12,12,13,13,14,14,15,15,16,16,17,17,18,18,19,19,20,20,21,21,22,22,23,23,24,24,25,25,26,26,27,27,28,28,29,29,30,30,31,31,32,32,33,33,34,34,35,35,36,36,37,37,38,38,39,39,40,40,41,41,42,42,43,43,44,44,45,45,46,46,48,48,49,49,50,50,51,51,52,52,53,53,54,54,55,55,56,56,57,57,58,58,59,59,60,60,61,61],"right_children":[2,4,6,8,10,12,14,16,18,20,22,24,26,28,30,32,34,36,38,40,42,44,46,48,50,52,54,56,58,60,62,64,66,68,70,72,74,76,78,80,82,84,86,88,90,92,94,-1,96,98,100,102,104,106,108,110,112,114,116,118,120,122,-1,-1,-1,-1,-1,-1,-1,-1,-1,-1,-1,-1,-1,-1,-1,-1,-1,-1,-1,-1,-1,-1,-1,-1,-1,-1,-1,-1,-1,-1,-1,-1,-1,-1,-1,-1,-1,-1,-1,-1,-1,-1,-1,-1,-1,-1,-1,-1,-1,-1,-1,-1,-1,-1,-1,-1,-1,-1,-1,-1,-1],"split_conditions":[8E1,5.2283863E1,5.1115288E1,3.9194965E1,6.731101E1,8.8E1,8.5E1,3.257718E1,7.5E1,8.5E1,7.5E1,7.8E1,9.6468254E1,6.3599068E1,9E1,8E1,1E0,8.2E1,8.5E1,7.5E1,6.0133774E1,7.5E1,8.5E1,3.669606E1,9.324593E1,6.3941357E1,8E1,9.516151E1,6.603866E1,7.5E1,9.2E1,3.1831575E1,7.2E1,9.1595726E1,7E1,4.837682E1,4.23831E1,4.7326366E1,9.2E1,1E0,5.9160286E1,6.4789825E1,7.5E1,6.519415E1,7.1001945E1,7.261168E1,6.990297E1,-8.942874E-1,9.90628E1,3.8947147E1,9.8209206E1,3.9895958E1,5.045011E1,5.3734245E1,9.6730446E1,7.541781E1,1E0,6.1284283E1,8.577341E1,8.118719E1,6.3260944E1,6.919084E1,-3.8858458E-1,-7.187647E-1,-2.7446902E-1,-5.5303585E-2,-4.6127176E-1,-4.329128E-1,-1.8407556E-1,-5.2161556E-1,-1.3833046E-1,-3.72587E-2,3.3109027E-1,1.2039902E-1,5.0786203E-1,-3.4461436E-1,-5.7803106E-2,1.6950494E-2,3.0523166E-1,3.9906058E-1,7.015745E-1,1.03950456E-1,3.9647228E-1,-2.4171476E-1,6.6346437E-1,1.2342352E0,7.8259677E-1,8.9636576E-1,3.184759E-1,1.0996853E0,1.7148167E0,4.8403725E-1,8.7602633E-1,6.657682E-1,1.2665726E0,-7.218325E-1,-3.401439E-1,-8.8645726E-1,-5.289774E-1,-3.5310543E-1,-6.040965E-1,-8.0313206E-1,-2.5045583E-1,-9.0784866E-1,-4.6064734E-1,-9.135435E-1,-2.879717E-1,2.9644689E-2,-5.787431E-1,2.0885156E-1,-1.6854142E-1,-2.6743123E-2,3.175451E-1,3.4826556E-1,1.49262715E-2,2.198442E-1,6.287959E-1,-9.0849966E-1,-5.2304476E-1,-4.4430685E-1,-1.8713273E-1,-8.653886E-1,-4.871257E-1],"split_indices":[2,6,6,6,6,2,2,6,2,0,2,0,9,4,2,0,3,0,0,2,6,0,0,6,9,7,0,9,6,0,0,6,2,7,0,6,6,6,0,3,6,9,2,4,6,6,6,0,9,4,9,6,6,4,9,9,3,6,9,9,6,6,0,0,0,0,0,0,0,0,0,0,0,0,0,0,0,0,0,0,0,0,0,0,0,0,0,0,0,0,0,0,0,0,0,0,0,0,0,0,0,0,0,0,0,0,0,0,0,0,0,0,0,0,0,0,0,0,0,0,0,0,0],"split_type":[0,0,0,0,0,0,0,0,0,0,0,0,0,0,0,0,0,0,0,0,0,0,0,0,0,0,0,0,0,0,0,0,0,0,0,0,0,0,0,0,0,0,0,0,0,0,0,0,0,0,0,0,0,0,0,0,0,0,0,0,0,0,0,0,0,0,0,0,0,0,0,0,0,0,0,0,0,0,0,0,0,0,0,0,0,0,0,0,0,0,0,0,0,0,0,0,0,0,0,0,0,0,0,0,0,0,0,0,0,0,0,0,0,0,0,0,0,0,0,0,0,0,0],"sum_hessian":[3.214E3,2.301E3,9.13E2,1.37E3,9.31E2,4.86E2,4.27E2,4.5E2,9.2E2,7.17E2,2.14E2,2.62E2,2.24E2,1.52E2,2.75E2,1.68E2,2.82E2,3.44E2,5.76E2,4.42E2,2.75E2,8.9E1,1.25E2,9.2E1,1.7E2,1.58E2,6.6E1,1.25E2,2.7E1,2.3E2,4.5E1,6.9E1,9.9E1,1.4E2,1.42E2,1.78E2,1.66E2,3.27E2,2.49E2,1.56E2,2.86E2,1.66E2,1.09E2,1.7E1,7.2E1,7.4E1,5.1E1,2.2E1,7E1,9.2E1,7.8E1,1.3E1,1.45E2,2.4E1,4.2E1,8.1E1,4.4E1,1E1,1.7E1,4.6E1,1.84E2,4E1,5E0,5.5E1,1.4E1,1E1,8.9E1,1.19E2,2.1E1,1.8E1,1.24E2,1.24E2,5.4E1,3.6E1,1.3E2,1.87E2,1.4E2,1.85E2,6.4E1,7.4E1,8.2E1,1.67E2,1.19E2,3E0,1.63E2,4.8E1,6.1E1,1.3E1,4E0,2.8E1,4.4E1,3.1E1,4.3E1,1.7E1,3.4E1,6.4E1,6E0,1.8E1,7.4E1,6E1,1.8E1,7E0,6E0,1.41E2,4E0,2.1E1,3E0,3E0,3.9E1,1.2E1,6.9E1,2.3E1,2.1E1,3E0,7E0,3E0,1.4E1,1.3E1,3.3E1,1.22E2,6.2E1,3.4E1,6E0],"tree_param":{"num_deleted":"0","num_feature":"10","num_nodes":"123","size_leaf_vector":"1"}},{"base_weights":[-9.830443E-2,2.3035526E0,-3.413874E0,-7.144464E-1,6.1261168E0,-1.5216024E0,-5.557069E0,-3.2029853E0,5.7640326E-1,9.464799E0,4.417496E0,-3.6413934E0,1.1919378E0,-6.9679728E0,-4.215798E0,-5.00597E0,-2.2043996E0,1.5132568E0,-2.204246E0,6.5962234E0,1.1776104E1,2.9733016E0,7.807065E0,-4.7147326E0,-2.3292909E0,3.9644378E-1,5.3663073E0,-3.265725E0,-7.1892133E0,-2.3632963E0,-5.3078637E0,-3.965682E0,-6.0651875E0,-3.4088693E0,-8.923609E-1,4.099485E0,8.080027E-1,-3.299061E0,-7.765977E-1,5.5788784E0,1.025154E1,1.0559789E1,1.5502755E1,4.6560287E0,1.7981744E0,6.4414544E0,9.673603E0,-5.10539E0,-2.4359977E0,-2.9723924E-1,-3.1834593E0,1.3955752E0,-1.83694E0,-1.4256732E-1,6.327161E0,-6.4501534E0,-8.622955E-1,-8.7902945E-1,-6.8927355E0,-2.9900181E0,4.2236266E0,-4.694965E0,-7.0405235E0,-8.1729585E-1,-3.56081E-1,-7.3866796E-1,-4.7570977E-1,-5.195158E-1,-2.6909798E-1,5.0946098E-2,-2.1838441E-1,6.808403E-1,3.3745342E-1,7.0032966E-4,3.6237985E-1,-3.946391E-1,-2.3320286E-2,-9.820808E-3,-3.522168E-1,6.0242534E-1,-2.8346425E-2,6.9239354E-1,1.3548418E0,1.4590468E0,9.8230183E-1,1.6588736E0,8.77473E-1,3.7416866E-1,7.0463455E-1,-9.326254E-2,2.1583414E-1,7.10688E-1,6.443607E-2,1.1303393E0,7.200996E-1,-7.674095E-1,-4.7313482E-1,-3.7814164E-1,-8.622604E-2,-6.599662E-1,7.572736E-2,-4.5678073E-1,-2.1429494E-1,2.1622236E-1,-1.073206E-1,1.7408547E-1,-2.0931716E-1,4.9767604E-1,9.1568273E-1,-3.3382985E-1,-7.629607E-1,-2.4488966E-1,1.8287255E-1,-4.4738436E-1,-6.986497E-1,-5.6208384E-1,-2.2833638E-1,9.787677E-2,7.901704E-1,-4.9278647E-1,-4.0992223E-2,-7.505166E-1,-3.5924238E-1],"categories":[],"categories_nodes":[],"categories_segments":[],"categories_sizes":[],"default_left":[0,0,0,0,0,0,0,0,0,0,0,0,0,0,0,0,0,0,0,0,0,0,0,0,0,0,0,0,0,0,0,0,0,0,0,0,0,0,0,0,0,0,0,0,0,0,0,0,0,0,0,0,0,0,0,0,0,0,0,0,0,0,0,0,0,0,0,0,0,0,0,0,0,0,0,0,0,0,0,0,0,0,0,0,0,0,0,0,0,0,0,0,0,0,0,0,0,0,0,0,0,0,0,0,0,0,0,0,0,0,0,0,0,0,0,0,0,0,0,0,0,0,0],"id":6,"left_children":[1,3,5,7,9,11,13,15,17,19,21,23,25,27,29,31,33,35,37,39,41,43,45,47,49,51,53,55,57,59,61,63,65,67,69,71,73,75,77,79,81,83,85,87,89,91,93,95,97,99,101,103,105,-1,107,109,111,-1,113,115,117,119,121,-1,-1,-1,-1,-1,-1,-1,-1,-1,-1,-1,-1,-1,-1,-1,-1,-1,-1,-1,-1,-1,-1,-1,-1,-1,-1,-1,-1,-1,-1,-1,-1,-1,-1,-1,-1,-1,-1,-1,-1,-1,-1,-1,-1,-1,-1,-1,-1,-1,-1,-1,-1,-1,-1,-1,-1,-1,-1,-1,-1],"loss_changes":[2.5363836E4,2.1312822E4,5.4171045E3,3.3204453E3,4.606E3,4.1001084E3,1.1560449E3,6.237971E2,1.7773131E3,1.7437773E3,2.6240098E3,5.51646E2,1.036671E3,2.2447852E2,6.421577E2,1.1268091E2,3.5841907E2,9.264104E2,2.6586823E2,4.0606494E2,5.181367E2,7.443789E2,3.4645996E2,1.8176318E2,3.1460577E2,5.9162067E2,3.3581555E2,1.3912424E2,7.360156E1,5.1614185E2,1.8134668E2,8.214905E1,6.736426E1,1.3783203E2,2.0223764E2,1.9006421E2,9.0630273E2,1.9117004E2,1.4084708E2,2.6337598E2,1.8938257E2,2.0169043E2,1.0762891E2,3.135044E2,2.2441644E2,3.649685E2,1.8272266E2,1.4116016E2,6.8264465E1,3.7111118E2,1.7391504E2,3.4879123E2,7.885211E1,0E0,1.2114722E2,2.7955933E0,5.5775303E1,0E0,2.3390625E1,1.9459222E2,1.22661285E2,1.501377E2,5.363745E1,0E0,0E0,0E0,0E0,0E0,0E0,0E0,0E0,0E0,0E0,0E0,0E0,0E0,0E0,0E0,0E0,0E0,0E0,0E0,0E0,0E0,0E0,0E0,0E0,0E0,0E0,0E0,0E0,0E0,0E0,0E0,0E0,0E0,0E0,0E0,0E0,0E0,0E0,0E0,0E0,0E0,0E0,0E0,0E0,0E0,0E0,0E0,0E0,0E0,0E0,0E0,0E0,0E0,0E0,0E0,0E0,0E0,0E0,0E0,0E0],"parents":[2147483647,0,0,1,1,2,2,3,3,4,4,5,5,6,6,7,7,8,8,9,9,10,10,11,11,12,12,13,13,14,14,15,15,16,16,17,17,18,18,19,19,20,20,21,21,22,22,23,23,24,24,25,25,26,26,27,27,28,28,29,29,30,30,31,31,32,32,33,33,34,34,35,35,36,36,37,37,38,38,39,39,40,40,41,41,42,42,43,43,44,44,45,45,46,46,47,47,48,48,49,49,50,50,51,51,52,52,54,54,55,55,56,56,58,58,59,59,60,60,61,61,62,62],"right_children":[2,4,6,8,10,12,14,16,18,20,22,24,26,28,30,32,34,36,38,40,42,44,46,48,50,52,54,56,58,60,62,64,66,68,70,72,74,76,78,80,82,84,86,88,90,92,94,96,98,100,102,104,106,-1,108,110,112,-1,114,116,118,120,122,-1,-1,-1,-1,-1,-1,-1,-1,-1,-1,-1,-1,-1,-1,-1,-1,-1,-1,-1,-1,-1,-1,-1,-1,-1,-1,-1,-1,-1,-1,-1,-1,-1,-1,-1,-1,-1,-1,-1,-1,-1,-1,-1,-1,-1,-1,-1,-1,-1,-1,-1,-1,-1,-1,-1,-1,-1,-1,-1,-1],"split_conditions":[7.8E1,5.1115288E1,8.5E1,3.9194965E1,4E1,5.151868E1,4.9669136E1,3.2159065E1,4.8E1,5.8569183E1,6.454779E1,4.384679E1,6.990297E1,4.6E1,8.8E1,4.3E1,1E0,3.4E1,4.6738796E1,9.657148E1,7.1001945E1,4.6E1,7.185381E1,9E1,4.4E1,5.4E1,7.2E1,4.0768654E1,3.1831575E1,7.802353E1,9E1,7.190381E1,2.879968E1,8.728093E1,4.5E1,7.2E1,4.837682E1,5.1894203E1,5.0344147E1,6.2992992E1,5.436231E1,7.2E1,9.757525E1,5.935791E1,5.2404682E1,5.6E1,4.8E1,2.978383E1,9.430445E1,7.970122E1,4.912289E1,8.2E1,5.215626E1,-1.4256732E-1,9.652991E1,3.257718E1,9.502674E1,-8.7902945E-1,7.307434E1,7.2E1,8.8E1,9.915782E1,6.641814E1,-8.1729585E-1,-3.56081E-1,-7.3866796E-1,-4.7570977E-1,-5.195158E-1,-2.6909798E-1,5.0946098E-2,-2.1838441E-1,6.808403E-1,3.3745342E-1,7.0032966E-4,3.6237985E-1,-3.946391E-1,-2.3320286E-2,-9.820808E-3,-3.522168E-1,6.0242534E-1,-2.8346425E-2,6.9239354E-1,1.3548418E0,1.4590468E0,9.8230183E-1,1.6588736E0,8.77473E-1,3.7416866E-1,7.0463455E-1,-9.326254E-2,2.1583414E-1,7.10688E-1,6.443607E-2,1.1303393E0,7.200996E-1,-7.674095E-1,-4.7313482E-1,-3.7814164E-1,-8.622604E-2,-6.599662E-1,7.572736E-2,-4.5678073E-1,-2.1429494E-1,2.1622236E-1,-1.073206E-1,1.7408547E-1,-2.0931716E-1,4.9767604E-1,9.1568273E-1,-3.3382985E-1,-7.629607E-1,-2.4488966E-1,1.8287255E-1,-4.4738436E-1,-6.986497E-1,-5.6208384E-1,-2.2833638E-1,9.787677E-2,7.901704E-1,-4.9278647E-1,-4.0992223E-2,-7.505166E-1,-3.5924238E-1],"split_indices":[2,6,2,6,8,6,6,6,8,6,6,6,6,8,2,8,3,8,6,9,6,8,6,0,8,8,0,6,6,6,2,9,6,9,8,2,6,4,6,4,6,2,9,6,6,8,8,6,9,9,4,2,6,0,9,6,9,0,9,0,0,9,4,0,0,0,0,0,0,0,0,0,0,0,0,0,0,0,0,0,0,0,0,0,0,0,0,0,0,0,0,0,0,0,0,0,0,0,0,0,0,0,0,0,0,0,0,0,0,0,0,0,0,0,0,0,0,0,0,0,0,0,0],"split_type":[0,0,0,0,0,0,0,0,0,0,0,0,0,0,0,0,0,0,0,0,0,0,0,0,0,0,0,0,0,0,0,0,0,0,0,0,0,0,0,0,0,0,0,0,0,0,0,0,0,0,0,0,0,0,0,0,0,0,0,0,0,0,0,0,0,0,0,0,0,0,0,0,0,0,0,0,0,0,0,0,0,0,0,0,0,0,0,0,0,0,0,0,0,0,0,0,0,0,0,0,0,0,0,0,0,0,0,0,0,0,0,0,0,0,0,0,0,0,0,0,0,0,0],"sum_hessian":[3.183E3,1.846E3,1.337E3,1.032E3,8.14E2,7.11E2,6.26E2,3.52E2,6.8E2,2.74E2,5.4E2,3.99E2,3.12E2,3.03E2,3.23E2,1.24E2,2.28E2,5.09E2,1.71E2,1.24E2,1.5E2,3.8E2,1.6E2,2.18E2,1.81E2,2.63E2,4.9E1,1.8E1,2.85E2,1.21E2,2.02E2,6.5E1,5.9E1,1.18E2,1.1E2,1.08E2,4.01E2,9.6E1,7.5E1,9.9E1,2.5E1,1.16E2,3.4E1,1.55E2,2.25E2,9.5E1,6.5E1,1.85E2,3.3E1,5.4E1,1.27E2,1.82E2,8.1E1,6E0,4.3E1,7E0,1.1E1,4E1,2.45E2,1.11E2,1E1,1.52E2,5E1,4E0,6.1E1,2.7E1,3.2E1,3.2E1,8.6E1,5.3E1,5.7E1,2.1E1,8.7E1,3.13E2,8.8E1,7.9E1,1.7E1,6.1E1,1.4E1,9.2E1,7E0,1.4E1,1.1E1,1.5E1,1.01E2,2.8E1,6E0,1.14E2,4.1E1,2.6E1,1.99E2,8.5E1,1E1,3.7E1,2.8E1,2.1E1,1.64E2,1.7E1,1.6E1,7E0,4.7E1,5.3E1,7.4E1,1.39E2,4.3E1,5E0,7.6E1,3.1E1,1.2E1,3E0,4E0,7E0,4E0,1.1E1,2.34E2,2.2E1,8.9E1,6E0,4E0,1.44E2,8E0,4.3E1,7E0],"tree_param":{"num_deleted":"0","num_feature":"10","num_nodes":"123","size_leaf_vector":"1"}},{"base_weights":[2.204792E-2,2.1960576E0,-3.1155713E0,6.144331E-1,7.6307707E0,-4.6625853E0,-6.033477E-1,-1.5863594E0,2.4144495E0,1.0825512E1,6.0176497E0,-3.5251446E0,-5.9966145E0,1.6486835E0,-3.4136474E0,-2.8242536E0,-3.4712237E-1,3.9665096E0,1.0258057E0,9.714773E0,1.6811007E1,4.9478416E0,9.2162485E0,-4.7273116E0,-2.2902553E0,-2.910175E0,-6.2179246E0,1.602451E-1,3.211274E0,-1.656203E0,-4.6161184E0,-2.608395E0,-6.9316773E0,2.6487114E0,-1.1233081E0,5.225547E0,2.7189014E0,-8.6422753E-1,1.4138969E0,4.6134005E0,1.0173717E1,8.3395255E-1,1.7754058E0,5.464074E0,-7.4133223E-1,1.0789703E1,6.958297E0,-6.614398E0,-4.0734406E0,2.0441566E0,-2.5714645E0,-3.9025004E0,2.2165576E-1,-7.0610275E0,-5.652598E0,2.1088316E0,-1.6352983E0,6.907656E-1,4.39527E0,-3.4812353E0,1.0742711E0,-5.2465796E0,-3.0166326E0,-3.818603E-1,-1.8650115E-1,-7.753702E-1,-3.5524827E-1,5.7513016E-1,1.4389484E-1,-4.288184E-2,-2.6481614E-1,1.5639248E-1,5.874759E-1,1.9884998E-1,5.681653E-1,-4.0685716E-1,-4.7071083E-3,2.5014287E-1,5.2194495E-2,6.0614433E-2,7.374849E-1,1.0337381E0,4.5838147E-1,-5.7011056E-1,5.6635493E-1,-2.7950725E-1,1.3765414E-1,5.5978125E-1,1.190962E0,5.568365E-1,8.8024867E-1,-7.0093566E-1,-3.7619084E-1,-3.0165228E-1,-5.635965E-1,-1.9402696E-1,3.3162972E-1,-3.3059856E-1,-1.6444287E-1,-5.292794E-1,-1.555839E-1,-6.2935144E-1,-7.801026E-1,-4.9986646E-1,-6.213467E-1,5.6044614E-1,1.4995672E-1,-3.0115947E-1,2.4628801E-2,-5.7995923E-2,4.241922E-1,1.1983671E-1,5.0426996E-1,1.459587E-1,-4.4605333E-1,-5.6793936E-2,8.442337E-1,-4.554417E-1,-7.910464E-1,1.7173646E-1,-3.5931143E-1],"categories":[],"categories_nodes":[],"categories_segments":[],"categories_sizes":[],"default_left":[0,0,0,0,0,0,0,0,0,0,0,0,0,0,0,0,0,0,0,0,0,0,0,0,0,0,0,0,0,0,0,0,0,0,0,0,0,0,0,0,0,0,0,0,0,0,0,0,0,0,0,0,0,0,0,0,0,0,0,0,0,0,0,0,0,0,0,0,0,0,0,0,0,0,0,0,0,0,0,0,0,0,0,0,0,0,0,0,0,0,0,0,0,0,0,0,0,0,0,0,0,0,0,0,0,0,0,0,0,0,0,0,0,0,0,0,0,0,0,0,0],"id":7,"left_children":[1,3,5,7,9,11,13,15,17,19,21,23,25,27,29,31,33,35,37,39,41,43,45,47,49,51,53,55,57,59,61,63,65,67,69,71,73,75,77,79,81,-1,-1,83,85,87,89,91,93,95,97,99,-1,101,103,105,107,109,111,113,115,117,119,-1,-1,-1,-1,-1,-1,-1,-1,-1,-1,-1,-1,-1,-1,-1,-1,-1,-1,-1,-1,-1,-1,-1,-1,-1,-1,-1,-1,-1,-1,-1,-1,-1,-1,-1,-1,-1,-1,-1,-1,-1,-1,-1,-1,-1,-1,-1,-1,-1,-1,-1,-1,-1,-1,-1,-1,-1,-1],"loss_changes":[2.2032451E4,1.6395035E4,5.134539E3,5.862916E3,2.1491758E3,1.219125E3,3.2018904E3,1.020376E3,1.749813E3,7.847422E2,9.384863E2,6.476089E2,2.3713867E2,6.5270355E2,4.672146E2,2.7621094E2,7.794808E2,5.881792E2,3.1741766E2,2.395586E2,1.7100098E1,6.447749E2,1.7539502E2,2.483833E2,2.746809E2,1.4617816E2,1.2516016E2,5.1081775E2,4.053004E2,4.674184E2,1.1746582E2,2.783982E2,1.5768982E1,2.4998969E2,2.802494E2,4.4173096E2,4.099148E2,1.9316223E2,3.4566138E2,1.2752162E2,5.358789E1,0E0,0E0,4.777202E2,8.663108E1,1.6416113E2,3.1572998E1,3.564502E1,2.6123047E2,7.753462E1,1.357013E2,6.611908E1,0E0,2.6736816E1,4.6308594E1,1.3996872E2,1.978294E2,2.0589075E2,1.8582166E2,2.7776862E2,4.6537894E2,1.3604688E2,1.1552081E2,0E0,0E0,0E0,0E0,0E0,0E0,0E0,0E0,0E0,0E0,0E0,0E0,0E0,0E0,0E0,0E0,0E0,0E0,0E0,0E0,0E0,0E0,0E0,0E0,0E0,0E0,0E0,0E0,0E0,0E0,0E0,0E0,0E0,0E0,0E0,0E0,0E0,0E0,0E0,0E0,0E0,0E0,0E0,0E0,0E0,0E0,0E0,0E0,0E0,0E0,0E0,0E0,0E0,0E0,0E0,0E0,0E0,0E0],"parents":[2147483647,0,0,1,1,2,2,3,3,4,4,5,5,6,6,7,7,8,8,9,9,10,10,11,11,12,12,13,13,14,14,15,15,16,16,17,17,18,18,19,19,20,20,21,21,22,22,23,23,24,24,25,25,26,26,27,27,28,28,29,29,30,30,31,31,32,32,33,33,34,34,35,35,36,36,37,37,38,38,39,39,40,40,43,43,44,44,45,45,46,46,47,47,48,48,49,49,50,50,51,51,53,53,54,54,55,55,56,56,57,57,58,58,59,59,60,60,61,61,62,62],"right_children":[2,4,6,8,10,12,14,16,18,20,22,24,26,28,30,32,34,36,38,40,42,44,46,48,50,52,54,56,58,60,62,64,66,68,70,72,74,76,78,80,82,-1,-1,84,86,88,90,92,94,96,98,100,-1,102,104,106,108,110,112,114,116,118,120,-1,-1,-1,-1,-1,-1,-1,-1,-1,-1,-1,-1,-1,-1,-1,-1,-1,-1,-1,-1,-1,-1,-1,-1,-1,-1,-1,-1,-1,-1,-1,-1,-1,-1,-1,-1,-1,-1,-1,-1,-1,-1,-1,-1,-1,-1,-1,-1,-1,-1,-1,-1,-1,-1,-1,-1,-1,-1],"split_conditions":[7.8E1,5.8907158E1,5.3639153E1,4.5108223E1,4E1,8.5E1,8.5E1,3.8488644E1,4.3E1,7.318825E1,7.185381E1,4.384679E1,4.6E1,4.5915386E-1,8.8E1,5.5E1,3.5E1,7.5E1,4.70885E1,6.018861E1,4.5843098E-1,5.6E1,4.8E1,3.410978E1,3.7E1,8.8E1,4.1125267E1,4.8E1,7.5E1,6.2966373E1,6.568181E1,3.1831575E1,9.40013E1,7.2E1,4.8E1,6.7135414E1,5.4725346E1,7.355489E1,5E1,6.0879826E1,9.538812E1,8.3395255E-1,1.7754058E0,3.7092617E-1,7.457542E1,7.33794E1,5.284329E-1,3.416642E-1,3.6237115E-1,7.079756E1,4.0685537E-1,4.234767E-1,2.2165576E-1,6E1,3.8365492E-1,3.9064062E-1,5.8907158E1,7.185381E1,6.0879826E1,6.6638245E1,9.185162E1,4.8677668E-1,6.635698E1,-3.818603E-1,-1.8650115E-1,-7.753702E-1,-3.5524827E-1,5.7513016E-1,1.4389484E-1,-4.288184E-2,-2.6481614E-1,1.5639248E-1,5.874759E-1,1.9884998E-1,5.681653E-1,-4.0685716E-1,-4.7071083E-3,2.5014287E-1,5.2194495E-2,6.0614433E-2,7.374849E-1,1.0337381E0,4.5838147E-1,-5.7011056E-1,5.6635493E-1,-2.7950725E-1,1.3765414E-1,5.5978125E-1,1.190962E0,5.568365E-1,8.8024867E-1,-7.0093566E-1,-3.7619084E-1,-3.0165228E-1,-5.635965E-1,-1.9402696E-1,3.3162972E-1,-3.3059856E-1,-1.6444287E-1,-5.292794E-1,-1.555839E-1,-6.2935144E-1,-7.801026E-1,-4.9986646E-1,-6.213467E-1,5.6044614E-1,1.4995672E-1,-3.0115947E-1,2.4628801E-2,-5.7995923E-2,4.241922E-1,1.1983671E-1,5.0426996E-1,1.459587E-1,-4.4605333E-1,-5.6793936E-2,8.442337E-1,-4.554417E-1,-7.910464E-1,1.7173646E-1,-3.5931143E-1],"split_indices":[2,6,6,6,8,2,2,6,8,6,6,6,8,5,2,8,8,2,6,7,5,8,8,6,8,1,6,8,1,6,6,6,7,2,8,7,6,7,8,6,7,0,0,5,7,7,5,5,5,7,5,5,0,8,5,5,6,6,6,7,7,5,6,0,0,0,0,0,0,0,0,0,0,0,0,0,0,0,0,0,0,0,0,0,0,0,0,0,0,0,0,0,0,0,0,0,0,0,0,0,0,0,0,0,0,0,0,0,0,0,0,0,0,0,0,0,0,0,0,0,0],"split_type":[0,0,0,0,0,0,0,0,0,0,0,0,0,0,0,0,0,0,0,0,0,0,0,0,0,0,0,0,0,0,0,0,0,0,0,0,0,0,0,0,0,0,0,0,0,0,0,0,0,0,0,0,0,0,0,0,0,0,0,0,0,0,0,0,0,0,0,0,0,0,0,0,0,0,0,0,0,0,0,0,0,0,0,0,0,0,0,0,0,0,0,0,0,0,0,0,0,0,0,0,0,0,0,0,0,0,0,0,0,0,0,0,0,0,0,0,0,0,0,0,0],"sum_hessian":[3.228E3,1.907E3,1.321E3,1.478E3,4.29E2,8.17E2,5.04E2,6.65E2,8.13E2,1.42E2,2.87E2,4.43E2,3.74E2,2.8E2,2.24E2,3.32E2,3.33E2,3.83E2,4.3E2,1.22E2,2E1,2.17E2,7E1,2.23E2,2.2E2,2.6E1,3.48E2,1.44E2,1.36E2,9.2E1,1.32E2,3.17E2,1.5E1,6.8E1,2.65E2,1.89E2,1.94E2,7.3E1,3.57E2,1.1E1,1.11E2,3E0,1.7E1,1.99E2,1.8E1,3.9E1,3.1E1,5.5E1,1.68E2,1.3E1,2.07E2,2.2E1,4E0,1.35E2,2.13E2,6.9E1,7.5E1,4.4E1,9.2E1,5.5E1,3.7E1,9.3E1,3.9E1,1.19E2,1.98E2,1.1E1,4E0,1.8E1,5E1,1.83E2,8.2E1,2.9E1,1.6E2,1.57E2,3.7E1,1.4E1,5.9E1,1.6E2,1.97E2,5E0,6E0,1.07E2,4E0,3E0,1.96E2,9E0,9E0,8E0,3.1E1,2E1,1.1E1,4.7E1,8E0,1.02E2,6.6E1,3E0,1E1,1.14E2,9.3E1,1.3E1,9E0,7.1E1,6.4E1,1.03E2,1.1E2,9E0,6E1,4.3E1,3.2E1,3.3E1,1.1E1,1.6E1,7.6E1,9E0,4.6E1,3.1E1,6E0,7.6E1,1.7E1,4E0,3.5E1],"tree_param":{"num_deleted":"0","num_feature":"10","num_nodes":"121","size_leaf_vector":"1"}},{"base_weights":[4.370908E-2,2.0554364E0,-2.8094633E0,-5.222397E-1,5.00164E0,-1.3110559E0,-4.640163E0,-2.500104E0,5.2110904E-1,3.0762165E0,6.950583E0,-3.180427E0,1.0307908E0,-5.477873E0,-3.2586424E0,-2.8895016E0,4.126243E-1,1.8067169E0,-7.088557E-1,4.98971E0,1.5279851E0,8.072675E0,3.611523E0,-4.0798597E0,-2.0243473E0,-2.0379789E-1,3.1077948E0,-2.8928113E0,-5.6877093E0,-1.5510496E0,-4.2932167E0,-4.21565E0,-2.1823034E0,-4.5045948E-1,8.7495357E-1,4.3275776E0,1.3195686E0,-3.2031841E0,-8.229986E-2,5.3858E0,-1.0840302E0,2.7774622E0,4.7784615E-1,1.1473742E1,7.2332797E0,1.8664968E0,5.897256E0,-2.9468803E0,-4.644929E0,-2.196838E0,6.1325765E-1,1.7022867E0,-8.758552E-1,4.310946E0,-4.0766054E-1,-6.1427054E0,-1.4272723E0,-5.7371716E0,-1.1766385E-1,1.9663646E0,-2.3613968E0,-5.055863E0,-3.0299413E0,-2.776815E-1,-5.313081E-1,4.8286006E-2,-2.5429E-1,-2.3042277E-1,1.6168873E-1,2.3312502E-1,6.555325E-1,5.2787155E-2,2.7269068E-1,-4.331278E-1,-2.7419532E-2,2.8589977E-2,-2.9572034E-1,1.2113193E0,5.095317E-1,-6.341433E-1,2.982026E-1,3.3586416E-1,-4.7090966E-2,-2.6425385E-1,9.770789E-2,1.0052391E0,1.7991663E0,6.549785E-1,9.905097E-1,5.443823E-1,4.8403095E-2,8.705837E-1,4.217783E-1,-7.3475844E-1,-2.4831569E-1,-4.2228055E-1,-6.2716967E-1,-3.9491308E-1,-1.5372434E-1,4.9226567E-1,8.562333E-2,1.3138376E-2,-1.6843687E-1,1.239862E-1,5.270714E-1,-1.6650373E-1,2.9795286E-1,-2.690966E-1,-7.4034137E-1,7.4986346E-2,-2.9998943E-1,-6.312147E-1,-5.3055036E-1,4.646512E-1,7.2964877E-3,-3.013449E-1,2.5266862E-1,-3.4184775E-1,-5.773292E-1,-3.3970603E-1,5.7889212E-2],"categories":[],"categories_nodes":[],"categories_segments":[],"categories_sizes":[],"default_left":[0,0,0,0,0,0,0,0,0,0,0,0,0,0,0,0,0,0,0,0,0,0,0,0,0,0,0,0,0,0,0,0,0,0,0,0,0,0,0,0,0,0,0,0,0,0,0,0,0,0,0,0,0,0,0,0,0,0,0,0,0,0,0,0,0,0,0,0,0,0,0,0,0,0,0,0,0,0,0,0,0,0,0,0,0,0,0,0,0,0,0,0,0,0,0,0,0,0,0,0,0,0,0,0,0,0,0,0,0,0,0,0,0,0,0,0,0,0,0,0,0],"id":8,"left_children":[1,3,5,7,9,11,13,15,17,19,21,23,25,27,29,31,33,35,37,39,41,43,45,47,49,51,53,55,57,59,61,63,65,67,-1,69,71,73,75,77,79,81,83,85,87,89,91,93,95,97,-1,99,101,103,105,107,109,111,-1,113,115,117,119,-1,-1,-1,-1,-1,-1,-1,-1,-1,-1,-1,-1,-1,-1,-1,-1,-1,-1,-1,-1,-1,-1,-1,-1,-1,-1,-1,-1,-1,-1,-1,-1,-1,-1,-1,-1,-1,-1,-1,-1,-1,-1,-1,-1,-1,-1,-1,-1,-1,-1,-1,-1,-1,-1,-1,-1,-1,-1],"loss_changes":[1.8516568E4,1.4371584E4,3.652662E3,2.085739E3,3.2911094E3,3.2211626E3,6.7566406E2,3.9727905E2,1.0481796E3,1.3130127E3,1.6107461E3,4.1641504E2,8.3943207E2,1.8447656E2,3.973152E2,2.790183E2,3.0698022E2,3.9160742E2,5.2920935E2,4.850122E2,3.2375415E2,8.486699E2,4.3494666E2,1.3216138E2,2.677445E2,2.6529395E2,5.1816187E2,1.3336108E2,6.90918E1,2.5551158E2,1.2067969E2,1.5181396E2,1.965268E2,1.532573E2,0E0,2.1508948E2,3.024077E2,2.2303564E2,2.8903506E2,3.0199365E2,2.971459E2,2.1520154E2,2.1427599E2,3.9998438E2,4.174131E2,3.1823172E2,1.8840125E2,1.419878E2,7.615747E1,1.991134E2,0E0,1.4233583E2,1.2497462E2,2.6103906E2,1.411167E2,1.8233002E1,7.779837E1,4.948828E1,0E0,8.545706E1,2.3714731E2,8.154468E1,7.644104E1,0E0,0E0,0E0,0E0,0E0,0E0,0E0,0E0,0E0,0E0,0E0,0E0,0E0,0E0,0E0,0E0,0E0,0E0,0E0,0E0,0E0,0E0,0E0,0E0,0E0,0E0,0E0,0E0,0E0,0E0,0E0,0E0,0E0,0E0,0E0,0E0,0E0,0E0,0E0,0E0,0E0,0E0,0E0,0E0,0E0,0E0,0E0,0E0,0E0,0E0,0E0,0E0,0E0,0E0,0E0,0E0,0E0,0E0],"parents":[2147483647,0,0,1,1,2,2,3,3,4,4,5,5,6,6,7,7,8,8,9,9,10,10,11,11,12,12,13,13,14,14,15,15,16,16,17,17,18,18,19,19,20,20,21,21,22,22,23,23,24,24,25,25,26,26,27,27,28,28,29,29,30,30,31,31,32,32,33,33,35,35,36,36,37,37,38,38,39,39,40,40,41,41,42,42,43,43,44,44,45,45,46,46,47,47,48,48,49,49,51,51,52,52,53,53,54,54,55,55,56,56,57,57,59,59,60,60,61,61,62,62],"right_children":[2,4,6,8,10,12,14,16,18,20,22,24,26,28,30,32,34,36,38,40,42,44,46,48,50,52,54,56,58,60,62,64,66,68,-1,70,72,74,76,78,80,82,84,86,88,90,92,94,96,98,-1,100,102,104,106,108,110,112,-1,114,116,118,120,-1,-1,-1,-1,-1,-1,-1,-1,-1,-1,-1,-1,-1,-1,-1,-1,-1,-1,-1,-1,-1,-1,-1,-1,-1,-1,-1,-1,-1,-1,-1,-1,-1,-1,-1,-1,-1,-1,-1,-1,-1,-1,-1,-1,-1,-1,-1,-1,-1,-1,-1,-1,-1,-1,-1,-1,-1,-1],"split_conditions":[7.8E1,5.072711E1,8.5E1,3.9194965E1,5.8907158E1,5.151868E1,5.3738987E1,9.2E1,4.3E1,4.3E1,4.8E1,4.384679E1,5.836535E1,4.6E1,8.8E1,3.2159065E1,9.883279E1,7.2E1,8.5097176E1,9.5734436E1,4.8E1,3.4E1,6.731101E1,4.4E1,9.5E1,4.4E1,5.7E1,4.0981316E1,9.76071E1,7.012404E1,9.303182E1,4.3E1,6.4709274E1,3.6386066E1,8.7495357E-1,9.449975E1,4.6973694E1,4.76696E1,5.6E1,3E1,8.767288E1,5.760034E1,6.3941357E1,7.318825E1,7.213068E1,7.5E1,8.842568E1,5.3433636E1,4.893552E1,8.7143974E1,6.1325765E-1,4.893552E1,8.088415E1,6.1284283E1,7.435832E1,3.257718E1,4.6973694E1,4.137688E1,-1.1766385E-1,1E0,7.550403E1,5.38272E1,6.964388E1,-2.776815E-1,-5.313081E-1,4.8286006E-2,-2.5429E-1,-2.3042277E-1,1.6168873E-1,2.3312502E-1,6.555325E-1,5.2787155E-2,2.7269068E-1,-4.331278E-1,-2.7419532E-2,2.8589977E-2,-2.9572034E-1,1.2113193E0,5.095317E-1,-6.341433E-1,2.982026E-1,3.3586416E-1,-4.7090966E-2,-2.6425385E-1,9.770789E-2,1.0052391E0,1.7991663E0,6.549785E-1,9.905097E-1,5.443823E-1,4.8403095E-2,8.705837E-1,4.217783E-1,-7.3475844E-1,-2.4831569E-1,-4.2228055E-1,-6.2716967E-1,-3.9491308E-1,-1.5372434E-1,4.9226567E-1,8.562333E-2,1.3138376E-2,-1.6843687E-1,1.239862E-1,5.270714E-1,-1.6650373E-1,2.9795286E-1,-2.690966E-1,-7.4034137E-1,7.4986346E-2,-2.9998943E-1,-6.312147E-1,-5.3055036E-1,4.646512E-1,7.2964877E-3,-3.013449E-1,2.5266862E-1,-3.4184775E-1,-5.773292E-1,-3.3970603E-1,5.7889212E-2],"split_indices":[2,6,2,6,6,6,6,0,8,8,8,6,4,8,2,6,9,2,9,7,8,8,6,8,0,8,8,6,7,7,9,8,7,4,0,9,6,6,8,8,9,6,7,6,6,2,9,7,4,9,0,4,7,6,6,6,6,6,0,3,6,4,4,0,0,0,0,0,0,0,0,0,0,0,0,0,0,0,0,0,0,0,0,0,0,0,0,0,0,0,0,0,0,0,0,0,0,0,0,0,0,0,0,0,0,0,0,0,0,0,0,0,0,0,0,0,0,0,0,0,0],"split_type":[0,0,0,0,0,0,0,0,0,0,0,0,0,0,0,0,0,0,0,0,0,0,0,0,0,0,0,0,0,0,0,0,0,0,0,0,0,0,0,0,0,0,0,0,0,0,0,0,0,0,0,0,0,0,0,0,0,0,0,0,0,0,0,0,0,0,0,0,0,0,0,0,0,0,0,0,0,0,0,0,0,0,0,0,0,0,0,0,0,0,0,0,0,0,0,0,0,0,0,0,0,0,0,0,0,0,0,0,0,0,0,0,0,0,0,0,0,0,0,0,0],"sum_hessian":[3.224E3,1.891E3,1.333E3,1.009E3,8.82E2,7.34E2,5.99E2,3.48E2,6.61E2,4.45E2,4.37E2,4.08E2,3.26E2,3.71E2,2.28E2,3.07E2,4.1E1,3.23E2,3.38E2,1.98E2,2.47E2,3.26E2,1.11E2,2.28E2,1.8E2,2.05E2,1.21E2,2.9E1,3.42E2,8.7E1,1.41E2,1.05E2,2.02E2,3.8E1,3E0,5.1E1,2.72E2,6.7E1,2.71E2,1.86E2,1.2E1,1.12E2,1.35E2,6.2E1,2.64E2,6.4E1,4.7E1,7.8E1,1.5E2,1.77E2,3E0,5.3E1,1.52E2,9E1,3.1E1,8E0,2.1E1,3.38E2,4E0,1.6E1,7.1E1,8.6E1,5.5E1,4.7E1,5.8E1,2.4E1,1.78E2,2E1,1.8E1,2.8E1,2.3E1,1.75E2,9.7E1,4.8E1,1.9E1,2.41E2,3E1,6E0,1.8E2,5E0,7E0,9.5E1,1.7E1,1.8E1,1.17E2,5.3E1,9E0,2.13E2,5.1E1,1.7E1,4.7E1,1.6E1,3.1E1,6E0,7.2E1,1.22E2,2.8E1,4.7E1,1.3E2,1E1,4.3E1,6.8E1,8.4E1,2.2E1,6.8E1,2.3E1,8E0,3E0,5E0,9E0,1.2E1,1.39E2,1.99E2,6E0,1E1,6.3E1,8E0,2.8E1,5.8E1,5E1,5E0],"tree_param":{"num_deleted":"0","num_feature":"10","num_nodes":"121","size_leaf_vector":"1"}},{"base_weights":[-1.2505299E-2,1.8049983E0,-2.6248863E0,-4.9902782E-1,4.670624E0,-1.2029438E0,-4.3213964E0,-2.2672837E0,6.917838E-1,3.2712333E0,7.0310984E0,-2.4370599E0,1.7245526E0,-4.677084E0,-1.9674994E0,9.363518E-1,-2.6165855E0,2.83232E0,3.76918E-2,5.556435E0,2.1890934E0,7.919084E0,2.557148E0,-1.0138562E0,-3.0935485E0,7.348888E-1,4.6777916E0,-2.0379593E0,-4.881987E0,1.2694631E-2,-3.2899764E0,6.556414E-2,9.1674435E-1,-4.3820086E0,-1.9415109E0,5.343258E-1,3.4211605E0,1.1093341E0,-6.7652005E-1,1.1092466E0,6.2487373E0,2.6593103E0,3.3448058E-1,1.2955976E1,7.3728786E0,-2.2648406E-1,3.4699905E0,-4.1472545E0,2.9530387E-2,-4.0143847E0,-2.014627E0,2.0084813E0,-1.2053199E0,6.934045E-1,5.5859423E0,-6.483406E-1,-8.597866E-1,-5.342444E0,-4.2010236E0,-1.0588133E0,6.244902E-1,-3.7354321E0,2.5188953E-1,-1.7109583E-1,1.13285504E-1,-5.1600784E-1,-3.3264756E-1,-2.9860523E-1,-9.195311E-2,-1.3751371E-1,2.6694286E-1,1.2958813E-1,4.2493334E-1,-6.039945E-2,2.1897605E-1,-2.7694607E-1,-1.4765829E-2,-3.6391047E-1,2.245872E-1,9.615836E-1,5.5729955E-1,1.7957084E-1,3.6876935E-1,4.6832752E-1,-2.6208958E-2,1.0424953E0,1.6004908E0,6.9188905E-1,1.1686622E0,3.443036E-1,-2.658777E-1,2.6464674E-1,5.391418E-1,-3.339092E-1,-6.5488034E-1,-1.229136E-1,1.030096E-1,-3.827156E-1,-7.6425195E-1,-1.6937616E-1,-6.197825E-1,4.1920772E-1,4.6620008E-2,1.108583E-1,-1.7083673E-1,-6.803571E-2,3.2925764E-1,3.4357643E-1,7.6701397E-1,-2.5247726E-1,4.0703375E-2,-5.66554E-1,-4.7848254E-1,7.814892E-3,-4.2901722E-1,1.5616298E-1,-3.2917753E-1,6.418278E-2,-4.1805753E-1],"categories":[],"categories_nodes":[],"categories_segments":[],"categories_sizes":[],"default_left":[0,0,0,0,0,0,0,0,0,0,0,0,0,0,0,0,0,0,0,0,0,0,0,0,0,0,0,0,0,0,0,0,0,0,0,0,0,0,0,0,0,0,0,0,0,0,0,0,0,0,0,0,0,0,0,0,0,0,0,0,0,0,0,0,0,0,0,0,0,0,0,0,0,0,0,0,0,0,0,0,0,0,0,0,0,0,0,0,0,0,0,0,0,0,0,0,0,0,0,0,0,0,0,0,0,0,0,0,0,0,0,0,0,0,0,0,0,0,0],"id":9,"left_children":[1,3,5,7,9,11,13,15,17,19,21,23,25,27,29,31,33,35,37,39,41,43,45,47,49,51,53,55,57,59,61,63,-1,65,67,69,71,73,75,77,79,81,83,85,87,89,91,93,95,97,99,101,103,105,107,-1,109,111,113,115,-1,117,-1,-1,-1,-1,-1,-1,-1,-1,-1,-1,-1,-1,-1,-1,-1,-1,-1,-1,-1,-1,-1,-1,-1,-1,-1,-1,-1,-1,-1,-1,-1,-1,-1,-1,-1,-1,-1,-1,-1,-1,-1,-1,-1,-1,-1,-1,-1,-1,-1,-1,-1,-1,-1,-1,-1,-1,-1],"loss_changes":[1.5136734E4,1.2415402E4,3.1495898E3,2.197929E3,2.7440723E3,2.580251E3,4.8913574E2,4.7261304E2,8.732735E2,1.2927578E3,1.2142432E3,4.6547974E2,6.1563635E2,2.6893457E2,2.0987039E2,2.99512E2,4.4254907E2,1.9533643E2,3.6741064E2,5.126494E2,3.1275647E2,6.14999E2,1.3578421E2,5.236295E2,3.320835E2,3.9786682E2,1.8727527E2,1.97954E2,1.26793945E2,2.2750014E2,1.3373535E2,7.582704E1,0E0,6.7399414E1,2.914939E2,1.3018414E2,1.9811023E2,3.5689722E2,3.1807974E2,1.3756396E2,2.7708447E2,2.4771814E2,1.9365227E2,1.57126465E1,3.7946094E2,1.3403073E2,4.822162E1,5.4777832E1,1.53631E2,9.4593506E1,2.0347217E2,3.2424847E2,7.645005E1,4.177842E1,1.6523657E2,0E0,6.8735054E1,2.2652832E1,7.6289795E1,1.7500269E2,0E0,9.071997E1,0E0,0E0,0E0,0E0,0E0,0E0,0E0,0E0,0E0,0E0,0E0,0E0,0E0,0E0,0E0,0E0,0E0,0E0,0E0,0E0,0E0,0E0,0E0,0E0,0E0,0E0,0E0,0E0,0E0,0E0,0E0,0E0,0E0,0E0,0E0,0E0,0E0,0E0,0E0,0E0,0E0,0E0,0E0,0E0,0E0,0E0,0E0,0E0,0E0,0E0,0E0,0E0,0E0,0E0,0E0,0E0,0E0],"parents":[2147483647,0,0,1,1,2,2,3,3,4,4,5,5,6,6,7,7,8,8,9,9,10,10,11,11,12,12,13,13,14,14,15,15,16,16,17,17,18,18,19,19,20,20,21,21,22,22,23,23,24,24,25,25,26,26,27,27,28,28,29,29,30,30,31,31,33,33,34,34,35,35,36,36,37,37,38,38,39,39,40,40,41,41,42,42,43,43,44,44,45,45,46,46,47,47,48,48,49,49,50,50,51,51,52,52,53,53,54,54,56,56,57,57,58,58,59,59,61,61],"right_children":[2,4,6,8,10,12,14,16,18,20,22,24,26,28,30,32,34,36,38,40,42,44,46,48,50,52,54,56,58,60,62,64,-1,66,68,70,72,74,76,78,80,82,84,86,88,90,92,94,96,98,100,102,104,106,108,-1,110,112,114,116,-1,118,-1,-1,-1,-1,-1,-1,-1,-1,-1,-1,-1,-1,-1,-1,-1,-1,-1,-1,-1,-1,-1,-1,-1,-1,-1,-1,-1,-1,-1,-1,-1,-1,-1,-1,-1,-1,-1,-1,-1,-1,-1,-1,-1,-1,-1,-1,-1,-1,-1,-1,-1,-1,-1,-1,-1,-1,-1],"split_conditions":[7.8E1,5.1115288E1,8.5E1,4.0395958E1,6.23291E1,5.6363888E1,6.40634E1,3.2E1,3.6E1,4E1,5.2E1,4.4E1,6.990297E1,4.6E1,8.8E1,9.842308E1,3.1831575E1,4.3169712E1,7.5E1,7.889028E1,5.3E1,3.2E1,6.423362E1,3.865551E1,4.6532066E1,5.2E1,7.2E1,4.0981316E1,4.9669136E1,9.185162E1,8.8E1,3.2159065E1,9.1674435E-1,1E0,1E0,1E0,7.186252E1,8.95672E1,8.5097176E1,6.1776062E1,7.2E1,5.6363888E1,7.6147385E1,7.318825E1,7.978163E1,7.5E1,7.372663E1,9.692074E1,9.2567154E1,4.5961567E1,9E1,8.0579346E1,7.2E1,9.622076E1,1E0,-6.483406E-1,1E0,9.444276E1,4.9968014E1,7.8860054E1,6.244902E-1,7.2E1,2.5188953E-1,-1.7109583E-1,1.13285504E-1,-5.1600784E-1,-3.3264756E-1,-2.9860523E-1,-9.195311E-2,-1.3751371E-1,2.6694286E-1,1.2958813E-1,4.2493334E-1,-6.039945E-2,2.1897605E-1,-2.7694607E-1,-1.4765829E-2,-3.6391047E-1,2.245872E-1,9.615836E-1,5.5729955E-1,1.7957084E-1,3.6876935E-1,4.6832752E-1,-2.6208958E-2,1.0424953E0,1.6004908E0,6.9188905E-1,1.1686622E0,3.443036E-1,-2.658777E-1,2.6464674E-1,5.391418E-1,-3.339092E-1,-6.5488034E-1,-1.229136E-1,1.030096E-1,-3.827156E-1,-7.6425195E-1,-1.6937616E-1,-6.197825E-1,4.1920772E-1,4.6620008E-2,1.108583E-1,-1.7083673E-1,-6.803571E-2,3.2925764E-1,3.4357643E-1,7.6701397E-1,-2.5247726E-1,4.0703375E-2,-5.66554E-1,-4.7848254E-1,7.814892E-3,-4.2901722E-1,1.5616298E-1,-3.2917753E-1,6.418278E-2,-4.1805753E-1],"split_indices":[2,6,2,6,6,6,6,8,8,8,8,8,6,8,2,9,6,6,2,9,8,8,6,6,6,8,0,6,6,7,1,6,0,3,3,3,7,9,9,7,2,6,9,6,6,2,6,9,9,6,1,7,1,9,3,0,3,9,6,7,0,1,0,0,0,0,0,0,0,0,0,0,0,0,0,0,0,0,0,0,0,0,0,0,0,0,0,0,0,0,0,0,0,0,0,0,0,0,0,0,0,0,0,0,0,0,0,0,0,0,0,0,0,0,0,0,0,0,0],"split_type":[0,0,0,0,0,0,0,0,0,0,0,0,0,0,0,0,0,0,0,0,0,0,0,0,0,0,0,0,0,0,0,0,0,0,0,0,0,0,0,0,0,0,0,0,0,0,0,0,0,0,0,0,0,0,0,0,0,0,0,0,0,0,0,0,0,0,0,0,0,0,0,0,0,0,0,0,0,0,0,0,0,0,0,0,0,0,0,0,0,0,0,0,0,0,0,0,0,0,0,0,0,0,0,0,0,0,0,0,0,0,0,0,0,0,0,0,0,0,0],"sum_hessian":[3.186E3,1.879E3,1.307E3,1.042E3,8.37E2,7.12E2,5.95E2,4.19E2,6.23E2,5.27E2,3.1E2,5.01E2,2.11E2,5.16E2,7.9E1,4.1E1,3.78E2,1.45E2,4.78E2,1.68E2,3.59E2,2.58E2,5.2E1,1.59E2,3.42E2,1.59E2,5.2E1,3.8E1,4.78E2,3.2E1,4.7E1,3.8E1,3E0,1.03E2,2.75E2,3E1,1.15E2,1.91E2,2.87E2,2.3E1,1.45E2,2.86E2,7.3E1,2.3E1,2.35E2,1.3E1,3.9E1,3.9E1,1.2E2,1.83E2,1.59E2,9.6E1,6.3E1,1E1,4.2E1,7E0,3.1E1,2.81E2,1.97E2,2.8E1,4E0,4.4E1,3E0,1.4E1,2.4E1,5.7E1,4.6E1,1.35E2,1.4E2,1.6E1,1.4E1,3.3E1,8.2E1,7.4E1,1.17E2,5.7E1,2.3E2,4E0,1.9E1,2.2E1,1.23E2,1.57E2,1.29E2,8E0,6.5E1,1.5E1,8E0,2.15E2,2E1,5E0,8E0,2.9E1,1E1,3.1E1,8E0,5.3E1,6.7E1,1.76E2,7E0,1.49E2,1E1,3.9E1,5.7E1,1.1E1,5.2E1,7E0,3E0,2.2E1,2E1,1.3E1,1.8E1,1.72E2,1.09E2,4E0,1.93E2,1.3E1,1.5E1,4E0,4E1],"tree_param":{"num_deleted":"0","num_feature":"10","num_nodes":"119","size_leaf_vector":"1"}},{"base_weights":[5.667032E-2,-1.2248316E0,2.5459418E0,4.465501E-1,-2.4995973E0,5.417582E0,3.0491838E-1,-1.4795673E0,1.4959726E0,-1.8872434E0,-4.66455E0,5.05413E0,1.2617552E1,1.0788857E0,-2.5930133E0,-3.0560417E0,-6.7281234E-1,3.01732E0,7.2538084E-1,-1.2895215E0,-3.735091E0,-5.1153893E0,-3.6167982E0,8.819765E0,4.530265E0,4.1610008E-1,1.3728533E0,2.174435E0,-1.9739313E0,-3.1970358E0,8.2355976E-1,-1.7924255E0,-3.7715156E0,-2.4737883E0,-2.0213147E-1,-2.554605E0,3.236573E0,-4.4770163E-1,1.4899479E0,-2.3279476E0,1.257541E-1,-3.9779005E0,-1.0302575E0,-5.1625495E0,-1.7247173E-1,-1.1505344E0,-4.2908955E0,9.2383375E0,1.2530237E-1,5.3187814E0,3.3234787E0,8.6247027E-1,3.597151E0,-2.9487047E0,-6.4243317E-1,-3.4304097E0,2.3232222E-1,2.4683745E0,-4.58456E-1,-5.3038675E-2,-4.7898206E-1,-5.559339E-1,-2.2969972E-1,2.012126E-1,-3.2376727E-1,1.3025396E-1,-1.1469519E-1,1.22070186E-1,-5.08393E-1,6.616595E-1,2.8438E-1,-1.7794894E-1,6.1254043E-2,2.0942695E-1,-7.3170685E-3,-2.5443736E-1,2.4610113E-1,-1.6087806E-1,6.265648E-2,-5.8599174E-1,-3.6377972E-1,7.458686E-2,-4.449616E-1,-5.328747E-1,-4.0381643E-1,1.8839519E-1,-2.3759905E-1,-4.5199114E-1,-6.645268E-2,6.490335E-1,1.0664016E0,7.9034466E-1,4.5026943E-1,4.4182667E-1,5.9519526E-2,-9.934711E-2,1.5024899E-1,3.8878545E-1,9.380357E-3,1.8159014E-1,-3.4039816E-1,3.3611962E-1,-1.7220043E-1,-2.0229259E-1,-4.0745154E-1,4.5794168E-1,-8.857394E-2],"categories":[],"categories_nodes":[],"categories_segments":[],"categories_sizes":[],"default_left":[0,0,0,0,0,0,0,0,0,0,0,0,0,0,0,0,0,0,0,0,0,0,0,0,0,0,0,0,0,0,0,0,0,0,0,0,0,0,0,0,0,0,0,0,0,0,0,0,0,0,0,0,0,0,0,0,0,0,0,0,0,0,0,0,0,0,0,0,0,0,0,0,0,0,0,0,0,0,0,0,0,0,0,0,0,0,0,0,0,0,0,0,0,0,0,0,0,0,0,0,0,0,0,0,0,0,0],"id":10,"left_children":[1,3,5,7,9,11,13,15,17,19,21,23,25,27,29,31,33,35,37,39,41,43,45,47,49,-1,-1,51,53,55,57,59,61,63,65,67,69,71,73,75,77,79,81,83,-1,85,87,89,-1,91,93,95,97,99,101,103,-1,105,-1,-1,-1,-1,-1,-1,-1,-1,-1,-1,-1,-1,-1,-1,-1,-1,-1,-1,-1,-1,-1,-1,-1,-1,-1,-1,-1,-1,-1,-1,-1,-1,-1,-1,-1,-1,-1,-1,-1,-1,-1,-1,-1,-1,-1,-1,-1,-1,-1],"loss_changes":[1.010919E4,4.458578E3,6.928715E3,1.8335228E3,1.564169E3,1.1696133E3,1.3618462E3,4.0455615E2,6.8559924E2,1.01855225E3,1.03913574E2,8.4838965E2,1.4777808E2,1.6063333E3,2.6702228E2,9.0324524E1,1.7978926E2,2.4900378E2,3.514593E2,1.0322136E3,1.4382861E2,1.9189453E1,1.3084424E2,1.5840527E2,3.6018457E2,0E0,0E0,6.553447E2,1.6258102E2,1.4850317E2,1.8901189E2,1.520235E2,1.6570465E2,1.5741284E2,2.4315785E2,8.29841E1,2.3247815E2,2.200694E2,2.2423181E2,4.2603442E2,2.5977448E2,1.1022949E2,1.2515344E2,1.0621094E1,0E0,7.517941E1,4.962964E1,1.2887744E2,0E0,4.6729785E2,4.7477185E2,2.212938E2,1.7135254E2,1.6469269E2,2.4334521E2,8.633765E1,0E0,1.1771638E2,0E0,0E0,0E0,0E0,0E0,0E0,0E0,0E0,0E0,0E0,0E0,0E0,0E0,0E0,0E0,0E0,0E0,0E0,0E0,0E0,0E0,0E0,0E0,0E0,0E0,0E0,0E0,0E0,0E0,0E0,0E0,0E0,0E0,0E0,0E0,0E0,0E0,0E0,0E0,0E0,0E0,0E0,0E0,0E0,0E0,0E0,0E0,0E0,0E0],"parents":[2147483647,0,0,1,1,2,2,3,3,4,4,5,5,6,6,7,7,8,8,9,9,10,10,11,11,12,12,13,13,14,14,15,15,16,16,17,17,18,18,19,19,20,20,21,21,22,22,23,23,24,24,27,27,28,28,29,29,30,30,31,31,32,32,33,33,34,34,35,35,36,36,37,37,38,38,39,39,40,40,41,41,42,42,43,43,45,45,46,46,47,47,49,49,50,50,51,51,52,52,53,53,54,54,55,55,57,57],"right_children":[2,4,6,8,10,12,14,16,18,20,22,24,26,28,30,32,34,36,38,40,42,44,46,48,50,-1,-1,52,54,56,58,60,62,64,66,68,70,72,74,76,78,80,82,84,-1,86,88,90,-1,92,94,96,98,100,102,104,-1,106,-1,-1,-1,-1,-1,-1,-1,-1,-1,-1,-1,-1,-1,-1,-1,-1,-1,-1,-1,-1,-1,-1,-1,-1,-1,-1,-1,-1,-1,-1,-1,-1,-1,-1,-1,-1,-1,-1,-1,-1,-1,-1,-1,-1,-1,-1,-1,-1,-1],"split_conditions":[5.4833797E1,4.5E1,4.6E1,4.0981316E1,5.8E1,7.978163E1,5.8E1,3.257718E1,3.6E1,8.2E1,4.1212586E-1,3.3E1,8.176884E1,8.2E1,5.188531E-1,7.8E1,2.93479E-1,3.0909395E-1,4.6828663E1,3.8525122E-1,5.3738987E1,9.9896706E1,4.234767E-1,9.549334E1,8.8E1,4.1610008E-1,1.3728533E0,6.3260944E1,6.423362E1,9.96199E1,6.2E1,9.570484E1,9.316291E1,2.5449622E-1,3.7E1,2.9954734E-1,3E1,9.078585E1,8.8E1,5.250855E1,4.4211372E1,7.5E1,5.459484E1,5.0344147E1,-1.7247173E-1,7.162068E1,9.878022E1,6.0133774E1,1.2530237E-1,4E1,4E1,4.1053557E-1,9E1,5.5213013E1,4.6195826E-1,7.766056E1,2.3232222E-1,7.8E1,-4.58456E-1,-5.3038675E-2,-4.7898206E-1,-5.559339E-1,-2.2969972E-1,2.012126E-1,-3.2376727E-1,1.3025396E-1,-1.1469519E-1,1.22070186E-1,-5.08393E-1,6.616595E-1,2.8438E-1,-1.7794894E-1,6.1254043E-2,2.0942695E-1,-7.3170685E-3,-2.5443736E-1,2.4610113E-1,-1.6087806E-1,6.265648E-2,-5.8599174E-1,-3.6377972E-1,7.458686E-2,-4.449616E-1,-5.328747E-1,-4.0381643E-1,1.8839519E-1,-2.3759905E-1,-4.5199114E-1,-6.645268E-2,6.490335E-1,1.0664016E0,7.9034466E-1,4.5026943E-1,4.4182667E-1,5.9519526E-2,-9.934711E-2,1.5024899E-1,3.8878545E-1,9.380357E-3,1.8159014E-1,-3.4039816E-1,3.3611962E-1,-1.7220043E-1,-2.0229259E-1,-4.0745154E-1,4.5794168E-1,-8.857394E-2],"split_indices":[6,8,8,6,8,6,8,6,8,0,5,8,9,0,5,1,5,5,6,5,6,9,5,7,0,0,0,6,6,9,8,9,9,5,8,5,8,9,0,6,6,1,6,6,0,7,9,6,0,8,8,5,1,6,5,7,0,0,0,0,0,0,0,0,0,0,0,0,0,0,0,0,0,0,0,0,0,0,0,0,0,0,0,0,0,0,0,0,0,0,0,0,0,0,0,0,0,0,0,0,0,0,0,0,0,0,0],"split_type":[0,0,0,0,0,0,0,0,0,0,0,0,0,0,0,0,0,0,0,0,0,0,0,0,0,0,0,0,0,0,0,0,0,0,0,0,0,0,0,0,0,0,0,0,0,0,0,0,0,0,0,0,0,0,0,0,0,0,0,0,0,0,0,0,0,0,0,0,0,0,0,0,0,0,0,0,0,0,0,0,0,0,0,0,0,0,0,0,0,0,0,0,0,0,0,0,0,0,0,0,0,0,0,0,0,0,0],"sum_hessian":[3.167E3,2.091E3,1.076E3,9.05E2,1.186E3,4.71E2,6.05E2,3.19E2,5.86E2,9.26E2,2.6E2,4.5E2,2.1E1,4.78E2,1.27E2,1.07E2,2.12E2,1.96E2,3.9E2,7.01E2,2.25E2,1.79E2,8.1E1,5.3E1,3.97E2,3E0,1.8E1,3.52E2,1.26E2,1.08E2,1.9E1,4E1,6.7E1,4.3E1,1.69E2,7E0,1.89E2,1.54E2,2.36E2,4.04E2,2.97E2,2.06E2,1.9E1,1.76E2,3E0,1.8E1,6.3E1,5E1,3E0,2.38E2,1.59E2,1.84E2,1.68E2,7.2E1,5.4E1,1.04E2,4E0,1.5E1,4E0,2.9E1,1.1E1,2.9E1,3.8E1,6E0,3.7E1,6.5E1,1.04E2,3E0,4E0,1.8E1,1.71E2,6.8E1,8.6E1,1.7E2,6.6E1,3.87E2,1.7E1,6.6E1,2.31E2,2.9E1,1.77E2,1.3E1,6E0,1.5E2,2.6E1,5E0,1.3E1,5.9E1,4E0,1.9E1,3.1E1,5.5E1,1.83E2,1.13E2,4.6E1,4.7E1,1.37E2,1.55E2,1.3E1,6E0,6.6E1,1.1E1,4.3E1,3.4E1,7E1,9E0,6E0],"tree_param":{"num_deleted":"0","num_feature":"10","num_nodes":"107","size_leaf_vector":"1"}},{"base_weights":[1.1907727E-1,-1.7662972E0,1.7076688E0,-4.4833663E-1,-2.7764947E0,3.9975634E0,1.4441618E-1,-1.5995693E0,7.03995E-1,-2.120945E0,-3.950714E0,2.9541473E0,6.808012E0,8.926614E-1,-2.6556737E0,-2.551316E0,-4.6669266E-1,3.4252632E0,8.098798E-2,-1.6012508E0,-3.9655297E0,-5.2488074E0,-3.5440135E0,5.069937E0,2.43571E0,6.155267E0,1.2319141E1,7.91631E-2,2.9134183E0,-3.0614798E0,-4.5515397E-1,3.2521352E-1,-3.1867602E0,1.6429652E-1,-2.2669854E0,2.0079753E0,6.2980804E0,2.6507366E0,-1.4472628E-1,-4.97804E0,-1.3066275E0,-4.8676586E0,-3.323791E0,-8.026164E-2,-5.512591E-1,-2.8496234E0,-4.067552E0,8.728735E-1,4.5653067E0,2.6291425E0,-3.7254887E0,1.0448077E1,5.3826437E0,4.6346757E-1,1.3464062E0,6.556195E-1,-1.6863409E0,3.9666462E0,-1.8783295E-1,-2.2607367E0,-3.536624E0,9.8049295E-1,-4.1523204E0,-2.757968E-1,2.3180209E-1,-5.872451E-1,-2.6934853E-1,2.7323315E-1,-4.0709235E-2,3.6829972E-1,-2.8850695E-1,2.9876578E-1,-3.1630042E-1,1.7144452E-1,9.4666845E-1,-1.9375953E-1,5.090445E-1,-2.2178666E-1,3.737918E-2,-1.502009E-1,-5.272243E-1,-4.6844584E-1,-1.18480384E-1,-1.5396021E-1,-5.061719E-1,-8.102359E-2,-3.8714802E-1,-3.7153384E-1,-3.35614E-2,-6.2234753E-1,-3.8495284E-1,3.938998E-1,7.2095484E-1,1.7991973E-1,3.4662265E-1,-6.3596874E-1,1.7411672E-1,1.1369572E0,6.440008E-1,6.488513E-1,3.1718224E-1,1.449673E-1,-4.3759774E-2,1.848843E-3,-2.2610357E-1,4.710938E-1,2.336819E-2,7.034454E-2,-3.173708E-1,-2.6869455E-1,1.4190252E-1,-2.855534E-1,-4.464396E-1,3.912882E-1,-8.98678E-3,-6.34004E-2,-5.555313E-1],"categories":[],"categories_nodes":[],"categories_segments":[],"categories_sizes":[],"default_left":[0,0,0,0,0,0,0,0,0,0,0,0,0,0,0,0,0,0,0,0,0,0,0,0,0,0,0,0,0,0,0,0,0,0,0,0,0,0,0,0,0,0,0,0,0,0,0,0,0,0,0,0,0,0,0,0,0,0,0,0,0,0,0,0,0,0,0,0,0,0,0,0,0,0,0,0,0,0,0,0,0,0,0,0,0,0,0,0,0,0,0,0,0,0,0,0,0,0,0,0,0,0,0,0,0,0,0,0,0,0,0,0,0,0,0,0,0],"id":11,"left_children":[1,3,5,7,9,11,13,15,17,19,21,23,25,27,29,31,33,35,37,39,41,43,45,47,49,51,53,55,57,59,61,63,65,67,69,71,73,75,77,79,81,83,85,-1,-1,87,89,-1,91,93,95,97,99,-1,-1,101,103,105,107,109,111,113,115,-1,-1,-1,-1,-1,-1,-1,-1,-1,-1,-1,-1,-1,-1,-1,-1,-1,-1,-1,-1,-1,-1,-1,-1,-1,-1,-1,-1,-1,-1,-1,-1,-1,-1,-1,-1,-1,-1,-1,-1,-1,-1,-1,-1,-1,-1,-1,-1,-1,-1,-1,-1,-1,-1],"loss_changes":[9.536383E3,1.9369521E3,6.1847026E3,8.409546E2,6.252954E2,2.0345703E3,2.1560127E3,3.403006E2,5.3680396E2,5.0212085E2,1.3573193E2,5.496128E2,6.0222754E2,1.3343025E3,1.920326E2,3.157168E2,1.6643365E2,2.2674799E2,1.5086171E2,4.067373E2,5.0157837E1,7.469653E1,7.024097E1,1.4345508E2,5.0308032E2,5.093379E2,1.0295239E2,5.912894E2,7.6217664E2,6.1050415E1,1.9016241E2,2.0296301E2,1.7012048E2,1.6128561E2,1.5029436E2,2.1713504E2,2.5860254E2,2.4525656E2,2.5792905E2,2.5151367E1,1.5187885E2,2.1255371E1,9.413696E1,0E0,0E0,2.181659E2,3.473047E1,0E0,1.19536865E2,2.7252002E2,1.9873851E2,1.7334229E1,3.378506E2,0E0,0E0,3.809515E2,1.4037128E2,4.8184863E2,1.621543E2,1.1529227E2,5.7924194E1,8.234051E1,4.5220703E1,0E0,0E0,0E0,0E0,0E0,0E0,0E0,0E0,0E0,0E0,0E0,0E0,0E0,0E0,0E0,0E0,0E0,0E0,0E0,0E0,0E0,0E0,0E0,0E0,0E0,0E0,0E0,0E0,0E0,0E0,0E0,0E0,0E0,0E0,0E0,0E0,0E0,0E0,0E0,0E0,0E0,0E0,0E0,0E0,0E0,0E0,0E0,0E0,0E0,0E0,0E0,0E0,0E0,0E0],"parents":[2147483647,0,0,1,1,2,2,3,3,4,4,5,5,6,6,7,7,8,8,9,9,10,10,11,11,12,12,13,13,14,14,15,15,16,16,17,17,18,18,19,19,20,20,21,21,22,22,23,23,24,24,25,25,26,26,27,27,28,28,29,29,30,30,31,31,32,32,33,33,34,34,35,35,36,36,37,37,38,38,39,39,40,40,41,41,42,42,45,45,46,46,48,48,49,49,50,50,51,51,52,52,55,55,56,56,57,57,58,58,59,59,60,60,61,61,62,62],"right_children":[2,4,6,8,10,12,14,16,18,20,22,24,26,28,30,32,34,36,38,40,42,44,46,48,50,52,54,56,58,60,62,64,66,68,70,72,74,76,78,80,82,84,86,-1,-1,88,90,-1,92,94,96,98,100,-1,-1,102,104,106,108,110,112,114,116,-1,-1,-1,-1,-1,-1,-1,-1,-1,-1,-1,-1,-1,-1,-1,-1,-1,-1,-1,-1,-1,-1,-1,-1,-1,-1,-1,-1,-1,-1,-1,-1,-1,-1,-1,-1,-1,-1,-1,-1,-1,-1,-1,-1,-1,-1,-1,-1,-1,-1,-1,-1,-1,-1],"split_conditions":[4.837682E1,4.5E1,4.5E1,4.0981316E1,5.5E1,6.40634E1,5.8E1,1E0,3.3E1,8.5E1,3.5772213E1,3.4E1,7.978163E1,6.3260944E1,6.455934E1,3.4E1,8.5E1,8.476652E1,5.9284107E1,2.9368761E1,3.8287315E1,5.9284107E1,6E1,3E1,9.6329155E1,3.3E1,8E1,8.2E1,8.2E1,7E1,6.4E1,3.551457E1,2.8353323E1,3.5E1,2.8214664E1,8.237624E1,4.516344E1,7.5E1,7.273308E1,7.2E1,3.0574146E1,5.2602085E1,4.0637142E1,-8.026164E-2,-5.512591E-1,4.9295567E1,6.2124172E1,8.728735E-1,5.9160286E1,5.4833797E1,1E0,8.696797E1,8.5E1,4.6346757E-1,1.3464062E0,5.3E1,7.416327E1,5.7E1,6.5635925E1,9.269797E1,6.3E1,7.2E1,7E1,-2.757968E-1,2.3180209E-1,-5.872451E-1,-2.6934853E-1,2.7323315E-1,-4.0709235E-2,3.6829972E-1,-2.8850695E-1,2.9876578E-1,-3.1630042E-1,1.7144452E-1,9.4666845E-1,-1.9375953E-1,5.090445E-1,-2.2178666E-1,3.737918E-2,-1.502009E-1,-5.272243E-1,-4.6844584E-1,-1.18480384E-1,-1.5396021E-1,-5.061719E-1,-8.102359E-2,-3.8714802E-1,-3.7153384E-1,-3.35614E-2,-6.2234753E-1,-3.8495284E-1,3.938998E-1,7.2095484E-1,1.7991973E-1,3.4662265E-1,-6.3596874E-1,1.7411672E-1,1.1369572E0,6.440008E-1,6.488513E-1,3.1718224E-1,1.449673E-1,-4.3759774E-2,1.848843E-3,-2.2610357E-1,4.710938E-1,2.336819E-2,7.034454E-2,-3.173708E-1,-2.6869455E-1,1.4190252E-1,-2.855534E-1,-4.464396E-1,3.912882E-1,-8.98678E-3,-6.34004E-2,-5.555313E-1],"split_indices":[6,8,8,6,8,6,8,3,8,0,6,8,6,6,4,8,1,7,7,6,6,7,8,8,7,8,0,0,0,0,8,4,6,8,4,7,4,1,7,0,4,7,6,0,0,4,7,0,6,6,3,7,1,0,0,8,7,8,4,7,8,1,0,0,0,0,0,0,0,0,0,0,0,0,0,0,0,0,0,0,0,0,0,0,0,0,0,0,0,0,0,0,0,0,0,0,0,0,0,0,0,0,0,0,0,0,0,0,0,0,0,0,0,0,0,0,0],"split_type":[0,0,0,0,0,0,0,0,0,0,0,0,0,0,0,0,0,0,0,0,0,0,0,0,0,0,0,0,0,0,0,0,0,0,0,0,0,0,0,0,0,0,0,0,0,0,0,0,0,0,0,0,0,0,0,0,0,0,0,0,0,0,0,0,0,0,0,0,0,0,0,0,0,0,0,0,0,0,0,0,0,0,0,0,0,0,0,0,0,0,0,0,0,0,0,0,0,0,0,0,0,0,0,0,0,0,0,0,0,0,0,0,0,0,0,0,0],"sum_hessian":[3.182E3,1.455E3,1.727E3,6.32E2,8.23E2,7E2,1.027E3,3.16E2,3.16E2,5.3E2,2.93E2,5.12E2,1.88E2,8.11E2,2.16E2,1.71E2,1.45E2,5.8E1,2.58E2,4.15E2,1.15E2,6.7E1,2.26E2,9.9E1,4.13E2,1.7E2,1.8E1,5.79E2,2.32E2,1.82E2,3.4E1,3.1E1,1.4E2,1.08E2,3.7E1,4E1,1.8E1,2E1,2.38E2,3.2E1,3.83E2,4.5E1,7E1,4E0,6.3E1,1E2,1.26E2,1E1,8.9E1,4.01E2,1.2E1,2.4E1,1.46E2,3E0,1.5E1,4.37E2,1.42E2,1.73E2,5.9E1,7E1,1.12E2,2.5E1,9E0,1.2E1,1.9E1,2E1,1.2E2,1.9E1,8.9E1,3E0,3.4E1,3.4E1,6E0,8E0,1E1,7E0,1.3E1,4.7E1,1.91E2,3E0,2.9E1,1.2E1,3.71E2,3E0,4.2E1,1.3E1,5.7E1,7.4E1,2.6E1,9E0,1.17E2,7.4E1,1.5E1,2.03E2,1.98E2,8E0,4E0,1.8E1,6E0,9.6E1,5E1,2.53E2,1.84E2,3.6E1,1.06E2,1.44E2,2.9E1,4.6E1,1.3E1,6.3E1,7E0,6.7E1,4.5E1,6E0,1.9E1,3E0,6E0],"tree_param":{"num_deleted":"0","num_feature":"10","num_nodes":"117","size_leaf_vector":"1"}},{"base_weights":[1.3872279E-2,-1.5659488E0,1.3782716E0,-3.923365E-1,-2.3990524E0,3.3653853E0,-1.17401615E-1,-2.0688462E0,2.2635995E-1,-4.0985026E0,-2.0673792E0,2.389623E0,5.660416E0,4.3562052E-1,-2.5572884E0,-1.7510709E0,-4.189996E0,2.2400973E0,-1.8526907E-1,-3.6877875E0,-5.1505723E0,-1.5207392E0,-3.226432E0,4.6539803E0,2.0392249E0,5.224502E0,1.2191935E0,1.1152138E0,-1.6460415E0,-3.12993E0,-3.7478322E-1,-4.5604043E0,-1.5119926E0,-5.226585E0,1.5240753E-2,-2.3959607E-1,3.116123E0,1.83678E0,-3.656675E-1,-2.6385255E0,-4.343827E0,-5.4724264E-1,-3.2872968E0,-9.563034E-1,-3.3497453E0,-2.7551801E0,-4.2405486E0,8.684072E-1,3.9030652E0,2.3351545E0,3.2793024E-1,9.632357E0,4.677458E0,1.4585923E-1,2.9419687E0,-2.1232736E0,1.7470814E-1,-1.7047114E0,-3.8237402E0,1.4919735E0,-2.8842316E0,-6.063238E-1,-2.2808369E-1,-4.5897294E-2,-2.190355E-1,-3.9736673E-1,-8.28015E-1,4.3266326E-1,-1.5743929E-1,3.9715758E-1,-1.2916617E-1,3.5001746E-1,-2.6070926E-1,-2.1158116E-1,-7.0456536E-3,-2.8279955E-2,-3.16604E-1,-1.4264314E-1,-4.6812436E-1,-4.1475746E-1,-1.3651256E-1,-1.2657534E-1,3.0497864E-2,-1.1509272E-1,-3.5435516E-1,-1.9649471E-1,-3.4824508E-1,-4.3386474E-1,-1.4632075E-1,1.77122E-1,5.0030017E-1,1.7936732E-1,3.5639137E-1,-6.613582E-2,6.1419386E-1,1.0382254E0,3.63726E-1,2.891288E-1,5.3990334E-1,-2.6503685E-1,4.2381044E-2,2.1016274E-1,4.456628E-1,3.9088447E-2,-2.558472E-1,-1.0080593E-1,2.8984246E-1,-2.7367446E-1,-6.642606E-3,-4.3668613E-1,-1.3875733E-1,2.6906654E-1,-2.3360972E-1,-4.317192E-1,-1.4394401E-1],"categories":[],"categories_nodes":[],"categories_segments":[],"categories_sizes":[],"default_left":[0,0,0,0,0,0,0,0,0,0,0,0,0,0,0,0,0,0,0,0,0,0,0,0,0,0,0,0,0,0,0,0,0,0,0,0,0,0,0,0,0,0,0,0,0,0,0,0,0,0,0,0,0,0,0,0,0,0,0,0,0,0,0,0,0,0,0,0,0,0,0,0,0,0,0,0,0,0,0,0,0,0,0,0,0,0,0,0,0,0,0,0,0,0,0,0,0,0,0,0,0,0,0,0,0,0,0,0,0,0,0,0,0,0,0],"id":12,"left_children":[1,3,5,7,9,11,13,15,17,19,21,23,25,27,29,31,33,35,37,39,41,43,45,47,49,51,-1,53,55,57,59,61,63,65,-1,67,69,71,73,75,77,-1,79,81,83,85,87,-1,89,91,93,95,97,99,101,103,105,107,109,111,113,-1,-1,-1,-1,-1,-1,-1,-1,-1,-1,-1,-1,-1,-1,-1,-1,-1,-1,-1,-1,-1,-1,-1,-1,-1,-1,-1,-1,-1,-1,-1,-1,-1,-1,-1,-1,-1,-1,-1,-1,-1,-1,-1,-1,-1,-1,-1,-1,-1,-1,-1,-1,-1,-1],"loss_changes":[6.921316E3,1.4536577E3,5.1216016E3,6.427107E2,4.812964E2,1.6428281E3,1.3290485E3,1.0463513E2,3.76118E2,4.1048096E1,4.5713525E2,4.0321533E2,5.609419E2,1.1377734E3,2.2593896E2,9.123007E1,9.5831085E1,1.6829938E2,1.3804451E2,6.0118042E1,3.3235474E0,5.104795E2,9.896875E1,1.7365845E2,2.2837732E2,4.550625E2,0E0,1.0723506E3,1.7261206E2,1.3532056E2,1.8713908E2,2.3020264E1,9.6592865E1,3.0911774E1,0E0,1.3453133E2,2.2032507E2,2.3836389E2,1.7891391E2,5.2195007E1,5.472766E1,0E0,7.015579E0,1.4957812E2,4.5311157E1,8.571594E1,1.268811E1,0E0,1.3115485E2,2.4989697E2,3.9572778E2,5.97406E1,2.2457715E2,3.094549E2,2.5727246E2,1.7299939E2,1.3841478E2,8.238536E1,1.20385864E2,1.11860664E2,2.8405594E1,0E0,0E0,0E0,0E0,0E0,0E0,0E0,0E0,0E0,0E0,0E0,0E0,0E0,0E0,0E0,0E0,0E0,0E0,0E0,0E0,0E0,0E0,0E0,0E0,0E0,0E0,0E0,0E0,0E0,0E0,0E0,0E0,0E0,0E0,0E0,0E0,0E0,0E0,0E0,0E0,0E0,0E0,0E0,0E0,0E0,0E0,0E0,0E0,0E0,0E0,0E0,0E0,0E0,0E0],"parents":[2147483647,0,0,1,1,2,2,3,3,4,4,5,5,6,6,7,7,8,8,9,9,10,10,11,11,12,12,13,13,14,14,15,15,16,16,17,17,18,18,19,19,20,20,21,21,22,22,23,23,24,24,25,25,27,27,28,28,29,29,30,30,31,31,32,32,33,33,35,35,36,36,37,37,38,38,39,39,40,40,42,42,43,43,44,44,45,45,46,46,48,48,49,49,50,50,51,51,52,52,53,53,54,54,55,55,56,56,57,57,58,58,59,59,60,60],"right_children":[2,4,6,8,10,12,14,16,18,20,22,24,26,28,30,32,34,36,38,40,42,44,46,48,50,52,-1,54,56,58,60,62,64,66,-1,68,70,72,74,76,78,-1,80,82,84,86,88,-1,90,92,94,96,98,100,102,104,106,108,110,112,114,-1,-1,-1,-1,-1,-1,-1,-1,-1,-1,-1,-1,-1,-1,-1,-1,-1,-1,-1,-1,-1,-1,-1,-1,-1,-1,-1,-1,-1,-1,-1,-1,-1,-1,-1,-1,-1,-1,-1,-1,-1,-1,-1,-1,-1,-1,-1,-1,-1,-1,-1,-1,-1,-1],"split_conditions":[4.837682E1,4.4E1,4.6E1,3.5528606E1,3.3188602E1,6.2569286E1,6E1,3.461403E1,3.3E1,5.5E1,5.6E1,3.3E1,8.3801384E1,8.2E1,6.635698E1,2.3221262E1,9E1,4.0768654E1,5.9284107E1,7.8E1,6.7E1,8.2E1,6.3E1,3E1,6.0152447E1,3.2E1,1.2191935E0,6.1648636E1,9.058492E1,7.5809875E1,6.4E1,1E0,7.8E1,8.6651665E1,1.5240753E-2,3.6466095E1,5.441541E1,4.980396E1,3.9436913E1,4.8E1,6.9001755E1,-5.4724264E-1,1E0,5.102061E1,6.4709274E1,7.2E1,8.5E1,8.684072E-1,5.2404682E1,5.4804684E1,6.1462074E1,8.8E1,7.416327E1,5.9284107E1,7.185381E1,4.7956863E1,6.3260944E1,5.5777557E1,9.304495E1,7.8E1,8.0363304E1,-6.063238E-1,-2.2808369E-1,-4.5897294E-2,-2.190355E-1,-3.9736673E-1,-8.28015E-1,4.3266326E-1,-1.5743929E-1,3.9715758E-1,-1.2916617E-1,3.5001746E-1,-2.6070926E-1,-2.1158116E-1,-7.0456536E-3,-2.8279955E-2,-3.16604E-1,-1.4264314E-1,-4.6812436E-1,-4.1475746E-1,-1.3651256E-1,-1.2657534E-1,3.0497864E-2,-1.1509272E-1,-3.5435516E-1,-1.9649471E-1,-3.4824508E-1,-4.3386474E-1,-1.4632075E-1,1.77122E-1,5.0030017E-1,1.7936732E-1,3.5639137E-1,-6.613582E-2,6.1419386E-1,1.0382254E0,3.63726E-1,2.891288E-1,5.3990334E-1,-2.6503685E-1,4.2381044E-2,2.1016274E-1,4.456628E-1,3.9088447E-2,-2.558472E-1,-1.0080593E-1,2.8984246E-1,-2.7367446E-1,-6.642606E-3,-4.3668613E-1,-1.3875733E-1,2.6906654E-1,-2.3360972E-1,-4.317192E-1,-1.4394401E-1],"split_indices":[6,8,8,6,6,6,8,6,8,8,8,8,6,0,6,6,0,6,7,0,8,0,8,8,4,8,0,6,7,7,8,3,1,7,0,6,4,4,4,8,7,0,3,4,7,0,1,0,6,4,6,1,7,7,6,4,6,4,7,0,7,0,0,0,0,0,0,0,0,0,0,0,0,0,0,0,0,0,0,0,0,0,0,0,0,0,0,0,0,0,0,0,0,0,0,0,0,0,0,0,0,0,0,0,0,0,0,0,0,0,0,0,0,0,0],"split_type":[0,0,0,0,0,0,0,0,0,0,0,0,0,0,0,0,0,0,0,0,0,0,0,0,0,0,0,0,0,0,0,0,0,0,0,0,0,0,0,0,0,0,0,0,0,0,0,0,0,0,0,0,0,0,0,0,0,0,0,0,0,0,0,0,0,0,0,0,0,0,0,0,0,0,0,0,0,0,0,0,0,0,0,0,0,0,0,0,0,0,0,0,0,0,0,0,0,0,0,0,0,0,0,0,0,0,0,0,0,0,0,0,0,0,0],"sum_hessian":[3.209E3,1.487E3,1.722E3,6.18E2,8.69E2,7.39E2,9.83E2,1.66E2,4.52E2,1.4E2,7.29E2,5.2E2,2.19E2,8.02E2,1.81E2,1.46E2,2E1,7.6E1,3.76E2,1.04E2,3.6E1,4.97E2,2.32E2,6.8E1,4.52E2,2.07E2,1.2E1,6.05E2,1.97E2,1.43E2,3.8E1,1E1,1.36E2,1.6E1,4E0,2E1,5.6E1,3E1,3.46E2,4.2E1,6.2E1,2.9E1,7E0,3.81E2,1.16E2,1.61E2,7.1E1,9E0,5.9E1,3.85E2,6.7E1,2.1E1,1.86E2,3.96E2,2.09E2,1.56E2,4.1E1,4.8E1,9.5E1,2.2E1,1.6E1,5E0,5E0,5.4E1,8.2E1,1.3E1,3E0,4E0,1.6E1,4.7E1,9E0,2.2E1,8E0,4.9E1,2.97E2,8E0,3.4E1,7E0,5.5E1,4E0,3E0,3.06E2,7.5E1,1E1,1.06E2,7.9E1,8.2E1,6.8E1,3E0,2.1E1,3.8E1,2.69E2,1.16E2,5.8E1,9E0,1.8E1,3E0,5.5E1,1.31E2,3.5E1,3.61E2,1.36E2,7.3E1,2.3E1,1.33E2,2.9E1,1.2E1,2.9E1,1.9E1,7.7E1,1.8E1,1.7E1,5E0,7E0,9E0],"tree_param":{"num_deleted":"0","num_feature":"10","num_nodes":"115","size_leaf_vector":"1"}},{"base_weights":[-2.8973049E-2,1.2168111E0,-1.7843643E0,-2.630117E-1,3.40086E0,-1.1649613E0,-3.2579412E0,-1.7152988E0,4.260349E-1,2.7776256E0,6.1269894E0,-2.125743E0,2.9580903E-1,-3.7736936E0,-2.7304394E0,3.9265513E-1,-1.9295347E0,9.161251E-1,-1.0255133E0,4.124545E0,1.6995572E0,5.551834E0,1.0899684E1,-3.2586467E0,-1.7596184E0,1.2645066E0,-7.834521E-1,-3.39829E0,-4.7724238E-1,-5.424282E-1,-2.9864044E0,-2.8384957E0,1.8614054E0,-3.436133E0,-1.6051596E0,4.6637824E-1,1.9835796E0,-2.3728325E0,-5.7174206E-1,7.2106557E0,3.6716309E0,9.414035E-1,2.372841E0,2.787305E0,6.340447E0,1.2680818E1,6.394703E-1,-4.9968934E0,-2.5645263E0,3.6000305E-1,-1.831379E0,-1.1178394E-1,2.714685E0,-1.1263129E0,2.9878647E0,-3.6224196E0,-1.9658132E0,-3.0551934E0,1.797809E0,-5.3479034E-1,-2.7501535E0,1.5722762E-1,-4.70157E-1,-3.0653158E-2,4.06322E-1,6.9970384E-2,-3.6807108E-1,-2.166084E-1,-8.5865535E-2,-8.059303E-3,1.6478801E-1,2.3949328E-1,-1.5514786E-2,-4.3595944E-2,-3.2369885E-1,-9.482553E-2,1.8238781E-1,2.2910981E-1,7.786893E-1,2.7425808E-1,4.4562125E-1,-7.430732E-2,1.8226422E-1,3.5308155E-1,1.32069E-1,1.9026546E-1,5.9921306E-1,9.654415E-1,5.7646096E-1,5.995786E-1,1.500737E0,-3.5361984E-1,-5.791425E-1,-1.2731807E-1,-3.2089594E-1,-2.8359646E-1,-1.582656E-1,5.9858352E-2,-3.2517356E-1,3.749942E-1,1.599221E-1,3.1473047E-1,-1.3103192E-1,-6.0031522E-2,3.9432696E-1,-4.0655985E-1,-3.1631294E-1,-3.8259798E-1,-8.850952E-3,-4.863622E-1,6.7644767E-3,-4.5281332E-2,4.140567E-1,-2.2759783E-1,-3.6894605E-1],"categories":[],"categories_nodes":[],"categories_segments":[],"categories_sizes":[],"default_left":[0,0,0,0,0,0,0,0,0,0,0,0,0,0,0,0,0,0,0,0,0,0,0,0,0,0,0,0,0,0,0,0,0,0,0,0,0,0,0,0,0,0,0,0,0,0,0,0,0,0,0,0,0,0,0,0,0,0,0,0,0,0,0,0,0,0,0,0,0,0,0,0,0,0,0,0,0,0,0,0,0,0,0,0,0,0,0,0,0,0,0,0,0,0,0,0,0,0,0,0,0,0,0,0,0,0,0,0,0,0,0,0,0,0,0],"id":13,"left_children":[1,3,5,7,9,11,13,15,17,19,21,23,25,27,29,31,33,35,37,39,41,43,45,47,49,51,53,55,-1,57,59,61,63,65,67,69,71,73,75,77,79,81,83,85,87,89,-1,91,93,-1,95,97,99,101,103,105,107,109,111,-1,113,-1,-1,-1,-1,-1,-1,-1,-1,-1,-1,-1,-1,-1,-1,-1,-1,-1,-1,-1,-1,-1,-1,-1,-1,-1,-1,-1,-1,-1,-1,-1,-1,-1,-1,-1,-1,-1,-1,-1,-1,-1,-1,-1,-1,-1,-1,-1,-1,-1,-1,-1,-1,-1,-1],"loss_changes":[7.006673E3,6.0579863E3,1.2097041E3,1.119635E3,1.268248E3,1.3172772E3,9.596533E1,1.6348718E2,5.4087317E2,8.897881E2,3.2214697E2,2.2853198E2,3.910019E2,5.6450684E1,1.0891797E2,1.6654152E2,1.5378613E2,2.7151785E2,1.15732834E2,3.5541846E2,1.735409E2,2.5829297E2,2.9338013E1,1.5172693E2,1.7179932E2,3.9374945E2,2.320466E2,3.9194824E1,0E0,1.3498866E2,8.3232056E1,9.809865E1,1.1618264E2,6.0530945E1,1.1131415E2,2.594348E2,1.4839728E2,7.856201E1,1.3242941E2,7.753589E1,1.627273E2,2.449082E2,2.1659387E2,7.286409E1,1.2981836E2,4.7896362E1,0E0,2.2689148E1,7.868475E1,0E0,1.0126184E2,2.2972473E2,1.04328125E2,1.321191E2,5.4123947E1,1.1860596E1,7.6096054E1,6.293032E1,6.551564E1,0E0,6.3605835E1,0E0,0E0,0E0,0E0,0E0,0E0,0E0,0E0,0E0,0E0,0E0,0E0,0E0,0E0,0E0,0E0,0E0,0E0,0E0,0E0,0E0,0E0,0E0,0E0,0E0,0E0,0E0,0E0,0E0,0E0,0E0,0E0,0E0,0E0,0E0,0E0,0E0,0E0,0E0,0E0,0E0,0E0,0E0,0E0,0E0,0E0,0E0,0E0,0E0,0E0,0E0,0E0,0E0,0E0],"parents":[2147483647,0,0,1,1,2,2,3,3,4,4,5,5,6,6,7,7,8,8,9,9,10,10,11,11,12,12,13,13,14,14,15,15,16,16,17,17,18,18,19,19,20,20,21,21,22,22,23,23,24,24,25,25,26,26,27,27,29,29,30,30,31,31,32,32,33,33,34,34,35,35,36,36,37,37,38,38,39,39,40,40,41,41,42,42,43,43,44,44,45,45,47,47,48,48,50,50,51,51,52,52,53,53,54,54,55,55,56,56,57,57,58,58,60,60],"right_children":[2,4,6,8,10,12,14,16,18,20,22,24,26,28,30,32,34,36,38,40,42,44,46,48,50,52,54,56,-1,58,60,62,64,66,68,70,72,74,76,78,80,82,84,86,88,90,-1,92,94,-1,96,98,100,102,104,106,108,110,112,-1,114,-1,-1,-1,-1,-1,-1,-1,-1,-1,-1,-1,-1,-1,-1,-1,-1,-1,-1,-1,-1,-1,-1,-1,-1,-1,-1,-1,-1,-1,-1,-1,-1,-1,-1,-1,-1,-1,-1,-1,-1,-1,-1,-1,-1,-1,-1,-1,-1,-1,-1,-1,-1,-1,-1],"split_conditions":[7.8E1,5.2404682E1,8.8E1,3.9194965E1,6.919084E1,5.3639153E1,4.946403E1,7.2E1,4.8E1,4.2E1,8.3801384E1,4.0855824E1,8.2E1,8.907092E1,4.7956863E1,7.5E1,2.8353323E1,4.837682E1,4.299649E1,7.2E1,1E0,7.5E1,7.5E1,7.5E1,3.4E1,5.7394234E1,7.802353E1,5.167139E1,-4.7724238E-1,8E1,4.972668E1,6.962261E1,8.321599E1,2.8E1,1E0,8.711342E1,5.74946E1,7.560094E1,7.8E1,5.3738987E1,1E0,5.313167E1,5E1,9.1595726E1,3.2E1,7.618955E1,6.394703E-1,7.777975E1,7.8E1,3.6000305E-1,4.022726E1,8.8E1,8.187945E1,4.2E1,6.3285816E1,1E0,7.804091E1,8.282226E1,8.476652E1,-5.3479034E-1,6.035104E1,1.5722762E-1,-4.70157E-1,-3.0653158E-2,4.06322E-1,6.9970384E-2,-3.6807108E-1,-2.166084E-1,-8.5865535E-2,-8.059303E-3,1.6478801E-1,2.3949328E-1,-1.5514786E-2,-4.3595944E-2,-3.2369885E-1,-9.482553E-2,1.8238781E-1,2.2910981E-1,7.786893E-1,2.7425808E-1,4.4562125E-1,-7.430732E-2,1.8226422E-1,3.5308155E-1,1.32069E-1,1.9026546E-1,5.9921306E-1,9.654415E-1,5.7646096E-1,5.995786E-1,1.500737E0,-3.5361984E-1,-5.791425E-1,-1.2731807E-1,-3.2089594E-1,-2.8359646E-1,-1.582656E-1,5.9858352E-2,-3.2517356E-1,3.749942E-1,1.599221E-1,3.1473047E-1,-1.3103192E-1,-6.0031522E-2,3.9432696E-1,-4.0655985E-1,-3.1631294E-1,-3.8259798E-1,-8.850952E-3,-4.863622E-1,6.7644767E-3,-4.5281332E-2,4.140567E-1,-2.2759783E-1,-3.6894605E-1],"split_indices":[2,6,2,6,6,6,6,2,8,8,6,4,2,7,4,1,6,6,4,2,3,0,2,1,8,4,6,4,0,0,4,7,7,8,3,7,4,7,1,6,3,4,8,7,8,7,0,7,1,0,6,1,7,8,4,3,7,7,7,0,4,0,0,0,0,0,0,0,0,0,0,0,0,0,0,0,0,0,0,0,0,0,0,0,0,0,0,0,0,0,0,0,0,0,0,0,0,0,0,0,0,0,0,0,0,0,0,0,0,0,0,0,0,0,0],"split_type":[0,0,0,0,0,0,0,0,0,0,0,0,0,0,0,0,0,0,0,0,0,0,0,0,0,0,0,0,0,0,0,0,0,0,0,0,0,0,0,0,0,0,0,0,0,0,0,0,0,0,0,0,0,0,0,0,0,0,0,0,0,0,0,0,0,0,0,0,0,0,0,0,0,0,0,0,0,0,0,0,0,0,0,0,0,0,0,0,0,0,0,0,0,0,0,0,0,0,0,0,0,0,0,0,0,0,0,0,0,0,0,0,0,0,0],"sum_hessian":[3.202E3,1.873E3,1.329E3,1.117E3,7.56E2,9.37E2,3.92E2,3.59E2,7.58E2,6.17E2,1.39E2,5.65E2,3.72E2,1.95E2,1.97E2,3.3E1,3.26E2,5.67E2,1.91E2,2.73E2,3.44E2,1.26E2,1.3E1,1.36E2,4.29E2,1.96E2,1.76E2,1.45E2,5E1,2.1E1,1.76E2,1E1,2.3E1,5.6E1,2.7E2,4E2,1.67E2,4.7E1,1.44E2,3.3E1,2.4E2,1.63E2,1.81E2,2.9E1,9.7E1,8E0,5E0,3.7E1,9.9E1,5E0,4.24E2,1.01E2,9.5E1,1.62E2,1.4E1,1.24E2,2.1E1,1E1,1.1E1,1.4E1,1.62E2,3E0,7E0,1.2E1,1.1E1,3E0,5.3E1,1.53E2,1.17E2,2.74E2,1.26E2,1.4E2,2.7E1,1.5E1,3.2E1,1.25E2,1.9E1,4E0,2.9E1,1.12E2,1.28E2,5.6E1,1.07E2,8.5E1,9.6E1,2.4E1,5E0,1.2E1,8.5E1,3E0,5E0,1.5E1,2.2E1,3.4E1,6.5E1,8.2E1,3.42E2,8.3E1,1.8E1,4.8E1,4.7E1,6E0,1.56E2,3E0,1.1E1,5.9E1,6.5E1,1E1,1.1E1,6E0,4E0,6E0,5E0,1.1E2,5.2E1],"tree_param":{"num_deleted":"0","num_feature":"10","num_nodes":"115","size_leaf_vector":"1"}},{"base_weights":[7.7873036E-2,8.507379E-1,-2.262108E0,-9.382393E-1,2.123497E0,-2.8964288E0,-1.2407196E0,3.3474144E-1,-1.554599E0,3.6691864E0,1.2864232E0,-3.2802396E0,-2.3997614E0,-1.5277494E0,2.1913702E0,3.0482981E0,-1.4267439E-1,-4.147309E0,-1.357924E0,2.8512044E0,5.631162E0,1.9849921E0,3.1429127E-1,-4.2612667E0,-2.9713063E0,-1.5650594E0,-3.21153E0,-7.2082835E-1,-2.3939006E0,7.283737E-1,1.1122829E0,7.744089E-1,5.580764E0,-2.1712441E0,3.533879E-1,-2.016582E0,-4.6659756E0,-2.3738353E0,-9.6000266E-1,1.4614627E-2,3.1071124E0,7.611484E0,4.795351E0,1.1818832E0,3.583968E0,-7.797412E-3,3.0036113E0,-1.02356784E-1,-4.4044256E0,-1.9653984E0,-3.2017581E0,-6.5027523E-1,-3.1243055E0,-3.3432055E0,-3.7723135E-2,-1.6740978E0,4.2312555E-3,-1.8466139E0,-3.6145256E0,-6.1653364E-1,3.0856342E0,-1.321479E-1,1.7317025E-1,1.1572442E-1,7.437476E-1,-1.69362E-1,-6.588763E-1,-2.0013941E-2,2.0292139E-1,-2.9139832E-1,-3.3690423E-2,-5.324545E-1,-3.338438E-1,-4.879662E-1,-2.0022094E-1,-4.3419066E-1,-8.340427E-2,2.0775919E-1,-2.4843302E-1,4.846835E-1,2.637432E-1,8.052288E-1,3.6814135E-1,4.3339428E-1,1.1592693E0,4.3352842E-2,2.2620277E-1,1.8197097E-1,4.566205E-1,4.5086555E-2,-7.9222314E-2,4.8307052E-1,1.201544E-1,-4.5140153E-1,-1.716668E-1,-4.480184E-1,-1.2389728E-1,-3.01305E-1,-5.426997E-1,-1.31815E-1,4.011782E-1,-5.0907326E-1,-1.8658166E-1,-1.1877195E-1,-3.5588133E-1,-2.2786546E-1,1.436827E-1,1.9171259E-1,-1.438245E-1,-2.6117662E-1,7.764336E-4,-6.333821E-1,-2.8654405E-1,7.7621214E-2,-3.621078E-1,8.252355E-2,3.9222002E-1],"categories":[],"categories_nodes":[],"categories_segments":[],"categories_sizes":[],"default_left":[0,0,0,0,0,0,0,0,0,0,0,0,0,0,0,0,0,0,0,0,0,0,0,0,0,0,0,0,0,0,0,0,0,0,0,0,0,0,0,0,0,0,0,0,0,0,0,0,0,0,0,0,0,0,0,0,0,0,0,0,0,0,0,0,0,0,0,0,0,0,0,0,0,0,0,0,0,0,0,0,0,0,0,0,0,0,0,0,0,0,0,0,0,0,0,0,0,0,0,0,0,0,0,0,0,0,0,0,0,0,0,0,0,0,0,0,0],"id":14,"left_children":[1,3,5,7,9,11,13,15,17,19,21,23,25,27,29,31,33,35,37,39,41,43,45,47,49,51,53,55,57,-1,59,61,63,65,67,69,71,73,75,77,79,81,83,85,87,89,91,-1,93,95,97,99,101,103,-1,105,107,109,111,113,115,-1,-1,-1,-1,-1,-1,-1,-1,-1,-1,-1,-1,-1,-1,-1,-1,-1,-1,-1,-1,-1,-1,-1,-1,-1,-1,-1,-1,-1,-1,-1,-1,-1,-1,-1,-1,-1,-1,-1,-1,-1,-1,-1,-1,-1,-1,-1,-1,-1,-1,-1,-1,-1,-1,-1,-1],"loss_changes":[5.7835234E3,5.475867E3,5.1041577E2,7.8525653E2,1.8126523E3,8.477637E1,3.0472583E2,4.243523E2,3.3750452E2,7.7429297E2,6.191655E2,6.935376E1,1.4153198E2,1.9575598E2,1.2294144E2,2.772114E2,2.8170593E2,4.1863953E1,2.5125842E2,2.5370923E2,2.0060449E2,6.771721E2,3.3207742E2,2.414978E1,4.210315E1,1.5306561E2,3.904651E1,1.0246829E2,8.363159E1,0E0,7.3792114E1,5.6501694E1,1.794372E2,1.040582E2,2.093025E2,1.5273972E1,1.3706116E1,1.5343823E2,1.8883203E2,1.5977875E2,2.4876196E2,4.0210693E1,2.7434546E2,2.857074E2,2.977793E2,1.2379826E2,1.2858682E2,0E0,9.301025E0,7.060307E1,5.4190674E1,2.2297572E2,8.879501E1,4.3631348E1,0E0,1.2372504E2,2.3734607E2,1.3649329E2,6.4447205E1,5.331001E1,1.5198235E1,0E0,0E0,0E0,0E0,0E0,0E0,0E0,0E0,0E0,0E0,0E0,0E0,0E0,0E0,0E0,0E0,0E0,0E0,0E0,0E0,0E0,0E0,0E0,0E0,0E0,0E0,0E0,0E0,0E0,0E0,0E0,0E0,0E0,0E0,0E0,0E0,0E0,0E0,0E0,0E0,0E0,0E0,0E0,0E0,0E0,0E0,0E0,0E0,0E0,0E0,0E0,0E0,0E0,0E0,0E0,0E0],"parents":[2147483647,0,0,1,1,2,2,3,3,4,4,5,5,6,6,7,7,8,8,9,9,10,10,11,11,12,12,13,13,14,14,15,15,16,16,17,17,18,18,19,19,20,20,21,21,22,22,23,23,24,24,25,25,26,26,27,27,28,28,30,30,31,31,32,32,33,33,34,34,35,35,36,36,37,37,38,38,39,39,40,40,41,41,42,42,43,43,44,44,45,45,46,46,48,48,49,49,50,50,51,51,52,52,53,53,55,55,56,56,57,57,58,58,59,59,60,60],"right_children":[2,4,6,8,10,12,14,16,18,20,22,24,26,28,30,32,34,36,38,40,42,44,46,48,50,52,54,56,58,-1,60,62,64,66,68,70,72,74,76,78,80,82,84,86,88,90,92,-1,94,96,98,100,102,104,-1,106,108,110,112,114,116,-1,-1,-1,-1,-1,-1,-1,-1,-1,-1,-1,-1,-1,-1,-1,-1,-1,-1,-1,-1,-1,-1,-1,-1,-1,-1,-1,-1,-1,-1,-1,-1,-1,-1,-1,-1,-1,-1,-1,-1,-1,-1,-1,-1,-1,-1,-1,-1,-1,-1,-1,-1,-1,-1,-1,-1],"split_conditions":[8.2E1,4.6973694E1,5.3639153E1,4E1,7.5E1,9.3428406E1,7.802353E1,7.2E1,2.8353323E1,6.2569286E1,5E1,3.9268852E1,5.6E1,8.8E1,4.4E1,4.1539272E1,3.2159065E1,8.3784706E1,8.728093E1,6.018861E1,3.6E1,6.0450058E1,7.185381E1,6.696898E1,4.8E1,4.7331127E1,9.5099724E1,5.971627E1,6.0847084E1,7.283737E-1,7.045209E1,7.457542E1,7.186252E1,3.1485308E1,8.866542E1,1E0,9.545154E1,7E1,3.0574146E1,5.755392E1,7.2E1,9.524323E1,8.3801384E1,9.468915E1,5.788163E1,5.6E1,9.0326866E1,-1.02356784E-1,9.316291E1,4.3E1,5.2744656E1,4.664201E1,5.0750607E1,9.430445E1,-3.7723135E-2,9E1,8.045933E1,5.675621E1,7.355489E1,6.9051414E1,8.247264E1,-1.321479E-1,1.7317025E-1,1.1572442E-1,7.437476E-1,-1.69362E-1,-6.588763E-1,-2.0013941E-2,2.0292139E-1,-2.9139832E-1,-3.3690423E-2,-5.324545E-1,-3.338438E-1,-4.879662E-1,-2.0022094E-1,-4.3419066E-1,-8.340427E-2,2.0775919E-1,-2.4843302E-1,4.846835E-1,2.637432E-1,8.052288E-1,3.6814135E-1,4.3339428E-1,1.1592693E0,4.3352842E-2,2.2620277E-1,1.8197097E-1,4.566205E-1,4.5086555E-2,-7.9222314E-2,4.8307052E-1,1.201544E-1,-4.5140153E-1,-1.716668E-1,-4.480184E-1,-1.2389728E-1,-3.01305E-1,-5.426997E-1,-1.31815E-1,4.011782E-1,-5.0907326E-1,-1.8658166E-1,-1.1877195E-1,-3.5588133E-1,-2.2786546E-1,1.436827E-1,1.9171259E-1,-1.438245E-1,-2.6117662E-1,7.764336E-4,-6.333821E-1,-2.8654405E-1,7.7621214E-2,-3.621078E-1,8.252355E-2,3.9222002E-1],"split_indices":[2,6,6,8,2,9,6,2,6,6,8,4,8,2,8,6,6,9,9,7,8,6,6,9,8,4,7,6,4,0,4,7,7,6,7,3,9,0,4,7,2,7,6,9,4,8,9,0,9,8,6,6,4,9,0,0,7,4,7,4,7,0,0,0,0,0,0,0,0,0,0,0,0,0,0,0,0,0,0,0,0,0,0,0,0,0,0,0,0,0,0,0,0,0,0,0,0,0,0,0,0,0,0,0,0,0,0,0,0,0,0,0,0,0,0,0,0],"split_type":[0,0,0,0,0,0,0,0,0,0,0,0,0,0,0,0,0,0,0,0,0,0,0,0,0,0,0,0,0,0,0,0,0,0,0,0,0,0,0,0,0,0,0,0,0,0,0,0,0,0,0,0,0,0,0,0,0,0,0,0,0,0,0,0,0,0,0,0,0,0,0,0,0,0,0,0,0,0,0,0,0,0,0,0,0,0,0,0,0,0,0,0,0,0,0,0,0,0,0,0,0,0,0,0,0,0,0,0,0,0,0,0,0,0,0,0,0],"sum_hessian":[3.196E3,2.403E3,7.93E2,9.99E2,1.404E3,4.88E2,3.05E2,3.26E2,6.73E2,4.92E2,9.12E2,2.72E2,2.16E2,2.82E2,2.3E1,4.8E1,2.78E2,4.6E1,6.27E2,3.49E2,1.43E2,5.3E2,3.82E2,6.2E1,2.1E2,1.08E2,1.08E2,1.47E2,1.35E2,3E0,2E1,2.6E1,2.2E1,5.4E1,2.24E2,1E1,3.6E1,1.75E2,4.52E2,2.9E1,3.2E2,4E1,1.03E2,3.54E2,1.76E2,3.42E2,4E1,3E0,5.9E1,4.1E1,1.69E2,6.9E1,3.9E1,1.03E2,5E0,6.3E1,8.4E1,9.5E1,4E1,1.1E1,9E0,8E0,1.8E1,7E0,1.5E1,5E1,4E0,1.69E2,5.5E1,6E0,4E0,2.2E1,1.4E1,2.1E1,1.54E2,1.5E1,4.37E2,1.6E1,1.3E1,6.6E1,2.54E2,3.5E1,5E0,9.8E1,5E0,2.1E2,1.44E2,6.4E1,1.12E2,2.16E2,1.26E2,1.9E1,2.1E1,5.6E1,3E0,8E0,3.3E1,1.58E2,1.1E1,6.1E1,8E0,1.4E1,2.5E1,1E1,9.3E1,5.3E1,1E1,3.6E1,4.8E1,6.7E1,2.8E1,7E0,3.3E1,8E0,3E0,3E0,6E0],"tree_param":{"num_deleted":"0","num_feature":"10","num_nodes":"117","size_leaf_vector":"1"}},{"base_weights":[-3.481357E-2,-9.457969E-1,1.5577916E0,-1.8836172E0,-3.6458975E-1,1.1719682E0,3.0288675E0,-2.0571167E0,-3.1458116E-1,-9.173655E-1,1.23499416E-1,5.8826774E-1,1.768185E0,2.6387525E0,4.9892426E0,-1.5274595E0,-2.4316585E0,-2.2842267E0,1.6604289E0,-1.8937588E0,-6.133646E-1,-3.5174587E-1,1.2060167E0,1.1306494E0,1.0193432E-1,5.797531E-1,2.3918266E0,1.6271006E0,3.4381611E0,5.468972E0,-5.5063453E-2,-2.7245362E0,-1.2212943E0,-2.9505374E0,-1.9696698E0,-1.4152844E0,-4.739525E0,5.69521E-2,7.166076E0,7.982872E-1,-3.01772E0,-3.7289197E0,-4.530507E-1,1.0500127E0,-6.1016774E-1,1.5800242E0,-1.4258051E0,9.265127E-1,6.462993E0,-2.7193327E0,3.7415335E-1,-6.492253E-1,1.8656054E0,2.5412555E0,-4.211585E0,-3.2847533E0,2.4061882E0,2.679452E0,5.119296E0,4.17148E0,7.000696E-1,-1.5125662E-1,-3.7672007E-1,-9.44786E-2,-2.5500652E-1,-3.5945433E-1,-2.1382256E-1,-3.2887867E-1,-1.7017893E-1,-3.2149982E-1,-2.5969183E-2,-2.5426856E-1,-5.7636374E-1,-2.5818634E-1,1.3783167E-1,4.487804E-1,9.3669665E-1,2.3619464E-2,4.890533E-1,-6.013831E-1,-2.4099167E-1,-1.9805385E-1,-7.1782315E-1,-1.0088648E-1,1.28024565E-2,7.274574E-1,4.8387475E-2,-9.699639E-2,5.6755703E-2,5.327585E-1,1.23126864E-1,-2.0354807E-1,2.4112801E-1,5.6972302E-2,2.8061956E-1,3.7503052E-1,8.213105E-1,-4.0085626E-1,-4.006047E-2,2.0411776E-2,2.7683842E-1,-1.0591414E-1,5.855312E-1,2.886046E-2,3.432642E-1,1.4706923E-1,3.1914335E-1,-1.542818E-1,-5.8024555E-1,2.7087876E-1,-6.260637E-1,1.79031E-1,7.054748E-1,3.5845208E-1,6.579811E-2,2.9691574E-1,7.638195E-1,6.352625E-1,2.7234375E-1],"categories":[],"categories_nodes":[],"categories_segments":[],"categories_sizes":[],"default_left":[0,0,0,0,0,0,0,0,0,0,0,0,0,0,0,0,0,0,0,0,0,0,0,0,0,0,0,0,0,0,0,0,0,0,0,0,0,0,0,0,0,0,0,0,0,0,0,0,0,0,0,0,0,0,0,0,0,0,0,0,0,0,0,0,0,0,0,0,0,0,0,0,0,0,0,0,0,0,0,0,0,0,0,0,0,0,0,0,0,0,